// Neural Network File Format by Kyle Julian, Stanford 2016
6,5,5,25,
5,25,25,25,25,25,5,
0,
-56000.000000,-56000.000000,-3.141593
56000.000000,56000.000000,3.141593
-278.628049,0.000000,0.000000,700.000000,700.000000,-0.242819
112000.000000,112000.000000,6.283185,1000.000000,1000.000000,17.479225
-7.51143e+00,-8.78425e+00,-1.80561e-01,5.20387e-04,1.16678e-02,
-5.06593e-02,-1.21311e-02,-8.78936e-04,-4.53505e-01,-4.50766e-01,
1.40599e+00,5.70572e-01,-1.21726e-01,4.89955e-01,3.39394e-01,
3.55066e+00,2.01832e+00,-2.00903e-01,-2.71099e-02,-3.61974e-01,
-1.78987e+00,-2.06439e+00,-1.53685e+00,-1.37866e-03,-1.81853e-05,
2.37875e+00,-8.85749e+00,-1.41569e-01,-1.55892e-02,-1.15856e-01,
5.19637e+00,-1.58443e+00,8.17477e-01,1.31322e-02,7.34035e-02,
-1.04886e+01,-2.51264e+00,3.02494e-02,-2.44465e-02,-1.19969e-01,
2.53462e+00,1.05407e+01,7.59125e-01,2.16089e-03,3.06867e-03,
4.14489e+00,-4.29310e+00,-8.25155e-01,1.95733e-02,1.04108e-01,
-4.00586e+00,-6.61391e+00,-2.46972e-01,3.55387e-03,1.71917e-02,
-2.97386e+00,-7.62493e+00,3.88509e-01,-1.33506e-02,-9.20599e-02,
-9.13044e-03,1.53755e-02,-2.09197e-03,8.35298e-01,8.35887e-01,
5.87464e-01,3.04205e+00,1.77997e+00,6.60627e-04,-3.86723e-03,
3.66386e-01,1.36826e+00,2.41470e+00,-1.36974e-05,-1.62577e-03,
1.98155e-02,8.71810e-04,-7.00373e-03,7.91004e-01,7.91938e-01,
6.68153e+00,-3.66991e+00,2.23507e-03,-2.25091e-02,-1.78291e-01,
2.94558e+00,-3.27690e+00,-2.33330e+00,-2.22540e-03,-1.21184e-02,
-6.16882e-03,-4.53170e-02,9.25523e-04,-8.67568e-01,-8.68858e-01,
2.41249e+00,2.46681e+00,-1.63334e+00,-3.41442e-04,-5.07972e-03,
-9.17063e-04,-2.82537e-01,-2.83872e-02,-3.79305e-01,-3.90458e-01,
-1.00472e+01,5.67884e+00,-4.59708e-03,-2.43948e-03,-1.65922e-02,
-3.19192e+00,8.92949e+00,-1.02984e+00,-1.08388e-02,-5.51925e-02,
-4.72790e+00,9.23511e+00,1.93318e-01,6.83526e-03,7.28798e-02,
-4.30961e+00,-2.40750e+00,2.55701e-01,3.57732e-02,4.32108e-01,
2.23104e-01,
2.69526e-01,
4.65209e-01,
6.20582e-02,
-1.37973e-01,
6.65367e-02,
5.79941e-02,
8.00619e-02,
7.35270e-02,
1.63755e-01,
2.97371e-01,
1.34815e-01,
1.66645e-01,
8.75466e-02,
-8.97373e-02,
-6.46843e-01,
-1.42536e-01,
2.11044e-01,
-5.65738e-04,
-3.50263e-01,
3.09876e-01,
3.47757e-01,
1.33465e-01,
2.30206e-01,
-7.71868e-02,
-5.14838e-01,4.01784e-01,-2.62212e-01,-4.20992e-01,4.54846e-01,-6.42534e-01,1.36209e-01,-6.55945e-01,3.78619e-01,5.01762e-01,-4.05319e-01,-8.77951e-01,4.25472e-01,6.51907e-01,-6.34584e-01,6.45767e-02,2.07236e+00,-3.39743e-01,-4.53947e-01,-2.50139e-01,3.28593e-01,-8.45644e-02,5.01883e-01,6.37381e-01,6.21517e-01,
7.23384e-02,-3.41925e-01,6.04497e-01,8.34045e-02,-1.23500e+00,-2.01881e-01,3.07788e-01,-2.69744e-02,-5.61598e-01,3.30247e-01,5.66614e-01,-2.74750e-01,-4.63954e-01,-8.64196e-01,7.44569e-01,-3.69909e-01,-2.95731e-01,1.22984e+00,4.63739e-01,-2.17387e+00,-5.64267e-02,-6.60118e-01,-3.42588e-01,-3.53030e-01,-7.17687e-02,
5.48647e-02,1.12665e+00,1.46745e+00,-6.05532e-01,-6.24229e-02,1.40589e-01,-8.69380e-02,8.36551e-05,3.71848e-02,7.71572e-03,6.03748e-02,-1.94694e-01,-9.93540e-01,-2.88756e-01,3.50271e-01,-1.60776e+00,-3.19201e-03,-4.68812e-02,9.49399e-01,4.74279e-02,-2.03213e+00,1.63507e-02,5.96833e-02,-1.13945e-01,4.83544e-01,
-1.47896e+00,2.99321e-01,5.32926e-01,8.56761e-02,1.00957e+00,-2.99049e-01,-4.69977e-01,-1.23372e-02,6.31077e-01,-2.67323e-01,-6.46931e-01,-4.05452e-01,-2.16522e-01,6.72554e-01,-1.16397e+00,-4.27390e-01,-4.46497e-01,-1.99884e+00,1.84306e-01,6.34599e-02,-1.45301e-01,4.18794e-01,-6.83459e-01,8.40271e-01,-6.69881e-02,
-1.32363e+00,3.28168e-01,7.47390e-01,7.13935e-01,1.92845e-01,3.88317e-01,6.22146e-01,-1.76468e-01,2.30759e-02,5.20428e-01,-4.55401e-01,-6.87431e-01,-3.59369e-01,-8.15762e-02,-1.37869e-01,-6.47396e-01,-1.55208e+00,-6.08187e-01,3.40365e-01,-2.23085e-01,-1.94677e-01,-2.76585e-01,1.71508e-02,-3.81828e-01,-1.82423e-01,
-2.80080e-02,-1.34784e+00,1.08690e+00,-4.95687e-01,-1.17324e-01,-2.42716e-02,1.09165e-02,4.10302e-02,1.83279e-03,4.50058e-02,7.97818e-02,-4.28703e-02,-2.19284e+00,1.03804e-01,-7.99218e-02,1.59949e-01,-1.18748e-02,2.34942e-03,-5.96100e-01,-1.46426e-02,-2.18228e-01,-1.49115e-02,3.71222e-02,-1.92885e-02,3.91413e-01,
1.12175e+00,-4.14290e-01,-4.58074e-01,-5.75001e-01,-4.63133e-01,-1.26088e-01,2.40024e-02,6.40467e-01,9.26410e-01,-7.58363e-01,-3.70713e-02,5.87882e-01,3.40865e-01,-1.29771e+00,8.42292e-01,6.09657e-01,1.42140e-01,9.34769e-01,-3.04103e-01,-6.57079e-01,6.95084e-01,5.74723e-01,-1.96835e-01,1.70520e-01,5.35960e-01,
-4.40932e-01,2.11390e-01,2.57074e-01,9.11474e-02,7.75991e-01,-1.49922e-01,1.77064e-01,5.18115e-01,3.36543e-01,2.29572e-03,-3.16977e-01,-3.38415e-02,-9.62170e-02,-7.24188e-02,-5.40483e-01,-4.36505e-01,-4.63987e-01,-9.74037e-01,8.81638e-02,-9.22772e-01,-1.45512e-01,2.42711e-01,1.28980e+00,-4.28452e-01,-3.38527e-01,
3.67093e-02,1.27789e-01,3.77711e-01,-3.77083e-03,8.32405e-02,1.37957e-01,-5.75959e-01,8.80874e-01,-3.00151e-01,9.93246e-02,4.43974e-01,7.43488e-01,-2.33360e-01,5.36232e-01,7.11414e-01,-4.92306e-01,-1.12359e+00,3.18816e-01,2.45326e-01,-6.96679e-01,-3.01877e-01,1.03404e+00,-1.68661e-01,-2.98315e-01,2.39816e-01,
6.45407e-02,8.89181e-03,-3.08862e-01,-4.01297e-02,-2.18993e-01,1.26448e+00,5.81940e-02,-3.75101e-01,1.49727e-01,8.81353e-02,-1.43860e-01,-1.63489e-02,-1.20935e-01,3.71512e-01,1.20648e+00,3.74608e-01,-3.61751e-01,-1.05126e+00,1.53745e-01,-1.62018e-01,-8.07272e-01,-8.90693e-01,5.88948e-01,-8.11040e-01,-1.78754e-01,
2.32454e-01,4.65288e-02,-2.97893e-01,-5.56062e-01,2.92100e-01,3.53674e-01,-2.09053e-01,-9.34175e-02,4.77984e-02,-4.74128e-01,-2.53417e-01,5.95393e-01,-3.01653e-01,2.18753e-01,1.36549e+00,2.07970e-01,7.13510e-01,-1.09023e+00,3.26909e-01,-1.28373e+00,-1.34208e+00,-6.89707e-01,-1.04053e+00,-1.48433e+00,4.91618e-01,
-1.53805e+00,4.14915e-02,5.48429e-01,8.05921e-01,-9.33200e-02,1.60287e-01,1.52419e+00,-8.53339e-02,-6.23960e-01,-3.81133e-01,6.62226e-02,-1.49971e-01,-4.27885e-01,-7.68726e-02,-2.06548e+00,-4.61741e-01,-1.95888e+00,5.41885e-01,3.97327e-01,6.79477e-01,-3.20416e-01,3.65903e-01,2.36211e-01,1.95260e-01,-2.88105e-01,
-1.17988e-01,-2.98705e-01,2.09846e-01,2.97673e-01,2.61443e-01,9.42600e-01,4.28933e-01,-3.72216e-01,1.68470e+00,8.96352e-01,-2.34979e-01,-9.39878e-01,6.93622e-04,-2.00924e+00,-6.18574e-01,-6.56523e-02,-3.73896e-01,-1.67650e-01,2.73903e-02,-6.38721e-01,6.61133e-01,-1.89831e+00,-7.52436e-01,-7.17261e-01,-1.68070e-01,
-9.23088e-02,7.71258e-02,-1.47749e-01,-4.29420e-01,8.59860e-01,2.02213e-02,-6.49608e-01,-1.40736e-01,-1.86691e-01,-3.80415e-01,1.13619e+00,-5.02012e-01,2.45554e-01,9.32453e-01,-1.05792e+00,1.26370e-01,8.07143e-01,-1.50039e+00,-2.67429e-01,-1.11906e+00,3.71605e-01,-5.97673e-01,1.06172e+00,-6.32574e-02,1.94135e-01,
1.72445e-01,-2.88422e-02,1.66662e-01,2.35983e-01,-1.06221e+00,2.65161e-01,-5.93120e-02,-6.00884e-01,-9.57333e-02,-3.96910e-01,2.46393e-01,-3.40224e-01,2.03414e-02,-1.83859e+00,1.90011e-01,1.43249e-02,-7.12626e-01,2.72120e-01,-1.98023e-02,-1.12602e-01,3.43217e-01,-9.49117e-02,-6.63147e-01,1.39644e-01,9.92734e-02,
-7.88307e-01,2.23752e-01,9.89862e-02,9.02446e-01,1.10772e+00,-5.01061e-01,1.65989e+00,-2.05685e-01,-2.34013e-01,1.11550e-01,-5.78976e-01,-7.66815e-01,-3.79316e-02,6.36502e-01,-1.33128e+00,-1.17841e-01,-6.92376e-01,-7.20796e-01,3.76609e-02,3.83991e-01,-1.68837e-01,8.66541e-01,6.24662e-01,1.80386e+00,-6.55538e-01,
-7.49968e-03,1.31998e+00,-3.24339e-01,1.21152e-01,-4.60429e-02,8.05971e-03,3.61130e-02,1.84062e-02,2.76815e-03,-2.80396e-04,1.91012e-02,-1.25087e-02,-6.18103e-01,5.93486e-02,-5.30624e-02,-1.52065e-01,-1.84646e-02,9.99184e-03,-2.87234e+00,-3.11797e-03,9.88566e-01,3.65809e-03,1.94529e-02,-2.10868e-02,-1.12073e-01,
-1.55113e-01,-3.45741e-01,4.36499e-01,3.32357e-02,-6.58057e-01,-5.41787e-01,-6.63496e-01,-2.19680e-01,-7.43932e-01,4.19032e-01,-5.06993e-01,-6.58480e-01,-9.57533e-02,-3.97934e-01,-1.02025e+00,-1.85760e-01,-2.71380e-02,-2.60709e-01,1.61976e-01,3.24543e-01,6.21582e-01,-1.28266e-01,3.19968e-01,5.73886e-01,1.59490e-01,
-3.31067e-03,-8.03510e-01,-6.19363e-01,-4.00186e-02,-4.35336e-01,-5.76829e-01,3.24938e-01,1.07060e+00,-6.37941e-01,4.59655e-02,-1.34976e-02,-1.72700e-01,6.03229e-01,1.32762e+00,-4.55660e-01,-2.98002e-01,2.89866e-01,-3.01681e-01,-3.55570e-01,1.03664e+00,1.29208e+00,-1.10203e-01,1.07026e+00,6.10058e-02,1.57995e-01,
1.17382e-01,-4.95988e-02,-2.35678e-01,8.76774e-02,-3.08373e-01,-1.14389e-01,-2.83685e-01,-3.17844e-01,-8.71606e-01,-4.04101e-01,4.66237e-01,-3.82950e-01,7.26365e-02,-6.06069e-01,7.49872e-01,-5.92288e-02,7.72873e-01,-2.65274e-01,-8.61967e-02,-4.70649e-02,-7.77732e-02,1.22157e+00,-1.92869e-01,1.19617e+00,-4.27140e-01,
6.68001e-01,4.72683e-02,-4.39317e-02,-5.06296e-01,6.04680e-01,1.23640e+00,3.38912e-01,6.06215e-01,-7.44470e-01,-1.01650e+00,8.25170e-01,-8.25885e-01,-1.87961e-02,2.47488e-01,5.20710e-01,-1.07424e-01,2.07512e-01,5.25175e-02,-9.08095e-04,5.83002e-01,-1.98052e-01,4.69441e-01,3.51066e-02,-5.87498e-01,-8.09406e-02,
1.09246e+00,-9.15094e-02,-4.25018e-01,-3.57661e-01,2.00433e-01,-1.85141e-01,-4.99144e-01,7.66071e-01,-9.60663e-01,-5.55806e-01,1.62490e-01,4.15259e-01,7.95481e-02,1.85527e-01,9.11370e-01,2.57035e-01,7.27681e-01,1.73240e-01,-6.16484e-02,4.42347e-01,-3.65926e-01,1.27521e+00,8.77596e-01,5.13774e-01,2.05753e-01,
-3.44790e-02,1.18353e+00,-7.34338e-01,3.62747e-01,-3.87194e-02,3.87253e-02,1.82571e-02,-2.55191e-02,-5.76453e-03,4.47781e-03,2.94877e-02,-2.69917e-03,2.03662e+00,-1.59745e-02,-5.20360e-03,-2.12689e+00,-3.78370e-02,2.37237e-02,-1.66126e-02,-3.97120e-02,2.32915e-01,-9.90536e-03,-1.26885e-02,-3.44493e-02,-2.94334e-01,
-6.44546e-01,7.72976e-01,3.89063e-01,-2.58305e-02,5.04343e+00,-2.76215e-01,-7.05906e-01,-1.13040e-01,7.18186e-01,-3.74682e-01,-9.60271e-01,-4.26962e-01,1.00596e-01,7.11488e-01,-1.29105e+00,-5.44846e-01,1.00801e-01,-2.29787e+00,-1.30863e-01,8.28753e-02,-6.76299e-02,3.56058e-01,-2.41936e-01,8.28232e-01,1.12998e-01,
1.33518e+00,-1.45283e-01,-4.40416e-01,-1.17088e+00,7.05995e-01,7.01852e-01,1.52515e-01,1.32934e+00,6.31887e-01,-2.85024e+00,7.33020e-01,6.76613e-01,2.19245e-01,-3.69892e-01,-4.77454e-02,5.41191e-01,-5.27889e-01,1.00255e+00,-2.28320e-01,-8.63279e-01,3.76679e-02,5.05130e-01,-7.74201e-01,1.11448e-01,1.01137e+00,
3.90571e-01,
2.71271e-01,
-1.86964e-01,
7.50695e-01,
6.01319e-01,
6.32821e-01,
-7.57652e-01,
5.89843e-01,
-4.38641e-01,
-6.08791e-01,
-6.66943e-01,
-4.87355e-02,
6.60953e-01,
4.45356e-01,
7.23126e-01,
-3.94178e-01,
2.75635e-01,
5.72291e-01,
-7.99896e-01,
5.88679e-03,
1.45736e-02,
-5.05002e-01,
-2.57063e-01,
2.66893e-01,
-2.47010e-01,
-1.18466e-01,3.12261e-01,-2.44215e-01,-1.77741e+00,-4.44337e-01,-4.81976e-01,-8.69725e-01,1.47577e-01,1.73343e-01,-9.55854e-02,-1.13192e-01,8.81358e-02,2.04612e-01,4.13258e-01,1.25172e+00,-6.67233e-01,2.90575e-01,2.52087e-01,1.75021e-01,-8.74067e-02,1.00495e-01,8.09796e-02,5.29328e-02,-1.27022e+00,1.34915e-01,
3.11825e-01,-5.51533e-01,4.56062e-01,3.36284e-01,2.99874e-01,3.34826e-01,-4.51129e-01,4.11488e-01,-4.16194e-02,9.31113e-02,-8.71577e-01,3.42330e-01,-3.63988e-01,6.52477e-01,-5.41473e-01,-4.13735e-01,-2.54364e-01,-4.94727e-01,1.57844e-01,2.43806e-01,-2.43259e-01,-9.41720e-02,-9.99898e-02,-4.80947e-01,-3.29671e-02,
2.90870e-01,7.90302e-02,2.31333e-01,6.64243e-01,9.43255e-01,4.15800e-02,-8.73149e-01,1.47170e-01,-9.29069e-01,-5.41400e-01,-5.44351e-01,5.33768e-01,-8.34438e-01,3.99738e-01,3.72223e-03,-9.87891e-01,-8.32549e-02,-2.25331e-01,-1.10995e+00,-5.15332e-01,2.66441e-01,5.02639e-01,-5.60584e-02,-9.25037e-02,-6.45790e-01,
4.18202e-01,1.21955e-01,-1.55581e-01,7.26640e-01,1.41683e-01,5.88711e-02,-3.99280e-01,3.12797e-01,-3.38349e-01,-5.18873e-01,-2.46825e-01,1.07720e-01,3.96230e-03,-4.64706e-01,-2.31795e-01,2.25187e-01,8.02474e-02,-2.53184e-01,-9.63375e-01,-3.01735e-01,-7.84140e-01,9.07564e-01,1.23711e-01,-5.83171e-01,6.04102e-01,
-5.28426e-01,1.78676e-01,1.39768e-01,8.23532e-02,-1.55436e-01,1.67095e-01,9.22151e-01,-1.37646e-01,7.90228e-01,-1.39554e-01,-1.30708e+00,4.66531e-01,2.22914e-01,-2.39685e+00,-4.47690e-02,-6.30806e-01,-9.67107e-02,-5.73266e-01,-1.02303e+01,-1.69793e+00,-6.59751e-02,-1.71484e-01,-1.21614e-03,3.96209e-01,-5.81605e-01,
4.59723e-01,-8.82869e-01,2.80568e-01,1.08650e+00,-5.34691e-01,3.19888e-01,8.55070e-01,3.28991e-02,7.57422e-01,9.12596e-02,-2.12450e+00,1.01784e+00,-4.17439e-01,9.15421e-01,-4.17588e-01,4.60553e-02,-1.18778e-01,6.02868e-01,5.10930e-01,3.18734e-01,-1.49452e-01,-1.30538e+00,5.30288e-03,-1.49294e+00,-6.60328e-01,
-1.54694e-03,-2.34989e-02,2.86325e+00,6.17038e-02,-2.08809e-01,4.46745e-03,-1.67145e-01,5.00352e-02,-6.87275e-02,-1.04679e-02,2.40989e-02,2.81284e-02,-2.77749e-02,-1.11144e-01,-2.15916e-02,-1.78347e-02,-1.60540e-01,2.79045e-01,-1.59591e+00,-6.96534e-02,-1.11169e-01,-8.01666e-02,-1.92290e-01,-1.42882e-01,1.28173e-01,
-2.19432e-01,8.69016e-02,3.45103e-02,1.99804e-01,8.91042e-02,-8.02033e-02,5.00217e-02,5.59173e-01,-1.12532e-01,-4.47191e-01,3.63230e-01,-6.49286e-02,-4.41588e-01,4.03703e-01,5.60561e-02,-7.69451e-01,2.00215e-03,1.83025e-01,2.88511e+00,-4.36897e-01,-2.46120e-01,-7.02321e-01,-2.88978e-02,-5.58531e-01,-9.59643e-02,
-2.05826e-02,3.55063e-02,-1.51058e-01,3.37382e-01,2.01617e-01,1.15654e-02,7.52979e-01,-7.00679e-01,-1.38654e-01,1.01767e+00,-5.75380e-01,-3.15792e-01,1.15744e-01,-3.26544e-01,4.60532e-01,-2.93602e-01,1.09543e-02,5.18726e-02,-8.76559e-01,-3.71715e-01,6.53232e-01,-3.49512e-01,1.16461e-02,-1.69886e-01,-1.79406e-01,
7.20244e-03,-8.63808e-02,-3.67902e-02,6.76551e-02,-3.20705e-02,-1.90660e+00,4.04913e-02,3.11704e-02,-9.38722e-03,-3.65945e-02,-2.04721e-02,3.32688e-02,-3.22989e-02,1.04035e-02,6.25738e-02,-1.16556e-02,2.35557e+00,4.18016e-02,8.64849e-02,8.02466e-03,5.97982e-02,-2.88340e-02,1.62875e+00,-8.80317e-02,-2.98438e-02,
-2.17529e-01,1.11358e+00,-8.56605e-01,-9.01751e-01,-5.25422e-01,-5.82765e-01,-4.53747e-01,-7.17162e-01,5.48641e-01,7.50121e-01,5.28892e-01,1.61459e-02,9.79545e-03,-5.83937e-01,3.40172e-01,4.12684e-01,2.89364e-01,5.45848e-01,-8.37676e-01,3.75271e-01,-6.93851e-02,1.04559e-01,1.99689e-02,1.01792e+00,1.65387e-01,
-4.74840e-01,7.32769e-03,-4.99756e-01,3.94734e-01,-3.67926e-01,-2.26761e-01,1.76829e+00,-1.45434e-01,-1.40676e-01,1.89374e-01,-2.25800e+00,2.65413e-01,-1.85028e+00,-4.05874e-01,4.61588e-01,-1.57905e+00,1.94922e-01,1.09845e+00,-1.02620e-01,2.00631e-01,2.56273e-01,-1.75202e+00,7.83921e-02,8.34519e-01,-1.04992e+00,
-2.64543e-01,-6.37306e-02,-7.80940e-03,-1.51164e-01,3.81245e-01,-2.08656e-01,-1.23335e+00,6.74706e-01,1.34126e-01,-8.83469e-03,-7.00743e-02,-3.26500e-01,-9.59539e-01,2.25092e-01,6.44787e-01,-6.21749e-01,8.44567e-02,-3.31463e-02,9.24774e-01,7.63281e-02,-5.39582e-01,5.13830e-02,1.61364e-05,-1.16976e-01,-3.76261e-01,
-1.76976e-01,4.71089e-01,1.27533e+00,-5.90568e-01,2.67287e-01,-1.23376e+00,9.70968e-02,-4.57934e-01,1.64029e-01,-1.54966e-01,5.52514e-01,-3.57398e-01,3.42163e-01,5.95262e-02,-5.91723e-02,4.58055e-01,1.46412e+00,-1.57776e-01,-3.78016e-01,1.19271e-01,-1.18452e-01,1.93442e-01,9.85479e-01,7.55096e-01,1.48275e-01,
-7.81378e-02,-2.44894e-01,-8.69542e-02,9.55114e-02,3.91848e-01,-3.72331e-02,5.78663e-01,1.32429e-01,-3.28181e-01,5.43511e-01,-8.22546e-01,-1.28332e-02,-3.18285e-01,-1.46854e-01,2.05461e-01,-2.16111e-01,2.33160e-01,-2.96452e-01,5.17462e-01,2.21792e-01,2.89212e-01,-4.02772e-01,2.27025e-01,-1.19103e-01,-4.29622e-01,
-1.90326e-01,-6.93836e-01,4.17031e-01,6.15705e-01,-3.68270e-01,9.41241e-02,2.36776e-01,3.13202e-01,-5.94134e-02,1.45856e-01,6.62614e-02,1.54480e-01,-1.03126e+00,-1.50964e-01,7.91911e-01,-2.99542e-01,-9.14442e-02,2.62036e-01,-3.50353e+00,1.49210e-01,-5.95998e-01,-1.20000e+00,-4.42295e-02,-1.62813e+00,-1.14096e-01,
3.28864e-01,4.15200e-01,-2.59098e-01,-8.55420e-02,-4.19506e-01,-1.71496e-01,1.70671e-01,9.12091e-02,-4.78649e-01,-2.15929e-02,-2.00255e-01,6.54017e-01,9.55338e-04,-3.52110e-01,3.26529e-01,3.26006e-01,1.66682e-01,-6.68361e-02,-6.30019e-01,1.17982e-02,-1.90130e-01,3.44846e-01,1.09536e-01,-2.39276e-03,4.62745e-01,
-2.07153e-01,-8.07232e-01,3.53312e-01,-6.33824e-01,-4.96539e-01,3.55809e-02,1.86161e+00,9.90535e-01,1.16847e-01,-1.90603e-02,-2.54878e-01,1.17249e+00,-5.95531e-01,3.14904e-01,-8.46977e-02,-1.63601e+00,-1.06298e-01,1.00869e+00,-4.70737e+00,2.95769e-01,-1.90013e-01,-1.32062e+00,-1.20510e-01,1.41326e-01,-4.30534e-01,
2.94044e-01,-7.84849e-02,-1.71760e-01,1.26186e-01,-7.21076e-01,-4.89338e-02,6.84829e-01,-2.57500e-01,7.59590e-02,3.72838e-01,-3.21230e-01,-4.77577e-01,-6.17849e-01,-4.31240e-01,-1.37290e-01,-5.63756e-01,1.05980e-01,1.09805e-01,9.29705e-02,-3.10324e-01,2.01308e-01,-2.25369e-01,8.28780e-02,5.95003e-01,-6.96002e-01,
-1.04400e+00,-3.56754e-01,2.67608e-01,6.06429e-01,2.17489e-01,2.09894e-01,-5.52817e-01,4.82759e-02,4.65938e-01,-6.25601e-01,1.05609e+00,2.31372e-01,-3.03996e-01,5.20324e-01,3.29075e-01,-4.92679e-01,-1.16138e-01,3.76285e-01,9.29595e-01,-2.35861e-01,-1.01603e-01,-5.08571e-01,-2.69345e-02,-2.82721e-01,-3.40612e-01,
-4.32873e-01,1.27860e-01,-1.98435e-01,-4.12917e-01,2.65104e-02,-2.91801e-01,5.58405e-01,-3.81221e-01,6.82086e-01,8.90445e-01,-2.97888e-02,9.35554e-02,-9.88007e-02,2.39553e-01,-5.48563e-01,-1.85637e-01,2.47266e-01,1.42875e+00,9.96137e-01,2.41325e-01,1.43167e-01,-1.16431e+00,7.19500e-02,4.56268e-01,-3.40128e-01,
-1.21118e-01,-7.20796e-02,-1.14192e-01,4.37834e-01,1.82675e-01,1.66095e-01,-1.64511e-01,2.37051e-01,-3.17125e-01,-1.02011e-02,4.02903e-01,1.33424e-01,8.60295e-02,3.55545e-01,-1.29544e-01,-5.58357e-01,-1.65983e-01,3.61539e-01,7.62688e-01,3.27305e-01,3.96641e-01,-5.76308e-01,-1.12255e-01,-4.94694e-01,1.90716e-01,
-6.09650e-01,-1.66642e+00,1.49450e-01,1.08562e+00,3.15497e-02,8.71134e-02,-7.91244e-01,-1.22866e-02,3.30303e-01,1.18587e-01,1.94097e-01,-6.95336e-01,-9.37837e-03,3.48774e-01,4.82781e-01,2.48751e-01,-6.10688e-02,6.25437e-01,-1.89213e+00,-2.07779e-01,-2.23450e-01,-2.09255e-01,-6.49616e-02,-1.74460e+00,-6.90754e-01,
1.31289e-01,-2.26347e-02,1.58729e-02,2.02994e-02,8.82942e-01,1.87587e-01,-8.72234e-01,8.69743e-01,-1.04997e+00,-2.87361e-01,-1.23924e+00,-3.06668e-01,2.90771e-01,-5.62894e-02,1.01485e-01,-8.57620e-01,-1.08640e-01,-4.48280e-01,-2.02840e+00,-2.62659e-01,-1.97798e-01,2.11166e+00,-3.11090e-02,-3.60640e-01,-1.09374e-01,
-1.95459e-01,3.56585e-01,-2.81467e-01,-3.61358e-01,2.14269e-01,-1.96361e-01,-2.02762e-01,1.40249e-01,5.00287e-01,4.29063e-01,-7.16675e-01,2.65528e-01,-7.64347e-01,2.96235e-01,4.56451e-01,-4.90290e-01,9.57847e-02,5.58158e-02,-2.80853e+00,-9.60242e-03,-2.81009e-01,-5.59046e-02,3.71836e-02,-5.66566e-01,-4.86771e-01,
-4.98012e-01,
6.04896e-01,
-3.27349e-02,
1.16522e-01,
2.80516e-01,
-4.24372e-01,
2.79479e-01,
7.09939e-01,
1.88303e-01,
-6.82253e-01,
-3.90269e-01,
4.76649e-02,
3.97907e-01,
-3.02556e-01,
6.77352e-01,
5.99708e-01,
-6.27206e-01,
-4.58289e-02,
8.74472e-01,
3.79958e-01,
2.55177e-01,
3.74629e-01,
9.94912e-02,
-2.81658e-01,
2.81167e-01,
-3.07625e-01,1.07095e-01,-2.38988e-01,-6.33981e-01,-1.55660e-01,-2.34343e-01,6.67004e-02,-4.89465e-01,-7.16675e-02,1.84543e-01,-4.58558e-01,8.97886e-01,9.96210e-02,-2.67025e-01,-2.24308e-01,-1.98775e-01,3.09648e-01,2.60531e-01,-4.51323e-02,-1.03743e-01,-1.31904e-01,-6.54091e-01,-2.53557e-01,-9.03757e-02,6.24302e-01,
-2.87719e-01,3.25778e-02,-4.83090e-01,-4.67566e-01,-1.33152e-01,-2.38713e-01,3.03847e-01,5.93470e-01,-2.37436e-01,3.43851e-01,-1.79556e-01,-1.22082e+00,4.28763e-01,-5.56554e-01,3.46797e-01,5.61333e-01,3.15503e-01,-3.65136e-01,-3.69227e-01,1.05168e-02,-1.31081e-01,2.13550e-01,4.16994e-01,-3.60402e-01,-1.72118e-01,
-1.38830e-01,5.94393e-01,-2.86548e-01,-1.92705e-01,1.62253e-01,1.49923e-02,-1.39883e-01,-1.45820e-01,-1.80433e-01,-1.76827e-01,2.55909e-01,-2.27973e-01,-1.42583e-01,3.05336e-01,2.94982e-02,2.41528e-01,3.62688e-01,-5.47544e-01,-6.20285e-03,4.18646e-01,7.52286e-02,3.07028e-01,4.27187e-02,-2.35767e-02,-1.95716e-01,
-4.06179e-02,1.37433e-01,1.73472e-02,-1.19015e-01,-4.61086e-04,-3.91429e-02,4.45553e-01,1.11084e-01,-6.31564e-02,4.94157e-01,-1.02709e-01,-5.81167e-01,1.09838e-01,1.97010e-02,4.04201e-02,4.36082e-02,1.02174e-01,5.91316e-01,-8.56200e-02,-3.71037e-01,1.38264e-01,6.84302e-03,-1.74168e-01,-5.90360e-02,-1.52297e-01,
9.45283e-02,1.64114e-01,7.35728e-02,9.67233e-02,1.44920e-01,3.43107e-01,2.66030e-01,-1.81213e-01,-1.09164e-01,1.66144e-01,4.21871e-01,-2.07335e-01,-2.22131e-01,-2.75057e-01,5.91733e-02,-7.19379e-01,4.19669e-02,-4.44219e-01,-1.26524e-01,1.05527e-01,1.89589e-01,-1.24859e-02,-1.19971e-01,8.24774e-02,-9.04804e-02,
1.82701e-01,-4.90620e-01,3.60563e-01,-8.00229e-01,4.74701e-01,-7.01962e-01,7.99354e-02,3.33506e-02,-7.65529e-01,4.94763e-01,-7.53552e-01,-1.18009e-01,-7.02397e-02,-6.51485e-01,-4.31575e-01,3.82115e-01,4.40607e-01,-6.61496e-01,-9.08038e-01,-6.18715e-01,8.61854e-01,2.18046e-01,-1.40996e+00,-2.74634e-01,5.71566e-01,
-2.93315e-01,4.08656e-01,3.88020e-01,1.28830e-01,2.56401e-01,4.31614e-01,1.42267e-01,-7.15816e-02,-1.34253e-01,2.08686e-01,9.35776e-02,8.94597e-01,2.54116e-01,-2.54426e-01,1.77954e-01,-5.71362e-01,2.42088e-02,1.62364e-01,-4.24205e-01,4.88097e-01,-2.92486e-01,3.48724e-01,1.44773e-01,-2.50848e-01,3.26433e-01,
-1.74297e-03,-1.14017e-02,4.81034e-02,2.92186e-01,1.36492e-01,7.20088e-02,-2.49690e-01,-4.60402e-01,-3.09931e-02,-1.92550e-02,3.24895e-01,2.51327e+00,2.72888e-01,1.71842e-01,-9.73234e-02,1.86115e-01,-2.92821e-01,1.31752e+00,1.43714e-01,-1.16377e+00,-2.49554e-01,8.20422e-03,-1.19126e+01,1.66120e-01,-2.78782e-01,
1.26704e-02,3.69497e-01,5.18943e-01,2.81565e-01,-2.42412e-01,6.02163e-01,4.77100e-02,1.36774e-01,-8.67502e-03,1.98032e-01,1.46812e-01,-4.99719e-01,4.23858e-01,-2.19785e-01,-7.95687e-02,-4.93197e-01,-1.38248e-01,1.27195e-01,-3.37926e-01,8.68737e-02,-7.20153e-01,3.10854e-01,4.28132e-01,-1.31854e-01,-2.06897e-01,
-1.10729e+00,4.08476e-02,2.33436e-01,-7.49618e-01,2.46636e-02,-5.74542e-01,8.17244e-02,-3.36238e-01,-2.83322e-01,2.95058e-01,-2.68309e-01,-8.50354e+00,-3.00068e-01,-3.60450e-01,-2.13329e-02,6.23683e-01,3.76588e-01,-1.09016e-02,-7.91414e-01,-9.96258e-01,5.98571e-01,-9.88153e-02,1.90184e+00,9.84778e-02,-7.78756e-02,
1.90557e-02,-2.72412e-02,4.15167e-02,6.23413e-03,-7.87321e-03,3.30508e-02,4.96813e-01,2.89502e-02,3.28882e-02,-5.42698e-01,-2.13830e-02,-1.53082e-02,1.45492e-02,2.08325e-02,1.79417e-02,6.47746e-02,-2.55830e-02,1.31163e-01,7.75292e-03,1.96980e-01,2.36433e-02,-3.01086e-02,-2.17507e-01,2.09613e-02,1.10356e-01,
-6.51364e-01,2.13347e-01,2.17184e-02,-6.27247e-01,-1.93964e-02,-6.83055e-01,1.96055e-01,-8.55530e-01,-6.70475e-01,5.00959e-01,-6.11633e-01,-1.05016e+00,4.92684e-01,-6.79794e-01,-7.56680e-01,6.39462e-01,1.07411e+00,4.02979e-01,-3.23835e-03,-6.02733e-01,9.99486e-01,2.11313e-01,-7.44358e-01,3.02291e-01,6.26209e-01,
2.53928e-01,-8.36076e-01,1.19497e-01,-8.32335e-03,6.17401e-02,-9.47254e-01,2.30094e-01,3.10095e-02,-2.70422e-02,3.48442e-01,-3.89167e-01,-5.70742e-01,-3.39841e-01,-5.13102e-01,-6.21440e-01,-4.16147e-01,4.27045e-02,-1.04978e+00,-2.50086e-01,2.77709e-01,3.16170e-01,7.07659e-01,-3.35171e-01,-4.06480e-01,7.68344e-01,
1.35074e-01,-1.40011e-01,2.33026e-01,6.94435e-01,8.64150e-01,3.46475e-01,-8.49491e-02,-5.58083e-01,-4.68010e-01,-3.02236e-01,-5.85916e-01,-8.55410e-01,9.02637e-01,2.58003e-01,3.85170e-01,3.58770e-01,-1.24107e+00,1.01687e+00,-4.87923e-01,-3.20759e-01,8.77849e-01,-7.57294e-01,2.09533e-01,9.10903e-02,-8.89327e-01,
4.35910e-02,1.03108e-01,-1.62606e-01,-2.80820e-01,4.52696e-02,3.28445e-01,-1.62467e-01,-2.01119e-01,-3.77027e-01,1.64238e-01,5.82805e-02,1.99509e-01,3.24266e-01,-1.50546e-01,3.24819e-02,-8.52484e-01,-2.61353e-01,3.79375e-02,-7.12147e-02,-2.27579e-01,-2.01291e-01,2.57360e-01,-7.82270e-01,5.73812e-02,4.20349e-01,
2.71960e-01,2.38690e-01,-2.76077e-01,-2.88939e-01,1.29555e-01,-3.41200e-01,2.55915e-01,-3.23832e-01,-2.57671e-01,1.35327e-02,-5.39567e-02,1.14483e-01,-2.41171e-01,-2.58768e-01,-1.70219e-01,5.88132e-02,-9.50842e-03,2.73954e-01,-4.05972e-01,2.60579e-01,-2.02455e-01,-1.29994e-01,2.57767e-02,-7.22753e-03,-2.55409e-01,
9.22454e-01,-7.87351e-01,-3.10207e-01,-2.52647e-02,-3.35928e-01,-5.23916e-01,3.24980e-01,6.46213e-01,-2.59165e-01,1.34741e-01,-1.26778e+00,-5.48217e-01,2.45060e-01,-5.65679e-01,6.59671e-01,2.20932e-01,2.91020e-02,1.25998e-01,2.24522e-01,1.69950e-01,3.77712e-01,-5.86823e-02,-3.90340e-01,-1.09413e+00,-2.27351e-01,
9.04701e-03,9.43950e-01,-7.72352e-01,-9.78302e-01,-3.55758e-01,9.12721e-02,1.64464e-01,-7.35399e-01,-6.19982e-01,4.31976e-01,6.68065e-02,-1.49768e+00,6.29601e-01,-3.91237e-01,-9.36697e-01,8.51419e-02,1.35571e+00,8.12392e-01,-3.33785e-01,4.01747e-01,5.12614e-01,5.88129e-02,-2.99063e-01,3.59036e-01,-1.94082e-01,
2.70270e-01,-2.11671e-01,1.90152e-01,3.45742e-01,-1.21119e-01,1.96583e-01,1.85580e-01,-3.71158e-01,3.91275e-01,1.40827e-01,-3.84734e-02,-1.34356e+00,3.45783e-01,-3.22424e-01,-2.05069e-01,-4.51485e-02,-1.93079e-01,-1.27565e-01,-8.41089e-02,2.61120e-01,1.68495e-01,-2.44370e-01,-1.32461e-01,1.88774e-01,3.47024e-01,
3.82367e-02,-1.39544e-01,-4.61130e-02,4.94265e-02,2.85670e-02,1.26248e-02,-2.17211e-03,-1.21409e-01,4.13871e-02,-1.88548e+00,9.56191e-03,-5.85536e-02,-1.53300e-01,-6.79741e-02,6.65059e-02,9.83745e-02,-5.74018e-02,-1.20862e-01,-2.09677e-03,2.17775e-01,-1.05504e-02,-6.92472e-02,-2.06031e-01,3.93302e-02,1.72437e-01,
-3.21784e-01,1.96581e-01,2.65151e-01,2.29231e-02,-9.12212e-01,1.68878e-01,4.94640e-02,-4.00750e-01,1.91260e-01,2.69956e-01,-2.26512e-01,-1.83547e+00,5.34481e-01,-3.38733e-01,-4.34289e-02,3.27010e-01,9.36619e-02,-2.20777e-01,-3.38574e-01,-5.68241e-02,-4.48837e-01,-6.03726e-02,5.82300e-01,-6.27420e-02,1.71982e-01,
1.26937e-01,4.51064e-01,7.29093e-02,-5.91025e-01,-1.69465e-02,-8.54796e-01,4.13868e-01,-5.16132e-02,-3.03507e-01,6.48402e-01,9.47307e-02,-8.95463e-02,-2.63793e-01,-1.08654e+00,-5.82692e-01,8.75991e-02,-4.86302e-01,5.18400e-01,8.66136e-01,2.49080e-01,-1.69883e-01,-6.27382e-01,1.86401e-01,-1.83313e-01,3.84385e-01,
1.44476e-02,-7.06607e-02,-4.02949e-02,9.92618e-03,2.30712e-02,-1.27634e-02,4.54985e-02,3.49440e-03,-4.30805e-02,7.26729e-01,1.72739e-01,3.27259e-01,-2.13973e-01,1.93647e-02,6.40822e-03,-8.15025e-02,-7.57969e-02,-6.70803e-03,1.35457e-01,6.12177e-02,-1.28267e-01,-6.02386e-02,-2.17128e-01,3.95218e-02,1.64716e-01,
-4.38940e-02,1.73334e-01,-1.44635e-01,-3.44966e-01,-8.24576e-02,-2.87635e-01,-1.29780e-01,-1.44758e-01,-7.04088e-02,2.08391e-02,-2.76098e-01,1.49563e-02,2.90231e-01,2.94431e-03,1.50279e-01,3.64187e-01,3.27759e-01,4.84123e-01,-1.14869e-01,3.70137e-01,1.63423e-01,5.62558e-02,2.82068e-01,-1.79158e-01,5.32123e-01,
-7.35655e-02,2.79269e-01,-1.92390e-02,-4.08561e-02,4.27418e-02,1.19248e-01,-8.85963e-02,2.45624e-01,-6.88092e-02,2.14428e-01,1.04091e-01,-5.84463e-01,6.28475e-01,-1.33375e-01,1.38858e-02,2.03618e-01,1.38000e-01,-3.68733e-01,-1.56377e-01,1.25555e-01,9.27125e-02,7.66560e-02,4.24333e-01,-3.62563e-03,-5.82202e-01,
9.58727e-01,
3.79333e-01,
-2.44600e-01,
1.68590e-01,
7.92644e-02,
5.70074e-01,
2.35819e-02,
-5.38880e-01,
-2.22355e-01,
6.33470e-01,
2.27331e-01,
-1.62582e-01,
4.08006e-01,
-4.02313e-01,
2.94211e-01,
-2.07967e-01,
2.17007e-01,
-1.23920e-02,
1.59988e-02,
5.35196e-01,
3.70181e-01,
3.46193e-01,
-5.45077e-02,
6.47621e-01,
1.48593e-01,
3.87524e-02,2.29828e-01,-2.85877e-02,2.61342e-01,7.61790e-02,2.38488e-01,-2.68279e-01,-6.37260e-02,3.13218e-01,-1.42393e-01,3.55117e-01,-2.05596e-01,-2.01662e-01,-3.65620e-03,-9.10764e-03,3.10872e-01,-2.93711e-01,-6.00545e-02,4.04892e-02,1.24884e-01,-1.27700e-01,-6.49711e-02,-9.72414e-02,1.93378e-01,-1.03898e-01,
3.35417e-01,-1.39704e-01,-3.51156e-02,2.58583e-03,-3.21896e-02,-7.06089e-01,-6.68045e-01,-1.70505e-02,4.19660e-01,1.54107e-01,1.95998e-01,1.20850e-01,4.29828e-01,1.26036e-01,2.86578e-01,-1.60256e-01,1.50067e-01,1.48506e-01,-1.18890e-01,-8.54325e-02,3.44872e-01,1.74290e-01,1.43494e-01,-2.69474e-01,1.27644e-01,
-5.60410e-01,-9.56186e-01,-9.71413e-01,6.28618e-01,-2.53124e-01,8.14325e-01,4.92245e-01,-1.07357e+00,-7.00556e-01,-6.34896e-01,-7.37864e-01,6.84837e-02,1.05219e+00,-2.49177e+00,-3.64796e+00,-9.68620e-02,9.71225e-01,-4.15887e-01,-9.76294e-01,-5.46209e-01,-1.91860e-01,4.97209e-01,-1.41424e+00,-7.09295e-02,1.73830e-01,
1.86094e-01,-5.74883e-01,-5.03048e-02,-6.97270e-02,2.15948e-02,1.77745e-01,-4.59909e-01,-3.02293e-02,4.01355e-01,1.58264e-01,5.18917e-01,-4.55273e-01,1.85208e-01,1.55940e-01,-5.90914e-02,1.95516e-01,4.70991e-01,1.57542e-01,9.51835e-03,-8.27666e-01,2.47928e-02,8.65367e-03,-9.49248e-02,1.09992e-01,-8.75609e-02,
-1.32116e-01,4.32813e-01,-5.69133e-02,-2.55981e-01,9.64426e-02,-3.04125e-01,3.27492e-01,-4.78505e-02,-4.45642e-01,-3.18381e-01,3.38778e-01,4.59989e-01,-1.37311e-01,-2.47586e-02,1.69281e-01,6.14602e-02,-3.53237e-01,-3.79445e-02,-1.82426e-01,-4.63468e-01,2.23173e-01,-1.29126e+00,-4.29496e-01,-2.64636e-01,-4.81750e-02,
2.42158e-01,2.88237e-01,-3.20715e-01,-3.26375e-01,1.15430e-01,-3.26862e-01,-3.61491e-01,-8.02335e-03,1.35498e-02,-1.36362e-01,6.82245e-02,1.69684e-01,-2.37898e-01,-7.71090e-03,-7.98836e-02,-6.75484e-02,1.12367e-01,-5.55884e-02,-1.28682e-01,2.52067e-01,-2.20862e-01,-5.20180e-02,-2.34094e-02,-9.11974e-02,-1.76550e-02,
-9.18742e-02,2.34282e-01,1.18917e-02,-1.17079e-02,3.90952e-02,4.37429e-01,1.37036e-01,6.62040e-02,-1.30502e-02,1.32064e-01,-1.03738e-01,-2.23465e-01,-5.53216e-02,-5.79178e-02,-1.21226e-01,-3.12749e-01,5.11306e-01,-6.79617e-02,6.83337e-02,1.06137e-01,-1.94748e-01,-7.23088e-02,4.11498e-02,2.53972e-01,-5.91044e-02,
-5.87641e-02,3.54597e-01,1.03695e-02,7.63172e-02,-8.89303e-02,3.29128e-01,5.55663e-01,-9.68944e-03,-4.73384e-01,1.87051e-01,2.57220e-02,2.75689e-01,-1.52120e-01,-7.78418e-02,-4.91453e-02,-9.97444e-04,-2.75768e-02,-9.10375e-02,3.23468e-02,1.46154e-01,-5.58344e-02,-4.15432e-02,2.70408e-03,-5.80970e-02,1.45040e-01,
-2.74954e-01,3.92136e-01,-6.45639e-02,2.23540e-01,9.10647e-02,-1.78449e-01,-3.58992e-03,1.36467e-01,-3.81728e-02,-4.45736e-02,6.80166e-01,6.87709e-02,-3.14566e-02,-7.31142e-02,5.87305e-02,1.35449e-01,-5.84293e-01,-1.58293e-01,-9.14841e-02,-1.75777e-01,7.50617e-02,-2.53442e-01,-2.62984e-01,1.08690e-01,-3.56770e-03,
6.81001e-02,3.88041e-01,2.09865e-02,-1.73337e-01,3.02062e-01,1.89095e-01,-1.71461e-01,7.59123e-03,2.99605e-01,-3.68575e-01,-2.48313e-01,1.38038e-01,-1.07646e-01,9.85061e-02,-8.82712e-02,1.31940e-01,-1.44993e-01,5.77514e-02,1.46839e-01,-2.87470e-01,-2.92674e-01,-1.47702e-01,-2.73988e-01,3.43003e-01,-5.92230e-01,
-1.31692e-01,-2.90495e-01,-8.78974e-02,-8.10769e-02,3.77734e-02,1.34365e-01,-3.51825e-01,3.10489e-01,3.98682e-01,5.63453e-02,3.80135e-01,-7.21392e-01,1.41956e-01,-3.17130e-03,-9.89164e-02,-3.35533e-01,-1.04881e+00,2.74600e-02,-2.86543e-02,-1.40618e-01,-8.87707e-02,-5.45457e-03,-9.09998e-02,3.66463e-01,7.26391e-02,
3.34970e-01,3.76762e-01,-2.80863e-01,-1.02617e-03,5.90087e-01,-5.27301e-01,1.43798e-01,-2.77201e-02,6.61379e-02,-1.94914e-01,-1.45249e-01,-7.08374e-01,-2.78673e-01,-1.06970e+00,1.39337e-01,-2.90702e-01,5.69290e-01,-4.14726e-01,-5.70854e-01,5.07733e-02,-5.50481e-02,-2.38594e-01,-7.67972e-02,8.58273e-02,-2.04324e-01,
9.19343e-02,5.72975e-02,-7.69899e-02,-4.49396e-01,6.17361e-02,-1.71676e-02,-2.31480e-02,5.31633e-02,-8.22975e-02,1.32288e-01,6.97387e-01,2.67437e-02,1.11512e-02,2.79041e-02,2.97441e-02,-1.04703e-01,-7.76304e-01,2.79801e-02,-1.72976e-01,-6.30379e-01,1.23957e-01,-3.32268e-03,-2.64611e-01,-1.03880e-01,-1.40681e-02,
8.84446e-02,-1.65600e-01,-8.29635e-02,-6.86317e-01,7.20264e-02,3.44035e-02,-3.66976e-02,-4.26819e-02,-3.54354e-02,1.50787e-01,3.24443e-01,1.95272e-01,-6.65426e-02,5.61441e-02,2.41376e-02,-3.09323e-01,-4.59407e-01,1.24977e-01,-1.73273e-01,-1.17842e+00,1.31764e-01,-7.23523e-03,-3.27491e-01,-7.39679e-02,3.40367e-02,
-1.09641e-01,3.78804e-03,-3.79135e-01,-3.39275e-02,4.79080e-01,4.54836e-01,-1.00807e-01,-5.25534e-02,1.95949e-01,2.18219e-01,1.06102e-01,-3.60714e-01,-3.99707e-01,-1.72979e-01,-2.18132e-01,-3.41722e-01,1.00777e-01,-2.73386e-01,-2.30821e-01,-1.63558e-02,-2.56307e-01,2.78612e-02,7.47975e-05,7.85523e-01,3.74309e-02,
2.88747e-01,-1.21532e-01,-1.01743e-01,-1.52116e-01,1.93536e-01,-6.86210e-02,-4.77611e-01,-6.91584e-03,4.81926e-01,-7.25287e-02,2.46925e-01,-2.42434e-01,3.12054e-01,2.36835e-02,-6.60291e-02,6.21316e-02,2.01819e-01,4.33517e-02,-9.22401e-03,-8.44018e-01,-1.58522e-01,-2.13220e-01,-5.83563e-01,4.86797e-01,-1.56701e-01,
-2.66002e-01,4.13647e-02,-3.41805e-01,1.70278e-01,2.52287e-01,2.44129e-01,1.62672e-01,-3.40311e-01,-1.74599e-01,-1.83802e-02,1.44217e-02,-1.12805e-01,-1.76790e-01,-1.95287e-01,-3.12590e-04,-3.24569e-01,-5.45703e-02,-2.48284e-01,-1.48934e-01,4.07413e-02,-4.52214e-02,-1.32532e-01,-1.50046e-01,4.85155e-01,1.76789e-01,
-3.39276e-02,1.99089e-02,-7.64916e-02,-2.79364e-01,-5.80389e-03,2.16998e-01,-2.34018e-03,-1.25796e-01,-5.25417e-02,1.19431e-01,1.89887e-01,1.92375e-03,1.81117e-02,-2.23653e-02,-4.89520e-02,2.40445e-01,-3.03600e-01,-4.20774e-02,-2.68813e-02,-4.72233e-01,2.89084e-02,2.08699e-01,-1.88276e-01,2.30519e-02,1.73231e-01,
2.39017e-01,8.64729e-02,8.59396e-04,1.34220e-01,-2.72196e-02,1.03763e-01,1.83463e-02,-1.05778e-01,-2.89946e-01,-2.23774e-01,-8.86789e-04,-6.06283e-02,1.54008e-01,-5.48688e-01,-4.40975e-02,1.43295e-01,-2.18285e-01,-2.06906e-01,-6.05069e-02,4.64833e-02,-2.13464e-01,-1.14945e-01,-9.73472e-02,2.72460e-01,2.17408e-01,
-8.48257e-01,4.85911e-01,-1.61765e+00,4.70064e-02,4.28597e-01,-9.01995e-01,5.60894e-01,3.66620e-01,-9.80987e-01,-4.20389e-01,2.27312e-02,1.02771e-01,-7.63717e-01,-1.28188e-01,3.22346e-01,3.17787e-01,1.41313e-01,-2.08201e-01,-7.88066e-01,2.79585e-01,5.94150e-01,-1.83595e-01,-6.21796e-02,1.20240e-01,4.61625e-01,
-3.88155e-01,2.04583e-02,8.85022e-01,6.13221e-01,-1.81065e+01,1.05387e-01,-2.77252e-01,-1.32147e+00,-4.08986e-01,8.27261e-02,-3.96985e-02,3.76671e-01,3.37356e-01,6.94779e-02,9.74132e-01,3.06342e-01,6.67584e-01,-4.51958e-01,-1.04407e-01,2.24716e-01,7.50111e-01,4.09489e-01,-3.87717e-01,5.32888e-01,-4.10199e-01,
-5.23386e-02,1.99224e-01,-1.05516e+00,-6.20397e-01,5.79399e-03,5.65805e-02,-3.02464e-03,1.67972e-01,-1.27379e-01,6.43936e-01,3.32979e-01,-2.74055e-01,3.54090e-01,-6.52371e-01,-4.35420e-01,-2.16416e-02,5.13851e-01,-8.43558e-02,1.11412e-01,-1.43243e+00,4.13588e-02,-2.12760e-01,-7.42506e-01,-2.49410e-01,-3.06798e-01,
-5.40701e-02,1.89291e-03,-3.89731e-02,-3.95719e-01,2.64687e-01,7.99460e-03,-3.45161e-01,1.66527e-02,3.77362e-01,-1.41161e-02,7.98642e-02,-3.72913e-01,1.82348e-01,9.56127e-02,1.85221e-02,3.12916e-01,5.36353e-01,1.33570e-01,-1.49525e-02,-8.70698e-01,-7.31519e-02,4.79282e-03,-3.67879e-01,2.65249e-01,-4.23551e-01,
2.81840e-01,-1.83104e-01,-1.19390e-02,-4.09100e-01,-2.24906e-02,2.60325e-02,1.50806e-01,-1.14171e-01,-1.69010e-01,2.03702e-01,5.04724e-02,1.83125e-01,9.66045e-03,-2.74729e-02,-9.53515e-02,1.67741e-01,1.35385e-01,-1.25737e-01,-9.88599e-02,-1.71556e-01,9.00301e-02,1.25683e-01,-2.01115e-02,-5.74075e-02,1.04573e-01,
-4.88499e-01,3.70287e-01,6.22244e-02,6.23321e-01,-1.45877e-01,-4.53715e-01,5.73686e-01,-6.51612e-01,-4.96906e-01,1.25612e-01,-3.07916e-01,4.93733e-01,-1.57523e-01,-2.06788e-01,2.47627e-01,7.80814e-02,-3.64915e-01,-1.55740e-01,-1.03829e-01,8.27749e-01,2.29276e-01,-2.13520e-01,2.27761e-02,-2.86382e-01,-1.20198e-02,
-1.05012e-01,
1.37425e-01,
2.75772e-02,
-8.64050e-02,
2.61598e-01,
-3.25553e-01,
1.60278e-02,
1.23768e-01,
-4.28831e-02,
1.77019e-01,
-8.18486e-02,
-4.51859e-01,
2.33585e-01,
4.18285e-01,
-6.11472e-01,
9.87144e-02,
-2.19705e-01,
2.54929e-01,
-1.81007e-01,
-4.07038e-01,
-2.09699e+00,
1.96474e-01,
2.73671e-01,
1.32495e-01,
-2.97350e-01,
-2.50533e-02,-6.12454e-02,-1.90434e-02,5.47993e-02,2.71227e-02,4.28781e-01,-6.51510e-02,-7.88429e-02,3.84194e-02,1.75628e-02,1.56660e-02,-1.26122e-01,-3.44867e-02,6.54771e-02,-1.68167e-01,-1.15800e-02,-8.33677e-02,-5.75360e-02,-6.28824e-02,-8.64146e-02,-9.25164e-02,6.97519e-02,-7.11843e-02,-1.05868e-02,-6.73606e-02,
-3.08836e-02,-5.02240e-02,-6.54598e-03,3.59150e-03,-4.58617e-02,1.05326e-01,-3.26837e-02,-1.21395e-01,2.37911e-02,2.43923e-02,-6.34759e-02,-1.31866e-01,3.97757e-02,-7.51096e-03,-1.46991e-01,-1.75951e-03,-1.00965e-01,6.20577e-02,-6.84772e-02,-8.26384e-02,-1.01220e-01,5.02833e-02,-5.74681e-02,5.14207e-03,2.87733e-02,
4.47695e-02,-5.92144e-02,-1.08012e-02,6.94132e-02,2.82181e-02,4.11027e-01,-1.02551e-01,-4.59573e-02,-4.65283e-02,-4.68001e-02,1.18158e-02,-1.48729e-01,-3.45458e-02,-8.46065e-03,-1.48269e-01,-8.80441e-02,-1.05935e-01,-1.37972e-03,-2.90251e-03,-5.01593e-02,-9.91149e-02,6.09247e-02,1.09842e-03,1.24931e-02,1.93264e-03,
3.03258e-02,-8.10396e-02,5.10227e-02,-4.24383e-02,-3.24604e-04,-3.82955e-01,-2.19255e-03,-1.75126e-01,-3.72157e-02,-7.57433e-02,-3.30804e-02,-1.51450e-01,8.07171e-02,-6.05025e-02,-1.09822e-01,1.81885e-02,-6.52525e-02,6.30135e-02,-4.72685e-02,-1.23733e-01,1.67958e-02,7.75343e-02,1.69725e-02,-6.64921e-02,4.96848e-02,
-2.15932e-03,-6.18828e-02,-1.96911e-02,6.54441e-02,-3.59337e-02,6.90750e-02,-1.25418e-01,-1.50034e-02,1.75116e-02,-3.22027e-02,1.30123e-03,-2.03944e-01,-5.53148e-03,-6.33376e-02,-1.62075e-01,-8.58099e-02,-4.05436e-02,1.82227e-02,-1.31851e-01,4.73002e-02,-1.71773e-01,-4.81102e-02,4.80331e-02,-4.01148e-02,1.15807e-02,
4.39035e-02,
3.47009e-02,
3.92441e-02,
4.71650e-02,
3.32736e-02,
