// Neural Network File Format by Kyle Julian, Stanford 2016
6,5,5,250,
5,250,250,250,250,250,5,
0,
-56000.000000,-56000.000000,-3.141593
56000.000000,56000.000000,3.141593
-278.628049,0.000000,0.000000,700.000000,700.000000,-0.242819
112000.000000,112000.000000,6.283185,1000.000000,1000.000000,17.479225
-6.84751e-01,-8.66532e-01,1.32522e-01,1.61494e-04,-1.24663e-02,
6.11114e-01,7.11015e-01,4.05817e-02,-1.03794e-01,1.33736e-02,
9.11144e-02,9.87813e-01,1.18624e-01,1.16431e-02,-7.34031e-02,
5.91695e-01,-6.60946e-01,5.98944e-02,8.81171e-04,-5.20663e-03,
2.23899e-01,-6.29241e-01,7.00474e-03,4.58348e-02,-3.45060e-02,
-3.57484e-02,1.50110e-02,-7.08255e-02,-1.90420e-03,3.67956e-02,
3.43219e-01,6.84111e-01,-1.79028e-02,-1.02181e-01,-7.02085e-02,
1.35571e-04,6.37974e-04,-1.24387e-03,-2.48881e-01,-2.50749e-01,
-3.43030e-01,-3.38090e-01,-2.06913e-02,-1.48599e-02,8.30158e-03,
5.45395e-02,-5.96958e-02,-1.00627e-04,-1.59725e-01,-1.51583e-01,
-1.90195e-01,-9.35533e-01,-1.30443e-01,4.59656e-02,8.05488e-03,
3.53288e-01,2.77346e-01,1.84527e-01,4.22360e-02,-9.56262e-02,
-7.22352e-01,-7.85164e-01,-1.21257e-01,4.33255e-02,2.01044e-03,
-4.59491e-01,6.01386e-01,-1.59721e-01,9.47534e-02,6.55579e-02,
-1.56603e-01,-7.66753e-01,2.40636e-01,-6.98994e-03,4.40993e-02,
-6.00783e-01,-3.61556e-01,4.48282e-03,-1.93837e-03,-6.64868e-03,
6.29441e-01,-3.00360e-01,9.11535e-02,-6.81673e-03,1.46375e-02,
-3.74276e-01,3.57514e-01,-1.01305e-01,-5.47650e-02,-7.01994e-02,
-9.17358e-01,7.91756e-01,-1.70321e-03,2.39599e-02,-1.07192e-01,
2.10026e-01,-2.71947e-01,3.92077e-02,-1.00968e-01,-1.00876e-01,
2.06904e-01,4.73802e-01,3.44226e-03,-9.56482e-02,-1.06345e-01,
2.65925e-03,9.48435e-04,6.88534e-04,3.17597e-01,3.13394e-01,
2.51440e-01,5.16082e-01,-4.90031e-02,-2.54092e-02,1.68759e-02,
7.34187e-01,6.25320e-01,1.29367e-02,6.07805e-02,-4.21708e-03,
4.70244e-01,-3.57906e-01,2.10635e-01,-1.96655e-02,2.42421e-02,
-3.26635e-02,-1.87587e-02,4.07207e-02,1.36871e-01,-9.83065e-02,
1.40568e-01,-7.14032e-01,1.35184e-01,1.48185e-02,-1.63229e-02,
2.11361e-01,1.44002e-01,5.50419e-02,1.67442e-01,-2.00171e-02,
5.78867e-02,4.78374e-01,1.53244e-01,3.30619e-02,-6.51533e-03,
4.21458e-01,-1.63215e-01,-1.53857e-01,-3.14363e-02,-8.23568e-03,
3.85244e-03,-5.14718e-02,-5.15738e-02,1.45256e-01,1.34210e-01,
2.00406e-01,-4.71131e-01,7.20496e-02,1.30373e-02,4.43359e-02,
6.55158e-01,-6.20849e-01,6.91938e-04,-2.38825e-02,1.85574e-02,
6.50646e-02,-2.41166e-01,-1.05819e-02,8.67473e-02,2.92494e-03,
-1.72840e-01,4.87506e-01,-2.25196e-01,-3.94150e-03,-1.28049e-03,
-8.72548e-01,8.14621e-01,-2.91882e-02,3.29511e-02,-1.83165e-02,
2.96988e-01,6.18739e-01,1.12271e-01,-5.24214e-02,-8.65663e-02,
2.29534e-01,7.11490e-01,-2.14452e-02,-2.51338e-03,9.93798e-02,
5.43444e-03,-6.56002e-01,9.96212e-02,-1.43261e-02,-8.79643e-03,
-8.10218e-01,-3.38674e-01,3.31477e-02,1.34177e-02,1.36154e-02,
1.77528e-02,3.02755e-01,-2.26168e-01,2.30947e-02,7.24311e-02,
-7.88231e-01,3.24912e-01,7.29049e-02,4.17701e-02,-2.84818e-02,
6.36990e-01,-5.36541e-01,7.61099e-02,-9.51155e-03,-5.34384e-02,
-5.12977e-01,8.01709e-01,-1.22527e-01,4.64726e-02,-8.57731e-02,
2.62565e-01,5.77483e-01,-9.26613e-02,1.48684e-02,4.99143e-02,
1.36396e-01,1.02106e-01,-1.22517e-01,-2.44883e-02,2.40092e-02,
5.04520e-01,5.51159e-01,1.35665e-01,3.96387e-02,-7.72707e-02,
-1.06849e+00,5.78886e-01,6.19318e-02,-6.33856e-04,2.95927e-02,
-9.42710e-03,-2.78054e-02,-7.38904e-02,-7.39443e-03,1.35576e-02,
-5.20685e-01,2.44062e-01,1.37318e-01,-8.60773e-04,-8.24883e-03,
-7.74704e-01,-2.14235e-01,-1.62786e-01,-2.66703e-02,2.45861e-02,
-3.03518e-01,2.30801e-01,-1.85308e-02,-7.62237e-02,3.83810e-02,
-5.18025e-01,7.72341e-01,-3.39624e-02,-3.83263e-02,5.04139e-02,
1.07981e-01,3.60204e-01,1.47300e-01,-7.97181e-02,9.61830e-02,
3.14068e-01,-6.41235e-01,7.55090e-02,-7.17579e-02,-1.59703e-02,
-3.17660e-01,-1.03602e+00,-2.76863e-01,1.93877e-03,7.54527e-03,
3.98969e-01,9.23515e-01,-3.70403e-02,4.64886e-02,4.50964e-02,
2.24222e-01,-1.55586e-01,-7.56440e-02,8.62694e-02,1.02511e-01,
-1.51322e-01,-5.59328e-01,-5.40094e-03,9.76178e-04,2.63715e-03,
-8.70997e-01,-7.70163e-01,-6.65436e-02,-3.38516e-02,2.11649e-03,
4.64116e-01,6.82256e-01,2.59093e-01,2.93648e-02,5.67279e-02,
5.93656e-01,5.53373e-01,-1.61187e-01,-3.28974e-03,-1.13788e-02,
1.35474e-01,-6.43703e-01,2.46570e-01,1.46265e-02,-1.99736e-02,
3.22332e-02,-2.08664e-01,8.49332e-02,-1.51841e-01,-1.18642e-01,
4.60654e-01,9.72091e-01,-1.79729e-01,1.84398e-03,4.20039e-05,
2.40838e-01,9.16338e-01,4.47890e-02,-6.51977e-02,-2.73839e-02,
2.06839e-01,-3.56361e-01,9.60562e-02,-3.32952e-02,-5.24466e-02,
2.15372e-01,2.71319e-01,1.85362e-02,3.69605e-02,9.37060e-03,
-1.22894e-01,1.57335e-01,1.82138e-01,-9.39259e-02,-1.04433e-01,
-5.63376e-01,6.90884e-03,1.42540e-02,-1.11616e-03,2.08066e-02,
-1.59747e-01,-3.87010e-01,-7.63175e-02,-5.46198e-02,-1.08913e-02,
-4.29525e-01,-1.94191e-01,5.73516e-02,-1.22954e-02,3.84159e-02,
9.54157e-02,-2.53726e-01,-1.25723e-01,-1.10571e-01,-1.19266e-01,
2.00040e-01,5.55226e-01,1.45310e-01,-7.98866e-02,2.13518e-02,
-4.58650e-01,-5.36682e-01,-1.09287e-01,-4.03353e-02,5.68809e-02,
8.31586e-02,-4.69418e-02,7.23795e-03,1.49609e-01,1.44448e-01,
4.33342e-01,-6.29055e-01,-4.40629e-02,6.19983e-02,5.66068e-02,
-2.19989e-02,4.27232e-01,1.95414e-01,2.26147e-03,1.26481e-02,
4.11179e-01,4.05122e-01,-1.07316e-01,-5.19771e-03,8.26975e-03,
-4.06730e-01,6.15290e-01,-1.21748e-01,-1.00895e-01,-1.01599e-01,
1.98924e-01,-3.44027e-01,-6.34500e-02,3.92468e-02,-1.80186e-02,
-6.14196e-01,-4.62157e-01,-7.71369e-03,-6.32067e-02,7.96173e-02,
-1.37021e-01,-1.07653e+00,-2.59042e-02,6.22512e-02,-4.51044e-02,
5.16290e-02,1.59225e-01,-9.62988e-02,-2.00846e-01,-2.00581e-01,
4.68522e-01,4.07890e-01,1.41140e-01,2.12520e-02,-1.01118e-01,
-1.22321e+00,-7.08510e-01,-9.02539e-03,-7.35442e-04,-3.03972e-03,
5.17923e-01,-1.70893e-01,-4.65315e-02,-9.19106e-04,-1.92913e-02,
2.59474e-01,-5.51468e-01,8.21958e-02,-4.86722e-02,3.13843e-02,
4.05711e-03,-4.14836e-03,-1.26877e-03,-1.59338e-01,-1.55084e-01,
-3.82109e-01,-1.02467e+00,1.03740e-02,1.49741e-02,-8.50265e-02,
-4.46442e-01,7.21276e-01,-1.19998e-01,-6.66501e-02,-6.95742e-02,
-5.05036e-01,4.11877e-01,-1.24368e-01,-6.87230e-02,5.43311e-03,
-4.33391e-01,-8.58075e-01,4.31613e-02,2.60151e-02,-3.11368e-02,
-1.67979e-01,6.38452e-01,-9.31106e-02,5.04766e-02,-5.73237e-03,
6.53584e-01,1.51653e-01,2.95554e-02,1.71912e-02,-6.79981e-02,
2.13845e-01,-6.38097e-01,-2.01278e-02,-8.18561e-02,-9.42404e-02,
-4.36614e-02,-2.02364e-01,5.67760e-02,-1.33387e-02,-1.66246e-02,
3.29364e-01,-3.53653e-01,2.92604e-02,2.42583e-02,-2.52164e-02,
-5.52829e-01,3.19806e-01,-4.51379e-02,-9.48347e-03,2.31353e-02,
-2.33565e-01,8.90699e-01,2.34552e-01,-3.83224e-03,1.53933e-02,
1.90453e-03,1.85805e-03,1.81450e-04,1.49890e-01,1.49084e-01,
-5.43903e-01,-7.75806e-01,1.94763e-01,-2.11385e-02,-1.57578e-02,
-8.82013e-01,-5.24542e-01,-1.18301e-01,-9.01953e-02,-7.71970e-02,
-7.85340e-01,-1.07212e-01,-1.25427e-01,7.44224e-02,2.37177e-02,
1.81362e-01,3.08126e-01,-1.28956e-01,5.39284e-02,2.07336e-02,
7.43566e-03,-4.25598e-01,-4.68728e-02,-1.33142e-01,-1.27124e-01,
-4.86420e-01,-7.23030e-01,2.06485e-01,2.23393e-02,-3.91464e-02,
-6.53994e-01,-1.13536e+00,-2.14841e-02,-2.11822e-03,1.04168e-02,
-5.00912e-02,1.26685e-01,-5.43348e-02,2.52921e-02,-4.82204e-02,
-5.47168e-01,3.72217e-02,6.13693e-02,-3.62772e-02,9.15244e-02,
-1.00797e+00,2.60256e-01,3.44823e-03,3.22955e-02,-4.73660e-02,
6.99634e-01,3.88677e-01,-5.36911e-02,-8.39336e-02,3.60297e-02,
-1.97225e-01,-3.36621e-02,5.93611e-02,-1.46259e-02,7.31385e-02,
5.27649e-01,-5.19312e-01,4.45877e-02,-7.60718e-02,-1.13716e-01,
-2.60165e-01,1.54961e-01,3.89100e-02,1.05299e-01,-7.91885e-02,
-1.04587e+00,-6.81321e-01,-7.19586e-04,-2.09394e-02,1.22182e-02,
-9.37505e-02,2.02673e-01,-1.22150e-01,-3.77368e-02,7.73789e-02,
-8.10726e-01,-4.79763e-01,-1.62020e-01,3.68883e-02,-6.49712e-02,
3.70648e-01,6.53224e-01,-8.83297e-02,-4.73859e-02,-1.01550e-01,
-1.77499e-04,6.07784e-03,-1.24543e-03,1.67694e-01,1.69615e-01,
3.85883e-01,-7.86168e-01,-2.94622e-01,-2.08696e-03,8.13190e-03,
-4.61008e-01,3.44619e-01,-1.36927e-01,-1.04684e-02,-8.45972e-02,
-1.78412e-01,6.46504e-01,2.54223e-01,-1.70355e-03,-3.22685e-04,
-5.64408e-01,-4.66748e-01,2.86688e-02,4.75753e-03,2.06135e-02,
-3.12198e-01,7.31762e-01,7.91405e-02,4.92693e-02,4.51007e-02,
2.30064e-01,-3.06285e-01,8.68330e-02,1.08258e-01,-5.03169e-02,
5.77636e-02,-1.58106e-02,3.17241e-02,-6.86140e-02,2.70818e-02,
3.49428e-01,-5.92850e-01,-9.23722e-03,-7.67404e-02,-5.36797e-03,
-8.56760e-01,8.48486e-01,-1.01377e-02,-2.07781e-03,5.79353e-03,
2.58576e-01,-6.70708e-01,2.37556e-01,-2.17855e-02,-2.83812e-03,
5.64470e-01,4.40096e-01,6.53813e-03,8.99513e-03,-3.48657e-02,
-8.58760e-01,-2.57469e-01,2.92345e-02,-5.94549e-02,-7.46459e-02,
7.23980e-01,2.05531e-01,2.90310e-02,1.35136e-02,-3.34483e-02,
2.65519e-01,-3.61826e-01,4.90340e-02,-5.30747e-02,-3.59627e-02,
4.56174e-01,-6.97854e-01,-6.72512e-02,9.47243e-04,1.00026e-01,
6.74564e-01,-4.51214e-01,-9.57464e-02,5.74644e-02,4.27559e-02,
5.22387e-01,-7.03839e-01,-1.36664e-02,6.74763e-02,5.63913e-02,
6.84983e-01,5.74181e-01,-4.05484e-02,2.48204e-02,-3.68097e-02,
8.00368e-03,1.37155e-02,-6.96118e-02,8.06669e-02,-5.16544e-02,
-1.51302e-01,-2.45401e-01,1.29333e-01,1.28744e-01,-1.28372e-02,
-3.58172e-01,-6.71848e-01,-2.80824e-01,2.41412e-03,3.02295e-02,
-1.39698e-01,-1.05179e+00,-2.16684e-03,4.66573e-03,1.11160e-02,
-7.54190e-01,4.74153e-01,2.74728e-01,-6.31129e-03,1.93064e-03,
4.79651e-01,3.36669e-01,-1.83509e-02,1.41329e-02,2.47739e-02,
1.34550e-01,-6.58542e-02,1.42778e-02,-1.72496e-02,5.53564e-02,
1.56018e-01,-1.93550e-01,4.58185e-02,1.43128e-02,-2.60328e-02,
5.04847e-01,1.13619e-01,1.45047e-01,4.24578e-02,-2.26693e-02,
8.18077e-01,3.65212e-02,-8.58057e-02,1.50882e-02,-3.29259e-02,
-5.62063e-02,2.57438e-01,-1.00043e-01,9.51509e-02,-5.73960e-02,
8.65487e-02,7.49002e-01,1.29834e-01,-2.31420e-04,8.71013e-03,
-3.82052e-01,-9.64169e-01,-2.23629e-02,-7.02922e-02,-3.04366e-02,
6.48984e-01,2.27985e-01,-5.57195e-02,4.01393e-02,-2.82150e-02,
-1.09316e+00,-6.81915e-01,6.68821e-03,1.62039e-02,2.98688e-02,
-1.89810e-03,6.44438e-03,-2.18869e-03,2.26364e-01,2.28029e-01,
-3.16075e-01,-7.24920e-01,-1.73730e-01,3.90314e-03,-1.02068e-01,
5.98052e-01,1.40618e-01,-4.03392e-02,8.69751e-03,-2.04837e-02,
-5.83820e-01,-6.43551e-01,-2.31782e-01,-2.11379e-03,6.00951e-02,
-7.55859e-01,-9.49595e-01,-1.50829e-02,-7.11295e-03,-4.40785e-02,
1.54960e-01,3.89722e-01,-2.18880e-02,8.73690e-02,8.38182e-03,
-2.20689e-01,-6.84847e-01,8.08292e-02,3.41399e-03,4.93323e-02,
5.59346e-01,6.37175e-01,1.32786e-01,1.34822e-02,4.05898e-03,
-7.14539e-01,-6.57733e-01,1.58421e-01,2.60182e-02,-3.60902e-02,
1.96546e-01,-2.59479e-01,-7.26845e-02,-1.05129e-02,-2.81975e-02,
-6.30543e-01,3.21848e-01,-3.32732e-02,1.83347e-02,-8.87055e-03,
2.07873e-01,-4.97315e-01,2.01009e-01,5.52359e-02,5.16801e-02,
1.62749e-01,3.00756e-01,4.34542e-02,1.24643e-02,1.22525e-01,
-5.97309e-01,5.35241e-01,-1.70465e-01,-2.80125e-03,1.63296e-03,
2.57090e-03,3.50578e-01,-2.14104e-01,3.94697e-03,-2.28595e-03,
-1.18325e-01,-5.94632e-01,2.45612e-01,1.17019e-02,2.49765e-02,
-4.60741e-02,6.67652e-01,1.28130e-01,6.56860e-02,6.56602e-02,
-4.74376e-01,7.68115e-01,-8.67431e-02,-6.82592e-02,-4.77308e-02,
5.78304e-01,-4.29338e-01,-3.88774e-02,3.24415e-02,-9.01215e-02,
9.80762e-02,-6.73921e-02,3.33565e-03,-1.72148e-01,-1.69513e-01,
-3.25782e-01,-4.44590e-01,-6.09283e-02,-1.40724e-01,-1.40958e-01,
4.72299e-01,2.40937e-01,1.82305e-01,4.24183e-02,5.08927e-02,
-5.23822e-01,2.60599e-01,-6.37843e-02,3.11524e-02,-6.29116e-02,
-3.29804e-01,6.31644e-01,8.88941e-02,-1.06922e-02,-7.27940e-02,
6.87685e-01,9.66355e-01,5.85608e-03,2.68786e-03,1.83190e-02,
-1.82988e-01,2.60313e-01,-6.32237e-02,1.71076e-02,5.32781e-02,
-6.05951e-02,9.94715e-01,1.55197e-02,-1.09973e-02,3.51462e-02,
-1.13567e+00,2.63947e-01,5.91239e-02,1.05466e-02,-1.62614e-02,
4.98449e-03,4.22670e-03,1.44098e-03,2.26265e-01,2.28206e-01,
2.36220e-01,-8.10726e-01,-8.15341e-02,7.35314e-02,-3.98870e-02,
4.62279e-01,-4.39383e-01,-1.40675e-01,-7.93530e-02,2.95538e-02,
6.38201e-01,-1.76502e-01,-2.86276e-02,-7.98771e-02,-9.26808e-02,
-1.26648e-01,1.92358e-01,-2.07002e-01,-5.36947e-03,1.23868e-01,
-1.33682e-01,6.73570e-01,5.95156e-02,-2.03269e-02,7.97867e-02,
6.10953e-02,-5.33492e-01,-3.53699e-01,1.18655e-03,2.93214e-03,
-2.38793e-01,-2.19087e-01,1.40587e-01,1.26765e-02,1.47390e-01,
-5.71000e-01,1.16531e-01,6.91863e-03,2.65398e-02,-1.37213e-02,
-6.05816e-01,2.36926e-01,-1.75190e-01,-5.49755e-03,2.20230e-02,
1.10859e-01,9.90433e-01,7.96774e-03,-3.24846e-03,-4.52595e-04,
9.55508e-02,-2.46313e-01,-8.82645e-02,-8.46230e-02,8.48522e-02,
-4.97784e-01,-7.48510e-01,2.08726e-01,-2.60540e-02,-1.43768e-02,
-9.85904e-01,-5.00888e-01,1.46525e-01,2.13808e-02,-3.17157e-02,
-3.43523e-01,-6.96398e-01,2.12387e-01,-1.71323e-03,3.05970e-02,
1.66361e-03,2.72503e-03,8.05766e-05,-1.51769e-01,-1.52028e-01,
-4.41064e-01,8.81126e-01,-2.11574e-02,1.18155e-02,-1.38704e-01,
3.44716e-01,-8.86328e-01,-1.82359e-02,2.20391e-03,1.23686e-01,
1.71529e-01,2.11693e-01,-2.20097e-01,-1.73246e-02,7.95530e-02,
-1.20718e+00,5.20799e-01,-7.01993e-04,-5.18526e-03,6.19637e-03,
4.09003e-02,1.39735e-01,-1.36635e-01,6.59265e-02,8.54929e-02,
3.23698e-01,-3.03226e-01,3.41627e-02,7.15029e-02,5.32552e-02,
3.52827e-01,1.06605e+00,5.19423e-02,2.51336e-02,-2.26125e-02,
5.36819e-01,-6.36776e-01,-9.16611e-02,-5.47134e-02,3.96887e-03,
-3.18444e-01,-7.08636e-02,-1.19146e-01,-4.30308e-02,7.23446e-02,
4.53976e-01,-7.05199e-01,-7.59841e-02,-3.92406e-02,-7.89142e-02,
3.54081e-01,-1.51560e-01,-1.47765e-01,4.41493e-02,4.80700e-03,
-1.00070e+00,-7.21302e-01,-2.04667e-03,3.88450e-02,3.23812e-03,
-4.07574e-01,-1.41872e-01,-2.03615e-03,-1.40787e-01,-1.35577e-01,
6.84839e-01,-4.55386e-01,5.79500e-02,-3.31679e-02,1.28275e-02,
-6.51379e-02,5.23325e-01,5.94569e-02,-1.39032e-01,-2.53270e-02,
-1.93519e-01,-4.91277e-01,-8.06977e-02,1.08829e-02,1.29274e-01,
2.55121e-01,4.76545e-01,-2.18542e-01,3.64643e-02,3.70361e-02,
5.40393e-01,2.65436e-01,1.02092e-01,1.20782e-02,9.09832e-02,
4.62181e-01,-8.56013e-01,-1.25746e-02,1.15656e-02,-2.19627e-03,
-1.19622e-01,-1.49989e-01,8.91587e-02,-1.37870e-01,8.69281e-02,
-9.31572e-02,2.09092e-01,-8.09323e-02,-9.52267e-03,8.98308e-02,
-1.52933e-01,-4.94427e-01,1.74948e-01,-1.56027e-02,-2.50613e-02,
3.00511e-01,6.20357e-02,-2.13246e-01,3.11271e-02,-9.99405e-02,
-2.18305e-01,1.23268e-02,2.34200e-01,-1.30294e-03,1.43323e-02,
-5.71969e-01,-7.28299e-01,3.33512e-02,-2.01043e-02,9.88612e-02,
4.95880e-02,8.35199e-01,2.60510e-01,4.21635e-03,7.28755e-03,
-8.98908e-02,-8.78670e-01,-1.42199e-01,1.17559e-01,-2.32291e-02,
-3.39610e-01,8.91741e-01,1.95242e-01,1.53959e-03,1.78368e-03,
2.70930e-01,-3.32472e-01,-9.79289e-02,-1.14056e-01,-1.10452e-01,
-8.06980e-01,-4.07580e-01,5.35496e-02,4.49965e-02,-6.22153e-02,
4.77461e-01,1.52008e-01,1.17409e-01,-8.75942e-02,-2.19721e-02,
-4.31037e-01,9.53812e-01,2.11512e-01,1.39977e-03,3.26689e-03,
-4.29527e-01,5.16967e-01,5.81495e-02,3.39520e-02,-1.41914e-03,
-7.09321e-01,-1.73436e-01,6.71655e-02,-4.25144e-02,-4.98320e-02,
-8.08037e-01,9.74776e-01,-5.67512e-03,-3.82906e-03,2.32161e-02,
3.15115e-01,-2.25350e-01,-6.50125e-02,6.59484e-02,-1.17780e-01,
-8.47040e-01,-8.43469e-01,-6.42942e-02,2.74387e-03,-2.28923e-02,
-6.72726e-01,-8.67433e-01,-1.09903e-01,-6.95646e-02,-7.17891e-02,
2.95934e-01,-3.11652e-01,-1.21767e-02,1.51259e-02,2.09164e-02,
-1.17620e+00,-1.08048e-04,2.04759e-02,-4.62085e-02,-8.56216e-03,
3.92081e-01,-7.80724e-01,-7.69583e-02,-4.77018e-04,2.31722e-02,
7.31103e-03,-8.17032e-02,1.03286e-01,1.25790e-01,1.26292e-01,
3.59701e-03,-1.70201e-03,-2.11787e-02,-8.09502e-02,1.27453e-01,
-4.04559e-02,-5.37435e-01,8.01201e-02,-3.77084e-02,-5.31834e-02,
-2.85359e-01,-4.52394e-01,-2.20249e-03,1.05368e-01,9.97046e-02,
-1.02926e+00,8.00056e-01,3.26595e-02,-1.58489e-03,-2.36359e-03,
-3.44572e-01,5.28544e-01,4.42054e-02,8.35861e-02,5.81504e-02,
-6.15073e-01,-3.15849e-01,2.34596e-03,4.02853e-02,3.08272e-02,
3.47881e-01,1.20128e-01,1.23881e-01,7.03932e-02,3.06443e-02,
-4.85861e-01,1.47887e-01,6.72019e-02,1.35702e-01,1.26874e-01,
-4.95734e-01,6.34843e-01,9.44153e-03,-9.69506e-02,-6.10121e-02,
9.39257e-02,1.04979e-01,-1.45411e-02,-1.07293e-01,-1.19572e-01,
-9.15487e-01,1.66386e-01,5.33618e-02,-5.47883e-02,6.65418e-02,
8.14408e-02,
8.78726e-02,
5.07003e-02,
2.99507e-02,
2.04088e-02,
-8.30989e-02,
-3.81243e-03,
-1.00622e-01,
-3.95619e-02,
1.32899e-03,
6.52396e-03,
-7.36887e-02,
2.97677e-02,
-4.41394e-02,
-4.87601e-02,
-2.13597e-02,
3.55626e-02,
-3.67662e-02,
-8.63705e-03,
-1.00937e-01,
-2.78771e-03,
-1.25543e-01,
-6.72314e-03,
3.88178e-02,
-7.86217e-02,
-7.30317e-02,
6.82797e-02,
-9.81010e-02,
-1.30647e-03,
-6.84761e-02,
3.43196e-03,
4.77406e-03,
2.44431e-02,
-5.18463e-02,
-1.10130e-03,
3.09899e-02,
-5.43980e-02,
6.40949e-02,
5.92704e-02,
3.07200e-02,
-4.68129e-02,
9.99937e-03,
5.89789e-02,
3.04541e-02,
2.67109e-02,
5.01907e-02,
-2.76415e-02,
5.19061e-02,
-1.00297e-01,
6.27322e-03,
3.25140e-03,
-4.22631e-02,
5.49009e-02,
-4.32670e-02,
1.72878e-02,
2.03032e-02,
5.45463e-02,
-7.04713e-02,
-1.40151e-02,
5.79253e-02,
6.96675e-02,
-5.03938e-02,
-5.34348e-02,
-4.65154e-02,
-3.15583e-02,
3.79619e-02,
1.02546e-02,
-5.86531e-03,
-7.98007e-02,
1.75422e-02,
4.25096e-02,
1.99002e-02,
-1.28605e-01,
-1.22323e-02,
4.81122e-02,
-1.22645e-01,
6.78161e-02,
1.51613e-02,
5.89260e-03,
1.73454e-02,
3.50645e-02,
6.18161e-02,
5.54427e-02,
-7.80656e-02,
-8.15610e-02,
2.30802e-02,
1.38347e-02,
4.12294e-02,
2.88662e-02,
-1.17804e-02,
-8.53847e-03,
1.75701e-02,
1.30945e-02,
1.76930e-02,
-7.81997e-03,
3.23264e-02,
-1.09390e-02,
-1.41008e-02,
2.37951e-02,
2.58609e-02,
-3.19403e-02,
-2.71748e-02,
-1.62070e-03,
5.72255e-02,
4.90987e-02,
-2.42901e-02,
-7.60418e-03,
2.70423e-02,
-1.68383e-02,
-2.12072e-02,
3.87500e-02,
5.85145e-02,
-4.60786e-02,
-1.04061e-02,
-9.57790e-02,
2.85871e-02,
-3.41167e-02,
2.46845e-02,
6.54058e-02,
-1.02145e-01,
2.54192e-02,
4.03822e-02,
5.26309e-03,
1.80104e-02,
6.56213e-02,
-7.12257e-02,
-1.03335e-01,
4.58944e-02,
1.78045e-02,
-5.35714e-02,
1.27512e-02,
6.41253e-02,
8.39982e-03,
-6.00242e-02,
5.61490e-02,
7.49956e-02,
7.20284e-02,
1.89166e-02,
-4.40642e-02,
-1.07205e-01,
4.24222e-02,
2.11998e-02,
1.49706e-02,
2.05698e-02,
-3.68046e-02,
9.94834e-04,
4.87820e-02,
4.22924e-02,
-6.59409e-02,
2.05549e-02,
5.47843e-02,
4.45361e-02,
4.25885e-02,
-1.39531e-01,
-1.03459e-01,
2.03548e-02,
3.83295e-02,
3.30358e-02,
-4.68487e-02,
6.92968e-02,
2.59519e-02,
-2.86618e-02,
3.37790e-02,
1.01475e-02,
-6.68459e-02,
-4.47867e-02,
6.54748e-03,
-3.32920e-02,
-1.88181e-02,
2.66846e-02,
5.81238e-02,
1.34167e-02,
-3.38469e-02,
-8.48124e-02,
-9.79172e-02,
5.13961e-02,
-6.22679e-02,
2.52131e-02,
5.03413e-02,
3.17130e-02,
2.66725e-02,
-4.66892e-02,
6.31509e-02,
-1.68374e-02,
9.21548e-03,
-9.57330e-02,
5.25113e-02,
1.76718e-02,
-8.48883e-02,
-2.88595e-02,
1.96524e-02,
1.11733e-02,
-8.65893e-02,
-2.00984e-03,
1.45143e-02,
-2.34717e-02,
-1.26818e-01,
-5.85709e-02,
7.43815e-02,
-5.66049e-02,
2.28169e-02,
-2.54450e-02,
1.52233e-02,
3.50362e-02,
1.27680e-02,
2.82132e-02,
-3.32028e-02,
-3.67607e-02,
3.15975e-02,
-2.54364e-02,
3.80721e-02,
-8.46365e-02,
-3.90836e-02,
-7.88601e-02,
5.90170e-02,
1.05170e-02,
-1.39250e-01,
-6.69022e-02,
-3.85578e-03,
-7.83024e-02,
1.01510e-02,
6.17226e-02,
1.96761e-02,
9.00131e-02,
1.19522e-02,
-1.10563e-01,
-1.26174e-02,
-5.93344e-02,
8.48156e-03,
2.09438e-02,
4.51077e-03,
3.03722e-02,
-8.55433e-02,
2.27957e-02,
3.02998e-02,
1.95294e-02,
3.89929e-02,
1.23802e-02,
-1.28561e-01,
-5.63707e-02,
6.26032e-02,
2.14321e-02,
2.72422e-02,
6.31017e-02,
4.95266e-02,
-1.68682e-02,
-6.91545e-03,
-2.30268e-02,
-2.44174e-02,
6.33857e-02,
-7.34299e-03,7.54052e-02,-2.95389e-04,-9.18149e-02,-1.10074e-01,-5.68101e-02,4.79199e-02,-3.98932e-02,7.17851e-02,8.21851e-03,3.75323e-02,-4.33105e-02,-5.37853e-02,3.63670e-02,-1.43011e-02,9.75154e-02,-6.86997e-02,-6.16139e-02,-6.14509e-03,9.48804e-02,5.89945e-02,6.44797e-02,3.48859e-02,-7.16548e-03,-7.21547e-02,3.31431e-02,1.72255e-02,-6.57988e-02,-3.30124e-02,3.82716e-02,-7.94026e-02,-7.25925e-02,-1.27997e-01,1.91389e-02,9.30092e-02,5.07580e-02,8.86146e-02,5.14036e-02,-6.36252e-02,-8.96570e-02,4.05736e-02,9.82321e-02,-4.18105e-02,-5.06317e-02,1.40791e-01,-4.97782e-02,5.46035e-02,3.60008e-02,-9.03823e-02,4.04148e-02,-4.66805e-02,5.36217e-02,1.31968e-01,-2.68865e-02,-1.38455e-01,7.53807e-02,1.02136e-01,1.22181e-02,-7.71701e-02,-7.35016e-02,-8.73249e-02,9.80220e-02,-8.14809e-02,-9.81411e-02,5.84641e-02,3.67526e-03,-1.10284e-01,3.31406e-02,-1.78608e-02,3.01925e-02,-1.98983e-03,6.30528e-02,-2.27076e-02,1.62923e-03,1.99652e-02,-7.47392e-02,-3.34995e-02,9.26330e-02,2.07815e-02,8.94110e-02,-2.92887e-02,-1.50802e-02,2.20545e-03,7.08366e-02,-1.31747e-02,-4.62899e-02,4.71711e-02,-1.21042e-01,-6.54637e-02,-1.11259e-01,1.31891e-01,-1.07492e-02,-7.88528e-02,-1.02405e-02,-2.11844e-02,-3.47069e-02,-7.99234e-02,-2.70569e-02,9.67877e-02,-1.22093e-02,-1.38026e-01,7.95234e-02,-8.94306e-02,1.03413e-01,1.08315e-01,1.43258e-02,-5.46737e-02,-1.92056e-01,-6.87129e-03,6.10162e-02,1.19663e-01,-2.55060e-02,-4.07846e-02,-1.16606e-01,-3.24799e-02,-5.31537e-02,1.20503e-02,-1.00589e-01,9.20851e-02,-8.12109e-02,4.15076e-02,-3.90823e-02,-3.22827e-02,-4.04881e-02,1.03327e-01,-3.36545e-02,-5.27889e-03,-1.10013e-01,2.06457e-01,-8.26603e-03,9.13851e-02,6.25183e-02,5.29172e-02,3.21938e-02,4.30825e-02,-6.38559e-02,-1.40521e-01,-3.12226e-02,-5.87292e-02,1.13591e-01,3.51863e-02,-1.35288e-01,1.32921e-01,-8.60367e-02,-1.35147e-01,8.38569e-02,4.37342e-02,2.98814e-02,-5.86507e-03,1.17735e-01,-5.75514e-02,6.43156e-02,-2.60687e-02,-9.54555e-03,-3.43655e-02,9.44277e-02,-8.78322e-02,3.93959e-02,-7.50751e-02,4.74811e-02,-1.64276e-02,-9.38363e-02,-4.40292e-02,-6.62875e-02,1.31649e-02,-1.51755e-02,1.19486e-01,-3.56692e-02,-6.50478e-02,4.73345e-02,1.27422e-03,7.09474e-02,1.51746e-02,-1.03248e-01,-1.33923e-01,-6.82243e-03,5.13316e-02,7.57703e-02,1.48239e-02,7.20671e-03,-2.60234e-02,-6.23924e-02,-1.12453e-01,-6.91807e-03,-3.29058e-02,-4.83284e-02,5.20688e-02,-4.17435e-02,-6.23697e-02,-5.00665e-02,-5.12620e-02,1.53187e-01,5.90603e-02,7.24301e-02,-7.53855e-02,1.05088e-01,-1.65136e-01,6.18201e-02,7.32113e-02,3.99221e-02,1.93272e-01,3.95060e-03,4.68652e-02,9.51213e-02,5.06317e-02,-4.45706e-02,-1.04791e-02,7.66463e-02,-1.25051e-01,6.64894e-02,-1.18053e-02,1.32138e-01,-1.22491e-01,3.55421e-02,4.53075e-02,-1.68453e-01,1.27003e-01,-2.61988e-02,-8.44456e-02,6.83384e-02,1.07351e-02,-6.90419e-03,1.91205e-01,-5.86752e-02,1.16913e-01,1.14239e-01,-9.81835e-03,8.99126e-02,-2.20568e-02,2.93165e-02,-7.28387e-02,9.76222e-02,4.25291e-02,-1.09910e-01,5.93464e-02,4.43269e-02,1.17421e-01,-5.10798e-02,-9.14493e-02,-1.28645e-01,-1.02098e-01,6.26231e-02,1.86684e-01,9.72798e-02,-5.09287e-02,-6.27584e-02,2.34895e-02,-2.03439e-02,7.68675e-03,-1.06995e-02,
2.11159e-02,-9.68190e-02,-1.18508e-01,-2.56186e-02,-4.92128e-02,-9.00826e-02,1.11322e-01,1.58583e-01,-4.62764e-02,1.02651e-02,-5.08041e-03,-6.41744e-02,-6.31402e-03,-7.16050e-02,-6.29053e-02,-3.50353e-02,6.02966e-02,-1.37577e-02,7.61859e-02,1.69891e-02,-3.36943e-02,-4.30886e-03,9.80682e-02,-9.71487e-02,-5.36798e-02,-5.24725e-02,7.80184e-02,-7.83422e-02,2.62289e-03,-2.11256e-02,-6.83660e-02,5.00440e-02,7.48953e-02,-2.46892e-02,-8.84640e-02,-2.94633e-02,2.02886e-02,-6.08087e-02,-1.34162e-01,-1.08249e-02,-8.38690e-02,7.57814e-02,-8.55500e-02,-1.00946e-01,6.80307e-02,3.70184e-02,4.06328e-02,-4.52664e-02,6.16408e-03,-7.26358e-02,2.97721e-02,4.03651e-02,-3.87225e-02,-8.21440e-02,3.95774e-02,-1.12722e-02,5.71087e-02,-7.25066e-02,-6.90480e-02,7.19824e-02,4.76227e-02,1.48978e-02,1.01468e-01,9.43147e-02,-2.81469e-02,-4.28769e-02,9.29751e-02,-9.76417e-02,-1.06903e-01,-1.87501e-02,-4.71625e-02,-9.68635e-02,3.50678e-02,5.45652e-02,-2.96529e-02,-5.81910e-02,4.75814e-02,-1.36092e-02,-1.07015e-01,8.08019e-02,-1.30403e-01,5.33699e-02,-7.97381e-02,8.80362e-02,6.22501e-02,8.98620e-02,6.82044e-02,-1.19636e-01,-7.50174e-02,-8.93644e-05,1.01362e-01,5.14955e-03,9.39938e-02,-2.45053e-02,5.84420e-02,3.39302e-02,-1.26744e-02,3.18323e-02,-9.57328e-03,1.87900e-02,4.27723e-02,-8.73119e-02,-5.94384e-02,-1.21309e-01,-7.64323e-02,2.66120e-02,-6.88026e-02,3.93993e-03,-3.32577e-02,-5.12726e-05,4.09502e-02,-1.65508e-03,-9.28006e-02,-8.10391e-02,-7.73824e-02,5.75802e-02,-1.01118e-01,1.49530e-02,4.78869e-02,7.95146e-02,-4.29057e-02,3.45728e-02,-1.13878e-01,7.32021e-02,-8.10543e-02,-6.87738e-02,-6.43448e-02,3.39896e-02,-5.27988e-03,3.46840e-02,1.15025e-01,-1.46810e-02,-2.33327e-02,2.25076e-03,-1.41619e-02,-8.84632e-02,-9.75716e-02,-1.69099e-02,8.54976e-03,-8.00510e-02,1.98200e-03,-1.06734e-01,7.22048e-02,-2.20193e-02,-8.71543e-02,1.41510e-02,-2.64432e-02,-9.20421e-02,3.66850e-02,3.10237e-02,4.53628e-02,-1.61632e-02,3.50667e-02,1.34807e-01,6.00261e-02,-2.75278e-02,-1.04919e-01,2.81936e-02,3.87740e-02,-4.71311e-03,-1.60924e-02,-4.07752e-02,5.19347e-03,1.33257e-02,-9.82811e-02,-4.16741e-02,4.30204e-02,-5.21461e-02,-5.18756e-02,-8.42967e-03,-6.27286e-02,-1.34769e-01,-1.13902e-03,1.47442e-01,9.13665e-02,5.98785e-02,8.94827e-02,-2.23707e-02,7.44134e-02,3.33014e-02,4.82728e-02,1.00368e-01,4.03494e-02,1.09219e-02,-1.03151e-01,-1.12738e-01,5.39250e-02,1.06718e-01,-3.08467e-02,6.19641e-02,-6.45295e-03,1.72814e-02,-6.32950e-02,-7.07971e-02,6.78576e-02,-6.94591e-02,1.37057e-01,-6.61805e-04,-1.84461e-02,-2.41470e-03,1.69412e-03,-9.07700e-02,1.68039e-02,-1.06771e-01,2.31594e-02,-1.06762e-01,-7.02915e-02,-1.13382e-01,-1.01681e-02,-7.44576e-03,-8.82847e-02,-9.67436e-02,-5.34196e-02,-6.04017e-02,9.44643e-02,6.21852e-02,-6.84143e-02,-7.65837e-02,-4.23778e-02,-9.82642e-02,4.04515e-03,-1.18799e-01,-6.89809e-02,-7.47550e-02,-1.07496e-01,1.11798e-02,-7.67130e-02,9.99408e-02,-1.05694e-02,1.28179e-02,-9.02726e-02,2.08415e-02,-5.65978e-02,7.11378e-02,8.15987e-02,-7.97082e-02,1.43447e-02,8.40978e-02,-7.48538e-02,4.58286e-02,4.07647e-03,1.14347e-02,6.59298e-03,1.87735e-02,-1.03445e-01,-5.90085e-02,8.61204e-02,9.06359e-02,3.28915e-03,-1.19552e-01,
6.13262e-03,-1.14715e-01,9.03093e-02,-1.20274e-01,4.68591e-02,1.33072e-02,7.21719e-02,2.01693e-02,-9.06354e-03,-3.14855e-02,-5.37012e-02,-7.48089e-02,-6.16664e-02,1.27229e-01,6.04370e-02,4.03174e-02,1.24750e-02,-7.33003e-03,9.87716e-02,-9.97147e-02,-1.02738e-01,1.54216e-01,4.50028e-02,-1.37140e-01,-1.15871e-01,-3.41020e-02,-1.17087e-01,3.92655e-02,1.14561e-02,9.48005e-02,-6.05731e-02,2.84795e-02,2.25579e-02,-5.19987e-02,-7.45782e-03,-2.73149e-02,-6.65880e-02,-3.80257e-02,-8.52663e-03,2.52976e-02,-1.35969e-03,9.72586e-03,-7.00034e-02,1.16028e-01,6.74935e-02,-6.31043e-02,4.68672e-02,-4.13749e-02,-3.61487e-02,1.26986e-02,4.23781e-02,1.17077e-01,5.30862e-03,1.09701e-01,-9.55004e-02,-2.80276e-02,-7.45168e-02,7.60385e-02,4.34692e-03,-4.23134e-02,-4.55352e-02,-4.33634e-02,4.87765e-02,2.11115e-03,9.34545e-02,-5.69957e-02,7.18839e-02,5.61531e-02,-8.07614e-02,7.97975e-02,-5.10107e-02,1.64241e-03,6.02023e-02,-4.85563e-02,-6.32239e-02,6.19776e-02,-3.79303e-02,-2.97678e-02,-1.05929e-01,-3.63410e-03,-1.25182e-01,9.04555e-02,8.01233e-03,2.52522e-02,-8.69968e-02,1.33704e-01,-4.81690e-02,2.11504e-02,6.17899e-02,4.29612e-02,-4.62695e-02,-4.64799e-02,8.56499e-02,-4.73621e-02,-1.76568e-02,-1.20351e-01,-1.11105e-01,-1.05974e-01,1.42522e-02,-4.93394e-02,-3.21480e-03,8.01844e-03,-3.14865e-02,2.87586e-02,-3.26019e-02,-8.18227e-02,-1.13777e-02,-3.99008e-02,-4.35927e-02,1.48273e-01,4.07495e-02,5.63350e-02,4.95360e-02,-8.43844e-02,-3.09441e-02,7.15796e-02,1.22988e-01,7.63620e-02,-9.74831e-02,1.33588e-01,-3.56496e-02,1.01064e-01,-2.28248e-02,8.57374e-02,3.51703e-02,-1.05317e-01,-5.44712e-02,2.06545e-02,2.45809e-02,7.16677e-02,-9.16598e-02,-8.81505e-02,1.82845e-02,4.28567e-02,3.61694e-02,-2.29362e-02,7.10847e-03,-5.79354e-02,1.15748e-01,-4.13944e-02,-3.12263e-02,4.81339e-02,-6.78795e-02,6.45628e-02,-1.02024e-01,-3.15469e-02,-1.46047e-01,2.93437e-02,1.81812e-01,5.80775e-02,9.04165e-03,5.97165e-02,9.89016e-02,1.06492e-01,1.04658e-01,-8.78578e-02,-3.96342e-02,9.30484e-02,-1.27371e-02,2.80663e-02,5.94298e-02,1.56603e-02,6.12678e-02,-6.16940e-02,9.16003e-02,-4.93915e-02,-3.98436e-02,1.19833e-02,-1.27404e-02,-4.74728e-02,-9.57306e-02,7.15309e-02,-6.17682e-02,4.40316e-02,-1.10244e-01,-5.67419e-03,-9.06248e-02,1.12669e-01,-4.02168e-02,1.19203e-01,9.27471e-02,2.43704e-03,8.14773e-02,6.42199e-02,2.89719e-02,2.94876e-02,-1.04067e-02,-4.33123e-02,-9.89646e-02,-4.17485e-02,1.26754e-01,-8.77772e-02,-1.01976e-01,-1.82266e-02,-2.33920e-02,-8.92000e-02,1.16423e-02,1.08268e-01,-3.66630e-02,1.61788e-01,-2.49065e-02,1.13089e-01,-1.73196e-02,2.44794e-03,-5.13871e-02,7.64865e-02,-8.83559e-02,-3.95218e-02,8.76732e-02,3.00553e-02,2.79558e-02,4.88747e-02,-2.88212e-02,7.81229e-02,-2.78802e-02,4.01020e-04,-4.74829e-02,5.39510e-02,5.36609e-02,2.31273e-01,3.03522e-02,-1.18205e-02,9.31854e-02,-7.86736e-02,6.28570e-03,7.32542e-02,-3.90410e-02,-5.38376e-02,-4.75410e-02,-6.81543e-02,1.17908e-01,1.26668e-01,-1.22182e-02,4.58669e-02,2.17429e-02,-1.34797e-01,1.17266e-01,-1.06362e-01,1.55467e-01,-3.26948e-02,-1.08773e-01,7.40320e-02,3.19088e-02,4.93779e-02,-8.57114e-02,4.03263e-02,-1.92853e-02,1.00901e-01,-1.21051e-01,-7.91507e-02,
-2.15738e-01,1.21333e-03,-2.11853e-02,2.97401e-02,-5.88496e-02,-8.48676e-02,3.59266e-02,3.38436e-01,-5.60871e-02,-5.18220e-02,-1.06985e-01,-3.69902e-02,1.52670e-02,3.16365e-02,1.40974e-01,-1.97393e-02,-1.23824e-01,3.22697e-02,-4.76632e-02,-5.77055e-02,3.29396e-02,-1.60702e-01,6.04855e-02,-1.04931e-02,-1.12988e-01,-5.72960e-02,-1.22350e-01,-5.09404e-02,7.07422e-02,-2.55613e-02,-4.61060e-01,-9.60660e-02,-4.96917e-03,1.16653e-02,1.50688e-02,-2.59056e-02,1.22038e-01,-1.79855e-02,-2.86451e-03,-7.50871e-02,-4.58494e-02,1.42311e-02,-2.06999e-04,-5.27400e-02,-7.37455e-02,-1.79879e-02,-8.26471e-02,-1.36441e-02,7.28350e-02,3.65084e-02,4.58841e-02,4.23207e-02,6.80169e-02,7.65711e-02,-6.19554e-02,8.82689e-02,8.20529e-02,-1.76243e-01,-8.46607e-02,8.84891e-02,3.45675e-02,1.45815e-01,-3.71653e-03,-1.95184e-01,1.18644e-01,-1.09860e-01,-9.71098e-02,5.50786e-02,-1.39517e-01,-1.21535e-01,8.27800e-02,1.75542e-02,3.30099e-02,1.25650e-02,3.23336e-02,-2.27378e-01,-6.30974e-02,-5.99371e-02,4.15401e-02,1.30823e-01,-5.46411e-02,-4.35399e-02,7.25606e-02,-6.10387e-02,-1.64200e-01,-1.56955e-02,-3.80672e-02,-1.08729e-01,9.45872e-03,-3.07750e-02,2.72717e-02,1.12280e-01,-1.09885e-01,-3.16015e-02,1.46334e-01,-6.90524e-02,-1.26600e-01,6.61415e-02,-8.98132e-02,1.21519e-01,2.67126e-01,2.14670e-01,-3.59110e-02,7.14377e-02,1.00857e-01,-1.57900e-02,1.63519e-01,-4.93201e-02,6.82935e-02,6.87971e-02,6.21213e-02,-5.67674e-02,1.76535e-01,-1.45202e-01,1.18697e-01,-9.95331e-02,-1.16783e-01,-1.14007e-02,4.61577e-03,3.31784e-01,5.15597e-02,3.16660e-02,-1.58959e-01,-1.43989e-01,-5.46306e-02,-1.56724e-01,5.81977e-02,-1.14714e-01,-8.87243e-02,-2.56678e-02,-4.77402e-02,3.99588e-02,-6.08795e-02,-8.85539e-02,7.43595e-02,1.04091e-01,5.13046e-02,2.63496e-02,-2.06241e-02,1.39091e-01,-5.98983e-02,-4.00653e-01,6.49527e-02,1.53169e-02,-3.04496e-03,-5.82248e-02,-7.64205e-02,1.10173e-01,6.34189e-02,-7.10598e-02,1.87054e-02,-4.16213e-02,-1.21830e-01,3.91209e-01,2.65916e-01,1.28988e-02,-3.07762e-02,-6.23536e-02,5.55206e-02,-1.19231e-01,2.38855e-02,7.60312e-02,2.95831e-02,8.04169e-02,5.34835e-02,-1.57550e-02,1.31393e-01,-1.29835e-02,2.25553e-01,-7.75861e-03,-5.03413e-02,-5.78128e-02,-1.02594e-01,4.87569e-02,-2.98724e-01,-4.31368e-02,7.60017e-02,8.68192e-02,5.47151e-02,-1.15322e-01,7.82623e-03,8.25411e-02,9.14648e-02,6.83254e-02,1.10174e-01,3.16663e-02,4.25647e-02,1.38876e-01,7.12849e-02,7.23586e-02,8.40910e-02,2.98622e-02,-3.73088e-03,-3.84562e-02,-1.85829e-01,1.66519e-01,1.06279e-01,1.45881e-01,6.59953e-02,1.36712e-01,9.55211e-02,-1.92762e-02,-1.09189e-01,-1.03789e-02,2.76042e-02,-1.88673e-02,-4.78991e-02,-2.76383e-02,-1.58282e-01,-7.64926e-02,-8.75546e-03,-2.16609e-04,-7.66321e-03,4.29788e-02,-1.35346e-01,3.05571e-02,1.11850e-01,-4.48474e-02,-4.07731e-02,4.99882e-02,-1.84833e-01,-1.18791e-01,1.23617e-01,-5.47032e-02,5.28824e-02,3.67496e-02,-1.34345e-02,-6.11886e-02,1.53915e-02,-5.94444e-02,1.77005e-02,-1.89710e-02,5.51106e-02,-1.10463e-02,-8.45929e-02,3.72850e-02,1.54720e-02,5.56261e-02,3.71591e-02,4.13145e-02,5.45543e-02,-2.91302e-01,-1.27324e-01,-8.19085e-02,-8.57661e-02,-7.64833e-02,1.33325e-01,-7.95273e-02,-6.51469e-02,-2.12571e-02,
9.73317e-02,5.81796e-02,2.33371e-02,-1.08482e-01,1.74908e-02,7.66675e-02,-7.47521e-03,-4.88309e-01,-1.20921e-01,5.29114e-03,3.87101e-02,1.20001e-01,9.45687e-02,1.85679e-02,-2.13696e-04,-6.34284e-02,7.29480e-02,6.69548e-02,1.17185e-02,-9.24713e-02,5.60148e-02,3.57950e-01,-6.92824e-02,-9.57888e-02,4.90098e-02,-1.37617e-01,-9.54361e-02,-8.38878e-02,2.46403e-02,9.55903e-02,5.31875e-02,3.61482e-02,1.04916e-02,5.62881e-02,7.08642e-02,-2.08505e-02,9.28301e-02,8.39737e-02,2.92996e-02,9.13912e-02,5.51801e-02,8.65301e-02,4.53455e-02,-9.91351e-02,2.90877e-03,1.17364e-01,3.84814e-02,9.31751e-02,2.23156e-02,-4.72314e-02,-1.65118e-02,-8.57285e-02,3.03556e-02,7.53655e-02,1.24765e-02,1.49450e-01,-8.68168e-02,-1.08153e-02,5.51205e-02,4.69719e-02,-9.85145e-02,-2.91814e-02,1.18509e-01,1.96329e-02,-1.22538e-01,3.84357e-02,-7.85426e-02,8.61725e-02,-2.56696e-02,1.03810e-01,-1.14606e-03,2.63194e-02,-3.89914e-03,-6.55188e-02,-2.28394e-02,-8.09697e-02,3.77418e-02,-4.65532e-02,5.57288e-02,-9.77156e-02,-9.62692e-02,2.15175e-02,-5.33341e-02,-4.01057e-04,-2.30558e-02,-6.02822e-02,6.19759e-02,5.60930e-02,-9.54831e-02,-1.73449e-01,1.09457e-01,-5.21348e-02,-1.04564e-03,1.28241e-02,9.18391e-02,-7.45512e-02,3.47837e-02,-7.47341e-02,-4.56885e-03,-2.09806e-02,-4.04820e-02,-7.66994e-02,-1.49074e-02,2.09703e-03,9.14633e-02,4.34809e-02,3.50523e-02,1.24551e-01,-1.26621e-01,-1.06623e-02,-1.09778e-01,-6.06194e-02,9.71596e-02,-7.18575e-02,-1.74882e-01,2.35453e-02,-7.95395e-02,-8.59776e-02,-2.36377e-02,-2.77068e-01,3.57949e-02,1.28591e-03,-4.57532e-02,2.44331e-02,-4.63894e-03,-8.08840e-02,1.07804e-01,1.18977e-02,-1.47321e-01,-9.17477e-02,-8.23883e-02,-5.66495e-02,-1.95052e-02,2.94902e-02,3.66242e-02,3.12405e-02,8.45128e-03,7.13440e-02,1.01932e-02,-1.42967e-01,-6.10602e-02,6.66902e-02,9.13969e-02,-7.30780e-02,4.51686e-02,1.38864e-02,-6.44192e-02,-9.81059e-02,1.12291e-02,-6.95090e-02,6.49332e-02,8.64114e-02,-6.04728e-04,-3.78721e-01,-4.05607e-03,-5.76243e-03,7.98852e-02,-2.29824e-02,5.66444e-02,7.98338e-02,5.21605e-02,1.25562e-02,-1.13956e-03,-8.07872e-02,7.46353e-02,-1.84975e-02,-4.45938e-02,-6.89185e-02,5.52873e-02,-7.68028e-02,2.57497e-02,3.70323e-02,2.47384e-01,-4.72542e-02,1.98169e-01,-2.87893e-02,-9.21716e-02,7.40960e-02,1.00350e-01,8.47779e-03,6.04031e-02,-2.26796e-03,-2.09985e-02,-3.42652e-02,4.03595e-02,-2.69218e-03,1.20007e-01,-4.76497e-02,7.36663e-02,9.83302e-02,9.55852e-02,-7.59392e-02,8.65578e-02,8.49352e-02,-1.07476e-02,9.64028e-02,-1.80873e-01,-1.35036e-01,-1.00578e-02,-5.06351e-02,-4.07310e-02,-4.50870e-02,2.00348e-02,-5.36931e-02,-2.91241e-02,-9.58661e-02,-1.01442e-01,-1.11596e-02,-2.94057e-02,9.40344e-02,6.98118e-02,1.20772e-01,-7.12796e-02,-6.89397e-02,5.48432e-02,2.89123e-02,-8.56813e-02,1.19328e-02,-3.20617e-02,-1.43004e-01,-9.52827e-02,-7.82025e-02,-9.19106e-02,1.06426e-01,7.55159e-02,2.02723e-01,-1.12786e-01,1.06879e-01,-1.16632e-01,1.13504e-01,-7.71964e-02,-1.05711e-04,5.28931e-02,-3.13881e-05,-8.30066e-03,-7.57765e-02,8.93477e-02,-8.84483e-02,-1.23710e-02,4.27085e-02,2.47814e-03,-3.67567e-02,-5.35681e-03,-6.93862e-02,4.88854e-02,-5.04969e-02,-3.88469e-02,1.06708e-01,-2.52861e-02,1.25688e-02,
9.29936e-02,1.02635e-01,-7.64896e-03,-6.64300e-02,-2.04229e-03,8.84279e-02,1.61879e-02,2.54354e-01,-6.07253e-02,6.57818e-03,-2.57132e-02,-4.02437e-02,-8.75026e-02,-5.13657e-02,-2.67317e-02,-1.12847e-01,-7.57636e-02,6.93854e-02,9.21560e-02,1.14247e-02,-5.71261e-02,-7.50660e-02,1.05836e-01,-9.96402e-02,-8.44889e-02,1.16445e-01,4.56461e-02,-1.37966e-01,7.91578e-02,-6.24502e-02,9.05021e-03,-1.01240e-02,5.79036e-02,-3.68033e-02,6.81545e-02,-1.27938e-02,6.58932e-02,3.39114e-02,-1.00183e-01,1.03735e-01,1.08611e-01,8.14373e-02,-5.14357e-02,1.21027e-01,-9.02510e-02,-4.25560e-02,-1.07125e-01,3.18575e-02,9.50719e-03,-1.91320e-02,1.73091e-02,1.01320e-01,3.82319e-02,-2.10878e-02,-4.29965e-02,-1.28600e-01,1.23022e-01,-2.52162e-02,-5.31599e-03,-3.72028e-02,2.34086e-02,-6.25869e-02,-1.06609e-01,9.56768e-02,1.86787e-01,3.26378e-02,-5.82287e-03,1.29065e-02,-1.03093e-01,2.63158e-02,8.09038e-02,8.70777e-02,4.76272e-02,-9.18103e-02,9.49899e-02,-1.28441e-01,-3.10787e-02,7.76885e-02,1.81854e-02,8.17329e-02,-2.47753e-02,-8.52513e-02,-1.32802e-01,7.73327e-02,-7.97108e-02,-1.27081e-01,-2.19973e-03,-6.31577e-02,8.68184e-02,1.65498e-02,-6.88936e-02,-5.26720e-02,1.86378e-02,3.76161e-02,-3.49362e-02,-1.14270e-01,7.61595e-02,-9.32231e-02,1.16810e-01,7.43589e-02,1.01584e-01,-1.44527e-01,2.17294e-03,4.63265e-02,-4.23931e-02,-1.39369e-02,4.92756e-02,-6.70141e-02,-8.67347e-02,1.45619e-01,1.13135e-01,4.55512e-02,-2.82964e-02,6.99016e-03,-5.14165e-02,-1.04898e-01,1.19211e-01,-1.91968e-02,-1.45289e-02,4.78100e-02,-1.41091e-01,1.06065e-01,7.53145e-02,-2.54654e-02,-1.71055e-02,-3.67125e-02,-3.57509e-02,-9.60803e-02,5.11706e-02,-6.68800e-02,1.84608e-02,-1.04054e-01,4.73878e-02,-4.90809e-02,-1.29025e-01,-1.14735e-01,-1.31167e-01,5.44383e-02,-1.98906e-02,-8.92490e-02,9.50294e-02,-1.54075e-01,-7.31447e-02,9.00225e-02,2.08280e-02,5.37650e-02,1.57565e-02,-5.68669e-03,2.13593e-02,4.25485e-02,-8.78017e-02,9.15643e-03,-6.91976e-02,2.26059e-01,-1.24549e-01,-9.87576e-02,1.87902e-02,5.73960e-02,-8.73872e-02,-2.77053e-02,-5.49402e-02,-3.81501e-02,-3.87923e-02,-3.45604e-02,-2.10414e-02,-9.58894e-02,8.85025e-02,8.86049e-03,2.26184e-02,-1.84419e-02,5.19404e-02,2.74004e-02,-8.80747e-02,-1.22121e-01,-8.24563e-02,9.38754e-02,-4.20200e-02,-4.81862e-02,-3.19031e-02,4.75452e-02,4.82389e-02,1.49882e-01,9.92375e-03,-3.54533e-02,9.96146e-02,-1.98221e-02,-6.74923e-02,5.43951e-02,1.34977e-01,-1.33120e-01,7.57592e-02,-2.24609e-02,1.51291e-02,-1.00540e-01,-6.37773e-02,8.90137e-02,1.61501e-01,4.02045e-02,3.55601e-02,-5.35667e-02,7.21000e-02,2.71176e-02,-4.17724e-02,4.08315e-02,-7.20438e-02,8.37424e-02,-1.05943e-01,1.76935e-02,3.86954e-03,6.37991e-02,6.38013e-03,-9.55593e-02,-6.31003e-02,4.54313e-02,-3.21030e-02,-1.81987e-01,1.50662e-01,4.83611e-02,-1.28008e-01,-1.31722e-01,-1.03217e-01,-6.73378e-02,1.08236e-01,-9.41581e-02,4.56446e-02,-9.80580e-02,1.07287e-01,-8.60091e-02,-7.79259e-02,7.17086e-02,-2.26324e-03,4.10418e-02,-1.48334e-01,-1.49291e-01,2.46578e-02,-2.97944e-02,1.08933e-01,-6.52213e-02,1.87272e-01,1.11611e-01,2.13309e-02,5.53660e-02,7.65695e-02,6.09203e-02,5.37482e-02,-9.84075e-02,-2.29867e-02,-2.77620e-02,1.13490e-01,8.23856e-03,
7.24633e-02,-8.51093e-02,-9.77945e-03,5.21221e-02,-1.00974e-01,1.99329e-02,5.03369e-02,1.41711e-01,-1.95207e-02,1.08508e-03,-4.10067e-02,1.55583e-02,7.58764e-04,-1.59317e-01,-1.53284e-01,3.69308e-02,-3.29234e-02,9.03881e-03,-1.28960e-01,-1.59069e-01,-8.74564e-02,-1.81396e-01,-2.32270e-02,-1.13852e-01,-1.33926e-01,3.03058e-02,5.02185e-02,-7.36435e-02,9.56605e-03,-2.03022e-02,-4.19546e-02,7.46369e-02,-4.98039e-02,-1.84823e-01,-1.09310e-01,-9.12998e-02,-6.15369e-02,2.71449e-02,8.24933e-02,2.70105e-02,-6.49226e-02,-1.68271e-02,1.77433e-02,3.94282e-02,7.10170e-02,-7.27441e-03,1.64806e-02,9.48839e-03,-1.05805e-01,3.31521e-02,9.70196e-03,2.95808e-02,-1.44549e-01,-8.65951e-02,2.19310e-02,-2.28392e-01,-9.83177e-02,3.82858e-02,6.91895e-02,3.96588e-02,1.98401e-02,2.96126e-02,-1.11362e-01,-1.55898e-01,-5.54033e-02,-1.13251e-01,8.49290e-02,-3.85151e-03,7.46794e-02,-1.22339e-01,-1.06706e-01,3.40739e-02,3.19129e-01,-1.21830e-01,-1.38240e-02,2.34522e-02,-1.86680e-02,-9.67434e-02,6.05451e-02,-9.40750e-02,-9.51868e-02,4.08013e-02,7.24965e-02,5.24197e-02,-1.03130e-01,-9.06002e-02,-8.27187e-02,6.32542e-02,8.19025e-02,1.95591e-02,-1.64465e-01,-6.04536e-02,8.10419e-02,-7.43794e-02,3.08566e-02,-9.78648e-02,-9.32152e-02,-6.03539e-02,-5.23905e-02,-3.05112e-02,8.23494e-02,-1.12872e-02,-1.10157e-01,-7.57158e-02,-4.03513e-02,-8.37078e-02,-3.03778e-02,3.38313e-02,3.88702e-02,1.16715e-02,-9.95995e-02,7.60893e-02,4.33309e-02,8.21426e-02,-1.28530e-01,-8.72845e-02,-1.18272e-01,-3.22548e-02,-1.75067e-02,3.44145e-01,-1.10634e-01,-1.35704e-01,3.56999e-02,3.74579e-02,-1.29077e-01,-2.12226e-02,1.04296e-01,7.02293e-02,-1.31188e-01,1.97979e-02,-5.42920e-03,-7.32668e-02,-4.58550e-02,-2.52882e-02,-9.32884e-03,-3.83802e-02,-5.08046e-02,-7.51372e-02,5.30105e-02,-1.34669e-02,-8.79258e-02,-1.26203e-02,-7.26041e-02,9.80091e-02,1.72254e-02,6.61405e-02,6.85006e-02,-1.14097e-01,-1.79033e-01,-2.70584e-02,1.58288e-02,3.10116e-02,4.53908e-02,1.70863e-01,3.92322e-02,5.50697e-02,4.89548e-02,-2.64633e-02,-1.40547e-01,-2.63554e-02,-7.79616e-02,4.52305e-02,-9.71769e-02,-8.65201e-02,-6.84058e-02,2.92490e-02,-2.45534e-02,-1.64037e-01,-1.14157e-01,-1.34584e-02,-7.74936e-03,4.98689e-02,-4.71903e-02,-2.50241e-01,-7.36369e-02,-6.64454e-02,-1.94627e-02,-9.12118e-02,9.32318e-02,-1.06618e-01,7.68701e-03,1.43224e-01,3.48041e-02,5.74312e-03,-1.27939e-02,7.99392e-03,-4.97022e-02,-2.32561e-01,6.91154e-02,-1.15825e-01,-9.76403e-02,-1.92439e-01,-1.32101e-01,4.86615e-02,4.14606e-02,-1.73627e-02,7.00683e-02,-3.51154e-02,5.99364e-02,3.38644e-02,-3.72145e-03,5.34712e-02,-4.09736e-02,6.83046e-04,-1.38088e-02,2.45517e-02,-1.24552e-01,-6.75267e-02,4.91876e-02,-1.61612e-01,5.87709e-02,5.32572e-03,1.05450e-01,-5.96901e-02,-1.17976e-01,4.30717e-02,1.15303e-01,-9.37333e-02,4.24410e-02,7.06496e-02,-9.46723e-02,5.96549e-02,6.40650e-02,-4.15838e-02,-1.42476e-01,8.55364e-02,-1.45947e-02,-3.95284e-02,3.86767e-02,1.87097e-02,3.65228e-02,-1.27651e-02,3.35422e-03,-5.72958e-02,-4.46729e-03,4.59664e-02,-8.10825e-02,-7.09363e-02,-6.23648e-02,-2.54281e-02,-2.47579e-02,-3.08771e-02,2.73859e-02,-3.07860e-02,8.96699e-03,-1.15747e-01,-5.74667e-02,-7.05236e-02,1.83903e-02,-9.41633e-02,
-1.02251e-01,6.42452e-02,-6.37605e-02,1.34355e-01,8.19934e-02,-5.61900e-02,6.40922e-02,-3.08587e-02,-2.79985e-01,-8.18724e-02,1.49181e-02,-8.60262e-02,-6.55514e-02,8.11641e-03,7.03530e-02,-2.93347e-02,-2.06244e-02,7.16906e-02,-1.54100e-01,-1.12577e-01,3.78973e-03,5.10816e-02,-1.23170e-01,3.21388e-02,1.78033e-03,-6.57251e-02,5.51170e-02,-5.02521e-02,-5.81150e-02,-1.13063e-01,-1.23668e-01,-1.49067e-02,-7.36890e-05,-6.92803e-02,-7.28140e-02,1.30183e-02,3.15746e-03,-1.06615e-01,1.09314e-01,9.55232e-03,4.40769e-02,-4.00214e-02,-6.97033e-02,-2.83476e-02,-7.57297e-02,-6.29233e-02,7.89122e-02,-9.94597e-02,6.46655e-02,6.36002e-02,-2.46686e-02,1.57659e-02,-8.44908e-02,5.07142e-02,3.93272e-02,-1.99572e-02,-6.05844e-02,-1.49377e-01,-4.49441e-01,-6.37500e-02,1.08261e-01,-2.47629e-01,8.70690e-02,5.04016e-02,-2.16334e-01,-9.46554e-02,-2.73878e-04,-1.01066e-01,-7.35497e-02,-1.05326e-01,7.04163e-02,3.28591e-02,-4.62954e-02,-9.12317e-02,5.03156e-02,1.23454e-01,-3.15973e-03,-9.42877e-02,8.16248e-02,-1.14159e-01,7.90000e-02,-1.11184e-03,-4.66514e-02,2.36490e-02,-6.90339e-02,-1.24663e-02,6.57721e-02,1.00962e-01,5.16745e-03,7.08008e-02,2.54091e-02,5.19474e-02,3.12925e-02,-2.17298e-02,-8.06173e-02,9.72812e-02,7.55103e-02,-1.12818e-02,-6.56417e-02,6.78887e-03,7.10094e-02,1.20917e-01,-3.71501e-02,-1.13610e-01,-7.83337e-02,3.17228e-02,6.25022e-02,-6.24018e-02,9.00721e-02,-1.20515e-01,8.21256e-02,-4.40830e-02,1.26214e-01,-8.92207e-02,-5.80672e-03,3.22015e-03,-5.64070e-02,-5.75411e-02,-7.76554e-02,6.33618e-02,7.00336e-02,-6.43955e-03,1.10050e-01,2.50057e-02,-9.54547e-02,-1.33263e-01,1.05089e-01,-9.48663e-02,-1.14517e-01,-5.27960e-02,7.85743e-02,4.07172e-02,1.22985e-02,-1.22329e-01,-7.48816e-03,4.49868e-02,-2.35320e-04,4.43720e-02,-3.25604e-02,6.41082e-02,-3.97170e-02,6.17422e-02,-6.94540e-02,4.25871e-02,2.05737e-02,-1.23319e-02,-1.05016e-02,-1.21363e-03,4.09501e-02,-1.39115e-02,-1.05678e-02,-8.50136e-02,-8.62128e-02,-1.61718e-02,-6.79425e-02,-1.09256e-01,1.71206e-02,6.48392e-02,2.54730e-02,-7.12025e-02,6.68247e-03,-1.26620e-02,9.01840e-02,-2.77106e-02,1.82319e-02,4.75587e-02,-1.52638e-01,-2.88878e-02,1.22725e-01,9.12422e-02,-6.19990e-02,-1.61087e-02,-5.79146e-02,1.11746e-01,5.37073e-02,-6.52157e-03,-2.29979e-01,-5.43332e-02,3.54821e-02,4.17584e-02,-9.63410e-03,-5.20053e-02,1.79737e-02,-3.80310e-02,8.66580e-02,-1.07099e-02,6.76075e-02,5.01621e-02,6.87559e-02,-3.08057e-03,-8.41653e-02,-1.52800e-01,-1.04375e-01,9.32391e-02,5.51672e-02,1.03961e-01,7.28108e-02,-1.39887e-01,-3.01944e-02,-1.12578e-02,-2.10493e-01,-8.27194e-02,4.55256e-02,1.31334e-05,-1.03178e-01,-1.41378e-01,6.27495e-03,-1.02705e-01,4.10044e-02,-1.04432e-01,4.79479e-02,5.22002e-02,3.06372e-02,-1.16642e-01,1.04871e-01,-1.45446e-02,1.34113e-01,-7.39114e-03,7.92993e-02,4.25778e-02,5.51033e-02,7.79438e-02,-6.47097e-02,-8.13644e-02,-4.34989e-02,-5.46840e-02,-1.05453e-01,6.92110e-02,-3.67662e-02,-3.16770e-03,-1.71154e-02,-2.57499e-01,-1.42748e-01,-7.39410e-02,-2.18013e-02,-3.48311e-02,-9.23079e-02,6.99667e-03,-4.60079e-02,-6.66966e-03,7.83647e-02,7.10315e-02,-6.38673e-02,6.75684e-02,-1.11233e-01,-4.64194e-02,-9.95636e-02,3.45760e-02,3.41201e-02,-5.00784e-02,
7.81327e-02,9.62662e-02,4.66493e-02,-1.27532e-01,4.63364e-02,-1.64647e-03,8.64519e-02,1.35083e-01,1.32488e-01,-2.75337e-02,-4.94629e-02,-1.31886e-02,-1.33391e-02,-8.58000e-02,-1.44799e-01,-7.10835e-02,3.84281e-02,8.83952e-02,4.70023e-02,7.33697e-03,1.31821e-01,-1.22363e-02,-4.48494e-02,9.18856e-02,-1.38917e-01,-1.06293e-02,7.53385e-02,1.92889e-04,8.97725e-02,3.01841e-02,6.06270e-02,-1.52188e-01,-5.91065e-02,-4.71179e-02,-9.99784e-02,1.08779e-01,-1.00950e-01,2.50918e-02,-3.13606e-02,-1.57714e-02,5.30682e-02,5.10570e-02,-4.18791e-02,2.13194e-02,-1.12290e-01,-9.78772e-02,-6.24486e-02,3.81534e-02,5.61959e-03,1.09225e-01,-8.69361e-02,5.68624e-02,9.12249e-02,-1.54432e-01,-1.16549e-02,-1.91950e-01,2.68821e-02,-5.27643e-02,-2.35400e-02,-4.16685e-02,1.11804e-01,-7.98427e-02,-5.22492e-02,9.44209e-02,6.72944e-02,9.57543e-02,-5.59846e-02,-3.65029e-02,-5.29290e-02,5.26975e-02,-3.44720e-02,-3.90809e-02,-1.69528e-02,-8.08704e-02,-9.17050e-02,-4.97258e-03,-1.80679e-02,-7.11017e-02,-5.55308e-02,9.78526e-02,7.71045e-02,5.39959e-03,-3.51871e-02,-1.17655e-01,-1.23616e-01,-1.06799e-01,-4.06012e-02,-1.09279e-01,-3.06717e-02,5.16929e-02,2.19246e-02,6.24973e-02,8.93410e-02,-1.17931e-02,3.32381e-02,5.50890e-03,-3.93965e-02,-4.71278e-02,1.38306e-02,-3.06069e-02,5.19643e-02,9.26032e-03,-6.09884e-02,-7.49992e-02,-5.08991e-02,8.87701e-02,2.41808e-02,-1.61127e-02,1.00227e-01,-1.81488e-01,-3.75848e-02,-2.89332e-03,-1.23610e-01,1.00849e-01,1.06598e-01,2.95347e-02,-2.93891e-02,-8.36639e-02,2.11976e-02,1.26051e-01,-1.66617e-01,4.92941e-03,-5.00295e-03,-3.44956e-02,6.26544e-03,-2.07896e-02,9.40583e-02,-7.95394e-02,-1.65050e-01,-3.43952e-02,1.27671e-01,-6.51032e-02,-5.22676e-02,2.89145e-03,-7.25761e-02,7.93729e-02,6.28824e-02,7.61510e-02,6.39771e-02,-5.94636e-02,-1.06511e-01,4.84373e-03,-6.67733e-02,1.14155e-01,-5.17137e-02,-3.51288e-02,-8.43709e-02,1.14920e-01,-2.37848e-02,-2.30154e-02,2.20188e-02,3.98872e-02,-5.77709e-02,1.85211e-01,1.19341e-01,1.06312e-01,-1.49978e-01,-6.71867e-02,-7.44348e-02,6.30901e-02,1.21107e-01,4.19802e-02,9.47817e-02,1.09864e-02,-4.93704e-02,-9.93437e-02,-1.17252e-01,-8.54084e-02,-1.68991e-01,-1.24251e-02,-6.65354e-02,-1.15711e-01,-1.43461e-01,-4.32729e-02,4.28031e-02,1.10659e-01,-3.20588e-02,-1.02367e-02,-2.75422e-02,-4.63394e-02,-4.58050e-02,-4.79182e-03,1.03605e-01,-9.66888e-02,-1.02133e-01,6.61335e-02,-1.69743e-02,-1.32674e-01,-2.42013e-02,-5.39231e-02,-7.11390e-02,4.95882e-02,8.34529e-02,3.02264e-02,8.36705e-02,-1.66084e-01,1.30704e-01,-8.48413e-02,-8.39419e-02,4.24791e-02,7.91412e-02,-6.65947e-02,7.09393e-02,-7.43133e-02,-3.99930e-02,-1.04107e-01,-5.80829e-02,7.89248e-02,3.14388e-02,-5.49148e-02,-3.30730e-02,1.97963e-02,-1.18079e-02,3.47611e-02,-2.36166e-02,-1.07465e-01,-1.11618e-01,-4.62746e-02,-8.24238e-02,-4.05153e-02,-1.65431e-03,-9.11957e-02,8.10308e-02,-5.30888e-02,-6.49571e-03,1.04092e-01,-7.03368e-03,-1.34390e-01,7.14509e-03,4.97318e-02,9.72855e-02,-8.36908e-02,-1.39435e-01,-9.21433e-02,-5.63508e-02,-6.07699e-02,7.77738e-02,-3.10386e-02,-1.28081e-02,-1.21609e-01,-4.51031e-02,-7.46026e-02,2.08699e-03,-5.57526e-02,7.94567e-02,-6.48817e-02,-1.08715e-01,1.24768e-01,-6.37070e-02,7.27450e-02,
7.24424e-02,-8.59160e-02,2.47507e-02,8.46080e-02,5.28375e-02,-8.15516e-02,-1.28011e-01,1.09876e-01,1.38746e-01,-1.17288e+00,5.23865e-02,-9.41264e-03,1.55504e-03,1.62051e-01,1.15224e-01,1.63457e-02,-2.59086e-02,-2.01440e-01,-1.07793e-01,-2.55951e-01,-2.21242e-01,-7.03653e-02,1.40184e-01,9.96099e-02,1.45382e-01,3.64647e-02,-1.02632e-01,8.36940e-02,3.89146e-02,7.60976e-02,9.77631e-03,1.31637e-01,-5.39167e-02,1.28796e-01,8.37230e-03,8.62136e-02,-4.52384e-02,1.59517e-02,4.80372e-02,-9.88016e-02,1.18478e-01,6.11772e-02,4.40851e-02,-2.92441e-02,-1.47080e-02,-2.10124e-02,-9.45269e-02,8.23623e-02,4.31082e-02,3.95820e-02,-1.31739e-03,-6.68829e-02,-3.79113e-02,-1.09016e-03,-5.13838e-02,9.34301e-02,1.11128e-01,-2.92023e-02,3.23333e-01,1.08508e-02,2.10425e-02,3.15174e-02,-4.40714e-02,-4.30800e-01,-9.29416e-02,5.49406e-02,-7.57428e-02,1.03919e-01,-6.04505e-01,6.09815e-02,-6.14338e-02,8.24339e-02,8.16917e-02,-2.19781e-02,-7.47474e-02,-3.08454e-01,3.66226e-02,4.12641e-02,3.11595e-02,6.45177e-02,6.52712e-02,-1.02025e-01,-1.69928e-02,1.89807e-01,-9.13832e-02,1.04125e-02,8.13802e-02,3.54728e-02,-1.13549e+00,-9.32286e-02,-3.65618e-03,-1.77040e-02,1.04419e-02,1.08877e-01,1.63373e-02,-2.73376e-01,1.26852e-02,1.17535e-01,1.01094e-01,1.86453e-02,-3.25246e-01,-1.53048e-01,3.81119e-02,-2.03753e-02,1.12699e-01,2.47019e-01,6.64662e-02,6.47482e-02,3.41869e-02,1.31359e-01,-6.79663e-02,-6.06119e-02,1.36476e-01,-2.27854e-01,2.47090e-02,7.68076e-02,-6.06065e-02,1.08169e-02,-1.39185e-01,-4.03114e-01,-3.41140e-02,-7.37425e-02,8.67184e-02,-7.38163e-02,-9.17474e-02,1.46962e-01,-5.32235e-02,-1.18309e-01,-9.10718e-02,-9.84894e-03,6.97831e-02,2.54410e-02,3.16840e-02,-1.34390e-02,9.32015e-02,8.47689e-02,8.90503e-02,-3.97942e-02,-4.90940e-02,4.38479e-02,-5.98636e-02,-1.21835e-02,-1.04059e-01,3.79551e-02,3.85721e-02,-8.14421e-03,7.54189e-02,-6.91339e-02,4.29991e-02,-5.41030e-02,5.03977e-03,-7.17742e-02,-8.00597e-02,-4.64193e-01,-7.80118e-02,-9.37570e-02,3.66945e-03,7.95123e-02,1.68645e-02,-3.22640e-02,-3.03624e-02,-3.44793e-02,-3.23746e-02,6.24362e-02,1.30716e-01,5.60623e-02,7.11416e-02,-3.50230e-02,-4.90179e-02,-5.33248e-02,-6.02912e-02,-3.78228e-02,-8.31291e-01,-5.06486e-03,1.92451e-01,-4.72269e-02,-1.22982e-01,-5.60851e-02,5.24125e-02,4.52565e-02,-2.41108e-02,-4.53222e-01,-2.32387e-02,-1.54361e-02,-1.17794e-01,-4.41836e-02,9.61833e-03,-8.32708e-02,1.42329e-02,2.98533e-02,4.88183e-02,7.84229e-02,-5.10090e-04,-7.76938e-02,-8.27873e-02,6.63241e-02,6.28497e-02,-1.25645e-02,1.18680e-01,1.11918e-01,3.35930e-02,1.55559e-01,9.68711e-02,8.04068e-02,1.58263e-01,-7.47413e-02,-2.63242e-02,9.69237e-02,3.17086e-02,-1.28661e-01,-3.02482e-02,-1.00068e-01,7.02743e-02,1.19816e-01,7.41067e-02,5.71916e-03,-2.68399e-01,1.42017e-01,-7.15818e-02,4.56568e-02,2.65698e-02,-6.02314e-02,7.57509e-02,5.20789e-03,1.09329e-01,1.05934e-01,6.66858e-02,-1.37733e-01,-2.43724e-02,8.81711e-02,-1.01781e-01,6.69593e-02,-4.57745e-02,8.44754e-02,-7.06527e-03,-8.30987e-02,-3.81451e-02,6.80694e-02,-2.03836e-01,7.16211e-02,-2.57591e-02,-1.07650e-01,9.07615e-02,9.20255e-02,-4.85479e-02,4.97832e-02,1.98906e-02,-3.73030e-02,-3.79261e-01,1.53615e-02,
6.87091e-02,2.30817e-02,8.47639e-03,-3.58408e-02,-8.78098e-02,1.03366e-01,-3.28104e-02,1.60320e-01,9.69338e-02,-7.14514e-02,-3.87530e-02,-1.22443e-01,7.10556e-02,-3.51346e-02,5.62456e-02,-4.24867e-02,-1.39288e-01,6.38617e-02,4.95697e-02,-1.32502e-01,6.04154e-02,3.27456e-02,-5.32349e-02,-1.42335e-01,-1.13964e-01,3.43822e-02,-8.13129e-02,-1.16678e-01,6.94529e-02,-7.71026e-02,-5.89936e-02,-1.25833e-01,-3.06047e-03,-2.07639e-01,1.03847e-01,1.65230e-01,-1.16460e-01,-4.55679e-02,3.33111e-02,-1.97273e-02,-1.29559e-03,-2.24997e-02,-6.32713e-02,9.47163e-02,-1.02306e-01,1.03749e-02,-1.07984e-01,1.62361e-01,-8.64738e-02,9.05726e-02,-8.39619e-02,1.25895e-01,8.56022e-02,7.24870e-02,-1.71197e-02,-1.32846e-01,-1.19787e-01,-9.43309e-02,7.51583e-04,-6.20133e-02,8.22477e-02,-2.33600e-02,-1.24754e-01,-5.82365e-02,-6.03577e-02,-1.14759e-01,-8.21255e-02,-5.99895e-02,-5.53222e-02,-2.49517e-02,-1.71708e-02,2.52056e-02,-9.99210e-02,-6.24190e-02,-7.00493e-02,-3.20959e-02,2.22161e-02,-3.68157e-02,-9.82568e-02,2.60545e-02,-1.19807e-01,-4.00712e-02,6.48963e-03,5.91736e-02,-1.40200e-02,1.03967e-01,-4.19522e-02,2.08261e-02,1.14501e-01,4.24098e-03,-1.38742e-02,-6.55291e-02,-1.20574e-01,7.58513e-02,-1.57424e-01,5.87482e-02,-5.55457e-02,-5.39450e-02,-5.78929e-02,1.20080e-01,8.47884e-02,-2.41071e-02,6.42768e-03,8.94868e-02,-1.14795e-01,3.72025e-02,-6.29148e-02,-5.03443e-02,-8.65295e-02,1.23961e-01,-4.19550e-02,-3.98419e-02,-5.30157e-02,-1.28902e-01,-6.40995e-02,1.25320e-01,6.98908e-02,6.85196e-02,-1.38433e-02,8.55275e-02,-2.32489e-01,-7.29790e-02,-6.16851e-02,-5.48808e-02,-3.77540e-02,6.82127e-02,-2.33966e-02,-3.97672e-02,4.40920e-01,-4.64566e-02,6.28518e-02,8.19023e-02,-1.10034e-01,-1.70808e-01,-5.08879e-02,-1.37784e-01,-2.41242e-02,-1.30718e-01,-1.58151e-03,-5.22875e-02,-8.41552e-02,1.23252e-02,-1.73583e-02,-1.05918e-01,-8.48313e-02,7.84467e-02,-1.06100e-01,-1.22830e-01,8.78223e-02,6.00664e-02,-1.03500e-01,-1.48616e-02,6.72894e-02,1.06320e-01,-9.52425e-02,2.53933e-02,-5.16357e-02,1.12951e-01,-1.56563e-02,-9.75203e-02,-1.31043e-01,-9.78602e-03,2.59849e-03,1.58467e-02,-1.19835e-02,-4.77025e-02,1.02884e-01,4.05248e-02,-5.31269e-02,-5.28674e-02,-4.12022e-02,-1.15708e-01,-1.57762e-01,5.74116e-02,-1.29744e-01,4.27303e-02,4.72776e-02,-1.92527e-02,1.05720e-02,4.33585e-02,1.64843e-01,-2.03985e-02,-3.90375e-02,-1.24506e-01,8.69410e-03,7.52895e-02,2.57861e-02,-8.65974e-02,9.11894e-02,-5.49942e-03,9.56291e-03,-7.61205e-02,1.03742e-02,-1.10493e-01,-4.64162e-02,-1.89494e-02,1.41295e-01,5.70817e-02,-4.74338e-02,-6.96820e-03,1.33078e-01,-3.52215e-02,7.35740e-02,7.44761e-03,-1.07592e-01,2.06295e-02,4.78203e-02,-1.04521e-01,6.47528e-04,-1.74802e-02,-1.28382e-01,-1.37600e-01,-9.76497e-02,-3.02308e-01,2.40537e-02,-1.04399e-01,-8.54397e-02,8.01688e-03,-1.07722e-01,1.49835e-01,5.57312e-02,7.32228e-03,1.15832e-01,1.65628e-02,-2.45787e-03,-2.91668e-02,7.75210e-02,2.61573e-03,-2.05203e-03,-2.24456e-02,-5.69813e-02,7.55025e-02,-2.58899e-02,3.17747e-02,-9.91473e-02,-5.69951e-02,1.19294e-01,-9.66116e-02,6.58699e-02,9.39304e-02,1.23987e-02,-4.65214e-02,1.00443e-01,9.74084e-02,1.16682e-01,-7.26020e-02,6.41065e-02,1.97080e-02,2.66157e-02,2.38907e-02,
-1.44326e-01,-1.01156e-01,6.02167e-02,-8.50883e-02,2.90168e-02,-3.72776e-02,9.96607e-03,-6.39605e-02,-6.52349e-02,-1.59256e-01,-1.16147e-01,7.22265e-02,-5.92128e-02,2.68557e-02,7.37405e-02,-2.83809e-02,-1.06033e-01,6.12844e-02,-4.46997e-02,1.61363e-01,1.25598e-02,-1.51844e-02,-3.62689e-03,-9.13677e-02,3.03233e-04,-1.00345e-01,-9.52597e-02,6.62488e-02,-1.49871e-02,2.56773e-02,5.56598e-02,-7.87394e-02,-6.65568e-03,9.51356e-03,-7.01679e-02,6.19230e-02,-1.02330e-01,-5.95673e-02,-9.10106e-02,-1.51031e-02,4.03805e-02,-1.06822e-01,-2.11855e-02,-2.21252e-02,-6.02848e-02,1.89621e-02,-1.26048e-01,-9.64439e-02,-7.20021e-02,-4.81562e-02,3.06381e-02,-7.98910e-03,-2.59982e-02,7.92496e-02,6.67038e-02,-1.28595e-01,4.36625e-02,7.39617e-02,2.81933e-02,-9.98145e-03,6.64521e-02,-1.64278e-01,1.41792e-02,3.01775e-02,-1.91838e-01,5.90130e-04,-4.11649e-02,8.11957e-02,7.03939e-02,-5.36239e-02,8.07194e-03,-4.97712e-02,-2.16824e-01,-2.76127e-02,-5.48349e-02,1.08222e-01,-8.80563e-02,-8.83468e-03,-9.29167e-03,5.49359e-02,1.34175e-02,-4.52764e-02,-7.97887e-02,2.09797e-02,-9.38869e-04,-1.47623e-01,-1.02061e-01,-8.22707e-02,-9.70174e-02,-3.72471e-02,3.20920e-02,-7.27539e-02,4.25232e-02,4.13857e-02,-2.74632e-02,-7.35205e-02,-1.08906e-01,-1.14875e-01,6.46481e-02,-7.48539e-02,9.39285e-02,-8.63871e-02,-1.66773e-02,-1.75731e-02,5.25599e-02,1.37171e-01,4.06015e-02,1.08892e-02,4.17301e-02,5.13343e-02,5.72732e-02,-4.27799e-03,3.82180e-02,-9.77902e-02,-8.70689e-02,1.16666e-02,-2.52342e-02,-5.31630e-02,8.06904e-02,-9.77730e-02,3.67920e-02,4.17491e-02,-1.13855e-01,-1.34169e-02,-1.22912e-01,1.59215e-02,9.96498e-02,1.27891e-03,-9.31766e-02,1.39053e-02,-8.00318e-02,5.51878e-02,-3.74883e-02,1.01083e-01,2.12170e-02,-3.59172e-02,-7.74469e-02,7.69823e-02,3.24459e-02,-4.45396e-02,-6.34855e-02,-8.59854e-02,-3.07711e-02,5.38917e-03,-6.73446e-02,-1.79742e-02,5.49990e-02,6.77701e-02,7.55301e-02,-5.76474e-02,-4.94624e-03,1.31344e-03,4.61729e-02,-1.13637e-01,-1.54986e-01,-3.27443e-02,7.72128e-04,-5.65574e-02,-5.24748e-02,4.24217e-02,-9.93692e-02,-9.86341e-02,-4.40009e-02,-6.46740e-03,7.77707e-02,1.64676e-02,7.24575e-02,-5.29305e-02,1.48377e-02,-1.03168e-01,1.96250e-03,-9.84235e-02,3.28248e-02,-2.76082e-02,-2.21382e-02,4.65573e-02,-1.62468e-01,-5.05819e-02,-3.38856e-02,-1.25945e-01,-3.53290e-02,-6.14998e-03,-1.17588e-01,-1.15374e-01,1.30350e-02,-5.61024e-02,1.59521e-02,-4.56755e-02,1.65732e-02,4.52232e-02,-1.05538e-01,6.39028e-02,-5.74397e-02,-7.17258e-02,-1.51762e-02,4.38782e-02,-6.64678e-02,-1.68556e-02,-6.15800e-03,-1.14613e-01,-1.09739e-01,2.06853e-02,-1.42915e-02,8.77410e-02,-6.00044e-02,-2.42018e-02,-8.31379e-02,5.71070e-03,-1.02793e-01,-5.41606e-02,7.80891e-02,1.57711e-02,1.50137e-03,-4.38662e-02,5.73564e-02,-2.26527e-02,3.51516e-02,7.59581e-02,3.67096e-02,-4.05488e-02,-1.60445e-01,5.77668e-02,-9.15275e-02,5.69941e-02,-4.31475e-02,-1.79182e-01,-3.73158e-02,-3.12493e-02,2.29476e-02,-1.07782e-01,-8.87801e-02,-7.86211e-02,7.06958e-02,-7.25640e-02,-1.53453e-02,-8.58516e-02,-7.26490e-03,-7.43541e-02,2.06411e-01,-3.05515e-02,4.83883e-03,-3.26006e-02,5.70593e-02,2.37832e-02,-1.22778e-01,5.46457e-02,-6.02227e-02,5.28662e-02,-3.19392e-02,-5.93848e-02,
7.88383e-02,2.69849e-02,1.00521e-01,2.77870e-02,3.27101e-02,-7.42960e-02,6.20377e-02,5.27537e-02,8.93725e-02,1.04859e-01,-6.36271e-02,-9.13449e-02,-1.29811e-02,-1.06654e-01,1.04251e-01,-1.85511e-02,-9.96275e-02,2.13760e-02,-4.97955e-02,-8.34599e-02,6.63505e-02,-5.18787e-02,1.35220e-02,8.17021e-02,-9.26547e-02,-8.49587e-02,-5.81739e-02,-7.14853e-02,-6.92592e-02,5.25851e-02,1.04949e-01,3.25287e-02,-5.37869e-02,1.04067e-01,9.22307e-02,-6.81998e-02,7.75583e-02,3.82877e-02,-4.61713e-02,-6.86022e-02,-2.52890e-02,-8.34718e-02,6.95526e-02,-2.16859e-02,-7.07475e-02,-1.03452e-01,8.20566e-02,3.28927e-02,3.41885e-02,-1.07814e-01,8.26022e-02,-1.60252e-03,-1.01283e-01,-9.03699e-02,3.02147e-02,-9.88388e-02,7.69149e-02,-9.53644e-02,9.38424e-02,-1.02458e-01,-2.17416e-02,-7.74249e-02,9.89766e-02,-5.71922e-02,7.47366e-03,4.01922e-04,9.61323e-02,1.12654e-02,7.80340e-03,-8.39110e-02,5.63262e-02,-8.80060e-02,-1.01879e-01,6.54174e-03,9.58537e-02,2.73672e-02,4.19494e-02,2.82293e-02,-8.17119e-02,4.90511e-02,1.16163e-02,6.68998e-03,-6.14084e-02,7.43173e-02,4.14416e-02,-5.06295e-02,4.30439e-02,2.51120e-02,-5.11883e-02,6.57465e-02,-7.57717e-03,8.65846e-02,-1.18496e-02,-5.72116e-02,1.22375e-02,2.16460e-02,-1.05667e-01,5.12874e-02,-7.71163e-02,3.14630e-02,2.00458e-02,-6.82466e-02,2.75701e-02,-9.53397e-02,6.21750e-02,-9.77510e-02,3.83656e-02,-6.09965e-03,-1.05558e-01,-1.27373e-02,-1.08055e-01,1.14141e-02,5.96708e-02,-9.84551e-02,1.03032e-01,3.44591e-02,1.27554e-04,3.99800e-02,-7.80347e-02,-8.42991e-02,-1.42653e-02,-1.72828e-02,6.37607e-02,-4.02149e-02,3.36336e-02,8.70024e-02,-2.04299e-02,3.61395e-02,-7.88688e-02,8.56810e-02,5.08449e-02,6.42273e-02,-1.07412e-02,-5.50784e-02,-7.01920e-02,-3.11382e-02,-9.88412e-02,-4.82829e-02,1.87029e-02,3.71670e-02,-8.05638e-02,-8.64011e-02,-7.32524e-03,6.83694e-02,9.41119e-02,3.64683e-03,4.35829e-02,-4.05685e-02,1.05019e-02,-2.79642e-02,4.99176e-02,6.84398e-02,6.91250e-04,-1.34087e-02,9.62049e-02,-4.24882e-02,7.74219e-02,-5.13434e-02,9.15420e-02,-1.34534e-02,5.92531e-02,-7.88721e-02,3.46713e-02,-4.71819e-03,9.60808e-02,-6.79955e-02,-7.38650e-02,-5.42263e-02,-4.97785e-02,-3.93578e-02,2.17040e-02,-1.09326e-01,4.99955e-02,2.81473e-02,5.95802e-02,6.74859e-02,-8.65588e-02,-8.09742e-02,-3.72778e-02,-2.94907e-02,6.76307e-02,8.12569e-02,-8.56661e-02,-1.26268e-02,-9.07893e-02,-8.75451e-02,-5.55544e-03,-5.50011e-02,5.94649e-02,-3.39824e-02,2.05742e-02,-4.26105e-02,1.64048e-02,4.03988e-03,-8.79917e-02,2.83755e-02,1.08764e-01,9.25271e-02,-8.34412e-02,-8.23689e-02,1.06594e-01,1.02694e-01,-7.37424e-02,-8.89403e-02,1.00285e-01,-8.87045e-02,-3.92871e-03,2.78172e-02,5.58137e-02,1.05510e-01,-5.50370e-02,4.44044e-02,3.11788e-02,4.15399e-02,1.73148e-02,-3.83573e-02,6.36899e-02,9.98426e-02,-1.03254e-01,-9.73035e-02,3.53999e-02,6.45861e-03,-1.31291e-02,-9.39354e-02,-2.69566e-02,-6.15581e-02,-8.24366e-02,4.98186e-02,-5.10997e-02,-1.05755e-01,-6.38894e-02,5.00158e-02,-3.43779e-02,-4.11063e-02,-6.28269e-02,-9.86589e-02,5.11129e-02,8.78589e-02,9.73902e-02,-5.03016e-02,-8.77505e-02,-4.15474e-02,-4.59797e-02,-9.91705e-02,6.99895e-02,6.83148e-02,9.99829e-02,1.52362e-02,-9.04658e-02,-7.69096e-02,
5.58317e-02,7.01712e-02,5.66389e-02,6.06377e-02,-2.87484e-02,9.64862e-02,4.73747e-02,-7.77237e-02,9.14787e-02,-8.28973e-02,9.35117e-04,3.38757e-02,7.88852e-02,8.05784e-02,-1.29768e-02,6.21853e-02,-4.76373e-02,-1.31809e-01,-7.02781e-02,2.12271e-02,-4.63740e-03,-7.07877e-02,-5.45173e-02,5.48539e-02,4.72563e-02,5.66041e-02,-1.02239e-01,-9.49215e-03,7.58892e-02,7.25890e-02,-7.72530e-02,1.09299e-01,6.93670e-02,-5.17805e-02,1.00646e-02,-6.77438e-02,9.80936e-02,-3.91571e-02,5.88764e-02,2.71344e-02,-9.27686e-02,-1.10347e-01,-7.57554e-02,2.38889e-02,-9.50363e-02,-6.61321e-02,1.43019e-02,-1.72536e-02,-8.04892e-02,-9.80134e-02,-6.74295e-02,2.04645e-02,-9.78058e-02,4.81634e-02,-5.61582e-02,6.50070e-02,8.02332e-02,-8.49696e-02,3.62072e-02,-6.67541e-02,-1.34837e-02,-5.23296e-02,-9.98291e-02,8.49558e-02,-3.63668e-02,1.28679e-02,-6.90919e-02,-7.69214e-02,-6.18668e-02,4.39681e-02,-1.03639e-01,1.02599e-02,-6.31918e-03,2.67887e-02,-3.07266e-02,-1.11532e-01,-1.00936e-01,-9.92440e-02,5.23241e-02,7.30726e-02,2.85007e-02,-1.91572e-02,2.95442e-02,3.39729e-02,2.44140e-02,-1.08103e-01,-3.62517e-03,-6.18641e-02,-9.82172e-02,-3.81392e-02,7.53990e-02,-1.72605e-02,3.14642e-02,4.46461e-03,3.29612e-02,-1.25301e-01,1.80481e-02,8.21814e-02,6.21535e-02,3.52963e-02,-9.05759e-02,-4.78539e-02,4.35882e-02,-9.45586e-03,4.42674e-02,1.88935e-02,-7.73853e-03,-1.15955e-01,9.52027e-02,9.98654e-02,-7.15021e-02,-2.20494e-02,-5.98697e-02,2.27931e-02,5.27048e-02,9.24806e-02,2.24839e-02,-7.18840e-02,-6.59300e-02,-1.55640e-02,5.59714e-02,-1.15263e-01,-1.01562e-01,-9.73538e-02,-8.46688e-02,-2.42046e-03,7.67038e-02,7.87471e-02,-1.16859e-01,-5.78425e-02,8.52712e-02,4.73085e-02,3.74459e-02,-6.08819e-02,4.17831e-02,-7.10882e-02,-9.37611e-02,-4.13508e-02,1.47473e-03,1.10803e-01,-6.87625e-02,-3.18863e-02,6.05610e-02,-6.65678e-02,9.78773e-02,5.47468e-02,-1.10882e-01,4.08445e-02,7.92181e-02,5.71802e-02,-4.38652e-02,-1.46468e-02,5.74288e-02,4.14611e-02,2.11985e-02,-3.15489e-02,8.81837e-02,-5.31932e-02,1.79078e-02,3.88849e-03,-8.95490e-03,-5.65853e-02,1.05319e-02,9.38799e-02,9.33761e-03,-4.85760e-02,-8.57364e-02,-2.56485e-03,3.39736e-02,8.97283e-02,7.09937e-02,3.16422e-02,-6.26445e-02,-5.44660e-02,-4.83941e-02,7.02402e-02,1.13932e-02,6.71507e-03,-8.98611e-02,-7.15439e-02,-1.36443e-02,7.46635e-02,9.61698e-02,-3.33670e-02,7.59744e-02,-4.10695e-02,-9.49481e-02,-7.29736e-02,-7.89986e-03,4.85663e-02,-3.31989e-02,-4.46442e-02,-9.83698e-02,-4.00048e-02,6.11340e-03,9.52585e-04,-4.88919e-02,-4.71448e-02,8.35174e-02,-9.16705e-02,-5.87584e-02,-5.14706e-02,-1.85168e-02,-2.70242e-02,-6.89207e-02,-1.35319e-01,6.58996e-02,8.70170e-02,-1.08418e-01,7.86530e-02,-1.00836e-01,-1.32644e-01,6.48413e-02,-6.03035e-02,4.72372e-02,-1.03080e-01,-3.22683e-02,-2.51050e-02,-7.72018e-02,9.36841e-02,-7.39647e-02,2.33272e-02,1.04365e-01,1.67270e-03,6.97141e-02,-7.20752e-02,4.49498e-02,-7.99308e-03,7.93993e-02,5.86392e-02,-1.15968e-01,-1.97130e-02,-8.27786e-02,-1.31873e-02,1.87854e-02,-7.10138e-02,7.09576e-02,1.69846e-02,-2.60769e-02,-3.67042e-02,-7.21034e-02,2.65030e-02,-1.11127e-01,3.29210e-03,-4.76963e-02,-5.42730e-02,5.81716e-02,-3.88351e-02,5.60481e-02,9.52823e-02,
-5.84382e-03,8.98758e-02,-3.09401e-02,8.83803e-02,4.08399e-02,-5.57181e-02,-1.34089e-02,4.70559e-02,1.07143e-01,-4.99229e-03,7.53741e-02,-3.93667e-03,-7.50124e-02,4.37037e-02,-1.09027e-01,1.48006e-01,-1.46504e-02,-3.44484e-02,-1.82979e-02,-2.80891e-01,4.48975e-02,-1.06954e-01,-3.18993e-03,3.94294e-02,-3.31846e-02,9.48622e-02,2.97464e-02,-9.37828e-02,-9.85227e-02,-1.64344e-01,-3.45141e-02,2.11587e-02,4.15621e-02,-2.11110e-02,-9.18420e-02,-1.80754e-01,-2.99400e-02,-7.47810e-04,-1.21359e-02,-1.17791e-02,-7.33454e-02,2.59750e-02,4.10342e-02,-4.52480e-02,-2.91994e-02,1.79855e-02,1.74082e-02,-1.40394e-01,4.69660e-02,-4.64398e-02,-4.91519e-02,-2.85886e-03,-6.02274e-02,7.79679e-02,-4.63935e-02,-3.26964e-02,-7.53352e-02,9.15654e-02,7.17075e-02,1.95971e-02,1.86031e-02,-2.12428e-01,-9.35360e-02,-1.13971e-01,-1.04265e-01,5.15959e-02,7.48851e-02,-5.38217e-02,-1.75374e-02,-2.31181e-02,1.99066e-02,-8.36187e-02,-1.95329e-01,-2.65880e-02,3.37713e-02,4.03770e-02,2.81343e-02,9.89023e-02,-9.81330e-02,2.73068e-02,-1.46829e-02,-9.71698e-02,-1.81775e-02,-1.30430e-01,-6.88234e-02,-2.57433e-01,-4.81761e-02,1.62150e-02,3.92861e-02,-8.44720e-02,7.26297e-02,4.88279e-02,1.04676e-01,1.42332e-02,2.02685e-02,9.79019e-02,-6.71924e-02,1.06049e-01,-1.40806e-01,-1.11520e-01,1.33659e-01,-2.63061e-02,9.28082e-03,-6.54308e-02,-3.30633e-02,-7.53142e-02,-5.64788e-02,-1.82612e-02,1.31630e-01,-4.73223e-02,-1.15904e-01,-7.82467e-02,-7.93325e-02,-8.86766e-02,-1.01669e-01,-1.08449e-01,6.77355e-03,-2.30788e-02,-5.12368e-02,-9.78422e-03,1.18799e-01,7.84108e-02,-1.09696e-01,3.13894e-02,8.08505e-02,-9.40368e-02,8.77280e-02,2.72336e-02,-4.56037e-01,-1.00365e-01,-2.93924e-02,-7.27117e-02,-4.03542e-02,-1.18433e-01,-3.26372e-02,7.51886e-03,1.31563e-01,-5.28193e-02,7.14431e-02,3.61457e-02,-2.69197e-02,-9.54026e-02,7.12417e-02,6.32647e-02,6.07649e-02,1.04831e-01,4.87605e-02,6.32222e-02,9.17378e-02,7.21422e-02,9.43843e-02,1.65780e-02,-2.19952e-02,-1.97529e-02,-1.04777e-01,-5.07776e-03,-4.88353e-02,-1.00498e-01,7.40665e-02,-9.64542e-03,1.25165e-01,3.37059e-02,8.42678e-02,-1.18702e-01,1.33790e-02,6.92442e-03,-4.05508e-02,-1.73553e-01,-1.00402e-01,-4.45204e-03,-6.95489e-02,-6.12933e-02,2.69776e-02,8.73268e-02,1.04512e-01,-5.98371e-02,-9.08890e-02,1.02133e-01,7.79681e-02,7.05120e-02,-5.94051e-02,1.89394e-01,1.21187e-01,-1.15580e-01,-5.03506e-02,-2.34758e-01,-8.83480e-02,7.23042e-02,1.09605e-01,-1.50210e-01,-6.70008e-02,5.40506e-02,4.66309e-02,9.41208e-02,-2.50197e-02,-4.19961e-02,5.91690e-02,4.42722e-02,1.96475e-02,2.53884e-02,-2.24234e-01,-4.41853e-02,-7.65873e-02,8.91204e-02,9.16457e-02,-6.03632e-03,-8.96048e-02,-5.40397e-02,-8.09642e-02,-1.53300e-01,-2.90968e-02,6.29419e-02,4.21320e-02,-1.91420e-02,-5.51287e-02,4.07179e-02,-9.59898e-02,-4.97294e-04,-1.15642e-01,-2.80639e-02,-1.48118e-02,-9.90302e-02,-1.29511e-01,-6.91015e-02,-1.55072e-01,-1.10300e-01,-3.66719e-02,-1.11624e-02,-3.20320e-03,-1.67818e-02,-1.01441e-02,-1.80199e-01,-8.31147e-02,-8.83580e-02,1.12191e-01,2.44347e-03,-9.10011e-02,1.07018e-01,-1.79379e-01,6.22459e-02,1.05911e-01,4.83726e-03,-1.97008e-01,-1.01888e-01,-8.11367e-02,-6.72235e-02,9.69879e-02,-7.38839e-02,4.76128e-02,1.43643e-03,
5.29534e-03,-6.31476e-02,-8.17177e-02,9.16090e-02,7.92701e-02,-7.88113e-02,-5.09331e-02,-8.94980e-03,-3.62869e-02,4.44829e-03,4.91058e-02,-3.44275e-02,5.87572e-03,-8.54050e-02,-1.98395e-01,-5.46479e-02,-2.68351e-02,-4.96456e-03,-7.08765e-02,-9.80736e-03,-7.66608e-02,-5.76178e-02,2.60580e-02,-7.76460e-02,-1.58695e-02,-4.32850e-02,-3.38882e-02,2.35890e-02,-8.16301e-02,-7.99946e-02,-5.58350e-02,-1.06846e-01,-1.36128e-02,-3.35879e-02,4.68502e-02,-5.31931e-02,-6.46443e-02,-6.27493e-03,-1.67080e-02,3.63971e-02,-1.33518e-01,-1.69195e-02,-7.97685e-02,2.41261e-02,4.28238e-03,-4.87286e-02,-1.25526e-01,-9.48696e-02,-1.02877e-01,-1.05987e-01,-7.98811e-02,-3.33186e-02,-2.41400e-02,-6.39140e-02,-7.74252e-02,1.55754e-01,6.88076e-02,1.07270e-01,-1.85331e-02,1.39807e-01,2.25406e-02,-1.48152e-01,-1.09860e-01,8.48568e-02,-1.68393e-01,-1.07523e-02,2.65840e-02,1.03390e-01,-1.60373e-01,-8.14542e-02,-4.04202e-02,1.40187e-02,-4.09245e-02,6.12780e-02,5.95867e-02,1.09802e-01,1.05873e-01,-1.28534e-01,8.70194e-02,2.92950e-02,-4.15651e-02,-7.64124e-02,2.42088e-02,1.31752e-01,-2.05184e-01,2.04531e-01,-1.59008e-02,9.56301e-02,2.61141e-02,5.27799e-02,2.40660e-02,-5.87890e-02,6.68507e-02,4.31819e-02,3.93534e-02,6.10701e-02,-9.54178e-02,-9.06507e-02,-3.12274e-02,-1.68267e-01,-1.32612e-01,-1.28014e-01,6.15148e-02,-2.81702e-02,2.74740e-02,1.57064e-03,-9.01257e-02,-3.14838e-02,7.44374e-02,-5.79055e-02,-9.59440e-02,6.15446e-02,-5.47938e-02,-1.79510e-02,-7.65666e-02,-4.34213e-02,1.29604e-01,-1.55885e-02,3.17742e-02,-1.49974e-01,1.87980e-02,2.62196e-02,-1.72892e-01,8.11011e-02,-6.43084e-02,-1.19881e-01,-4.69468e-02,-3.57202e-02,1.78533e-02,-9.18567e-02,9.86804e-02,-5.10918e-02,-1.24644e-01,-1.90698e-01,-7.20242e-02,1.01160e-01,-2.39565e-02,7.82863e-02,4.76875e-02,7.13346e-02,6.75843e-02,-6.77450e-03,-1.94106e-01,2.75419e-02,-2.60827e-02,1.10044e-01,4.84013e-02,6.13219e-02,6.30732e-02,-6.97606e-03,-1.17802e-02,5.47028e-02,9.36766e-02,-5.63125e-02,5.22042e-02,4.76423e-04,5.49482e-02,1.13906e-01,2.21893e-02,1.59702e-02,-1.02852e-01,-1.21964e-01,-3.24578e-02,1.05086e-01,-8.75706e-02,-7.85506e-02,1.20558e-02,-4.02239e-02,-2.56836e-01,-2.21672e-02,1.16796e-01,-5.56640e-03,5.34839e-02,1.06287e-01,-4.93547e-02,-3.15187e-02,-1.05867e-02,-1.92838e-02,2.34526e-02,6.45758e-02,-1.41641e-01,-4.48785e-02,1.13968e-01,-7.67391e-02,5.89825e-02,4.47673e-02,7.07885e-02,-2.28119e-02,-1.74637e-01,9.70924e-02,5.04102e-02,-3.99404e-02,2.41628e-02,-7.37599e-02,-1.54030e-01,-9.78697e-02,5.70930e-03,-1.14177e-01,9.58021e-02,-9.92397e-02,2.72370e-02,3.20170e-02,-1.37121e-02,-6.26441e-02,2.54871e-02,1.30679e-01,8.33072e-02,-9.62058e-02,4.79872e-02,1.41539e-02,2.51386e-02,1.06614e-01,-3.40934e-02,-1.25070e-01,5.39411e-02,1.38339e-01,9.04965e-02,-1.10656e-02,-4.14222e-02,8.81991e-04,-8.44461e-02,7.96625e-02,-1.52156e-01,8.87062e-02,-1.74208e-01,-1.16102e-01,-3.85648e-03,-8.84607e-02,-2.74676e-01,-1.87279e-02,-4.46664e-02,-1.34709e-01,-3.95806e-02,7.72280e-02,7.20087e-03,1.09723e-01,4.21529e-02,3.05158e-02,7.33365e-02,5.48129e-02,-9.29676e-02,-3.91791e-03,-2.07021e-02,-8.02601e-02,-2.15642e-02,-9.20760e-02,-7.85064e-03,6.35289e-02,4.43880e-02,-8.45752e-02,
7.44388e-02,-7.43369e-02,1.93134e-02,-1.02547e-01,-1.30810e-02,5.40052e-02,-7.71179e-02,-1.09467e-01,6.46475e-02,3.20934e-02,-6.61088e-02,5.00216e-02,5.38449e-02,-1.27448e-01,-6.49015e-02,-1.48856e-01,6.12681e-02,6.60696e-02,8.80162e-02,-1.48591e-01,8.35718e-03,8.91984e-02,-1.17537e-01,3.07846e-03,-1.07820e-01,-8.11504e-02,-9.51495e-02,-6.15744e-03,-3.27750e-02,1.17982e-01,2.72909e-02,-8.80582e-02,4.51473e-03,8.88425e-02,4.87041e-02,-1.15269e-01,-9.48034e-03,-8.78337e-02,1.18404e-02,6.03288e-02,-1.74884e-02,-8.85140e-02,5.75365e-02,-8.19416e-02,-1.18483e-01,5.32709e-02,-1.01477e-01,-7.66196e-02,2.08605e-02,-1.24625e-01,-2.50946e-03,5.32553e-02,-6.31454e-02,-7.25199e-03,5.45414e-02,8.98756e-02,-5.05616e-02,4.63488e-02,-1.93544e-01,4.26757e-02,9.28285e-02,-1.78935e-02,-2.49242e-02,-1.13028e-01,6.96460e-02,-1.44442e-02,-7.78300e-02,7.31832e-03,-4.03215e-02,-1.81945e-02,-6.37857e-02,3.66822e-02,-4.63964e-04,2.47277e-02,-5.47998e-02,-4.82262e-02,1.76399e-02,-1.32849e-01,2.69162e-02,-1.23438e-02,-4.95015e-02,-3.14541e-02,3.52494e-03,-2.25025e-02,-1.22011e-01,-7.20253e-02,9.97058e-03,5.10291e-03,-4.11703e-02,7.54137e-02,-1.01866e-02,-8.90705e-02,-1.25168e-01,6.70594e-02,3.75008e-02,4.52864e-02,-3.74888e-02,-6.51198e-02,-9.77101e-03,-3.09097e-02,5.86789e-02,-1.35102e-01,-1.18330e-01,-5.34692e-02,3.68180e-02,3.82130e-02,-1.99412e-02,-3.44896e-03,5.95022e-02,3.73138e-02,-1.69604e-02,-1.15509e-03,7.84683e-02,-4.53176e-02,-7.61025e-03,5.14374e-02,8.47651e-02,-7.00679e-02,-9.35764e-02,-1.27990e-01,-1.00845e-01,-9.41199e-02,-1.09279e-01,-9.25617e-02,4.00851e-02,-2.45551e-02,9.40781e-02,4.82712e-02,6.53489e-02,4.13884e-02,-1.25163e-01,7.84106e-02,-1.79592e-02,6.80338e-02,-4.69590e-02,-1.03010e-01,3.92557e-02,-8.82983e-02,-5.41139e-03,-9.77150e-02,-7.13202e-02,2.16540e-02,8.39011e-02,2.50938e-03,9.70833e-02,-1.06985e-02,-1.25295e-01,4.78283e-02,-3.10518e-03,7.09496e-02,-8.81632e-03,-1.38225e-02,3.73612e-02,5.03994e-03,-5.14030e-02,5.14506e-02,-3.07024e-02,5.68307e-02,-3.28964e-02,2.22232e-02,-7.82015e-02,-8.55666e-02,-3.53121e-02,7.73881e-02,2.59400e-02,3.04415e-03,7.35856e-02,7.19481e-02,-9.19772e-02,7.72731e-02,-6.34843e-02,-9.54878e-02,-7.73985e-02,-6.26539e-02,-1.40861e-02,6.74612e-02,-9.62452e-02,-1.00858e-02,-1.90554e-02,8.87482e-02,2.88281e-02,4.65613e-02,-9.86463e-02,5.47911e-02,1.90679e-02,7.86921e-02,4.13691e-02,5.30713e-02,2.93672e-02,-2.56272e-02,-3.47446e-02,7.15663e-02,6.64812e-02,-7.99668e-02,-3.99418e-02,-1.04840e-01,6.28285e-02,5.47478e-02,-2.77546e-02,8.14869e-02,-7.41254e-02,3.25884e-02,7.92939e-03,-4.07406e-02,-8.88391e-02,-1.00606e-01,1.04375e-01,2.81154e-02,-6.98788e-02,4.54848e-02,-5.07862e-02,-8.91489e-02,-2.36890e-02,5.84562e-02,-6.80417e-02,4.04172e-02,6.39732e-02,8.24306e-03,-5.05308e-02,4.69890e-02,-1.01592e-01,-1.23443e-01,-8.56094e-02,-1.49624e-02,4.51649e-03,-1.06589e-02,-4.43039e-02,-5.86370e-02,-4.45283e-02,-5.18310e-02,3.36763e-02,-1.14112e-01,-4.52187e-02,2.68943e-02,1.62776e-02,-1.02268e-01,-5.85007e-02,5.43454e-02,-6.14310e-02,4.12886e-02,5.43474e-02,2.21741e-02,7.99551e-02,3.73522e-02,8.07294e-02,-8.18500e-02,2.62018e-02,-2.78428e-04,-1.06412e-01,-7.92646e-02,
-1.04112e-01,4.40364e-02,-5.93254e-02,-1.09335e-01,-4.18116e-02,-1.04875e-01,-3.00387e-02,-1.48215e-01,2.97015e-02,3.14547e-02,-8.39355e-02,3.69057e-02,-1.12126e-01,-6.15318e-03,-2.73478e-02,4.33504e-02,8.67024e-02,-1.15241e-01,-2.06209e-02,-8.52919e-02,5.71631e-03,1.86140e-01,-1.03347e-01,5.44262e-02,1.44404e-02,-4.11380e-02,-9.55601e-03,-4.13839e-02,-5.94299e-02,-1.34790e-01,1.36944e-01,-1.00136e-01,-1.26151e-02,1.76662e-01,7.48998e-02,-1.19091e-01,-1.21809e-01,-2.34401e-02,6.30845e-03,7.17917e-03,1.08359e-01,-3.52689e-02,3.83684e-02,-4.38619e-02,1.37726e-02,-5.46010e-03,-1.75432e-01,-1.16618e-01,7.70092e-02,-1.31330e-01,2.19304e-02,-1.03375e-01,-1.07868e-01,-1.24473e-02,-1.21245e-01,-7.41063e-03,-8.86186e-02,8.39559e-02,-5.59959e-02,-1.33926e-01,-8.36057e-02,-2.14807e-02,2.61963e-02,9.96938e-02,-3.75225e-02,2.47952e-02,2.11861e-02,7.36850e-03,-4.47063e-02,-3.01445e-02,-7.54462e-02,2.44896e-02,-9.04309e-02,-1.68939e-04,-1.94994e-03,-2.47156e-01,6.94081e-02,4.76277e-02,2.57923e-02,-1.79779e-01,1.63087e-02,-1.70840e-02,-2.07035e-02,1.15795e-01,2.71364e-02,1.05462e-03,-1.57344e-02,1.09261e-02,-1.35165e-01,-4.02999e-02,-2.26761e-02,-5.50577e-02,-5.48104e-02,-3.85318e-02,-1.59712e-01,-1.79091e-01,-6.00446e-02,1.45997e-03,-1.39991e-01,-7.57084e-02,4.61798e-02,4.58054e-02,-2.58459e-01,-4.14339e-02,2.32668e-02,1.31088e-02,2.15770e-02,8.41907e-02,6.74788e-02,-4.60242e-02,2.56323e-02,7.67748e-02,3.72831e-02,-1.97512e-02,-1.80006e-02,7.60661e-02,6.79308e-02,-3.80562e-02,2.62992e-02,-5.04541e-01,4.80141e-02,3.95634e-02,-8.77422e-02,4.41019e-02,-8.29249e-02,-2.94729e-02,6.79071e-02,1.40977e-02,-6.64861e-02,8.22679e-02,-1.02462e-01,-1.16417e-01,-1.16851e-01,-1.86414e-01,1.45524e-02,-1.14849e-02,-2.96365e-02,-6.28530e-02,5.50753e-02,1.74659e-02,-3.22119e-02,-4.67657e-02,-1.63948e-01,-7.13463e-02,1.14885e-02,-9.92080e-02,-2.80494e-02,-4.54996e-02,1.33755e-01,3.45195e-02,2.31790e-03,-1.00311e-02,1.17003e-02,-6.29138e-01,-1.08822e-01,-1.39118e-01,-3.71011e-02,6.45623e-02,1.66202e-02,9.07918e-02,2.08574e-02,-5.07942e-02,-7.07714e-02,-4.08628e-02,1.40893e-02,1.86412e-01,2.23477e-02,5.04726e-02,-2.34623e-02,9.32356e-02,3.25052e-02,-2.64551e-02,2.20810e-01,-1.65319e-02,1.02833e-01,-5.45690e-02,-6.41035e-02,-4.63945e-02,-7.43559e-02,-8.18710e-02,-4.13835e-02,-2.84140e-02,4.04374e-02,-1.40279e-01,-1.73782e-01,-1.00933e-01,-6.73660e-03,-2.73326e-02,4.37387e-02,7.93315e-02,7.66630e-02,-7.07087e-02,-1.75112e-01,-9.31838e-02,-2.57106e-02,6.38139e-03,-2.04365e-01,-5.33939e-04,8.38600e-02,-9.34994e-02,-3.89682e-03,6.76836e-03,1.67667e-03,-5.64209e-02,-2.97671e-02,-3.06139e-02,-1.42265e-01,1.09970e-02,-6.77018e-02,-5.54832e-02,3.21972e-02,-9.55532e-02,9.07845e-02,7.42758e-02,1.30130e-02,6.93911e-02,-1.81321e-01,6.80395e-02,-1.99801e-02,-1.36649e-01,-3.74448e-02,2.46440e-02,1.08432e-02,-7.48118e-04,-9.58989e-02,-1.38517e-01,-5.16063e-02,4.97886e-02,-1.64152e-01,8.27947e-02,7.18715e-02,-2.75434e-02,3.16178e-02,-8.44028e-02,1.53898e-02,-5.18697e-02,-7.27743e-02,8.27639e-02,-1.02947e-01,-1.47466e-01,-6.20392e-02,8.94376e-02,-2.17110e-02,-6.23598e-02,-9.98542e-02,4.00721e-02,-1.96038e-02,-1.08096e-03,9.15476e-02,-1.06378e-01,
-2.51559e-02,-9.20368e-02,-2.76361e-02,2.54070e-02,-2.55932e-02,1.04992e-01,7.68790e-02,1.04544e-01,4.26814e-02,-6.16507e-02,-1.28199e-02,6.80791e-02,-2.23687e-02,-3.02324e-02,-7.37302e-02,-1.38353e-01,-9.94085e-02,-8.72461e-02,-8.49781e-04,4.43784e-02,8.41819e-03,-1.59231e-03,-9.68000e-02,-6.41089e-02,-1.54973e-01,2.49596e-02,6.62702e-02,-7.00689e-02,-4.81644e-02,-2.33225e-02,-1.05217e-01,-2.94389e-02,-3.57728e-02,4.87992e-02,-2.97005e-01,4.85425e-02,6.32679e-02,-2.97790e-02,8.19231e-02,-8.10179e-02,-9.60934e-02,-2.69832e-02,-7.76596e-02,-9.33040e-02,-1.11325e-01,-5.84607e-02,2.75934e-02,6.17684e-02,9.42895e-02,9.08358e-02,-4.73252e-02,-8.93234e-02,5.09452e-03,2.19768e-02,-5.05165e-02,-3.46105e-01,7.25705e-02,2.05107e-02,-1.52737e-01,-4.24449e-02,-8.80775e-03,-1.27535e-01,7.18261e-03,1.80522e-02,-4.01071e-01,8.09964e-02,4.56933e-02,4.98280e-02,4.13689e-02,-8.83752e-03,-3.97337e-03,3.11754e-03,7.08261e-02,-3.54118e-03,-1.24470e-01,-1.18196e-01,-1.14953e-01,-5.89680e-02,-1.22237e-01,2.10464e-02,8.99382e-02,-4.04777e-04,-8.88957e-02,-1.77988e-02,-6.65399e-02,2.28036e-02,-1.17798e-01,2.60638e-02,7.00904e-02,-3.71351e-02,-1.32757e-01,-2.29420e-02,4.09093e-02,3.16055e-02,2.22745e-02,-1.14517e-01,-1.03435e-01,2.46422e-02,5.06582e-02,1.33943e-01,5.27118e-02,-1.45482e-01,-3.06091e-02,-6.83350e-02,4.65264e-02,-7.26920e-02,-9.60057e-02,-1.18539e-01,6.26928e-02,-8.54517e-02,-5.35544e-02,1.00509e-01,-1.17915e-02,-3.77333e-03,9.17476e-02,6.03526e-02,-1.76398e-02,-2.88936e-02,8.18257e-02,4.28282e-03,-2.77035e-01,2.06716e-02,6.56732e-02,8.08696e-02,6.56651e-02,1.00349e-02,8.27610e-03,-5.20542e-03,1.92971e-01,-1.72478e-01,8.60892e-02,8.49219e-02,-8.57717e-02,-4.50457e-02,2.10371e-02,-8.05478e-02,3.80682e-02,-7.18758e-02,9.38570e-04,-5.77605e-02,9.17654e-04,-6.58520e-02,-8.39945e-02,-1.29362e-02,1.26049e-01,5.27398e-02,-3.78577e-02,4.78686e-03,8.90259e-02,-5.31857e-02,-9.47090e-02,-8.23652e-02,7.31877e-03,4.29876e-03,-1.74773e-01,-6.83111e-02,-1.16711e-01,-6.50143e-02,-1.38131e-02,-6.77460e-02,-6.52019e-02,-2.52230e-02,-5.24865e-02,-7.20126e-02,-1.41796e-01,1.20038e-01,-1.55573e-01,-3.93320e-01,-1.49606e-01,-1.22095e-02,8.69870e-02,-5.07333e-02,-1.00659e-01,-9.99526e-02,-1.62923e-01,8.06569e-02,-2.08441e-01,1.15456e-01,8.88320e-02,-6.53066e-02,9.88163e-02,6.77915e-02,5.95875e-03,-1.52017e-02,5.31985e-02,-1.65005e-01,8.71059e-02,-1.61940e-01,7.14484e-02,1.30807e-02,-1.57364e-01,1.15757e-01,-6.33386e-02,7.81821e-02,3.99799e-02,-1.49842e-01,-4.87771e-02,8.13412e-02,-2.68497e-03,-1.69007e-01,2.20192e-02,-1.53759e-01,-4.04969e-02,1.18898e-01,-1.34378e-01,5.44649e-02,-2.95755e-02,-6.62929e-03,8.83098e-02,4.73285e-02,-4.73826e-02,2.83540e-02,-8.09315e-02,-1.88863e-01,4.73953e-02,2.74204e-03,-1.70206e-03,4.83344e-02,-9.18475e-02,-1.23554e-01,-6.59532e-02,1.55632e-02,7.40919e-02,-6.53559e-02,3.36014e-02,2.37285e-02,8.75651e-02,-1.72135e-03,1.03732e-01,8.67243e-02,4.44898e-02,1.09306e-01,-1.19868e-01,-1.08640e-01,-1.75889e-03,-1.85677e-02,-3.46698e-02,2.45956e-02,-9.84872e-02,2.78485e-02,-3.42194e-02,-1.23402e-02,4.10125e-03,9.00361e-02,7.12183e-02,9.22035e-02,8.60451e-03,-6.40399e-02,1.14180e-01,-3.10933e-02,
4.28353e-02,-5.17637e-02,-4.60457e-02,-9.99401e-02,-1.16993e-01,-9.05897e-02,-2.23161e-02,-1.36886e-01,2.69106e-02,-7.68221e-02,-5.96499e-02,4.99091e-03,-2.87718e-02,3.38708e-03,-6.70728e-02,-7.24478e-02,-2.80093e-02,7.36304e-02,-4.07603e-02,4.02369e-02,1.05037e-01,1.32615e-01,-1.82004e-02,-3.28571e-02,-1.18293e-01,-9.69088e-03,-6.44794e-02,1.57049e-02,-9.27506e-02,-6.79827e-02,-5.25003e-02,-8.53433e-02,7.59905e-02,-3.22658e-02,-6.47210e-02,-5.25515e-02,-8.25060e-02,3.76429e-02,-7.05641e-02,-1.33677e-01,-8.80663e-03,2.19736e-02,7.49482e-02,-3.06377e-02,-9.23869e-02,3.11115e-02,-3.71497e-02,-1.18866e-01,-4.64525e-03,2.56170e-02,3.98399e-02,-7.72149e-02,-4.66993e-03,-1.76976e-02,4.88151e-02,-5.98125e-02,9.63351e-02,-3.00211e-02,-1.07555e-01,-9.52684e-02,-2.85757e-02,-1.71796e-01,-1.06970e-01,-9.94490e-02,-1.45943e-01,-4.55023e-02,-4.70588e-02,-7.70717e-02,-1.81950e-01,5.63243e-02,-1.16707e-01,-1.23624e-01,9.28282e-02,-3.62610e-02,4.31005e-02,1.32151e-01,1.81789e-03,-1.07615e-01,3.44009e-02,3.41454e-02,-9.97485e-02,-3.20118e-02,-1.29203e-01,5.01928e-02,6.80605e-02,-1.79257e-01,2.19294e-02,-1.22431e-01,2.83392e-02,-7.17468e-02,7.39775e-02,2.62178e-02,-2.34369e-02,5.34761e-02,7.22244e-02,-3.10450e-02,-3.08565e-02,-6.47544e-02,6.59855e-02,2.65067e-02,-1.01926e-01,-1.07364e-01,7.03597e-02,-1.18628e-01,-1.00306e-01,2.68069e-02,1.31986e-02,-4.69941e-02,-4.65973e-02,-1.15885e-01,-4.83380e-02,5.27467e-02,4.47336e-03,1.45728e-02,-6.31772e-02,1.16674e-02,6.37296e-02,-1.33839e-02,-5.33135e-02,6.46363e-03,8.65834e-02,1.00338e-01,-2.22262e-02,3.70555e-02,-4.27252e-02,-6.00133e-02,1.35166e-02,4.43000e-02,-1.97793e-02,-1.27596e-01,7.17684e-02,3.24549e-02,-8.52342e-02,-1.09807e-02,-1.05498e-02,-2.16484e-02,4.57076e-02,5.03012e-02,5.72033e-02,1.30812e-01,-9.91025e-02,-1.18602e-01,-1.77242e-02,-8.11779e-02,9.95247e-02,5.92937e-02,7.98290e-02,1.13564e-01,8.52237e-02,-2.58378e-02,7.42033e-04,-8.59994e-02,2.71216e-02,9.98054e-02,-2.02276e-01,-1.83900e-02,-3.07750e-02,-1.29801e-01,2.64020e-02,-1.37449e-01,-3.00392e-03,3.45883e-02,4.33722e-02,-1.36255e-01,-8.17561e-02,3.90290e-02,1.32525e-02,-6.77427e-02,-9.71538e-02,-4.27347e-02,-4.55568e-03,1.95602e-02,1.32225e-01,-1.44704e-01,1.42012e-01,-8.84479e-02,-1.60940e-01,3.86314e-02,3.98197e-02,3.57196e-02,-9.78000e-02,4.74207e-02,7.24253e-02,7.99521e-02,1.05445e-01,-7.52592e-03,7.90335e-02,-4.52142e-02,-1.72357e-03,-5.08546e-02,-1.33771e-01,-5.28809e-02,7.77463e-02,-1.48627e-01,-9.34598e-02,1.17235e-02,-1.62014e-02,8.84963e-02,-1.13417e-01,-8.66929e-02,-1.95346e-01,7.39581e-02,3.07097e-02,-1.77262e-02,-4.13937e-02,-1.18566e-02,-4.88698e-02,-8.91468e-02,-4.09250e-02,-6.66057e-02,-7.52973e-02,-2.24807e-02,2.34271e-03,-1.18920e-01,-1.10380e-01,-6.61352e-02,5.00562e-02,6.21989e-02,2.63967e-02,-1.31294e-01,5.39634e-02,-1.07140e-01,6.00463e-02,9.52812e-02,-3.54404e-02,5.71690e-02,-1.06634e-01,-3.94745e-02,-1.80669e-01,8.10575e-02,-5.63721e-02,-1.65971e-01,1.00892e-01,-1.20777e-01,-1.00739e-01,6.85382e-02,-3.79997e-02,-6.64437e-02,8.30638e-02,-1.10825e-01,-1.25281e-01,8.84589e-02,-2.00618e-01,2.57826e-02,-9.60628e-02,-4.83644e-02,-4.06830e-02,9.96282e-02,3.83653e-02,-8.01682e-02,
-3.22215e-02,2.52361e-02,3.54065e-02,-1.10657e-01,-8.14847e-02,2.99355e-02,-4.09924e-02,1.71755e-02,1.29362e-01,-7.51754e-02,4.80988e-02,-3.49968e-02,-5.03200e-02,-3.46514e-02,3.15321e-02,-3.27752e-03,5.37604e-02,5.98992e-02,-3.83758e-02,-7.68396e-02,6.84132e-03,1.30661e-02,-3.87823e-02,-1.13965e-01,-1.72826e-02,1.39246e-01,5.33994e-02,-3.44958e-02,-2.25759e-02,5.21833e-02,-9.44977e-02,1.22429e-02,2.53114e-02,1.66369e-02,1.28223e-03,4.86743e-02,-3.89137e-02,1.91448e-02,1.11767e-02,-6.98576e-02,-1.79815e-02,8.08707e-02,8.21022e-02,-1.33696e-01,9.89957e-02,6.46555e-02,-5.20141e-02,-5.00861e-02,-4.16344e-02,3.64422e-02,3.48675e-02,-6.92799e-02,-6.02959e-02,-8.85130e-02,8.42153e-02,5.37373e-02,-7.74414e-02,1.38212e-02,-7.78522e-02,-3.99504e-02,-7.78256e-02,-3.54113e-02,6.50600e-02,-1.04815e-01,-8.06478e-02,-5.20882e-02,-7.69408e-03,-3.00107e-02,-7.30005e-02,4.31322e-02,3.89836e-02,-2.02909e-02,6.84376e-02,-6.41367e-02,-7.45534e-02,-8.84692e-03,-2.17972e-02,-6.89948e-03,-2.51738e-02,-8.17888e-02,-3.86548e-02,-9.74407e-02,8.63166e-02,-2.74103e-02,-6.13081e-02,9.43696e-02,-2.40499e-02,3.86622e-02,-1.29459e-02,-7.30252e-02,-8.03373e-02,8.08190e-02,5.04251e-02,-9.51234e-02,-1.21904e-01,-6.22471e-02,-3.51661e-02,-1.79315e-02,-1.44095e-02,-1.16854e-01,5.30542e-02,1.04729e-01,-9.14272e-02,-1.77058e-02,-1.29307e-01,6.44160e-02,-5.75648e-02,-7.09837e-02,-6.43085e-02,3.73133e-02,8.31298e-02,1.80525e-02,-8.04131e-02,3.08833e-02,4.68588e-02,1.41774e-02,2.16332e-02,6.28557e-02,-5.13789e-02,-2.89168e-02,-4.35559e-02,-2.53277e-02,6.48172e-02,8.03469e-02,4.47655e-02,-7.78324e-02,-2.30130e-02,-5.84928e-03,9.06641e-03,-8.79479e-02,-1.22518e-02,-4.11204e-02,-7.41585e-02,-6.95407e-02,-8.75221e-02,-2.80364e-03,3.09373e-02,-9.31785e-02,-3.26802e-02,1.83625e-02,-1.13206e-01,7.89366e-02,2.33278e-02,-3.97314e-02,-5.33795e-02,-8.64001e-02,-2.03563e-02,6.67920e-03,1.11147e-01,-6.90869e-02,-8.19090e-03,-1.00969e-01,-2.30827e-02,6.08016e-02,5.54951e-02,-8.37941e-02,5.16240e-02,1.13968e-01,9.94996e-02,-2.43477e-02,-3.27400e-02,7.88301e-03,-5.51195e-03,6.44342e-02,-1.00797e-01,5.72991e-02,6.11862e-02,2.01263e-02,5.73014e-02,1.24784e-02,4.71509e-02,8.01783e-02,-5.82884e-02,6.63618e-02,-7.21147e-02,-1.16409e-01,4.23293e-03,-2.58983e-02,-3.71885e-02,-6.56231e-02,-4.47904e-02,-6.71309e-02,1.08187e-02,-1.10280e-01,4.54191e-02,-3.94724e-02,-1.10962e-01,-8.00956e-02,-4.16365e-02,-4.66777e-02,5.57772e-02,3.30846e-04,4.03929e-02,-6.15829e-02,-3.47776e-02,-2.75827e-02,1.22670e-01,-2.55532e-02,-1.05586e-01,8.66457e-02,-2.64265e-02,-9.88952e-02,8.52656e-02,4.60897e-02,-1.03865e-01,-1.00750e-01,-2.05399e-02,-6.41308e-02,1.13757e-01,-8.67163e-02,-9.29586e-02,-6.72740e-02,1.26499e-01,8.82605e-02,-6.62253e-02,-8.63923e-02,1.34166e-01,5.91989e-02,-1.84171e-02,1.67088e-01,9.79318e-02,-3.47013e-02,-9.10766e-02,-7.13356e-02,3.67618e-02,-5.61544e-02,-4.51762e-03,8.87456e-02,-9.51930e-02,3.49288e-02,8.99396e-02,2.78279e-02,-4.99910e-02,7.51022e-02,-4.94592e-02,-6.82714e-02,-9.97055e-02,-7.86280e-02,1.17710e-01,1.04784e-01,-9.07289e-02,2.56276e-02,-4.52468e-02,7.04796e-02,4.85411e-02,-8.51219e-02,-1.04479e-01,-2.34925e-02,6.02285e-02,4.00445e-02,
3.48624e-02,-4.37615e-02,-2.77997e-02,1.48352e-01,-5.31818e-02,1.07269e-01,1.41373e-02,-1.74963e-01,4.81994e-02,1.36531e-02,-5.12044e-02,3.02126e-02,2.94238e-02,2.05406e-02,9.80773e-02,1.49785e-01,1.21402e-01,9.14747e-02,9.11835e-03,-7.38875e-02,4.76308e-02,1.50408e-01,-4.80679e-02,-8.59718e-02,-1.78073e-01,5.57650e-02,-4.48922e-02,-1.39766e-03,8.98942e-02,-1.97133e-01,-4.89761e-02,7.75280e-02,1.22841e-01,1.12097e-01,5.59057e-02,-2.51437e-02,-4.88480e-02,2.42770e-02,-8.79902e-02,-1.22166e-01,-1.00980e-03,1.64488e-02,1.00189e-01,-9.99621e-02,-9.59557e-03,4.80623e-03,8.54606e-03,-1.01663e-01,-5.86616e-02,-6.49847e-02,1.78385e-02,-1.40138e-02,-6.71441e-02,1.85266e-02,8.67194e-02,5.61813e-02,1.23329e-01,3.29076e-02,2.12066e-01,-5.49567e-02,2.98035e-02,-1.53233e-01,-6.98428e-02,1.86202e-02,-2.96668e-01,-3.26623e-02,5.65187e-02,-3.24833e-02,-3.49542e-02,8.59778e-02,7.81951e-02,-5.60742e-02,-1.21080e-01,-5.71830e-02,-3.87839e-02,5.35133e-02,-4.67702e-02,-7.73753e-03,3.09725e-02,-2.51439e-02,5.57198e-02,-9.61808e-02,-1.03729e-01,-7.65599e-03,-1.08069e-01,-3.89203e-01,-8.97417e-02,-9.02477e-02,1.86462e-02,1.78866e-02,-7.23716e-02,-9.32538e-02,-1.13667e-01,-6.92336e-05,-5.87396e-02,7.27412e-02,2.66810e-02,-4.09270e-02,7.00357e-02,-9.31013e-02,4.28975e-02,-3.98863e-02,-1.13597e-01,1.32210e-02,-8.08949e-02,8.14787e-02,3.66866e-03,-8.83443e-02,-7.28427e-02,-4.54798e-02,-4.57542e-02,-4.73289e-02,-4.99661e-02,7.15475e-02,-1.60399e-02,-4.56903e-02,7.53312e-02,-6.99901e-02,-6.74309e-04,-2.48421e-01,6.52781e-02,-6.87108e-02,-3.44059e-03,-8.26996e-02,2.17698e-02,2.64559e-02,-5.95183e-02,1.37760e-02,-1.79620e-01,-1.31337e-01,-1.20765e-02,-2.37245e-02,3.10536e-05,-7.14745e-02,9.17520e-02,3.34992e-02,1.08352e-01,9.08489e-02,9.39262e-02,3.57109e-02,3.07497e-02,-1.17486e-01,-1.35387e-01,7.39036e-02,3.64838e-02,-3.76223e-02,2.87121e-02,1.05099e-01,2.03988e-01,-5.13774e-02,-5.19495e-02,-6.33057e-03,-1.49327e-01,-1.48529e-01,2.18619e-01,6.43838e-02,-6.22885e-02,-1.12362e-01,-3.74117e-02,-1.90678e-02,6.42573e-02,-1.04440e-01,8.79266e-02,3.28893e-02,-1.05186e-01,-7.76518e-02,6.15458e-02,1.00660e-02,-1.94344e-01,-3.51302e-02,-6.37604e-03,3.80354e-02,8.97762e-02,-1.08708e-01,-5.62433e-02,-1.94434e-02,-2.26523e-01,1.38103e-01,-6.46771e-02,7.50958e-03,-2.26411e-01,3.49153e-02,6.18874e-02,4.24314e-02,7.35002e-02,-9.57008e-02,9.98404e-03,2.35253e-02,3.53063e-02,-5.86471e-03,-3.06035e-02,-7.64285e-02,7.88834e-02,-1.17210e-01,-1.07032e-01,-3.90947e-02,5.14242e-02,-2.17318e-02,-4.16136e-02,4.87717e-02,-1.34499e-01,3.66858e-02,5.82229e-02,9.28193e-02,-3.97934e-02,7.33538e-02,5.50196e-02,4.49680e-02,-7.34965e-02,-3.84721e-02,4.82906e-02,-4.72170e-03,9.57258e-03,-6.10486e-02,2.16719e-02,-7.29588e-04,-1.35081e-02,-2.03735e-02,-5.95810e-02,-1.37545e-01,1.60061e-02,7.23180e-02,1.39504e-02,2.16647e-02,-1.64316e-01,-1.65564e-01,-3.43152e-02,1.41807e-01,-4.64109e-02,-9.33633e-02,-1.37827e-01,-1.34965e-01,1.09774e-02,-6.00986e-03,-3.94071e-02,2.65179e-02,4.95527e-02,8.54193e-03,-2.02195e-01,-3.06439e-02,-5.38709e-02,2.44769e-02,-9.50893e-02,8.99902e-02,-1.06872e-01,8.15980e-02,-8.62637e-02,-4.05628e-02,4.74859e-02,8.28136e-02,
-5.52881e-02,5.62419e-02,-6.23714e-02,-3.03048e-02,2.25610e-02,-4.66403e-02,-4.59522e-02,8.68306e-02,5.24291e-02,-8.02528e-02,-1.07193e-01,-1.22847e-02,-5.55108e-02,-4.10003e-02,1.07621e-01,-1.05200e-01,2.79769e-04,7.08668e-02,-2.66035e-02,-9.34987e-02,-1.07176e-01,-5.24435e-02,2.05279e-02,-2.57702e-02,2.32688e-02,-1.90490e-03,2.27731e-02,-2.62532e-02,-4.33341e-02,-3.93652e-02,-7.28051e-02,-4.99240e-02,-2.21914e-02,2.33573e-02,2.01111e-02,-1.62127e-02,3.89015e-02,-7.01130e-02,8.64866e-02,-7.45749e-02,-4.45692e-02,7.80950e-02,-7.56357e-02,-4.63707e-02,8.15534e-02,2.85537e-03,-8.47249e-02,1.14849e-02,4.95942e-02,9.59326e-02,7.19489e-02,-9.82241e-03,1.17289e-02,4.47764e-02,-1.04381e-01,-6.70733e-03,-4.14189e-02,-6.20196e-02,8.10798e-03,1.29566e-02,7.04123e-02,9.51795e-02,-2.34163e-02,-1.01944e-01,-4.27915e-02,1.03719e-01,3.18530e-02,-8.90391e-02,6.36715e-02,-1.32196e-02,-6.71874e-02,1.07310e-01,1.00689e-01,-3.62458e-02,-8.89982e-02,-9.61259e-02,-4.53273e-03,-8.28997e-02,5.18629e-02,-7.74393e-02,-1.46650e-03,-9.21571e-02,-8.46713e-02,4.79796e-02,-6.02540e-02,-1.02338e-01,-1.03681e-01,-7.85692e-02,-5.71395e-02,6.33092e-03,-2.72230e-02,-5.49146e-02,-1.05671e-01,9.05624e-02,2.81326e-02,1.12343e-02,5.38772e-02,3.14504e-02,-1.06233e-01,1.89508e-02,4.39429e-02,3.33542e-02,9.61929e-02,3.72486e-02,1.11353e-02,-3.56366e-02,-2.62082e-02,8.12894e-02,-1.00645e-01,-9.06874e-02,-2.67222e-02,-5.13088e-02,-1.85312e-02,-8.04109e-02,1.55379e-02,3.35760e-02,-3.69105e-02,-9.88551e-02,9.43769e-02,9.52761e-02,9.61315e-02,-3.19779e-04,-3.53111e-02,1.41636e-04,-4.74226e-02,-7.10151e-03,-4.13446e-02,-8.49094e-02,-1.01704e-01,-2.79924e-02,4.35970e-02,-9.58871e-02,-8.60455e-02,6.44778e-02,6.85356e-02,-1.04558e-01,-6.04133e-02,6.76674e-02,-6.34799e-02,-8.97954e-02,5.56114e-02,9.11551e-02,-2.10945e-03,-1.63816e-02,9.83007e-02,-1.08188e-01,-8.16538e-02,-1.79580e-02,-4.36207e-02,8.39533e-02,8.53856e-02,-1.02235e-01,5.37937e-02,-3.85028e-02,-7.73097e-02,4.93205e-02,5.03517e-02,-4.59463e-03,1.09121e-02,9.03681e-02,-1.01923e-02,3.15044e-03,8.12189e-02,7.42662e-02,-8.58806e-02,4.17732e-02,1.76723e-02,-6.41683e-02,-2.06959e-02,-4.81363e-02,4.28152e-02,1.15624e-02,1.98063e-02,4.82679e-03,9.21534e-02,8.93100e-02,-7.54935e-03,7.10440e-02,-7.90065e-02,-6.10470e-02,2.28570e-02,-5.72210e-02,9.07910e-02,-1.13569e-02,-5.43729e-02,-2.79952e-02,-8.92261e-02,6.02926e-02,9.65093e-02,-2.70540e-02,-7.19371e-02,1.08979e-01,8.90680e-03,-9.38478e-02,-6.44159e-02,-5.91142e-02,6.25400e-02,5.39280e-02,1.12344e-02,5.45427e-02,4.94113e-02,9.80033e-02,-5.15311e-02,-6.10705e-02,6.76934e-02,2.26498e-02,6.07806e-02,4.64716e-02,5.07448e-02,-2.73146e-03,3.60190e-02,2.26281e-02,2.75480e-02,-1.33080e-02,-4.66086e-02,2.85656e-02,3.85520e-03,6.50765e-02,4.36895e-02,2.22602e-03,2.52772e-02,-8.10966e-02,4.18470e-02,-1.01049e-01,9.37456e-02,5.24862e-02,-4.77220e-02,3.08420e-02,-4.35009e-02,8.65711e-02,6.55270e-02,-5.48087e-02,-9.42409e-02,8.44377e-03,-6.55042e-02,-7.32725e-02,-7.06292e-02,-9.38261e-02,-8.26317e-03,1.05932e-01,-2.79235e-02,6.58563e-02,-2.85452e-02,-8.92774e-02,9.63069e-02,9.35749e-03,-1.08750e-01,-3.49496e-02,-5.51820e-02,-1.05138e-01,
-1.62873e-02,2.18235e-02,-7.10364e-02,-8.78615e-02,-4.39595e-03,9.11519e-02,7.91699e-02,6.34639e-02,-2.27882e-02,-6.79205e-02,2.49386e-02,3.12558e-02,-1.03885e-01,5.42789e-02,-1.49613e-02,3.28016e-02,9.05188e-02,-8.21203e-02,9.08146e-03,-9.01149e-02,8.80951e-02,-4.26030e-02,5.43380e-02,5.27366e-02,4.41252e-02,6.50674e-02,-8.96976e-02,8.76498e-02,5.29009e-02,6.51144e-02,-7.87635e-02,-9.61974e-02,-3.13368e-02,3.02387e-02,3.31345e-02,-1.06937e-01,8.13944e-02,-2.73850e-02,-1.00844e-01,7.11915e-02,5.70017e-02,-9.51189e-02,-4.82383e-02,9.91071e-02,-9.66552e-02,4.23783e-03,-4.35878e-02,-8.13964e-02,-8.98861e-02,-7.58477e-02,5.83504e-02,-6.82763e-03,5.11942e-02,-9.79420e-04,2.74250e-02,5.37165e-02,-6.76949e-02,3.31283e-02,-3.88052e-02,2.13810e-02,2.21759e-02,9.88770e-02,-1.08189e-01,8.54359e-02,9.94169e-02,2.07672e-02,4.25230e-02,4.29577e-02,-9.40661e-02,2.03725e-02,-5.78579e-02,-9.80235e-03,9.04994e-02,2.23779e-02,5.73537e-03,-1.10644e-02,-8.29856e-02,-2.35156e-02,-7.27557e-02,-1.01711e-01,3.06386e-02,-1.82658e-02,-5.82159e-02,2.64349e-02,-8.66699e-02,5.98320e-02,4.86149e-02,-4.53148e-02,-9.04032e-02,4.39946e-02,-1.00509e-01,-7.49221e-02,-6.25318e-02,-9.29015e-02,4.89737e-02,-6.29471e-02,6.86861e-02,-7.81446e-02,5.68137e-02,-6.65349e-02,3.17421e-02,-6.98498e-02,-9.05006e-02,7.97433e-02,7.00662e-02,-1.41929e-02,-2.68572e-02,-2.32171e-02,8.39160e-02,9.01147e-02,9.09561e-03,-2.97241e-02,7.15449e-02,4.14588e-02,2.08778e-02,-1.08364e-01,3.72815e-02,-6.85694e-02,-3.97857e-02,8.03815e-02,-9.17409e-02,-5.05310e-02,-2.81121e-03,1.02808e-01,-7.99449e-02,-3.46317e-02,2.28752e-03,-9.96972e-02,9.37749e-02,2.06745e-02,8.48671e-03,-6.80479e-02,-7.13668e-02,-1.42800e-02,7.33679e-02,8.55192e-02,-6.27420e-02,9.10363e-02,-5.55561e-02,2.63494e-02,5.51420e-02,-1.02302e-01,-1.07888e-02,-7.12250e-02,-1.05661e-02,1.12871e-02,-4.64542e-02,-7.26842e-02,-7.12976e-02,4.55943e-02,5.10570e-02,-1.73404e-02,-4.72805e-02,8.56536e-02,-8.56454e-02,-6.48006e-02,1.05885e-01,8.97913e-02,4.06456e-02,1.01668e-01,2.97596e-02,-4.12588e-02,3.06751e-02,-7.77570e-03,-1.06663e-02,-6.61541e-02,-7.35675e-03,2.28721e-02,5.35559e-03,-8.65610e-02,3.43534e-02,1.25050e-03,-9.28862e-02,-1.05506e-01,-7.99375e-02,-1.75262e-02,4.01775e-03,9.04832e-03,-2.75943e-03,-1.09287e-01,2.91166e-02,3.50417e-02,5.96270e-02,4.70241e-02,-9.63561e-02,9.69763e-02,4.40988e-02,4.13646e-02,-9.37758e-02,-3.67562e-02,-7.91954e-02,6.14839e-03,-2.80324e-03,8.65746e-03,-2.27979e-02,1.85630e-02,-8.52630e-03,-4.37029e-02,1.26035e-02,-8.47452e-03,2.51460e-02,-7.51443e-02,-3.05010e-02,3.33471e-02,-1.19932e-02,3.86590e-03,-6.47285e-02,-3.67660e-02,-7.69048e-02,-4.34596e-02,8.13018e-02,-7.04932e-02,9.43061e-02,5.81572e-02,6.15806e-02,7.69497e-03,1.97785e-03,2.47191e-02,-1.05066e-01,7.36948e-02,-4.50356e-02,1.01567e-01,-8.62076e-02,-9.01221e-02,1.46858e-02,2.31230e-02,4.30769e-02,-9.58634e-02,8.09013e-02,1.47104e-03,-2.07251e-02,5.98168e-02,-8.82462e-02,-6.42567e-02,-1.04255e-01,-2.75133e-03,5.49937e-02,-9.07025e-02,7.86138e-02,-1.78067e-02,-9.06479e-02,-2.66014e-02,5.33326e-02,2.95319e-02,-6.15345e-03,-6.84780e-02,-9.92850e-02,-1.06964e-01,-1.78861e-03,3.66087e-02,
4.09926e-02,-5.04470e-02,2.05223e-03,-1.09043e-01,7.60900e-02,-3.20202e-03,-1.01133e-01,4.30833e-01,-1.32941e-01,4.24714e-03,-9.61189e-03,-1.01888e-01,7.01112e-02,-1.77319e-02,1.01385e-01,-1.02207e-01,7.16561e-02,-7.15159e-02,-5.82644e-02,-5.62478e-02,-3.84370e-02,-3.38291e-01,-9.23908e-02,-5.59590e-02,4.01705e-02,-6.42406e-02,-1.47684e-02,4.39132e-03,1.35087e-02,2.83715e-03,4.27455e-02,-5.38769e-02,-9.22338e-02,-5.20509e-03,-1.21915e-01,5.32320e-02,-1.05219e-01,4.88769e-02,-7.60294e-02,-7.62994e-02,-2.19413e-02,-1.16631e-01,9.00617e-02,-3.62172e-02,4.54984e-02,-7.80095e-02,-5.72108e-02,3.72906e-05,9.52484e-02,-5.58878e-02,-8.14597e-02,2.56404e-03,-1.53935e-02,-3.80197e-03,9.02658e-03,-7.48150e-02,5.32752e-02,-8.40167e-02,3.57861e-02,-4.88199e-02,-4.85270e-02,1.20666e-01,-8.71042e-02,-1.79348e-03,9.12232e-02,-1.29370e-02,-1.73250e-02,1.16321e-02,4.61597e-02,-7.08543e-02,-9.55095e-02,-5.02009e-02,-5.62071e-03,-1.17277e-01,-6.30044e-02,-6.19133e-03,9.07021e-02,-1.00353e-01,3.06671e-02,-5.00967e-02,-8.69515e-02,-4.12364e-02,-8.23752e-02,-6.90429e-02,1.18018e-01,-1.88232e-02,4.93615e-02,-2.87717e-02,8.01210e-03,-8.33092e-02,6.37894e-02,5.87353e-02,4.62470e-02,8.46773e-02,-7.50657e-02,4.09686e-02,-2.78638e-02,2.12817e-02,6.65041e-02,4.23208e-02,1.56876e-01,-6.86097e-02,2.12742e-02,8.39609e-03,-4.07208e-02,7.84444e-04,-1.13709e-01,3.48425e-02,8.62830e-02,-1.03321e-01,3.67686e-02,1.60094e-02,-5.75773e-02,9.46697e-02,3.49903e-02,-1.17783e-01,-3.55163e-02,6.60170e-02,-1.18135e-02,1.21590e-01,1.94978e-02,-3.95209e-02,5.31532e-02,-2.06257e-02,-5.70934e-02,6.54605e-02,1.03958e-01,5.59702e-02,-3.36049e-02,-5.56563e-02,3.65706e-02,7.64546e-02,8.71045e-02,7.15530e-02,-5.62174e-02,-8.68727e-02,-1.09500e-01,-4.52967e-02,6.77250e-03,-1.86759e-02,3.79331e-02,2.27603e-02,6.93229e-02,-1.46232e-02,-6.87936e-02,5.33641e-02,6.39961e-02,8.51869e-02,1.40894e-02,4.48341e-02,-4.02023e-02,-5.04992e-02,-7.02147e-03,2.98014e-01,-1.91912e-01,-3.86542e-02,6.34577e-02,-3.31748e-02,-7.82649e-02,5.20051e-03,-6.06593e-02,-8.84342e-02,9.59351e-02,-2.48631e-02,-2.49480e-02,5.10371e-02,-7.17935e-02,-4.76572e-02,-2.69307e-02,2.35403e-02,-8.81089e-02,5.09151e-02,-1.63904e-01,3.25415e-02,-7.13964e-02,8.48733e-02,7.43905e-02,4.98832e-02,5.55969e-02,-1.24826e-02,1.12173e-01,1.59009e-01,3.45198e-02,6.34373e-03,-1.75078e-03,-1.36742e-02,-4.04378e-02,1.33833e-02,7.13245e-02,-2.08863e-01,1.97371e-02,1.11554e-02,5.11499e-03,8.64960e-02,3.66530e-02,6.54724e-02,3.27330e-01,1.40090e-01,8.88554e-03,-4.32261e-02,8.40657e-02,2.58006e-02,-8.63018e-02,-3.16206e-02,-6.16935e-02,7.48827e-02,-2.91688e-02,4.59838e-02,7.09459e-02,7.21710e-02,8.64362e-02,2.03196e-02,1.08675e-01,9.31692e-02,-8.06458e-02,2.40117e-02,1.46693e-01,8.41997e-02,-4.60179e-02,-7.14221e-02,8.34994e-02,-1.16316e-01,6.99325e-02,6.42271e-02,-7.21470e-02,-3.89460e-02,3.58674e-02,-2.32937e-02,3.24736e-02,2.25759e-02,-3.20502e-02,-9.51343e-02,-1.69505e-01,-6.74528e-02,-5.82427e-02,-8.15612e-02,5.83014e-02,-1.08504e-03,1.43416e-02,-7.65992e-02,-5.23563e-02,-1.06942e-01,1.06392e-01,6.06875e-02,-1.02325e-02,-5.90872e-02,-1.18447e-01,9.64542e-02,-2.01709e-02,4.12098e-02,
