// Neural Network File Format by Kyle Julian, Stanford 2016
6,5,5,100,
5,100,100,100,100,100,5,
0,
-56000.000000,-56000.000000,-3.141593
56000.000000,56000.000000,3.141593
-278.628049,0.000000,0.000000,700.000000,700.000000,-0.242819
112000.000000,112000.000000,6.283185,1000.000000,1000.000000,17.479225
-3.27926e+00,4.37982e-01,5.03759e-01,1.56317e-02,3.89302e-01,
2.07066e-01,-1.41716e+00,1.14491e-02,1.57315e-02,5.14158e-03,
-1.22865e+00,3.10757e+00,9.02349e-02,4.49751e-03,2.42829e-02,
-2.42760e+00,-2.63428e+00,9.62147e-01,-4.35149e-03,1.03761e-03,
1.22142e+00,-6.64935e-01,-1.58867e-02,-5.03223e-03,-2.41137e-02,
9.98479e-01,-1.13760e-01,1.64514e-01,1.86405e-02,-1.78546e-02,
-3.30859e+00,-1.28498e+00,-1.06893e-01,-2.96657e-03,-3.13563e-02,
6.69391e-01,-6.40311e-01,-8.27436e-03,-2.93999e-01,-2.83770e-01,
7.13159e-01,-8.31345e-02,-2.92820e-01,2.46180e-01,2.73037e-01,
7.46083e-01,-4.68131e-01,1.49234e-01,2.77623e-02,7.23444e-02,
1.13330e-01,-3.79690e-02,6.11299e-03,-1.44617e-01,-2.18339e-02,
1.53833e+00,4.35913e+00,-8.29337e-01,-5.32566e-03,-2.06551e-06,
-2.25610e+00,1.52282e-01,-5.92649e-01,3.93604e-02,3.44526e-01,
-1.11308e+00,-5.25027e+00,-2.04873e-02,5.63862e-04,-3.02755e-02,
1.05595e+00,3.54465e+00,1.33435e-01,7.22544e-03,-7.20826e-03,
2.88767e+00,-7.34043e+00,-8.13855e-03,-2.87151e-04,6.93407e-03,
-2.40533e+00,1.17316e+00,2.46088e-02,-1.66033e-02,6.16980e-03,
7.10611e-01,8.34624e-01,-6.29812e-02,-1.97477e-02,5.66146e-02,
-3.36189e-01,9.59554e-01,1.28263e+00,8.07836e-04,5.44514e-04,
1.02579e-02,6.01674e-03,3.02031e-03,1.89351e-01,1.95216e-01,
-6.95151e+00,1.99080e+00,-1.46026e-03,8.69259e-03,2.21538e-01,
4.93260e-01,1.26347e+00,-1.71818e-02,-2.25656e-01,-2.08884e-01,
1.61789e-01,1.61653e-01,2.60778e-02,-3.76914e-02,1.81869e-01,
-3.64737e+00,-1.23931e+00,2.15362e-03,-1.92410e-02,-4.28027e-02,
2.06557e-01,7.62347e-01,-2.65501e-01,1.50529e-01,9.52139e-02,
6.43755e-02,6.59102e-03,2.84189e-03,-2.61910e-01,-2.56320e-01,
-4.37000e+00,4.67005e+00,4.52619e-02,-7.21676e-03,-3.44184e-02,
1.90089e+00,5.19038e-01,-7.56164e-03,-5.40828e-03,-4.75591e-02,
2.02124e-01,9.16878e+00,1.85139e+00,3.91850e-03,1.27084e-02,
-8.79904e-01,4.93024e-02,2.17233e-01,-2.57132e-01,1.17902e-01,
3.03009e+00,3.82947e+00,3.28615e-01,3.01522e-03,8.78487e-03,
-7.83495e+00,2.28112e-01,2.23388e-02,4.15185e-03,-1.25856e-01,
-6.16581e-01,-1.18967e+00,2.94103e-02,-1.03556e-02,-7.56327e-02,
-3.31463e+00,-2.49669e+00,1.67642e-01,7.50485e-03,-1.02268e-03,
-8.77218e-01,-4.82274e-01,2.97778e-01,-1.97050e-01,3.44271e-01,
-5.71440e+00,-6.09764e+00,-1.13961e-02,-3.01440e-03,-5.57287e-03,
1.62386e+00,1.32530e+00,1.62819e-01,-9.83111e-03,-5.42168e-02,
1.11685e-01,-3.32722e-01,1.21311e-01,9.14705e-02,8.30811e-02,
6.82229e-02,6.14847e+00,-5.92942e-03,-6.00881e-03,-8.60562e-02,
3.01065e+00,7.49745e+00,1.19120e-01,-2.36673e-05,-7.51074e-03,
1.80862e+00,-2.54692e+00,9.95107e-01,-3.39643e-03,-2.55920e-03,
3.68808e-02,4.71164e-02,4.35211e-01,1.44941e-01,1.56158e-01,
1.03980e-02,4.43195e-03,8.72444e-04,2.38533e-01,2.35811e-01,
-6.05422e+00,1.37402e+00,-5.24902e-01,9.57677e-03,1.07701e-02,
2.49949e-03,-9.21158e-03,-5.18734e-03,-2.43158e-02,-1.79233e-02,
3.02868e-01,-1.30300e-01,-4.71523e-01,-2.85370e-03,1.55194e-01,
4.40273e-01,-1.19347e+00,-4.78686e-01,9.08772e-03,1.90930e-02,
-6.84366e+00,-1.73103e+00,-1.12981e-01,-1.32845e-04,-1.76025e-02,
1.99074e+00,-4.76322e+00,-6.14997e-02,-5.88726e-03,-1.68380e-02,
-7.22410e-01,2.81443e+00,-6.82167e-01,-1.02640e-03,8.65001e-04,
-4.44106e+00,6.64529e+00,1.95245e-02,6.96438e-03,5.70502e-02,
-3.96307e+00,-6.99718e-01,-1.40002e-01,8.81086e-03,3.04141e-01,
-3.12517e+00,-2.21925e+00,-3.15728e-01,5.64375e-02,1.70812e-01,
-1.93894e+00,2.44652e+00,1.61488e-02,-4.12669e-03,-1.06459e-02,
-5.77287e-01,-2.48208e-02,1.36991e-01,3.78123e-01,-8.73628e-02,
-3.75376e+00,4.05824e+00,-5.38284e-01,-2.34641e-03,9.61176e-03,
-2.85596e-01,-4.34819e-01,-1.48555e-01,3.43609e-01,-3.33051e-01,
3.76524e-02,-2.33043e-02,4.86045e-03,-4.88906e-01,-4.79740e-01,
-2.89965e-01,4.91198e+00,-8.82761e-01,-6.60140e-04,-1.48503e-03,
-1.90584e-01,2.62343e+00,3.87109e-01,7.51797e-03,-7.75688e-03,
1.87624e-02,-2.30224e-03,5.13017e-03,-3.78434e-01,-3.70479e-01,
1.86049e+00,1.47059e+00,2.16232e-01,4.51924e-03,1.79402e-03,
3.30237e-02,8.74476e-04,5.82378e-03,2.23344e-01,2.21691e-01,
-2.07915e-01,-4.59049e+00,-1.56541e-02,-7.36912e-03,-4.16304e-02,
-8.19759e-01,-1.65485e+00,1.16239e-01,1.96568e-02,3.28351e-02,
1.46530e+00,8.58199e-01,-8.94364e-01,-2.77554e-03,-3.02039e-02,
-1.64580e+00,-6.92931e+00,-1.24203e+00,-1.29919e-03,2.05514e-02,
-4.61946e+00,2.10410e+00,3.70930e-02,2.71942e-05,-1.48747e-02,
1.48379e+00,-6.52250e+00,-1.72714e+00,1.96102e-04,6.58512e-04,
-1.88651e-01,-4.28485e-01,4.06661e-01,-1.52081e-03,4.40305e-03,
-3.60323e+00,-4.44806e+00,5.08801e-01,-2.26921e-04,-9.46346e-03,
6.93585e-01,8.81523e-01,-4.56197e-03,-5.12346e-03,3.75211e-02,
-7.20391e+00,-3.02388e+00,-5.52300e-03,1.66779e-02,1.28879e-01,
2.03995e+00,-2.00750e+00,3.48322e-03,-7.48298e-03,1.92052e-03,
1.17319e+00,2.60704e-01,6.96814e-01,-4.95047e-03,-8.34256e-03,
7.97067e-01,2.37179e+00,6.07699e-01,1.88435e-02,8.01045e-02,
1.63283e+00,-1.61885e+00,-3.47355e-01,1.28061e-03,1.24585e-02,
2.28163e+00,7.88679e-01,2.82787e-02,4.17945e-03,-5.74212e-02,
-4.81415e-02,1.25130e-02,1.18145e-02,7.27378e-02,-5.63327e-02,
9.98635e-02,1.05126e-01,1.05793e-02,-1.46159e-01,1.36612e-01,
-3.01207e+00,6.81867e+00,5.24106e-02,-8.28949e-03,-6.04137e-02,
-3.70197e+00,-2.32663e+00,-3.43308e-02,3.99036e-03,5.01357e-03,
4.07377e-01,1.50571e+00,1.99466e-01,3.51023e-01,4.23709e-01,
4.10696e+00,-4.02643e-01,-3.09667e-02,-1.43936e-02,6.02439e-02,
1.05298e+00,9.60450e-02,9.00831e-02,-2.81304e-02,-5.21318e-02,
-1.44668e+00,-2.95420e+00,7.48268e-03,-5.39982e-03,-9.03766e-02,
9.82980e-03,-1.60830e-02,-2.84405e-03,2.23410e-01,2.24337e-01,
-3.41326e-01,-2.40420e+00,1.34785e-01,3.66655e-03,-3.00454e-03,
-1.36956e+00,2.16562e+00,1.71761e-02,2.02287e-02,1.25468e-01,
1.49699e-01,-6.42464e-01,-3.98556e-01,-6.62927e-03,-2.62914e-01,
6.70982e-02,4.97668e-02,-2.83948e-03,5.02128e-01,5.13027e-01,
-3.99255e-02,3.77362e-02,6.32391e-02,-3.29948e-02,-2.49544e-02,
-7.22395e+00,3.66898e-01,-1.88693e-03,-9.92294e-03,-1.24141e-02,
7.33098e-01,-1.09475e+00,-4.45817e-02,-9.16125e-02,-1.17566e-01,
-2.93006e+00,3.02573e+00,4.66841e-01,1.08086e-02,2.15673e-01,
-9.34832e+00,1.71472e+00,-2.69975e-02,-4.31550e-03,-4.12753e-02,
-1.79742e+00,6.08751e-01,3.50136e-01,6.80972e-06,-3.40593e-01,
6.58647e-02,4.89314e-01,-7.98946e-02,-1.47291e-03,1.11177e-02,
1.17548e+00,-2.62882e+00,-8.45489e-02,3.09072e-03,6.16442e-03,
-5.74101e+00,4.74183e+00,4.35771e-02,1.22085e-03,-1.80951e-02,
-1.97961e-01,
-2.26314e-01,
-6.28382e-02,
-1.44942e-01,
-3.87026e-02,
-3.88788e-01,
2.11756e-02,
-2.90925e-01,
-3.34893e-01,
-9.57175e-02,
-1.61032e-01,
-3.41358e-01,
-2.90852e-01,
1.40831e-02,
-5.31702e-02,
2.68101e-02,
-1.71830e-01,
-8.20277e-02,
2.86091e-02,
-5.14725e-02,
1.62046e-01,
-2.46343e-01,
-8.96111e-02,
-6.85692e-02,
-1.34065e-01,
-2.96127e-02,
-1.55897e-02,
-4.67345e-02,
9.03946e-02,
-2.06186e-01,
2.24737e-02,
-6.98504e-02,
-1.67686e-01,
-1.12550e-01,
-3.69194e-01,
1.32914e-01,
-5.41276e-02,
-3.73457e-02,
-7.19699e-02,
9.86063e-02,
-3.98988e-01,
-1.98022e-01,
-1.03949e-01,
-2.10775e-01,
-2.85232e-02,
-1.40921e-01,
-3.46503e-01,
1.11173e-01,
3.79912e-02,
-4.32714e-03,
9.84069e-02,
-8.38455e-02,
-1.87518e-01,
-9.57159e-02,
-2.51121e-01,
-1.26380e-01,
-3.60400e-01,
-4.10651e-01,
-1.85456e-01,
-2.44217e-01,
-2.35889e-01,
-1.71217e-01,
1.05858e-01,
-3.77669e-02,
-7.91909e-02,
-2.50660e-01,
9.84305e-02,
4.91772e-02,
1.82736e-02,
-5.19258e-03,
1.05752e-02,
-3.63109e-02,
1.20838e-01,
-1.19836e-01,
-3.68165e-01,
-2.95712e-01,
-3.30660e-01,
-1.99632e-02,
-1.39790e-01,
-2.20358e-01,
5.13082e-02,
-4.39213e-02,
-3.93083e-01,
3.28433e-02,
-1.92602e-01,
-6.40544e-02,
-7.34013e-03,
-1.18707e-01,
-7.07593e-02,
-1.63684e-01,
-3.16469e-01,
-8.88064e-02,
-2.65115e-02,
-1.35924e-01,
-6.66185e-02,
6.67043e-02,
-2.05259e-01,
-3.04041e-02,
-1.21536e-01,
1.26292e-01,
3.16159e-01,1.86298e-03,4.32771e-01,-6.43643e-01,8.33796e-02,1.59745e-01,-1.26976e-01,7.08135e-02,-3.14814e-01,-1.47678e+00,-1.35887e-01,-1.10764e+00,-2.39910e-01,-2.03978e+00,9.46286e-02,-1.45404e+00,-1.76478e+00,-3.75645e-01,-3.34958e+00,-1.59997e-02,-1.15376e-01,-2.65865e-01,1.41201e-01,4.80987e-01,3.90057e-02,1.81980e-01,4.26706e-01,1.95472e-01,5.53307e-01,8.89578e-01,3.44734e-02,2.17694e-01,-3.36273e-01,5.80055e-01,3.23349e-01,-8.72617e-01,-3.43504e-02,2.07534e-01,-1.59060e-01,1.71591e-01,-1.43778e-01,1.10372e+00,-3.69559e-01,1.99295e-01,1.29583e-01,1.33966e-01,1.10474e-01,-4.20845e-01,8.27589e-02,-1.06121e+00,6.30819e-01,-9.93000e-02,-3.39448e+00,-2.59916e-01,-7.81705e-02,-2.23664e-03,8.93629e-02,7.00925e-03,-5.03095e-01,-7.76176e-01,-1.18820e-01,-4.69856e-01,1.40505e-01,-7.79180e-01,-8.99929e-01,-1.40937e-01,-2.60480e-01,1.94031e-01,-6.24720e-01,5.13106e-01,4.57060e-01,3.97370e-02,-4.03629e-01,-3.96631e-01,-6.18958e-01,7.00474e-01,1.16555e-01,-2.61499e-01,1.42776e-01,1.79398e-02,-2.31096e-02,3.80546e+00,8.19734e-02,-2.16508e-01,-1.75581e+00,9.18869e-01,-2.10107e-01,-7.04790e-02,-1.93385e-01,-5.42705e-01,1.22416e-01,-1.77673e-01,-5.66585e-01,1.47969e+00,8.14547e-02,-1.71356e-01,-7.32306e-01,-9.63164e-01,-8.00686e-02,1.78915e-01,
-6.37944e-02,4.37322e-01,-1.75307e-01,5.35206e-01,4.50592e-01,2.78395e-01,9.60552e-02,-2.26491e-01,1.27083e-01,3.41093e-01,-3.19281e-02,-9.45742e-01,1.08221e+00,-8.02076e-02,1.68105e-01,-1.96813e-01,-1.37690e+00,1.91793e+00,1.94485e-01,-1.96904e-01,1.88128e-01,-1.07387e-01,1.68306e-02,-1.80687e-02,1.15831e-02,1.21412e-01,9.46544e-02,-6.11760e-01,-1.17524e-01,-2.13419e-02,-3.13307e-01,-3.09640e-02,-5.49036e-01,-1.37511e+00,5.50861e-01,6.35823e-01,4.78197e-01,1.56777e-02,-4.14647e-01,-5.23506e-01,-3.27407e-01,-2.21484e-01,1.05387e-01,-1.44175e+00,1.36182e-01,4.22831e-01,-1.36681e+00,4.71865e-01,-5.08348e-01,2.37709e-02,8.75614e-01,-2.12418e-01,-4.92052e-01,-1.64885e+00,-8.98136e-02,6.61293e-02,1.15783e-01,-2.01312e-01,3.80212e-01,9.60552e-02,5.45627e-02,-7.45586e-01,-1.22297e-02,9.00391e-01,1.08261e-01,-8.06334e-02,2.99898e-01,1.48144e-01,-2.21995e-02,6.54641e-02,4.19439e-01,9.75118e-01,4.29717e-01,6.07019e-01,1.30048e-01,1.09741e+00,4.61257e-01,-1.73110e-01,-1.64777e-01,-1.46142e-03,6.35087e-01,-4.52662e-01,-1.46602e-03,-6.18156e-01,-1.04214e+00,-1.96165e-01,-2.98487e-02,-3.21045e-01,-5.92465e-01,1.28566e-01,-6.82579e-03,3.67903e-03,-1.04894e+00,2.75178e-01,2.23852e-01,1.19188e+00,-1.25567e-02,1.13219e-01,1.51847e-01,5.65923e-01,
4.07209e-01,1.75217e-01,2.82943e-01,-2.67770e-01,-3.04945e-02,-1.34575e+00,-3.59084e-01,1.39627e-01,3.77931e-01,-1.21290e-01,-3.01558e-02,-7.46836e-02,5.80227e-02,-2.68279e-01,-2.21627e-01,-3.37394e-01,-1.50600e-01,-4.33806e-02,2.65202e-02,2.23123e-01,-2.04116e-01,1.03618e-01,-1.83917e-02,3.72795e-01,-1.61885e-01,3.39933e-02,-6.93769e-01,1.27040e-01,-3.60084e-01,3.55069e-01,1.85138e-01,-2.86369e-01,1.06790e-01,2.02601e-01,-1.66439e-01,-4.98045e-01,-7.59862e-02,1.35103e-01,-9.26006e-01,4.38392e-01,-3.23149e-01,1.58495e-01,-1.07482e-02,1.02411e-01,-1.57721e-01,-5.06600e-02,-3.90915e-01,-4.32482e-01,1.03360e-01,-2.12895e-01,-4.62303e-01,-3.27611e-01,-4.60722e-01,1.63427e-01,-3.37207e-02,-5.11014e-01,3.37710e-01,1.15654e-01,-3.63489e-01,1.77028e+00,-6.69087e-02,-6.52258e-01,7.09955e-02,-1.37730e-01,1.53293e-01,6.42605e-01,-4.17577e-01,1.35887e-01,-5.38872e-01,5.13002e-02,-3.26871e-01,5.60180e-04,-2.06349e-01,-2.77444e-01,-9.33992e-01,2.73176e-01,2.20205e-01,1.40331e-01,1.22783e-01,2.01610e-01,1.82188e-01,-3.40047e+00,7.87202e-02,1.74573e-01,-2.10608e-01,-3.48662e-01,-2.31651e-01,-3.52148e-01,-4.21942e-01,5.97678e-02,-9.06552e-02,1.22011e-01,-7.84269e-01,2.94184e-02,-5.47142e-02,-3.58411e-02,-6.87528e-03,-8.77805e-02,-1.65723e-01,-9.39621e-02,
3.67069e-01,2.15827e-01,-3.00902e-01,-3.06437e+00,-4.38078e-01,-3.51120e-01,1.80566e-01,2.23476e-01,-1.54187e-01,5.91282e-02,-2.60077e-02,-7.16451e-01,8.60698e-01,-1.13457e+00,-7.73082e-01,-5.83381e-01,-2.50019e+00,1.64692e-01,4.48929e-01,-4.25078e-02,-6.50316e-02,5.02738e-01,-5.11694e-01,1.39540e-02,2.94244e-01,-3.51505e-02,-4.60978e-02,8.39511e-01,1.21111e-01,-2.19379e+00,-1.04043e+00,9.08141e-02,-7.15475e-01,-6.75120e+00,-1.95250e-01,-4.34590e-01,-8.61871e-01,-1.05326e+00,-5.12444e-01,1.26454e-01,-3.08382e-01,-3.37082e+00,-3.93134e-01,-6.92646e-01,6.41880e-02,3.51083e-01,-1.56296e-03,2.02253e-01,-1.06915e+00,1.84988e-01,7.10375e-01,-9.28044e-02,4.69340e-01,-1.43010e+00,-6.96013e-01,3.85877e-01,5.59424e-01,-3.13425e-01,5.61323e-01,1.64000e-01,1.64295e-01,-7.59336e-01,-2.12291e-01,1.46863e+00,-1.54468e+00,1.25096e-01,1.83090e-04,1.94290e-01,-2.53527e-02,-1.66065e+00,-1.55112e+00,1.60901e-01,-5.32656e-02,1.70190e-01,-2.50965e-01,8.32847e-01,1.05996e-01,-1.12621e-01,7.86546e-02,-6.23097e-02,7.58523e-01,1.24211e+00,-3.20050e-01,-9.16431e-01,-6.54503e-02,3.94492e-01,8.89315e-02,-1.26947e-01,-1.82057e-01,-1.46145e-01,2.52666e-01,2.19875e-01,5.27920e-01,-1.78298e+00,-3.83983e-01,9.65691e-02,-8.91198e-01,-1.69358e-01,2.00771e-01,6.56554e-01,
2.51708e-01,1.76010e-01,-3.92127e-01,8.17104e-01,-1.10080e-01,3.00404e-01,3.76470e-01,3.39153e-01,4.09201e-01,1.69168e-02,1.27994e-01,-6.07406e-01,4.64869e-01,2.05367e-01,-1.27275e-01,-1.56779e-01,-7.75843e-01,1.27577e-01,3.85629e-01,5.89024e-02,3.54783e-01,3.66076e-01,-1.47590e-01,2.90313e-01,3.37640e-01,4.34322e-02,2.81838e-01,-6.10035e-01,-2.58528e-02,2.15637e-01,-4.97320e-01,2.85672e-01,-2.21730e-01,4.67141e-01,4.74427e-01,9.59646e-01,-1.19515e-01,1.15724e-01,3.96054e-01,-6.79452e-01,-5.09412e-02,7.04325e-02,-6.92512e-02,-4.26117e-01,-5.41763e-02,3.11430e-01,1.07799e+00,6.98577e-01,-1.46102e-01,4.03919e-01,6.46807e-01,-1.80358e-01,1.42103e-01,-1.09908e+00,-2.63165e-01,4.14515e-01,-2.54965e-01,2.86099e-02,2.66501e-01,-1.95421e+00,-2.19291e-03,3.39361e-01,-1.82636e-02,-9.95531e-02,1.73944e-01,-2.49666e-01,2.73549e-01,1.84115e-01,2.44397e-01,7.14187e-02,6.48627e-01,2.03701e-01,4.53828e-01,2.91333e-01,3.47715e-01,1.67452e-01,1.35694e+00,1.34998e-01,1.84899e-02,-1.10125e-01,3.12251e-01,6.39083e-01,3.51857e-01,-4.94409e-01,-1.83690e+00,4.08653e-02,-6.44693e-02,9.75121e-02,1.54432e-01,-1.45442e-01,-6.85492e-02,-6.15953e-02,2.88234e-01,-1.09928e-01,1.06208e-01,8.51248e-01,-3.23681e-02,3.41006e-01,-1.20291e+00,4.96661e-01,
5.52359e-01,3.94658e-01,1.32865e+00,-2.91006e-01,-4.49866e-01,-1.26288e+00,1.36171e-01,4.29680e-01,-1.28239e+00,-5.47060e-01,4.16934e-02,-5.03637e-01,6.29727e-01,7.93407e-02,-4.22935e-01,-2.36336e-01,-1.15721e+00,-1.76784e-01,7.00589e-02,3.42540e-02,-2.41396e-01,-7.25109e-02,-6.65719e-01,-3.87407e-01,-9.27939e-01,-1.68728e-01,3.83382e-01,-2.45098e-01,-3.68190e-01,5.80401e-01,2.49200e-02,-2.19358e-02,-7.17889e-02,-4.78234e-01,7.16345e-01,4.06783e-01,-4.38723e-01,1.53670e-01,-8.28990e-01,-1.14973e-01,3.51522e-01,-1.90096e-02,8.56358e-02,5.06615e-01,-2.94356e-02,6.68514e-01,7.15996e-01,2.29322e-01,-8.26416e-03,3.86476e-01,-2.95514e-01,-8.52587e-01,1.29191e+00,-7.77638e-01,4.64259e-01,9.30898e-02,5.83029e-02,3.47359e-01,-7.03051e-01,-4.18579e-01,1.10329e-01,-1.93301e+00,-1.32718e-01,-3.95969e-02,-3.51528e-02,-7.26229e-01,-5.12469e-02,-3.17607e-01,-6.53604e-02,1.89588e-01,3.19944e-01,5.30804e-02,-3.45625e-02,1.76109e-01,-8.49938e-01,-1.79684e+00,1.47502e+00,-1.61967e-01,4.68905e-02,2.99203e-01,4.01780e-01,-1.14248e+00,5.21165e-01,-2.49663e-01,3.30884e-01,-3.96742e-01,8.38629e-02,4.75881e-01,-7.13958e-01,3.76939e-01,1.46591e-01,-2.01874e-01,-1.92145e+00,-1.27923e-01,-7.43867e-02,2.11961e-01,-6.30933e-02,1.80659e-01,2.95133e-02,1.73968e-01,
-4.52191e-01,4.44008e-01,1.40291e+00,4.74171e-02,-3.99458e-01,7.03505e-01,-5.60361e-02,-2.07817e-01,-4.79898e-02,1.14666e-01,-5.79143e-02,-3.10861e-01,-8.04219e-02,1.92505e-01,2.31785e-01,8.65062e-01,4.44298e+00,1.12426e+00,5.76905e-02,1.33647e-01,-6.30807e-01,-3.35771e-01,-8.38271e-02,3.24732e-01,-1.89414e-01,1.07044e-02,4.15371e-01,-3.57679e-01,-1.78999e-01,5.66160e-01,5.93305e-02,-6.10604e-01,-9.67427e-01,2.15437e-01,-7.95171e-01,6.91212e-01,-2.47075e-01,-1.36621e-01,-1.10514e+00,-5.30675e-01,-2.57141e-01,3.46988e-01,2.11244e-01,-2.93317e-01,2.51893e-01,-2.78605e-01,-9.12316e-02,-1.24224e-01,1.37572e-01,-5.68576e-01,-3.39746e-01,1.28532e-01,2.75015e-01,3.99517e+00,3.81943e-01,-4.52901e-02,6.56620e-01,1.39707e-01,-6.57861e-01,1.84050e+00,6.62819e-02,3.32452e-01,-1.19012e-01,1.91073e-01,1.11060e-01,3.88545e-01,4.67351e-01,3.41958e-02,9.06120e-02,-1.32611e-01,2.74811e-01,-2.17250e-02,-1.06484e-01,-6.00288e-01,3.11440e-01,-1.09869e-01,-3.29347e-01,5.07133e-02,-1.01486e-01,1.88813e-01,3.52447e-01,1.54556e+00,2.91315e-01,-2.71966e-01,3.06320e-01,-6.53560e-01,9.84349e-02,1.00987e-01,1.26270e-01,2.17263e-01,-2.52124e-01,2.97032e-02,7.46891e-03,2.33651e-02,2.15653e-01,-1.30493e-01,1.91410e-01,-1.02911e-01,-9.37726e-01,2.08187e-03,
3.75224e-01,3.96329e-01,-3.85352e-01,-1.24231e+00,1.24268e-01,1.56829e-01,1.71668e-01,1.37760e-01,-4.98895e-01,4.91275e-02,5.50480e-02,1.09150e-01,2.99165e-01,2.02069e-01,1.05601e-01,3.33891e-02,7.74092e-01,1.04566e-01,-8.35469e-01,-6.49664e-02,-7.32773e-01,6.08088e-02,2.27526e-01,7.12384e-01,-5.88339e-02,1.56221e-01,4.33809e-01,2.08561e-01,-4.04871e-01,1.66226e+00,-8.27736e-02,-1.46797e-01,2.29139e-01,4.50618e-01,8.02162e-01,1.80794e-01,2.04737e-01,-1.49767e-01,-3.80591e-01,1.03168e-01,2.45158e-02,3.51601e-01,-1.32388e-01,1.51697e-01,-1.29018e-01,-5.64635e-02,-3.13673e-01,-6.55923e-01,-4.05299e-02,-3.17554e-01,4.41055e-01,1.40847e-01,1.87810e-01,1.90813e+00,9.22914e-01,-1.02458e+00,-1.14593e-01,1.81515e-01,-6.16107e-02,-6.02868e-01,-5.98282e-01,-3.08429e-01,4.96127e-03,-6.38385e-02,-1.10266e+00,4.07592e-01,9.52207e-02,6.89643e-01,4.66113e-01,-4.44873e+00,8.37245e-01,1.46637e-01,-3.04111e-01,-1.47380e-01,3.79588e-01,5.69926e-01,-1.82576e-01,2.97690e-01,-5.84160e-03,-9.03830e-02,5.56407e-01,4.92429e-01,1.83835e-01,2.00614e-01,-3.66113e-01,-1.40669e-01,4.57221e-01,-1.15830e-01,-1.10004e-01,-5.25599e-02,-1.62779e-02,-1.74815e+00,7.89252e-01,5.53111e-02,1.55993e+00,3.59065e-01,-1.79477e-01,-7.85990e-02,-3.26306e-01,-1.23438e+00,
3.36708e-01,6.49501e-01,-3.62749e-01,-2.81563e-01,-5.07640e-01,-2.02975e-01,4.76307e-01,-7.35082e-01,-4.18472e-01,-2.01714e-01,8.55463e-02,-7.77827e-01,4.68755e-01,1.14377e-01,-1.42807e-01,-3.11071e-01,-2.89415e-01,-1.58353e-02,-5.13051e-01,3.56117e-02,1.00396e-01,3.78538e-02,-6.49389e-02,6.37297e-01,1.02496e-01,-9.85404e-03,-2.10281e-02,-4.41193e-01,5.81073e-02,-1.01630e-01,-2.02615e-01,-1.89119e-01,-4.28110e-01,-2.92290e-01,1.59892e-01,1.31099e-01,-1.49671e-01,2.53078e-01,-4.08926e-01,3.05026e-01,1.01136e+00,1.27378e-01,5.25208e-02,-1.90130e+00,6.29408e-02,2.43340e-01,-1.87059e-01,1.97635e-01,4.85413e-02,-4.05504e-01,5.57605e-01,-1.15321e-01,-2.69244e-01,-7.79293e-01,-2.14672e-01,4.75628e-01,5.90552e-01,1.70802e-01,-5.62227e-01,-6.80922e-01,-5.62444e-02,8.07733e-01,2.66772e-02,-6.67123e-01,-9.19999e-02,1.34646e+00,-4.69269e-01,-1.02146e-01,-1.39229e+00,-1.22502e-01,-4.43197e-01,-6.83812e-02,-1.45004e-01,-6.13518e+00,-1.78191e-01,-3.72321e-01,9.85083e-02,1.93793e-02,-1.10971e-01,-1.66926e-01,3.88033e-01,9.62607e-01,-1.54537e-01,-3.81819e-01,4.26714e-01,2.43192e-01,-2.03312e-01,1.57253e+00,-3.62664e-02,1.58018e-01,1.18021e-01,7.92446e-03,-3.38245e-01,-9.04905e-01,3.10991e-03,1.85263e-01,-1.67774e-01,-1.22195e-02,4.62938e+00,4.53897e-01,
1.66015e-01,-1.83318e-01,5.60009e-01,-1.24207e-01,-4.86620e-02,-7.46656e-02,-1.02203e+00,-1.28745e-02,4.50710e-01,-2.32273e-01,9.69418e-02,7.40001e-02,1.92578e+00,4.11628e-01,-2.96519e-02,4.09580e-01,-4.44394e+00,2.37693e-01,-5.13650e-01,-1.28708e-01,-1.03693e-01,7.20594e-02,1.72120e-01,-5.19873e-02,9.65213e-02,-1.17406e-01,1.08329e+00,-1.09488e-01,3.78035e-02,1.03064e-01,1.93378e-01,-5.03704e-01,-9.85220e-03,6.54849e-02,8.49638e-01,-9.28903e-02,-2.87300e-02,4.52115e-01,4.30457e-01,5.26664e-01,-5.76457e-01,1.25076e-02,2.82264e-01,-1.47832e+00,2.30391e-02,-6.25115e-02,7.72148e-01,-1.01908e+00,1.88315e-01,-1.29196e+00,1.81978e-01,5.23018e-01,1.68998e-03,4.86533e-01,1.04813e+00,-2.97210e-01,1.02125e+00,1.04811e-01,-9.22991e-01,-1.40494e+00,2.65558e-01,9.32575e-02,7.10486e-02,2.68868e-01,9.61775e-02,4.93439e-01,-6.61829e-01,-6.06930e-01,-4.00030e-01,-2.83799e-01,2.83380e-01,2.61809e-01,-8.81274e-02,-2.08415e+00,-5.17914e-01,-8.93263e-01,3.49035e-01,-1.07043e-01,3.00970e-02,-2.17565e-01,2.19269e-01,5.01797e-01,-3.09671e-02,2.38709e-01,1.42051e-01,-2.07083e-02,-4.41968e-01,3.93348e-01,1.49139e-01,-1.60887e-01,9.11745e-02,1.82279e-01,8.83164e-02,-1.10149e-01,-1.16352e-01,-3.57575e-01,8.70379e-02,-1.05881e+00,-1.86033e+00,-7.52157e-01,
-1.05563e-01,2.21843e-01,-4.32219e-01,-1.12053e+00,2.28939e-01,-8.96546e-01,-7.50470e-03,4.86006e-01,-4.92317e-01,-2.94272e-02,5.23672e-03,1.77690e-01,-1.87156e-01,-3.71021e-02,-3.52949e-01,-3.57341e-01,-4.42025e-01,-1.77325e-01,-3.59187e-01,-9.72124e-02,-1.34196e-03,-9.21335e-02,2.05620e-01,-2.36430e-01,2.94850e-01,-1.30864e-02,3.02226e-02,-9.48880e-02,1.02657e+00,-3.50102e-01,-1.66066e-01,-7.06737e-02,1.01259e-01,2.09453e+00,7.15387e-02,-2.93613e-01,-3.22426e-01,5.14969e-02,-1.20856e-01,3.14948e-01,-7.32108e-01,1.77481e-01,-2.91054e-02,2.47286e-01,6.86427e-02,-1.30190e-01,1.07670e-01,2.25208e-01,-3.24087e-02,-8.69392e-01,4.61831e-01,3.52833e-01,-1.07376e+00,7.15225e-01,3.23397e-01,-1.31055e+00,-1.56898e+00,1.17513e-01,-1.67512e+00,-4.07028e-01,1.89327e-01,-5.29162e-01,3.37817e-02,-1.38628e-01,1.79181e-01,1.40390e+00,-9.71778e-01,1.32690e-01,-3.25764e+00,-2.79610e-01,-3.05769e-01,-1.32807e-01,-1.08427e-02,3.37576e-01,-6.61414e-01,-1.77736e-01,-1.33194e+00,7.74198e-02,-1.61381e-01,-1.49186e-01,2.60751e-01,-4.97855e-01,1.39266e-01,3.91230e-02,-6.54092e-02,-2.51572e-01,-1.37826e-01,2.82712e+00,5.69467e-01,-9.46505e-01,1.79686e-01,-2.43620e-01,-4.29370e-01,-2.37420e-01,-3.94625e-01,2.10804e-01,-1.62022e-02,-1.28334e-01,1.54586e+00,2.85570e-01,
1.90931e-01,-7.33104e-01,9.61254e-01,1.83807e-01,2.94707e-01,-2.25122e-01,6.28546e-02,1.87532e-01,-2.99938e-01,-1.67126e-01,9.03073e-02,-9.70914e-01,-5.12405e-02,3.14868e-01,4.00611e-01,1.17904e+00,-9.94516e-02,2.68138e-03,-7.49914e-01,9.06437e-02,-1.16876e-01,-3.14504e-02,2.96787e-01,3.23857e-01,-6.62870e-03,-7.67965e-02,5.53489e-01,1.77178e-01,3.00153e-01,-5.14081e-01,1.01594e+00,-4.98210e-01,-2.64678e-01,-2.03192e+00,6.01886e-01,-8.36161e-01,2.81025e-01,-4.02958e-01,1.73393e-01,5.76554e-01,2.34358e-01,-1.66202e-01,-8.75557e-02,1.37672e+00,1.04509e-03,-1.23242e-01,-1.76995e-01,-4.75100e-01,5.11676e-01,-8.29505e-01,-1.01542e+00,2.66349e-01,2.40939e-01,-1.59965e+00,-2.37773e+00,-3.33364e-01,-9.24979e-01,6.34927e-02,-9.51007e-01,-3.02569e-01,-1.23308e-01,-9.43935e-01,-8.63591e-02,3.73579e-01,-3.59276e-01,1.74486e-01,4.19554e-01,-1.22667e-01,1.71039e-01,-5.68497e-01,-6.90625e-01,1.49420e-01,-3.57792e-01,-9.72291e-01,-3.51932e-01,2.27700e-01,-1.24884e+00,4.11548e-01,6.43906e-02,-2.64111e-01,-3.11135e-01,2.04262e-01,1.17331e-01,6.09320e-01,-5.80963e-01,-1.15310e-01,2.44522e-01,-7.00215e-01,4.62897e-02,-7.88484e-02,5.43548e-02,1.08552e-01,1.59146e+00,3.47314e-02,2.71349e-02,-5.16253e-01,4.77417e-01,-1.55197e-01,-4.15984e-01,-1.07806e+00,
3.82378e-01,-3.89711e-01,2.56010e-01,-7.55352e-02,2.47430e-01,7.32442e-02,-3.31115e-01,3.38272e-01,3.14305e-01,1.85186e-02,-1.63989e-01,-6.87843e-02,2.00319e-01,-6.60010e-03,-1.11278e-01,-2.72804e-01,1.50008e-01,-1.18900e-02,-5.70279e-02,4.74083e-01,1.01239e-02,-9.52312e-01,1.44519e-01,-2.53441e-01,2.67191e-01,1.36558e-01,-1.06698e-01,3.52125e-01,-1.54610e-01,5.43638e-01,-7.23251e-02,7.43793e-02,5.69430e-01,-7.72156e-02,-2.85074e-01,-1.06582e-01,1.27533e-01,3.42215e-01,2.04058e-01,-8.83329e-02,-1.33358e-01,4.56009e-01,6.86672e-01,-3.22250e-01,-2.07732e-01,1.24524e-01,5.21930e-01,2.36448e-02,-2.20910e-02,6.55075e-02,-1.05124e-01,-1.61539e-01,-9.76220e-02,1.60523e-02,4.90090e-01,7.32511e-02,-1.24420e+00,9.19160e-02,-5.73125e-02,-9.86848e-02,-3.68255e-02,-1.39655e-02,3.02990e-01,-1.90302e-01,-1.18275e-01,-3.70088e-01,1.08495e-01,-5.45229e-02,-7.40557e-03,3.35518e-01,4.82502e-02,3.10654e-02,1.59435e-02,4.50419e-01,-1.18505e-01,5.69104e-02,-1.62195e-01,-5.29201e-03,-1.34000e-01,-2.74337e-01,2.16491e-01,6.22993e-01,3.45418e-01,-9.29369e-02,-3.21295e-01,3.14797e-02,3.66643e-01,6.23396e-01,-8.49524e-02,-1.73479e-01,1.69619e+00,-8.30136e-03,2.12672e-01,-6.53189e-01,1.65782e-02,-8.17559e-02,2.56601e-02,-1.72455e-02,2.75061e-01,-4.61973e-02,
1.98471e-01,-1.82522e-01,-5.61404e-01,4.47894e-01,-6.97884e-02,-5.46334e-01,4.63136e-03,1.72312e-01,-9.71825e-01,5.91394e-02,1.29036e-01,1.17952e+00,-5.23276e+00,1.14805e-01,8.22058e-02,3.97251e-01,-8.23110e+00,-2.41277e-01,5.41809e-01,-8.34069e-02,1.70420e-01,1.73381e-02,-2.12171e-02,-7.29786e-02,-2.31000e+00,9.35960e-02,-8.53894e-02,-2.73659e-01,1.74114e-01,-3.37267e-01,-4.41128e-03,-6.65955e-02,-2.51429e-02,7.32589e-02,7.39147e-02,6.60937e-01,-2.27624e-01,-3.80476e-04,5.29374e-01,-5.46587e-01,-2.81473e-01,9.13769e-02,-1.68057e-02,2.77496e+00,9.42169e-03,-1.13444e+00,1.59136e+00,9.02316e-02,2.93946e-01,5.70269e-01,3.01262e-01,-5.01648e-01,-2.86357e-01,4.16759e-01,-1.28729e-01,-9.65812e-01,-2.45315e-02,-8.81710e-02,-5.26526e-02,-2.78872e-01,7.69334e-02,-2.08725e-01,8.69343e-02,3.19177e-01,9.25556e-02,-1.84092e+00,-1.41145e+00,2.48263e-01,-8.60810e-01,1.32132e-01,3.87852e-01,-2.79807e-01,2.12667e-01,4.94189e-01,3.41360e-01,3.72701e-01,-1.24606e+00,-4.99712e-02,-1.50287e-01,-2.87430e-01,-4.13644e-01,-6.49814e-01,2.86566e-01,1.68042e-01,4.49582e-01,-1.58272e-01,-1.07920e-01,1.14164e+00,3.01289e-01,5.87257e-01,-3.43085e-02,-3.94800e-02,-2.47283e-01,-1.93969e-02,2.89681e-02,-5.53989e-02,-3.85078e-02,-1.65159e+00,7.09503e-01,-1.19063e-01,
-4.09529e-01,9.18219e-01,-7.31087e-01,-3.10085e-01,-1.14757e-01,7.71314e-01,-4.83711e+00,-1.94663e-01,1.60539e-01,1.17324e-01,-3.36823e-02,6.54248e-01,-5.59574e-01,3.77803e-01,-1.63199e-01,-2.36742e-01,-7.95402e-01,3.63145e-02,6.89967e-01,-1.28616e-01,-9.91193e-01,1.06551e-01,9.05017e-02,-1.01911e+00,9.59767e-02,7.18535e-01,-3.61289e-02,9.14664e-02,-1.21828e-01,-2.40561e-01,-1.55742e-01,1.68149e+00,-1.01313e+00,1.58707e+00,-5.56902e-01,8.21247e-02,-3.51989e-02,3.81379e-01,1.77616e-01,-2.62632e-02,-8.84286e-01,-3.98578e-01,-7.04592e-01,9.76652e-01,1.75219e-01,-3.55231e-02,-1.00480e+00,-2.87029e+00,-3.12079e-01,-4.16320e-01,-1.84279e-01,2.54336e+00,1.07376e+00,5.19293e-01,-1.42090e+00,9.39479e-01,7.83290e-01,-8.94166e-01,1.44462e-01,9.71572e-01,-2.84968e-01,6.19819e-02,-7.55618e-02,3.96947e-01,2.92584e-01,5.83106e-01,-7.76798e-02,2.31487e-01,1.09267e-01,6.93417e-01,-1.99557e-01,-2.21330e-01,-2.94553e-01,7.28353e-02,1.33076e+00,5.48948e-01,6.36343e-01,9.34191e-02,-1.85862e-02,-2.04780e-01,1.98958e-01,-1.85647e+00,2.61211e-01,1.81795e-01,-4.18315e-02,4.31304e-01,8.96962e-01,7.89084e-01,2.18359e-01,-2.25432e-01,-6.12179e-01,1.50163e-01,1.51687e+00,8.88995e-03,2.38283e-01,1.35707e-01,1.63789e-01,-2.64307e-02,3.98607e-01,-1.07282e+00,
1.82731e-01,4.86917e-01,4.71541e-02,-5.06404e-01,1.43858e-01,9.97290e-01,-7.66789e-01,-2.85968e-01,-3.29317e-01,-5.78628e-01,1.26040e-01,-6.25786e-01,5.75365e-01,-5.39612e-01,-1.12784e-01,4.63803e-01,-2.31749e-01,4.63111e-02,-4.79736e-01,1.62542e-01,1.80340e-01,-5.37017e-02,1.01146e-01,4.87817e-01,9.21627e-02,3.88896e-02,4.66664e-01,6.75985e-02,6.34464e-01,-3.35528e-01,-1.04145e+00,9.30162e-01,2.39976e-01,8.82655e-01,-9.43174e-01,-6.55769e-01,-9.28325e-01,-4.29132e-01,1.06653e+00,-1.29756e-01,-8.09319e-01,3.92488e-01,-1.79754e-01,-7.69663e-01,1.06073e-01,2.67425e-01,-1.60831e+00,-2.19423e-01,-1.05639e-01,1.40211e-02,2.11606e-01,5.70554e-01,2.43782e-01,-9.41358e-01,-5.67538e-01,2.16568e-01,7.24950e-02,7.72465e-01,1.25173e-01,-7.66153e-01,-3.22028e-01,2.39195e-01,-1.16985e-01,-3.44920e-01,-3.09851e-01,-1.46601e+00,-1.36025e-01,-1.95727e-01,2.88469e-01,-4.87129e-01,4.17614e-01,-5.14440e-02,3.97555e-01,1.46279e-01,8.51172e-01,-7.29627e-01,-1.58123e-01,6.48682e-01,1.01346e-02,5.53160e-02,-2.18521e-01,8.58638e-01,2.96533e-01,2.61274e-01,-1.16527e-01,-2.84341e-01,1.02866e-01,-1.42852e+00,-3.65887e-01,3.21129e-01,3.13125e-02,-4.93203e-01,1.18246e+00,2.73577e-02,2.90282e-02,-3.19370e-01,-6.33297e-01,2.38084e-02,5.42472e-01,-2.65639e-01,
3.71662e-01,3.10448e+00,2.62212e-01,-1.05108e+00,3.53044e-01,3.04234e-01,8.43036e-03,2.96302e-01,9.80580e-02,4.52806e-02,-9.85866e-02,-5.74631e-01,-1.67000e+00,9.01480e-02,1.63522e-01,3.11333e-02,-1.23834e-01,8.94334e-02,-2.19688e-01,-1.82797e-02,8.25931e-02,-6.81765e-02,-1.69089e-01,6.72955e-01,-1.91352e-01,6.18019e-02,-1.81029e-01,4.15280e-01,9.92561e-01,-8.72712e-03,5.21439e-01,-9.82012e-02,-2.53516e+00,2.43180e-02,-6.44824e-01,1.83481e-03,-4.10218e-01,-1.71851e-01,2.33218e-01,5.35186e-01,-1.55435e+00,9.81189e-03,-1.28762e-01,-1.13304e-01,8.63475e-02,-2.14820e-03,-3.48832e-01,-2.57791e-01,2.07875e-01,-1.99177e+00,7.51585e-02,-2.61220e-01,5.02023e-01,9.42490e-01,-4.90266e-01,-1.10992e+00,6.01457e-01,-1.72925e-01,-7.78590e-01,-7.71266e-01,9.00622e-02,-3.42025e-01,1.44321e-01,-1.08506e-01,-4.46773e-02,-7.21055e-02,-1.37437e+00,-1.16872e-01,-1.11505e+00,-4.14975e-01,2.27795e-02,2.34598e-01,6.05868e-02,7.33405e-01,-5.03194e-01,-9.04206e-01,9.60353e-01,1.80475e-01,1.54102e-01,-3.23700e-02,5.80381e-03,1.03964e+00,4.83380e-01,3.51904e-01,-1.74396e-01,1.31653e-01,-1.50046e-01,3.09909e+00,-4.78128e-01,2.94961e-02,1.38198e-01,8.14542e-03,2.26254e-01,-1.30638e-01,3.15990e-01,-1.44080e-01,-4.26626e-01,-7.38064e-01,8.74494e-02,1.85837e-01,
3.43806e-02,2.28313e-01,1.43748e-02,2.39887e-01,6.46294e-02,-2.02981e-01,-2.95782e-02,2.65195e-01,1.30718e-01,-2.02373e-02,-7.33487e-02,-2.07586e-01,2.03125e-01,7.16847e-02,-1.49101e-02,1.27564e-01,-6.48199e-01,2.96789e-01,-2.45750e-01,-2.80921e+01,-6.10135e-02,1.15067e-01,8.84397e-02,-3.36957e-02,5.84397e-01,7.98398e-01,-1.45107e-01,1.26722e-01,1.09360e-01,-2.39532e-01,2.80064e-01,-8.59704e-02,1.85372e-01,2.59224e-01,-8.94518e-02,-1.45669e-01,-1.05134e-01,3.46860e-01,1.56585e-01,-8.39552e-02,-1.02206e-01,4.00016e-01,-1.01632e+00,-1.59257e-01,-2.07551e-01,-1.14109e-02,-4.13325e-02,6.77942e-02,6.18152e-02,2.68747e-03,7.92565e-02,5.83357e-02,-2.28635e-01,-9.52942e-02,-1.21139e-01,3.83709e-01,4.33347e-02,-4.99848e+00,-1.65818e-01,-7.70582e-02,1.77745e+00,3.50654e-02,1.15994e+00,9.29931e-02,7.02869e-03,4.52189e-02,-4.44148e-02,1.31453e-01,2.58177e-02,-1.60131e-01,-6.49478e-02,1.97128e-01,1.42394e-01,-5.60286e-02,3.69067e-02,-1.24398e-01,-3.77393e-01,2.43217e-03,-1.54005e-01,-1.57280e-01,-6.63108e-02,6.15797e-02,-8.08237e-01,4.11675e-02,-2.57120e-01,4.53997e-02,2.34641e+00,1.50819e-01,2.57922e-01,6.54157e-02,5.43003e-01,2.78075e-01,5.51981e-02,-3.55925e-02,-3.14901e-02,2.82711e-01,-7.73292e-03,-3.24544e-02,-1.96449e-01,-6.62995e-02,
-1.22617e-01,2.67216e+00,1.19953e+00,-4.07712e-02,3.08896e-02,7.85927e-02,-1.35366e-01,6.82654e-01,2.97227e-02,2.00200e+00,1.63267e-02,2.65365e-01,1.22599e+00,-8.88953e-02,-4.72647e-01,-1.63145e+00,1.96547e+00,-2.98007e-01,4.28391e-01,1.36369e-01,-9.74886e-01,7.13896e-01,-2.37405e-01,-1.74618e-01,6.79356e-01,-9.82036e-02,1.16803e-01,-3.57151e-01,1.07914e-01,2.15066e+00,-3.70132e-01,-4.24962e-01,5.54601e-01,1.17896e+00,-1.03180e+00,5.28452e-01,-1.28478e-01,-1.13781e+00,-2.93085e-02,-5.07276e-01,-1.58897e+00,7.36768e-01,5.09136e-01,2.03004e-02,2.64663e-01,4.04933e-01,3.08563e+00,3.10378e-01,2.48173e-02,-1.13841e-01,-1.82967e+00,6.08815e-01,4.83633e-01,4.04573e+00,-2.43228e-01,-3.85222e-01,-7.00877e-01,1.66771e-01,-4.18495e-02,2.51200e+00,-1.41878e-01,-3.97577e-01,-1.62548e-02,-7.70117e-02,-1.15805e-01,-1.21000e-03,-3.93988e-02,7.38003e-02,2.31944e-01,3.65759e-01,2.28598e-01,-6.02272e-01,-5.48608e-01,1.07033e+00,1.76891e+00,9.82534e-01,2.32883e+00,-2.89777e-01,5.81014e-02,4.04522e-01,9.72154e-02,7.91656e-02,7.15344e-01,-4.10657e-01,6.89064e-01,-1.28003e+00,-3.71004e-01,1.76747e+00,1.46939e+00,4.31514e-01,-3.73807e-01,8.98400e-02,5.26155e-01,1.98552e-01,-4.65150e-01,3.75870e-01,-1.85307e-01,5.25363e-02,1.06913e-01,2.80377e-01,
1.77818e-01,1.12409e+00,4.78692e-01,1.97660e-01,-6.16629e-01,1.89571e+00,1.53700e-02,-1.34291e+00,2.63503e-02,-2.35602e-01,-1.39537e-01,-2.10515e-01,-8.18993e-02,6.26807e-01,3.54289e-02,-9.32240e-01,-3.33609e-02,5.77654e-01,9.48691e-02,-2.47385e-01,-1.48633e-01,-2.71569e-02,-2.81248e-01,-5.47853e-01,1.46491e-01,-2.30902e-02,1.86661e-01,1.25867e-02,4.06917e-01,2.15176e-01,5.45492e-02,1.30035e-01,6.30202e-01,1.38602e+00,4.09452e-01,-1.10322e+00,-3.29999e-02,-2.10460e-01,3.98809e-01,5.54871e-01,2.10731e-01,4.69285e-01,1.04790e-01,-7.89510e-01,-2.03942e-01,4.58355e-02,1.51992e+00,-8.40194e-01,-4.16698e-01,-1.64400e+00,4.23755e-01,1.91724e-01,3.01009e+00,5.87040e-01,1.33687e-01,-4.17003e-01,2.13026e+00,5.54384e-02,-6.12049e-01,-8.35190e-01,2.86920e-01,-9.02233e-01,2.31121e-02,3.79950e-01,-1.15657e-01,6.54504e-01,-6.91008e-01,-1.01380e-01,1.62093e-01,5.25919e-02,-1.91789e-01,8.71491e-02,-1.09934e-01,-7.42244e-01,-1.10331e+00,-7.33012e-01,1.91847e+00,-3.13591e-01,-1.58464e-01,-1.25319e-01,1.14485e-01,1.73344e+00,-3.04787e-01,-1.03640e-01,1.15560e+00,2.40921e-02,2.58862e-02,1.48075e+00,1.30522e-01,-1.86394e-01,1.92118e-01,2.38133e-01,-9.87619e-02,-9.39471e-01,2.81168e-01,6.85400e-01,3.17246e-01,-1.81364e+00,1.53959e+00,2.11914e-01,
-3.32123e-02,-3.69699e+00,1.95562e-01,1.12811e+00,1.60039e-01,1.65335e-01,1.09672e-01,4.86014e-01,3.71094e-01,7.17631e-02,-9.55451e-02,-5.46221e-02,3.10916e-01,3.79723e-01,6.82389e-01,-2.87723e-01,1.80584e+00,-5.98331e-01,-1.85117e-01,-1.52526e-01,5.03622e-02,6.99662e-01,6.42740e-02,-1.57972e-01,2.38444e-01,1.83862e-03,-4.96342e-02,-1.03201e+00,-1.15281e+00,-3.80334e-01,-1.57425e-01,1.01361e-01,-7.83250e-01,-6.21456e-01,-1.56644e+00,5.77084e-01,-3.38048e-01,5.96394e-02,2.08877e-01,-5.79232e-01,-1.22130e+00,3.26261e-01,-6.83533e-02,-1.63891e-01,6.57312e-02,3.52105e-01,-1.43793e+00,4.59210e-01,1.94632e-01,5.26664e-02,3.59749e-01,-2.95937e-02,-1.89098e-01,1.57129e+00,9.22380e-01,1.45390e-01,8.37314e-01,5.15856e-03,6.93139e-02,1.93351e+00,8.80193e-02,1.18556e+00,-1.75004e-02,-5.32629e-01,-1.66217e-01,3.80901e-01,-1.62521e-01,6.38395e-02,-5.47967e-01,-3.30876e-01,8.23594e-03,1.20214e-01,2.41799e-01,9.48324e-01,-1.12291e+00,3.84913e-02,3.96037e-02,1.77948e-02,-5.14286e-02,1.40776e-01,-1.26658e-01,-1.10774e+00,2.71508e-01,-2.08187e-01,-2.05201e-01,-1.78273e-01,2.36055e-03,1.97915e-01,-2.00709e-02,3.29584e-01,8.57821e-02,4.81200e-02,-3.27999e-01,-3.74407e-02,6.75853e-02,-1.64325e-01,7.23533e-02,2.25616e-01,1.82364e-01,9.00242e-01,
-3.43274e-01,-2.86036e+00,1.04364e-01,-2.05042e-01,3.31742e-01,3.13357e-01,-5.12072e-03,-7.17416e-01,7.51310e-01,5.66684e-01,9.68541e-02,7.31723e-01,-2.71753e-01,4.21697e-02,-2.30476e-01,-1.07929e+00,1.69616e-01,-1.96125e-01,-2.39225e-01,4.01379e-02,1.13034e-01,2.17496e-01,9.41052e-02,-1.77575e-01,4.23117e-02,-1.04449e-02,-5.72109e-01,4.04032e-01,-1.32693e-01,-6.68629e-01,-8.84825e-01,3.26285e-01,-4.50564e-01,-1.11047e+00,1.18846e+00,-5.26587e-01,-1.90607e-03,7.46970e-02,-1.67541e-01,-2.37466e-02,-3.41832e-01,-1.59624e+00,-4.00873e-01,-3.38680e-01,-2.13139e-04,-8.79681e-02,-3.66253e-01,-1.54122e-01,5.13345e-02,1.24369e-01,2.26320e-01,6.73573e-03,1.01982e-01,-2.77970e-01,-5.99657e-01,-1.07494e+00,-4.69971e-01,-5.53190e-03,3.28513e-01,1.42569e+00,-5.66223e-02,-1.24674e+00,-1.99499e-02,5.79787e-01,5.83966e-01,4.23658e-02,8.70885e-02,-1.03481e-01,-4.08183e-02,1.59631e-01,1.29525e+00,1.05099e-01,7.58197e-02,-1.02347e-01,5.92836e-01,1.49464e+00,2.86322e-01,-2.73805e-02,1.34530e-01,-9.18400e-02,4.55806e-01,3.15370e-01,-4.09554e-01,9.64356e-03,6.09180e-01,2.93092e-01,1.00394e-02,-1.35001e-01,2.64296e-02,-9.28923e-02,1.53594e-01,-7.11261e-02,9.18456e-01,9.42595e-02,-1.39974e-01,-4.91617e-01,-9.02797e-02,-2.07485e-01,-6.92942e-01,2.45207e-01,
1.07140e-01,-2.46928e-01,6.16584e-02,-6.67602e-02,1.08092e-01,-1.07604e+00,-1.02284e-01,-3.27978e-01,3.63288e-01,-3.66317e-01,-1.23831e-01,4.22373e-02,7.49305e-01,1.62692e-01,7.64923e-02,4.89898e-01,2.33091e+00,-1.34820e-01,-3.97480e-01,6.85148e-01,-1.50675e-02,-4.26452e-01,-8.26847e-02,-4.53975e-01,6.27473e-01,1.11518e+00,5.14111e-01,1.12244e-01,-4.70328e-01,9.14484e-01,-1.24512e-01,-1.42382e-01,-6.81804e-01,7.41038e-01,-5.24957e-01,-3.96164e-01,1.70446e-01,6.82425e-01,2.70945e-02,4.29586e-01,9.75136e-02,2.14881e+00,-5.49786e-02,-1.35900e+00,1.69996e-01,3.24154e-01,-6.85441e-01,1.29360e-01,-2.25838e-01,-6.84052e-01,2.72999e-01,-5.32123e-01,-1.71631e-01,-7.48517e-03,-4.68565e-01,2.64263e-01,1.55158e+00,2.23555e-01,-3.41373e-01,4.87914e-01,-1.61470e+00,-2.97342e-01,4.20785e-01,4.23573e-01,-4.42465e-01,-3.76266e-01,-1.87000e-01,-1.71278e-01,1.54043e-01,-5.66092e-01,1.82003e-01,2.95222e-01,2.50248e-01,-5.35907e-01,3.69262e-01,5.74205e-01,-3.07327e-01,-1.18527e-01,1.58684e-01,-3.55650e-01,-1.82585e-01,1.94988e-01,9.74479e-01,-4.25264e-03,-3.01731e-01,-3.22802e-02,5.27941e-01,-4.28747e-01,2.99381e-02,3.35685e-01,-4.73026e+00,-2.08806e-02,5.63710e-02,-4.04485e-01,4.76726e-01,9.23890e-02,8.98476e-01,-6.12135e-01,-5.01102e-01,-1.74400e-01,
-7.74723e-01,4.69208e-02,6.86744e-01,-1.34070e-01,1.58139e-01,-1.19108e-01,-2.37530e-01,5.85378e-01,-7.65510e-01,1.14904e+00,-8.28694e-02,-7.89938e-01,4.04194e-01,1.27983e-01,-2.64315e-01,-9.71171e-01,6.38427e-02,1.15211e-01,1.30755e-01,2.04407e-01,-8.26663e-01,1.30611e-02,2.18678e-01,-3.94260e-01,-1.76780e-01,-3.31722e-02,-1.73629e-02,-2.78438e-01,-2.05138e-02,-4.44782e-01,-2.20468e-01,1.87668e-01,3.34189e-01,9.56884e-01,5.78863e-01,3.94982e-03,-6.51141e-02,-3.90502e-02,-9.06773e-01,-5.82576e-02,-1.44426e-01,-2.68885e-01,1.17648e-01,1.87814e-01,-1.72796e-01,-3.63358e-01,3.10714e-01,1.88284e-01,8.80914e-02,2.41947e-01,-5.99127e-01,-2.04774e-01,-2.37639e-01,2.41181e+00,5.56195e-02,6.14832e-02,-3.46039e-01,-2.96045e-01,1.88032e-01,-4.45908e-01,-1.24364e-01,-9.71359e-01,-1.34366e-01,-9.48271e-01,3.50128e-01,-2.69311e-01,1.84165e-01,-1.79654e-01,-1.25038e-01,5.34851e-02,2.90428e-01,1.88246e-01,-5.49260e-01,-2.99328e-01,-3.32604e-01,8.27614e-01,-1.55081e-01,-5.97109e-02,1.46025e-01,1.05808e-01,1.60594e-01,8.96189e-01,-2.13108e+00,-3.49679e-01,-2.11130e-01,-7.15272e-01,7.82288e-02,1.50994e+00,5.18765e-01,1.33881e-01,-1.60972e-02,2.06275e-02,-7.04836e-01,3.97161e-01,-4.42513e-01,1.55110e-02,3.27909e-01,4.90037e-02,-3.90425e-01,5.53217e-01,
3.34142e-01,-9.85251e-02,-1.37518e-01,6.82065e-01,3.46421e-02,1.34765e+00,2.09945e-01,1.61521e-01,-5.78456e-01,-1.01994e-01,4.07748e-02,7.78657e-01,2.52275e-01,-8.82619e-01,2.88186e-01,-8.19210e-01,2.10687e-01,-4.05288e-02,2.43575e-01,-3.96303e-01,-5.20448e-01,-2.46542e-01,-4.55999e-01,-1.30392e+00,-2.15132e-01,1.46035e-01,-3.55705e+00,1.23495e-01,2.64976e-01,-9.44254e-02,2.73118e-01,-4.38284e-02,2.90024e-02,1.06793e-01,7.12785e-02,-3.07502e-01,5.97318e-01,2.90937e-01,-5.80708e-01,-1.83012e-01,-2.19251e+00,7.70517e-01,7.11320e-01,1.48865e+00,-4.14962e-01,5.98420e-01,-2.85041e+00,1.35139e-01,-1.59451e-01,8.93911e-02,-7.85469e-01,-5.12939e-02,-4.98769e-02,4.66919e-01,5.57788e-01,8.34705e-01,-4.00157e-01,-1.11498e-01,2.49142e-01,-1.01554e-01,1.76537e-01,6.87418e-01,1.30760e-01,1.19190e-01,2.93193e-01,1.11798e-01,8.79872e-02,-3.37727e-01,2.70364e-01,-3.54395e+00,6.35574e-01,-1.74665e-01,-1.42368e-01,2.39969e-01,2.33429e-01,-1.02163e+00,-2.66103e-01,6.18584e-02,-1.50476e-02,2.76893e-01,-5.12136e-01,-2.06075e+00,-4.41695e-01,-1.30566e-01,-8.17621e-01,-6.24756e-01,2.21562e-01,-6.80469e-02,2.90192e-01,1.36639e-01,-1.39128e-01,5.02066e-01,-1.49053e+00,2.21971e-01,1.63735e+00,6.60654e-01,-2.28538e-01,2.43146e-01,-5.55225e-01,-7.08548e-01,
-3.52475e-01,-5.97038e+00,-2.46259e-01,6.61648e-03,-3.33586e-02,3.68974e-01,-4.10957e-01,-2.34000e-01,8.96306e-02,-7.40221e-01,8.75727e-04,1.50595e+00,-3.21574e-01,2.95138e-01,-6.21906e-01,-2.23116e-01,1.23406e+00,2.89275e-01,4.20150e-01,-5.63090e-01,1.29605e-01,1.95436e-01,1.84067e-01,2.28929e-01,2.47071e-02,-5.24733e-03,1.07944e-01,-3.77376e-01,-5.79844e-01,4.61807e-02,-5.35274e-01,1.87074e-02,2.86895e-01,-4.72493e-01,-9.04863e-01,3.17296e-01,-5.79086e-01,9.41955e-02,-4.65155e-02,7.14811e-02,-1.55410e+00,-2.86297e-01,8.31093e-02,-2.10881e-01,-1.13119e-01,-1.95891e-01,-1.96235e-01,-1.88340e-01,-3.58095e-02,2.12151e-01,-8.93514e-01,2.30022e-01,-1.36707e-01,3.67285e-01,-6.04579e-01,4.08202e-01,-6.12237e-01,-2.10328e-01,1.11446e+00,-5.18109e-01,1.87635e-01,1.40533e+00,7.51264e-02,-2.43114e-01,2.29091e-01,3.97795e-01,-1.21183e-01,3.66089e-01,-5.51005e-01,1.41508e-01,8.31953e-01,-1.25564e-03,1.35999e-01,-9.69443e-01,-2.07663e+00,7.07435e-01,1.98603e-01,-2.07515e-01,1.59385e-01,6.42947e-02,-3.35721e-01,4.93545e-02,-4.57132e-01,-1.29632e-01,6.95991e-02,-8.44606e-03,2.84780e-02,-1.61376e-01,2.29133e-01,-2.43235e-01,2.74370e-01,-4.59739e-01,3.52542e-01,-1.77373e-02,-2.36288e-01,-2.87447e-02,3.23408e-02,-1.10526e-01,-3.52605e-01,3.89543e-01,
3.17080e-01,-9.66077e-02,-5.57412e-02,7.30240e-01,6.77672e-02,-8.09278e-01,9.86926e-03,-1.01225e-01,4.51236e-01,8.17121e-02,4.19961e-02,-2.73717e-01,8.94018e-01,3.14538e-01,-1.62540e-01,2.14930e-02,2.11808e+00,-1.24470e-01,-2.09161e-01,-4.34028e+00,1.00533e-02,8.70077e-01,-1.64876e-01,-2.56147e-01,1.37741e+00,-3.24496e+00,-6.13918e-02,4.51305e-01,-2.43518e-01,-6.52660e-01,-4.59641e-01,7.30643e-02,-4.00715e-01,9.34693e-01,-9.88690e-01,-1.55553e-01,-2.55805e-01,4.42533e-01,3.80587e-01,8.40879e-02,-3.58173e-02,2.70554e-01,-2.07717e+00,-3.74537e-01,-1.77817e+00,6.15914e-01,-2.60707e-01,1.01636e-01,-2.26445e-01,2.40551e-01,5.24209e-02,-4.61996e-01,-5.32142e-01,1.89342e-01,1.23383e+00,-5.75837e-01,5.28046e-01,3.03020e-01,-3.01606e-01,-3.00746e+00,-5.61631e-01,1.08558e+00,2.23206e-01,-2.80193e-01,-8.89334e-02,-3.75367e-01,-1.46947e-01,-1.59225e-01,-4.77357e-02,1.12343e-01,-2.34441e-01,3.39498e-01,6.04600e-02,3.75309e-01,1.58391e-01,2.86221e-01,-3.10670e-01,-1.03776e-01,1.26857e-01,8.85545e-02,-1.12930e-01,-2.63524e-01,-2.87811e+00,1.24647e-01,-1.81046e-01,2.51320e-02,-5.63960e-01,7.09053e-01,-1.26169e-02,-1.84495e-01,-1.32960e+00,-3.62406e-02,-2.65678e-01,8.20331e-02,5.23312e-01,3.27275e-01,2.05585e-01,2.23443e-01,-1.70081e-01,1.46062e-02,
1.49141e-02,-5.21357e-02,1.26205e-01,-3.19911e-02,-9.55588e-02,3.87763e-02,8.30695e-02,3.97986e-02,-7.93956e-02,1.55153e-02,-1.87099e-02,-3.80410e-02,5.71705e-02,-1.47905e-01,-1.25797e-01,-3.50930e-02,2.78097e-02,-1.06476e-01,-1.37538e-01,1.79766e-02,-1.48317e-01,-1.64612e-02,-6.96142e-02,-3.74139e-02,3.20594e-02,1.04858e-01,-4.07648e-02,8.63641e-02,-1.05474e-02,2.64545e-02,-2.20104e-03,-1.67054e-01,-9.72663e-02,6.77534e-02,7.68150e-02,6.94129e-02,-4.26718e-02,-8.11331e-02,-2.49390e-03,1.46814e-01,-1.43401e-01,1.16588e-01,1.43136e-01,1.26686e-01,-3.12436e-02,-5.04087e-02,2.16657e-02,7.22907e-02,-1.67113e-01,-1.22642e-01,-1.65418e-01,-7.19208e-02,-1.60549e-01,-1.02177e-02,-1.22361e-01,7.01554e-02,-1.11272e-01,9.38357e-02,8.83353e-03,8.89412e-02,9.99754e-02,4.62408e-02,3.41152e-02,-1.75095e-01,-8.37159e-02,1.37275e-01,-1.02849e-01,9.16006e-02,-9.69018e-02,3.88563e-02,7.05867e-02,-5.57475e-02,1.01631e-01,8.90305e-02,7.92277e-02,-1.62120e-01,-9.79098e-02,-1.28515e-01,1.45056e-01,-5.76637e-02,-1.33258e-01,-1.03150e-01,2.72392e-03,-1.33233e-01,-1.10914e-01,1.60201e-01,1.59193e-01,-2.41458e-02,1.15336e-01,3.29471e-03,-1.06886e-02,-6.41073e-02,1.62529e-01,-1.27363e-01,-1.35241e-01,9.84459e-02,-4.28305e-03,-1.64988e-01,-1.70253e-01,-1.20050e-01,
2.90876e-01,3.26564e-01,5.36872e-01,5.07888e-01,1.05146e-01,3.40053e-01,-3.80373e-01,2.62517e-01,-2.27907e-01,-1.78197e-02,-1.18823e-01,1.40445e-01,-1.12349e+00,1.93279e-01,2.79981e-02,6.73551e-01,-6.54015e+00,-1.99414e-01,6.11123e-01,-1.37339e-01,-2.88909e-01,2.86397e-01,-1.87190e-01,-2.56826e-01,1.31200e-01,5.79340e-03,-2.38609e-01,1.94212e-03,4.69041e-01,8.74500e-02,2.09174e-01,-2.21388e-01,-4.74110e-01,-1.87652e-01,-7.63205e-02,9.15064e-01,-5.02367e-03,1.51684e-01,4.56515e-01,-4.31730e-01,5.64597e-01,-1.07003e-01,-4.04867e-02,-1.54277e+00,-1.00264e-01,1.48943e+00,7.78825e-01,4.37436e-01,1.61904e-01,-1.76818e+00,-9.53882e-01,6.41638e-03,4.14977e-01,2.48880e+00,-3.55202e-02,2.40821e-01,-1.52441e+00,-2.41105e-01,-3.12806e-01,5.96775e-01,5.14410e-02,-1.58682e-01,1.26291e-01,2.17129e-01,-8.72154e-02,8.16258e-01,1.28311e-01,-7.67490e-02,-9.02745e-01,3.34550e-01,5.07271e-01,2.47922e-03,4.42612e-02,-1.41946e-01,5.64338e-02,-6.49830e-04,-4.45024e-01,1.40907e-01,7.86398e-02,2.56103e-01,-4.33835e-02,-5.18517e-01,2.26241e-01,9.35572e-02,-3.82876e-01,-6.99760e-02,-1.15896e-01,2.65945e-01,9.50908e-01,3.39396e-01,7.01541e-02,7.35312e-02,-2.20372e-01,-2.98108e-01,-1.37385e-01,-4.48595e-02,7.09489e-02,-4.20813e-01,-4.40406e-02,-5.47359e-01,
-1.32061e-01,-5.41645e-01,-4.50412e-01,5.45909e-01,-2.85723e-02,1.76566e-01,5.11854e-01,2.29227e-01,5.21453e-01,3.54895e-01,3.30949e-02,-1.84809e+00,-7.05344e-02,1.01683e-01,1.56257e-01,3.00992e-01,1.78482e+00,-1.32525e-01,1.90166e-01,1.16625e-01,-2.42913e-01,4.70302e-01,-4.90101e-01,-7.49595e-01,4.43629e-01,1.24676e-02,2.83724e-01,-3.50519e-01,1.76062e-01,-1.61434e-02,-2.75916e-01,-8.40028e-01,-1.25942e-01,-8.82287e-01,-4.62849e-01,1.02550e+00,4.13461e-01,1.64652e-01,-5.27553e-01,-9.50431e-01,5.25841e-01,4.48727e-01,1.98441e-01,-5.72046e-01,6.88595e-02,7.06681e-02,8.35926e-01,7.49234e-01,1.05859e-01,-4.40806e-01,-6.32711e-01,2.48088e-02,-3.75692e-01,1.51956e+00,8.06398e-01,5.37418e-01,-2.18175e-01,2.08688e-01,3.83067e-01,5.72648e+00,-4.07645e-02,-8.56192e-01,-1.67726e-01,-2.31077e-01,-9.48240e-02,-2.97962e-01,1.52916e-01,5.02109e-01,2.99290e-02,4.65069e-02,5.69868e-01,-2.62567e-01,2.28241e-01,4.44889e-01,-4.31303e-01,4.03578e-01,-5.64370e-01,7.73521e-02,8.90346e-02,-1.37532e-01,-2.60017e-01,-2.45117e-01,7.74847e-02,-4.87190e-01,-2.14255e-01,-4.11983e-01,-1.50054e-01,3.88437e-02,1.87690e-01,-2.47796e-01,-1.75302e-01,4.00588e-01,2.24832e-02,1.85098e-01,-4.14050e-01,4.86132e-01,1.24615e-01,-3.07312e-01,-7.19324e-02,5.42277e-01,
-6.64678e-01,-2.37060e-01,-4.14740e-01,2.79190e-01,9.00576e-02,-3.56016e-01,5.63514e-02,4.50417e-01,1.09971e-01,-1.53303e-01,1.32621e-01,-1.26593e-01,-5.37831e-01,1.03336e-01,6.35311e-02,-4.92103e-02,1.26802e-02,4.34424e-02,-1.58050e-01,6.07821e-02,6.20345e-02,4.39820e-01,-4.72095e-01,-4.38107e-02,-4.80132e-01,5.35099e-01,-9.04996e-02,-1.99222e-01,7.51558e-02,4.93432e-01,1.06400e-01,8.90509e-02,1.55495e-01,-1.24465e-02,-4.39756e-01,1.06448e-02,6.31705e-02,-7.34811e-01,-9.51440e-03,-2.83537e-02,2.03246e-03,6.53510e-03,3.63083e-01,-1.04929e-01,1.41809e-02,8.03138e-02,-1.53834e-01,6.55669e-02,1.92297e-01,-1.35811e-01,6.91108e-02,-1.20133e-01,-3.62830e-02,-5.27998e-02,9.16917e-01,3.30336e-01,7.02025e-01,-2.97690e-01,1.01068e-01,1.91167e-01,-1.53388e+00,-2.45304e-01,-2.75453e+01,2.93959e-02,-2.45473e-02,1.66773e-01,-4.20369e-02,-1.03373e-03,-9.86229e-02,-1.57223e-01,-2.75347e-01,1.55861e-01,3.22599e-02,3.70220e-02,1.48596e-01,-4.53134e-02,-1.15876e-01,9.47177e-02,1.12316e-01,3.98186e-02,4.86342e-03,7.53191e-02,-9.41427e-01,8.19387e-02,-3.00377e-01,9.15923e-02,-5.09587e-01,5.14916e-03,-3.57357e-01,5.26265e-02,-6.61184e-02,-1.08452e-01,-1.38349e-01,2.54753e-01,1.04375e-01,7.04590e-02,2.82276e-02,-4.51535e-02,-4.11513e-02,-4.64528e-02,
-7.15080e-01,1.72672e+00,1.54413e-01,6.11766e-01,8.00153e-01,3.81788e-01,-1.27704e-01,2.45183e-01,3.11494e-01,-4.99011e-02,8.74329e-02,7.49216e-01,1.27715e+00,-2.47204e-01,-5.47279e-01,4.08056e-01,8.38646e-01,3.53752e-01,3.55521e-01,-8.70432e-01,-6.22795e-01,9.84507e-01,1.18670e+00,1.63177e-01,9.67125e-01,8.30719e-02,7.85774e-01,5.06163e-01,1.49655e-01,1.62564e-01,-5.03028e-01,-2.65697e-01,8.38185e-01,6.16877e-01,1.15268e+00,-1.48307e-01,9.46878e-02,3.94452e-01,4.20026e-01,-1.24532e+00,-1.21351e+00,4.50696e-01,-1.02043e+00,2.73441e-01,-1.07775e-01,8.62241e-01,-2.86667e-01,-1.79893e-01,-1.10069e-01,1.68553e-01,-1.33687e-01,1.30275e+00,8.43961e-01,-2.35943e-01,-1.44435e-01,1.78923e-01,2.99857e+00,-5.46006e-01,1.10093e+00,1.45476e+00,-1.50727e-01,-7.14017e-01,-1.89811e-01,-8.79537e-02,-2.02909e-01,1.33018e+00,7.26648e-02,-3.57160e-02,-5.16692e+00,5.96390e-02,2.51653e-01,1.56783e-02,-2.60660e-01,-4.52976e+00,9.87952e-01,1.21945e+00,-6.80759e-02,-5.10792e-01,-9.32311e-02,2.93107e-01,-9.75600e-01,9.95714e-01,-3.60312e-02,-4.44994e-01,2.38831e-01,-2.29178e-02,4.58494e-01,-2.49560e+00,2.04691e-01,3.41555e+00,1.03886e+00,2.21530e-01,7.27053e-01,9.01322e-01,-2.69738e-01,4.39535e-01,-7.51871e-02,2.24682e-01,-3.63840e+00,-2.40507e-01,
1.27893e-01,1.23264e-01,-1.24600e-01,4.53572e-01,-2.20181e-01,6.72118e-01,-3.98404e-01,-2.44905e-01,8.53557e-01,7.13302e-01,-2.46764e-02,-6.83960e-01,6.15042e-01,1.45774e-01,-4.77342e-01,-9.58745e-01,-4.26002e+00,-4.34234e-01,-1.85924e-02,2.82306e-02,3.91929e-02,1.58447e-01,3.21150e-02,1.81492e-02,-9.74958e-02,-3.29121e-01,-8.66591e-01,7.26234e-01,-3.46483e-02,5.32008e-02,-1.05790e+00,1.61621e-01,-3.46302e-01,-8.20254e-01,2.69532e-01,1.56123e-01,-6.76656e-01,-1.40610e-01,1.05837e+00,1.79981e-01,-4.13368e+00,1.69407e-01,1.64568e-01,-1.54872e+00,5.45893e-02,1.27146e-01,1.53719e-01,2.28625e-01,-3.69313e-01,6.03152e-01,8.46565e-01,2.46000e-02,3.43284e-01,-8.73335e-01,-5.11846e-02,-2.77393e-01,3.46372e-01,2.36504e-01,2.30897e-01,-1.55563e+00,2.68193e-01,-2.36646e+00,-1.17043e-01,-6.78313e-01,2.86004e-01,-1.19340e+00,-5.57047e-01,1.79827e-01,-2.23178e-01,7.34301e-02,5.54131e-01,2.49613e-02,1.03895e-01,2.59475e-01,1.21671e-01,1.00547e+00,-6.98139e-02,-3.64781e-01,-1.94969e-02,-1.04193e-01,-2.91277e-02,-1.28379e-01,-5.77850e-01,-2.27915e-01,-1.02431e-01,3.67289e-01,-2.69407e-01,-4.20595e+00,4.01667e-01,-5.44850e-02,4.75964e-01,-4.97681e-02,-1.08504e+00,-1.73020e-01,-1.53452e-01,2.75670e-01,2.84118e-01,4.14119e-01,-3.64198e-01,2.84461e-01,
2.78476e-01,1.09956e+00,5.42608e-02,-1.67856e-01,-2.28537e-02,4.01008e-01,-3.79205e-01,-5.39950e-01,-2.37128e-01,6.49531e-01,-1.16614e-01,-3.15665e-02,-1.57626e-01,1.46159e-02,-3.71907e-01,-9.13085e-01,-4.79022e-01,-3.79711e-01,2.71390e-01,7.11889e-01,-4.33924e-01,2.89274e-01,1.65268e-02,6.74040e-01,-4.66650e-01,-4.34498e-01,3.24386e-01,4.39007e-01,2.47873e-01,5.48819e-01,-1.06513e-01,-4.22536e-01,6.77379e-01,1.74623e+00,-9.63559e-01,-2.61142e-01,-7.61382e-01,-2.58553e+00,-2.11482e-03,-2.05825e-01,6.87110e-02,-3.89385e+00,8.24697e-01,-1.08898e+00,1.33008e-01,-7.22724e-02,8.74294e-01,2.40083e-01,-6.81765e-02,3.53191e-01,-3.61069e-01,-1.36015e-01,1.28661e-01,4.50483e-01,-9.50237e+00,5.22768e-01,7.57291e-01,4.21383e-02,4.26288e-01,-4.02853e-01,1.82478e-01,4.05555e-01,-6.34227e-01,-7.35130e-01,2.65210e-01,-2.66533e-02,3.79488e-02,1.90564e-01,-1.14789e-02,1.09844e-01,7.83031e-02,2.14738e-01,-2.46981e-01,1.72572e+00,1.17598e+00,-3.32823e-01,-1.47899e-01,-1.88900e-01,-8.87729e-03,-4.31157e-01,-2.06010e-02,-3.51236e-02,-1.29264e+00,-1.85218e-01,-7.66261e-01,2.17776e-01,1.31217e-01,6.93075e-01,4.38678e-01,-2.64998e-01,-1.85415e-01,-1.04120e-02,1.50145e-01,-3.64868e-01,4.96073e-02,4.09218e-01,-4.06511e-05,1.50968e-01,9.16928e-01,-7.14212e-02,
6.56644e-01,-9.73068e-01,6.97638e-02,3.07148e-01,1.86901e-01,-1.12588e+00,4.63576e-03,-9.64342e-02,1.90565e-01,-3.34123e-01,8.73359e-02,8.48441e-01,-1.69657e-01,-1.05106e-01,-7.80915e-01,2.19962e-01,1.05630e+00,-1.17422e-01,-3.37316e+00,-2.36679e-01,2.55709e-02,4.69003e-01,-4.87114e-01,-4.68388e-01,2.90944e-01,-2.31744e-01,-2.77964e-01,3.35970e-01,-7.53437e-01,4.09448e+00,-4.51916e-01,-2.60490e-01,-8.27982e-01,1.90078e-02,4.07051e+00,3.74349e-02,-7.20287e-02,-3.66648e-01,2.19340e-01,3.90389e-03,-9.56857e-01,4.33301e+00,7.55455e-02,-4.63139e-01,4.99173e-02,5.08023e-01,5.20012e-02,-5.20981e-01,-4.96066e-02,1.64403e-01,7.22063e-01,-5.21200e-01,4.30393e-02,-3.99973e-01,5.66721e+00,2.61712e-01,7.30639e-01,7.95318e-03,5.56712e-01,-1.66970e+00,5.39308e-02,-4.66362e-01,-2.67132e-01,4.71302e-01,-4.96542e-01,7.63760e-01,2.75745e-01,3.74339e-01,3.79691e-01,1.19537e+00,5.08566e-01,-1.18619e-02,-3.90649e-01,-1.07957e-03,-2.43679e+00,9.49300e-02,-5.58326e-01,4.84876e-02,1.67712e-02,4.84024e-01,5.75197e-01,3.08588e-01,4.97029e-02,1.57651e-02,1.19364e-01,-5.47587e-02,1.81370e-01,-2.02951e+00,-9.06364e-03,1.22546e-01,-6.26620e-02,-1.60415e-01,4.58217e-01,-7.99348e-03,-3.43809e-02,-4.83686e-01,6.19211e-01,9.05441e-02,-2.47256e-01,2.78081e-01,
8.36874e-02,7.41290e-01,-2.93688e-01,4.59949e-01,1.76727e-01,1.62633e+00,-2.35785e-01,-2.86888e-01,-4.07206e-01,-2.16899e-02,6.55933e-02,1.17627e+00,6.31949e-01,-2.41426e-01,-2.92235e-02,2.00350e-02,-1.58509e+00,-5.46562e-02,5.93446e-01,5.62429e-01,-6.03257e-01,-3.20433e-01,9.21556e-02,3.77639e-01,7.07720e-02,-6.87376e-01,-7.28056e-01,2.21847e-01,-1.53972e-01,-3.11242e-02,-2.48417e-01,1.92957e-02,-8.40605e-02,1.81068e+00,6.15566e-01,-7.00617e-01,-3.25531e-01,-7.69758e-01,-3.52420e-01,4.25669e-01,-5.34340e-02,8.46843e-01,5.84471e-02,1.42870e+00,-1.96767e-01,2.90468e-01,1.73027e-01,-1.92094e-01,-2.13170e-01,4.92188e-01,3.79585e-01,-3.22209e-02,-1.03021e+00,3.26622e-01,4.34283e-01,6.56171e-01,1.86972e-01,-3.58404e-01,8.58642e-01,-1.57796e+00,5.52024e-01,-1.30452e+00,-3.18552e-01,5.99288e-01,1.93956e-01,3.58992e-01,-1.75443e-01,6.70027e-01,2.76986e-01,5.93778e-01,2.22548e-01,2.65109e-01,2.25857e-01,-1.71895e-01,2.91074e-01,-1.80623e+00,-1.63118e+00,2.22371e-01,-1.84268e-02,7.03486e-02,1.21701e-01,1.40399e+00,-1.29838e-01,2.77359e-01,-4.26189e-01,4.99693e-01,-2.18908e-01,2.25595e-01,-1.51747e-01,2.72287e-01,3.45873e-01,4.69006e-01,3.61931e-01,3.93095e-01,4.42978e-01,3.09893e-01,-4.59421e-01,2.91796e-01,9.55178e-02,-6.26225e-01,
7.53382e-02,8.20515e-02,-9.80732e-02,-6.86544e-02,-9.31521e-02,7.26653e-02,-1.52991e-01,-1.71169e-01,-1.38264e-01,-1.00122e-01,-1.96097e-02,-1.14942e-01,7.76525e-03,-1.38777e-01,-1.57677e-01,1.42630e-01,-6.41467e-02,4.24181e-02,6.35976e-02,-4.30922e-02,-1.03627e-01,-9.63148e-02,5.03653e-03,1.55208e-01,3.93884e-03,-3.03199e-02,5.73636e-02,1.09564e-01,-2.83883e-04,-1.48642e-01,-1.05713e-01,-1.20482e-01,8.05621e-02,1.16357e-01,-1.21901e-01,-7.37922e-02,-2.10822e-02,3.29494e-02,2.59070e-02,7.94327e-02,4.49458e-02,-1.41593e-01,-1.21469e-01,9.31543e-02,1.63732e-01,-1.37287e-01,-1.36811e-01,6.77320e-02,-1.45024e-01,1.98058e-03,1.27922e-01,-3.89641e-02,1.08312e-02,-1.04855e-01,-9.97001e-02,-1.63194e-01,2.54551e-03,-1.52117e-01,1.19902e-02,5.33736e-02,1.33338e-01,1.49880e-01,1.48965e-01,1.70764e-02,-1.72052e-01,1.75891e-02,-6.30005e-02,-2.96781e-02,3.02277e-02,1.01514e-01,-8.56571e-02,-1.68554e-01,-1.22851e-01,8.19317e-02,-4.89057e-02,-7.63765e-02,-9.56874e-02,8.13536e-02,-2.61720e-02,4.99811e-02,-1.13370e-03,1.02621e-01,-3.26845e-03,-8.27027e-02,-4.97183e-03,-2.90146e-02,-1.15598e-01,6.09617e-02,4.67480e-02,-8.35896e-02,1.66898e-01,-8.74231e-02,-1.23317e-01,6.26245e-02,1.32416e-01,-1.35900e-01,-1.55090e-01,1.53562e-01,-1.13626e-01,-1.65049e-01,
-3.44442e-01,-1.15197e+00,4.65932e-01,-1.23110e+00,3.70646e-01,-7.25995e-01,9.41410e-02,-1.68028e-01,-1.25220e-01,-6.36673e-02,1.23533e-01,-1.63371e+00,-2.47622e-01,1.60759e-01,3.43244e-01,1.04612e+00,6.15336e-02,1.69252e-01,-1.14366e+00,-2.16445e-02,1.97147e-02,2.35729e-01,-1.32494e-01,4.01704e-01,-3.66121e-02,1.88330e-01,-2.37525e-01,3.49813e-01,-1.76902e+00,-2.76238e-01,4.81847e-01,-4.73597e-01,-3.27556e-01,-2.82716e-01,-4.05428e-01,1.42951e-01,1.02874e-01,-1.45120e-01,1.95890e-01,1.78515e-01,-5.97491e-01,-1.83917e-01,-1.10095e-01,-3.40256e-01,1.04672e-01,-4.73043e-02,6.88064e-01,-1.44135e-01,5.39267e-01,-2.11857e-01,-8.67095e-01,-7.43494e-02,-4.88014e-02,-1.45726e-01,-2.30331e-01,-8.97880e-01,-9.17122e-02,-5.12025e-02,-8.97677e-01,5.70880e-02,-3.01409e-01,-7.30057e-01,1.51153e-01,1.61159e-01,2.07820e-01,-6.16942e-01,2.59919e-01,-3.61058e-01,1.34128e-01,-8.50715e-01,-6.15584e-02,3.37998e-01,-1.41328e-01,-1.66526e+00,2.48410e-01,8.44401e-01,-1.36119e+00,2.18068e-01,-7.42739e-02,2.17253e-01,-2.97874e-01,1.47128e-01,7.47689e-01,6.48488e-01,-8.69819e-02,8.85443e-02,1.50861e-01,-1.09696e+00,3.90054e-01,8.67591e-02,-1.72207e-01,-9.10603e-02,-5.73288e-01,2.47248e-01,-1.23816e-01,-4.92135e-01,1.30239e-01,5.49850e-02,-1.16896e+00,-6.47750e-01,
-5.09735e-01,3.75823e-01,-1.13932e-01,2.35764e-01,2.91823e-01,-2.04265e+00,5.67916e-01,-2.23887e-01,8.23142e-01,-2.42420e-02,4.29939e-02,-3.47924e-01,-4.36407e-01,-1.04799e-01,2.51300e-01,-1.24908e+00,1.81786e+00,-1.84738e-02,-1.40318e-01,-3.69473e-01,-5.26011e-01,3.63086e-01,-9.68934e-01,1.06311e+00,3.15124e-01,3.15506e-02,-5.69450e-01,-2.16187e-01,2.24941e-01,4.12955e-01,-1.74903e-01,-4.91117e-01,1.19455e+00,1.76154e+00,1.46030e+00,-6.41227e-01,1.48766e-01,1.52753e-01,-1.11277e+00,4.19556e-01,-2.34873e-03,1.46720e-01,1.81011e-01,3.42316e-02,1.65127e-01,5.43460e-01,3.44451e-01,4.77492e-02,-1.93580e-01,-1.15860e-01,-4.60068e-01,-1.02994e-01,2.33565e+00,8.41680e-01,-1.79439e-01,9.76920e-02,-7.51282e-01,-3.73826e-02,-4.16119e-01,4.04453e-01,9.31394e-02,-6.86318e-01,-1.72625e-02,-4.83727e-01,-2.15005e-02,8.44280e-02,1.54032e-01,5.08667e-02,1.91581e-03,-6.55233e-02,-3.13257e-01,-1.89224e-01,-5.91916e-01,6.13301e-01,1.36409e-01,7.68878e-01,-8.88747e-01,1.26513e-01,-1.56609e-02,-4.49118e-01,7.10523e-02,1.67919e+00,1.95294e-01,-2.11204e-01,1.65091e+00,3.72145e-01,-2.55257e-03,7.66615e-01,9.35436e-01,2.25624e-01,-2.45700e-01,8.12625e-03,-1.37437e+00,-8.47307e-01,-4.32263e-02,1.76999e-01,-3.16138e-01,2.36059e-02,3.18153e-01,1.86525e-01,
1.71437e-01,-1.92683e+00,-1.32974e+00,-1.24251e-01,2.26593e-01,6.55448e-01,-2.39098e-02,-6.56800e-01,-4.66432e-02,1.04356e-01,9.76039e-02,1.96938e-01,-5.78183e-01,-2.56985e+00,-1.79469e-01,-2.06827e-01,3.31773e+00,-8.80961e-02,7.54889e-02,-6.15384e-01,-1.54804e-01,-4.68052e-01,5.52630e-01,-9.87840e-02,-8.05226e-01,8.20228e-02,-3.83356e-01,3.18260e-01,3.13889e-01,-6.47302e-01,-1.39781e-01,1.40999e-02,3.35595e+00,-7.79513e-01,4.93084e-02,-1.07688e+00,2.73429e-01,-2.10380e-01,-1.17416e+00,1.68232e-01,5.93300e-01,4.33703e-01,3.12712e-01,5.46375e-02,7.64615e-02,8.76666e-02,9.33257e-01,2.37793e-01,-9.76641e-01,-4.10079e-01,9.23972e-01,2.34118e-01,7.85434e-01,-2.89581e+00,4.30403e-01,-8.88944e-02,-1.12510e-01,2.31611e-01,-1.56397e-01,-1.28777e+00,-2.81236e-01,-3.59683e-01,-2.69681e-02,3.90030e-01,-5.84322e-02,1.32490e-01,3.02084e-01,4.15146e-01,7.38436e-02,-8.35632e-03,-4.10911e-01,-2.05987e-02,-4.64254e-01,6.61102e-01,3.69588e-01,-3.52692e-01,2.87098e-01,2.48664e-01,1.11222e-01,-5.13051e-01,5.57220e-01,1.81323e+00,6.95476e-01,-2.06747e-01,-5.64963e-01,2.14832e+00,1.53641e-02,3.58849e+00,-8.08044e-01,3.24638e-01,-4.73810e-01,-1.94376e-01,-6.99772e-01,4.65556e-01,5.08958e-03,5.12073e-01,2.60991e-01,-3.36524e-01,2.33396e-01,6.39692e-01,
-2.21208e-01,-1.23686e-01,-3.43530e-02,-1.02626e+00,-2.11835e-01,4.18651e-01,5.19225e-01,-4.14588e-02,3.83415e-01,-5.41676e-01,1.29621e-01,2.16624e-01,4.28116e-02,-1.57649e-01,-3.62927e-01,4.30367e-01,-1.37596e+00,7.35364e-01,1.75936e+00,1.29336e+00,-2.79034e-02,5.89679e-01,-4.15595e-01,7.33692e-02,4.51496e-01,-6.74503e-01,6.28211e-01,-7.02187e-01,-4.45597e-01,3.37319e-01,-2.15222e-01,-3.62426e-02,1.56325e-01,-2.59853e-01,-1.29343e+00,3.54544e-01,-2.81554e-02,-4.74852e-02,-1.68240e-01,3.28525e-01,-1.06685e-01,4.85568e-01,1.25285e+00,7.45620e-01,-1.37434e-01,-9.46688e-01,1.00757e+00,4.63988e-01,2.90151e-02,-1.29643e-01,-1.39213e-01,2.19095e-01,3.36296e-01,-7.69700e-01,4.25437e-01,4.97332e-01,1.48428e+00,2.10574e+00,2.64389e-01,-1.13513e+00,3.31503e-01,8.64115e-01,-4.36211e-01,1.11418e-01,-7.87238e-01,-1.98430e+00,3.42435e-01,-1.81532e-01,5.17107e-01,-6.83463e-01,-7.07535e-01,-3.72880e-01,4.81158e-02,1.80289e-01,8.07681e-01,1.08422e+00,-6.04846e-02,-1.21905e+00,-4.36561e-02,2.46878e+00,2.70778e-01,2.31923e-01,1.47017e+00,-2.77326e-01,6.51424e-01,-4.58075e-02,-6.75404e-01,-1.12390e-01,6.83194e-01,3.28333e-02,-1.23559e-01,-1.33547e-01,2.80758e-01,-2.12811e-01,-2.54124e-01,2.94767e-01,4.30866e-01,7.86185e-01,1.15425e-01,2.94413e-02,
2.06028e-01,-5.98535e-01,1.94818e-01,1.00922e-01,1.37251e-01,-1.36394e-01,-3.18999e-01,5.80053e-01,4.61763e-03,5.37592e-02,-1.34560e-01,-2.08216e-01,1.08749e+00,-1.30825e-01,-1.91892e-01,-5.44861e-02,1.11812e-01,8.85673e-02,3.26895e-02,2.47066e-01,1.23583e-01,4.37156e-01,1.62312e-01,-9.58213e-02,-2.13175e-01,9.91178e-01,-9.49620e-02,2.72348e-01,4.50630e-02,8.95053e-01,2.62699e-02,9.71163e-02,2.87085e-01,-2.88396e-01,2.13074e+00,1.00951e-01,1.38722e-01,-6.78000e-01,1.40151e-02,-9.47018e-02,-8.03885e-02,1.12682e+00,1.09087e-01,-2.31701e-01,2.41775e-01,-2.37995e-01,1.42262e-01,1.14643e-01,-2.34777e-01,-1.14636e-01,-5.19918e-02,2.52269e-03,-5.36467e-01,1.50718e-01,4.26931e+00,1.65024e-01,6.59651e-01,1.33948e+00,1.03940e-01,5.27585e-01,1.45809e+00,-1.01695e-01,7.06928e-02,2.38117e-01,1.29543e-01,1.59136e-02,4.16313e-02,-2.31379e-02,-2.01514e-02,-5.36812e-02,-1.83288e-01,1.53382e-01,2.85013e-02,-6.45938e-02,-5.30482e-02,-5.28637e-01,-2.57154e-01,2.09545e-02,1.57474e-01,1.52518e-01,1.45922e-01,-2.81722e-02,4.46985e-01,-4.60803e-02,4.80481e-01,2.97187e-01,4.33651e-01,3.98204e-01,9.76505e-02,2.10041e-01,-3.84495e-02,2.04355e-01,-4.53393e-02,1.51591e-01,-2.95681e-01,-3.05756e-02,1.85697e-01,2.54782e-01,5.49120e-02,-1.29298e-01,
-1.03431e-01,-5.06964e-01,-1.06387e+00,1.90743e-01,7.65069e-02,7.72642e-01,2.16002e-01,2.53625e-01,-1.78801e-01,-3.42448e-01,-1.41188e-01,-1.26062e+00,-1.53176e-01,4.00167e-02,2.11372e-01,3.07189e-01,1.03916e+00,4.09849e-01,2.83020e-01,1.62953e+00,-1.71263e-01,1.05536e-01,-4.25194e-01,3.63411e-02,-4.86579e-01,3.69085e-01,6.06331e-01,2.34559e-01,5.84989e-02,4.46994e-01,-1.29077e-01,3.74880e-02,-4.81265e-01,6.43430e-01,-2.41208e+00,-6.13154e-02,9.64888e-03,-1.33411e+00,1.53925e-01,6.06596e-03,3.57601e-01,7.39405e-02,-7.06135e-01,2.71438e-02,2.82745e-01,-3.47213e-01,3.05413e-01,3.83901e-01,-3.39853e-01,4.56561e-01,-1.52643e-01,4.01214e-01,-2.00495e-01,5.86542e-01,-9.97687e-01,3.16527e-01,-2.58796e+00,-6.15965e+00,-3.34293e-02,-1.07449e+00,-6.15342e+00,2.73209e-01,-1.01706e+00,3.72346e-01,3.06063e-02,-1.03687e+00,-1.21933e-02,1.54075e-01,3.39977e-01,-1.14971e-01,2.08884e-01,7.61587e-02,-1.08879e-02,-4.05638e-01,-1.93219e-01,3.52574e-01,1.29288e-01,1.85888e-01,1.62070e-01,-1.67681e-01,-5.11045e-01,-8.96371e-01,-2.48764e-02,-1.06176e-01,6.17106e-01,-3.86034e-01,1.99291e+00,-6.79576e-01,6.99986e-02,-1.88077e-01,-1.39656e+00,1.58813e-02,-6.66948e-01,-1.54493e-01,-6.18980e-01,8.03120e-01,-2.52093e-01,2.15740e-01,-3.35990e-02,-4.67338e-01,
4.19307e-01,1.46368e-01,-3.21098e-01,-1.24852e-01,1.52171e-01,-4.24683e-01,4.40132e-02,-1.05996e+00,5.88696e-02,-8.62018e-02,-1.55625e-01,9.95095e-02,6.58519e-01,6.79431e-02,-1.09017e-01,1.79416e-01,-2.88063e+00,1.22639e-01,-3.60209e-01,5.61436e-01,1.79520e-02,-1.43192e+00,-1.06652e-01,-5.54154e-01,-6.57526e-02,-1.96241e+00,4.08477e-01,-5.90774e-02,2.50802e-01,4.79403e-01,2.62132e-01,-2.85655e-01,-1.24843e+00,9.71127e-02,-6.57121e-01,1.16618e-01,-2.23956e-01,-4.25500e-01,4.85038e-02,-2.09699e-02,1.51790e-01,6.31329e-02,-1.29534e+00,5.38405e-01,5.86043e-02,2.21181e-01,-8.19232e-01,-4.71167e-02,5.45792e-02,-2.07384e-01,-1.35389e-01,-5.08010e-01,1.56076e+00,-1.49335e-01,3.17931e-01,2.82138e-01,-5.53466e-01,-1.97546e+00,-1.76080e-01,-1.06809e+00,-9.41762e-01,-5.57632e-01,-2.53489e-01,1.76166e-02,-3.36572e-01,9.57066e-02,-9.29903e-02,-3.89219e-02,-3.38877e-02,-2.15233e-01,-4.63857e-01,8.45584e-02,-1.35379e-01,4.69982e-02,7.75086e-02,4.29881e-01,3.07484e-01,8.26834e-02,1.41418e-01,1.83081e-01,1.57828e-01,7.09112e-01,5.51612e-01,-8.39357e-02,-3.76872e-01,1.21895e-02,-1.28523e-01,6.77360e-01,5.80674e-01,1.08947e-01,7.69685e-01,-8.31221e-01,5.02704e-01,-6.90620e-01,-5.70218e-01,1.18761e-01,-4.58307e-01,3.61401e-02,-2.79811e-01,-2.51611e-01,
9.51914e-03,1.38451e-01,3.68480e-02,-8.25140e-01,1.47842e-03,7.69839e-01,-1.25034e-01,-7.82127e-02,-1.01806e+00,-1.02327e-01,-1.38434e-01,1.42769e-01,-9.44444e-02,2.77571e-01,2.45095e-01,9.60042e-01,-9.98002e+00,3.82627e-02,4.61620e-01,-7.60624e-02,4.86303e-02,4.63562e-02,3.64235e-01,4.11668e-01,-1.43243e+00,1.16386e-01,2.60152e-01,-4.87518e-02,2.72011e-01,-7.61858e-03,1.15333e-01,1.65905e-01,-9.09427e-02,-6.01758e-01,1.05870e-01,1.61173e-01,-6.53996e-02,-5.23350e-02,9.87474e-02,-2.35505e-01,-2.97388e-01,-1.35195e-01,2.31320e-01,-3.36256e-01,5.67145e-02,-2.41815e+00,-1.51863e+00,3.25773e-02,1.56913e-01,-1.81361e+00,-6.21985e-01,5.32925e-02,1.17460e-01,-3.48615e-01,-2.76494e-01,-2.63469e+00,-1.11060e+00,8.37388e-02,-3.35343e-01,3.46706e-01,-1.82519e-01,-1.96059e-01,8.33553e-02,4.30936e-01,-4.11134e-01,-2.68814e+00,-7.11376e-02,-2.07057e-01,-8.08966e-01,2.34554e-01,-6.81726e-02,-1.06286e-02,1.41703e-01,-1.60347e-01,3.89296e-01,3.13223e-01,-1.15139e+00,-1.56343e-01,-1.41047e-01,1.28209e-01,-2.13854e-01,2.01768e-01,4.28326e-01,-4.48238e-02,-3.10428e-02,-1.58655e-02,6.20015e-02,-4.41362e-01,-1.33339e-01,5.68754e-02,-2.16150e-01,-2.42296e-01,2.74192e-01,-4.40110e-02,-1.72767e-01,3.63023e-01,-1.84335e-01,-9.73238e-01,-3.85848e-01,-3.67441e-01,
6.70633e-02,-6.55693e-01,4.12339e-01,1.70430e-01,3.14416e-02,5.12671e-02,-8.44747e-02,4.98341e-02,-2.68798e-01,-7.12431e-02,3.00323e-02,-1.23124e-01,-2.97590e-02,4.81807e-03,-8.54731e-02,-3.13145e-01,-6.14073e-01,-6.67114e-02,9.43758e-02,5.44265e-01,7.39339e-02,4.46117e-02,9.03099e-02,1.88972e-01,-4.21845e-01,-2.47347e+01,-2.54661e-01,1.81400e-01,-6.32867e-02,3.14916e-02,2.54454e-01,8.69533e-02,-7.30876e-01,1.21392e-01,8.82087e-02,7.61414e-03,4.90225e-02,-1.79465e-01,1.04289e-01,-1.05436e-01,9.69192e-02,-7.65648e-01,1.27510e+00,7.52877e-02,-3.26199e+00,1.99304e-02,3.59261e-01,1.13987e-03,1.27020e-01,-1.12328e-01,-6.43618e-02,-8.95479e-02,-2.46798e-01,4.89707e-01,-7.83915e-01,1.18140e-01,4.45287e-01,5.11988e-02,2.05968e-02,-6.18006e-02,-1.69460e-01,-2.93240e-02,-3.14108e-01,-1.36918e-02,-1.26317e-01,6.31837e-02,1.48041e-01,-1.06988e-01,-1.39784e-04,2.46916e-04,1.83981e-01,-1.62130e-01,4.93104e-02,3.24791e-01,-2.72430e-01,4.08482e-02,-3.40748e-01,-8.62713e-02,-3.45553e-02,8.72822e-02,1.59667e-01,-1.83540e-01,-2.74884e-01,1.41566e-01,3.66963e-01,-1.46547e-01,-1.06066e+00,3.85028e-01,1.29718e-01,-1.68225e-01,-3.66954e+00,-2.88017e-01,-2.01668e-01,5.43322e-01,5.09107e-02,-1.37554e-03,2.72613e-01,-6.44200e-02,1.42787e-02,8.67965e-02,
-2.12168e-01,1.10897e+00,6.02456e-02,2.21193e-01,-5.22942e-01,7.76572e-01,7.55615e-01,8.94492e-01,6.44870e-01,6.33420e-01,-1.45118e-01,7.21984e-01,-1.37321e-02,-1.82919e-01,-2.70359e-01,-5.90560e-02,-1.23747e+00,-1.85796e-03,2.36407e+00,1.37441e+00,2.31594e-01,1.03906e+00,-7.11410e-01,-5.74477e-02,8.27854e-01,-2.55743e+00,4.68409e-01,-9.01759e-02,-8.20344e-01,-7.30992e-01,-7.48424e-01,-7.26760e-02,5.71712e-01,7.22945e-02,1.05710e+00,4.57106e-01,1.17402e-01,7.05690e-01,3.33188e-01,1.03021e-02,1.00165e+00,6.37122e-01,2.83660e+00,4.09836e-01,-5.99006e-01,1.19446e+00,2.40508e+00,5.74325e-01,-7.63279e-02,4.66349e-01,8.93990e-02,6.57852e-01,-1.66458e+00,3.55571e-02,-8.03277e-01,2.46548e-01,3.34811e+00,6.05618e+00,5.71688e-01,4.42444e-01,1.41686e+00,5.47188e-01,-1.13584e+00,6.92387e-02,1.39223e-01,2.32433e+00,-2.37330e-01,3.42357e-01,-3.77272e-01,9.22498e-01,-1.70961e-01,1.65327e-02,4.47334e-01,6.15432e-01,6.07691e-01,7.04719e-01,7.31501e-01,-8.49614e-01,-4.93028e-02,1.52513e+00,1.74022e-01,3.29816e-01,-1.72034e-02,-7.49415e-01,2.03812e+00,1.92627e-01,-1.62798e+00,3.67148e-01,2.21223e-01,3.95379e-01,1.19126e+00,1.35718e+00,4.12075e-01,1.69542e-02,-6.50733e-02,1.65568e-01,4.25389e-01,9.15492e-01,4.70342e-01,3.09061e-01,
-3.09130e-01,-1.12211e+00,2.89584e-01,2.06872e-01,-1.38499e-02,-1.66259e-01,-4.79984e-01,2.42410e-02,-9.76855e-03,-3.07465e-01,-1.05616e-01,-9.16023e-01,6.39143e-01,-4.74333e-01,-1.55653e-01,-7.56240e-01,-2.64359e-01,-1.20660e+00,-8.11734e-03,3.95803e-01,-6.52851e-01,1.28949e-01,1.84191e-01,-4.66357e-01,3.02994e-01,-1.54081e-01,-5.92510e-02,-3.12912e-01,1.88057e-01,8.15115e-01,-2.25675e-02,1.64571e+00,2.32773e-01,-5.14412e-01,-2.89332e+00,-2.51874e-01,-2.10896e-01,-2.49543e-01,-1.26871e+00,5.13439e-01,-8.18962e-02,1.69306e-01,3.65468e-01,-2.13999e-01,6.74013e-02,2.45951e-01,1.83723e+00,-1.35215e-01,-1.39458e-01,-8.67106e-02,-1.46109e+00,-5.91678e-01,5.58258e-01,-1.54038e-01,2.56871e-01,-3.95305e-01,6.41791e-02,2.18091e-01,-3.52772e-01,9.92435e-01,-4.76592e-02,-1.13413e+00,-2.03799e-01,-3.61177e-01,2.50997e-01,6.33667e-01,2.32272e-01,-5.74410e-02,2.98664e-01,-1.53672e-01,4.34249e-01,-2.82381e-01,-5.78068e-01,-3.85422e-01,-2.91449e-01,-3.62805e-02,-2.61366e-01,1.35430e-01,7.40361e-02,-4.66983e-01,3.51373e-01,-3.28522e-01,-3.16642e-01,-1.19053e-01,-1.42376e+00,3.38579e-01,2.09101e-02,-3.71102e+00,2.43054e-01,-4.03574e-01,-5.56736e-01,4.66534e-01,4.10893e-01,5.30795e-01,-3.94444e-01,-1.09897e+00,2.25506e-01,3.32062e-02,1.85473e+00,-1.39027e-01,
2.30198e-01,1.53595e+00,1.64592e-01,1.75348e-01,8.39417e-01,-8.82428e-01,-1.18152e-02,5.62263e-01,8.84697e-02,8.16229e-01,4.63743e-02,3.41184e-01,-3.92387e-02,-3.70925e-02,3.28038e-01,-1.07832e+00,1.03016e+00,2.83303e-01,-3.15777e-02,6.73208e-03,-3.19912e-01,-3.35479e-01,4.14316e-02,-2.59261e-02,3.70893e-01,1.45203e-01,-3.30446e-01,1.04234e+00,-1.68799e-02,-4.84344e-01,-1.73602e-01,-3.90283e-01,-6.81678e-01,-8.36001e-01,5.59351e-02,1.06503e+00,9.94436e-02,5.33864e-02,-1.07638e+00,-3.58982e-01,-6.49482e-01,-3.94305e-01,5.52708e-02,3.08142e-01,1.05445e-01,5.33038e-01,-1.08325e+00,5.84543e-01,-8.56387e-02,-5.91175e-01,-4.11482e-01,-3.15747e-01,-4.59364e-01,1.08524e+00,-5.57039e-01,5.32742e-01,5.12320e-01,-5.63095e-02,-2.15481e-01,2.35708e+00,-1.60956e-01,2.46362e-01,-1.45186e-02,-1.61975e-01,-1.59956e-01,-2.27102e+00,-1.19139e-01,1.04832e-01,-2.41806e-01,-2.97049e-01,-1.52184e-01,5.62858e-01,3.01459e-01,1.57932e+00,-5.52092e-01,-5.89448e-01,-1.93433e+00,-7.45331e-02,1.66398e-01,-3.43869e-01,2.13020e-01,8.80712e-02,2.43248e-01,-1.03781e-01,6.75651e-01,-5.14185e-01,1.85390e-02,1.40456e+00,-1.85889e-01,9.02971e-02,-1.37685e-01,2.50540e-02,-1.20809e+00,1.12671e-01,1.89924e-01,3.31790e-01,1.63635e-01,3.59094e-02,9.37250e-01,6.86467e-01,
-3.71062e-02,5.65535e-02,7.60791e-02,1.02199e+00,-8.25696e-01,4.22246e-01,3.03245e-01,2.35989e-01,7.08928e-01,3.33178e-01,-1.48302e-01,9.22598e-01,2.61761e-03,1.44129e-01,-2.29573e-01,9.43596e-01,-4.69059e-01,1.69472e-01,-6.31757e-02,-3.09955e-03,2.07499e-01,-9.81849e-01,5.45551e-01,1.47122e-01,-2.36397e-01,-1.60970e-01,3.69446e-01,-1.37371e-01,2.79776e-01,9.57552e-02,-1.81338e-01,1.39462e-01,-2.04297e-01,-9.21952e-02,-4.54988e-02,3.97689e-01,4.77377e-02,-1.36268e-01,5.34791e-01,2.64447e-01,-2.17131e-01,3.56453e-01,-3.14203e-01,-5.22439e-02,3.44177e-01,-9.54839e-01,6.50719e-01,4.18592e-01,1.93767e-01,1.10453e+00,-3.66934e-01,-2.08782e-01,7.41121e-01,-5.38770e-01,-4.61594e-01,7.90613e-01,-4.39896e-01,-1.60014e-01,-1.38860e+00,-4.65908e-01,-3.00171e-01,-3.37476e-01,-8.47221e-01,-1.03126e-01,-9.06195e-02,-1.90216e+00,3.94250e-01,6.87889e-02,-4.57789e-01,-1.16934e-01,3.30589e-01,1.29770e-01,4.03482e-01,-2.27592e-01,1.05324e+00,1.80278e-01,-1.04541e-02,-2.37672e-01,-5.93737e-02,-4.27636e-01,-2.22822e-01,1.52822e-01,-3.20569e-01,-1.19355e+00,1.06082e+00,-1.65212e-01,1.35168e+00,-1.59425e-02,3.56797e-01,-6.55125e-02,-4.12902e-01,3.51499e-01,5.62968e-01,-1.00203e-01,5.94183e-02,3.74038e-01,1.41989e-01,4.94458e-01,-2.06854e-01,1.25119e-01,
3.39050e-02,-2.59445e-01,-2.55796e-01,-2.26105e-01,3.08092e-01,1.31932e-01,-1.17125e-01,-1.30066e+00,-1.87171e-01,2.14251e-01,-7.26664e-02,6.27513e-01,4.66462e-01,-5.48755e-01,-3.98119e-02,-1.15689e+00,-8.26842e-01,-1.54314e-01,3.01810e-01,-2.05796e-01,1.08803e+00,1.31172e-01,-8.72268e-02,7.65944e-01,2.01017e-01,4.20146e-02,-6.09694e-01,1.08627e+00,3.10744e-01,5.68876e-01,-1.81837e-01,4.14380e-02,1.03397e+00,1.83363e+00,-2.86969e-01,1.83836e-01,-1.80727e-01,1.38963e-01,4.04148e-01,-2.55348e-01,-6.61346e-01,5.86613e-01,9.05103e-02,4.69922e-01,9.45780e-02,5.48132e-01,-1.75815e+00,-1.08918e-01,-2.03193e-02,2.27999e-01,3.04633e-02,-2.55582e-01,-1.49457e-01,-2.81268e+00,6.74529e-01,2.18318e-01,-5.71927e-01,-4.65195e-01,-7.63672e-02,4.17197e-01,1.26273e-01,-1.49050e+00,3.16197e-02,1.37219e-02,2.32455e-01,-3.49347e-01,1.34845e-01,-2.98637e-02,2.88093e-01,2.16192e-01,3.38302e-02,1.92838e-01,7.37622e-01,-2.50316e+00,-2.19909e+00,-1.46809e-01,-8.82660e-02,6.36185e-03,8.36384e-02,-2.02931e-01,-4.04987e-01,-8.23355e-01,-2.22785e-01,2.15407e-02,1.33241e+00,2.17223e-01,1.49830e-02,2.05401e+00,-1.31148e+00,-8.75906e-02,2.50554e-01,2.45729e-02,-1.19696e+00,-5.13112e-01,2.25257e-01,-9.35208e-01,-6.39385e-01,2.65168e-02,1.42818e+00,1.66208e-02,
5.61959e-01,1.97021e+00,-2.04934e-01,6.62547e-01,7.40513e-02,-3.77108e-01,3.53287e-02,-7.60115e-02,3.72084e-01,2.05111e-01,6.17191e-02,9.61695e-01,-4.69649e-02,-1.85026e-01,-1.77864e-01,-3.42965e-01,4.96907e-01,2.18170e-01,1.26001e-01,-4.27755e-01,9.30042e-02,9.84587e-02,5.45776e-02,-8.70567e-01,4.10959e-01,2.48816e-01,4.28980e-01,7.69774e-01,1.43587e-01,-4.07070e-01,4.51006e-02,2.51752e-01,1.13237e+00,-1.33395e+00,-2.78849e-01,-4.75740e-01,-7.99893e-01,2.71227e-01,1.71372e-01,-1.59825e-01,-8.75785e-01,4.55071e-01,1.30029e-01,-6.08292e-01,-4.48748e-01,1.89482e-01,1.97644e-01,2.58435e-01,-7.52501e-01,3.65615e-01,5.52271e-01,-1.67963e-01,1.21735e+00,-8.96604e-01,2.47738e-01,7.36354e-01,-4.84966e-01,5.25791e-01,3.58726e-01,-8.94025e-01,-4.94383e-01,8.05885e-01,2.26578e-02,5.68127e-02,-5.71577e-02,4.16680e-01,-1.54438e-02,5.90161e-01,-1.73409e-01,3.79778e-02,4.00996e-01,2.18508e-01,2.50907e-01,2.47519e-01,-6.22688e-01,2.76844e-02,8.86644e-01,-4.67105e-01,4.77391e-02,-5.90071e-01,6.03793e-02,-8.28089e-01,-4.53487e-01,-2.36872e-01,3.21696e-01,7.86336e-01,8.52610e-02,2.04891e+00,1.96183e-01,2.85090e-01,-5.55005e-01,-9.72929e-01,8.75782e-02,1.29235e-01,-1.98898e-01,9.71592e-02,-9.97500e-01,2.55180e-01,9.20079e-01,2.91293e-01,
1.26774e+00,-2.01430e+00,6.35769e-01,3.64363e-01,-4.70265e-01,5.50395e-01,3.89049e-02,3.73023e-01,-5.59148e-01,8.27225e-01,1.59329e-01,-4.16480e-01,2.47997e-01,2.15474e-01,1.78720e-01,3.01057e-01,-2.01282e+00,1.99481e-02,9.60448e-02,-2.55751e-01,2.11600e-01,-1.54149e+00,1.64479e-01,2.33944e-01,-3.84052e-01,8.71770e-02,-4.77240e-02,1.06418e-01,-4.16754e-02,-3.48870e-01,-3.43782e-01,5.72690e-01,1.24556e-01,-5.66949e-01,4.44927e-01,7.88994e-01,1.01925e-01,-4.42583e-02,7.26472e-01,-6.96746e-01,5.77439e-01,2.77224e-01,-1.00524e-01,9.56831e-01,-4.48195e-01,4.35820e-02,-5.35042e-01,6.00272e-01,1.56525e-01,-4.17395e-01,-6.75896e-01,-2.07483e-01,-2.57191e-01,2.03343e+00,-5.26263e-01,1.51207e-01,1.66580e+00,-1.06256e-01,-5.91151e-01,-4.96556e+00,5.74103e-02,-8.05933e-01,2.10378e-01,5.74485e-02,-1.06381e-01,-9.11536e-02,3.61432e-01,1.11833e-01,1.43830e-02,-7.34704e-02,1.88803e-01,8.52111e-01,5.66644e-01,6.12221e-01,5.39576e-01,-6.67984e-01,-1.24205e+00,1.29600e-01,-8.92989e-02,-4.47852e-02,-5.23450e-01,-1.11461e+00,3.76365e-02,-3.65072e-01,-3.33595e-01,2.57002e-02,-3.53918e-01,-5.62490e-01,2.85907e-01,-8.47579e-01,4.20020e-01,2.03288e-01,2.76932e-01,1.26988e-01,3.30751e-01,4.09866e-01,4.06627e-02,-4.63702e-01,1.76368e-01,2.50488e-02,
1.95611e-01,-1.63668e-01,1.73552e+00,-2.82739e-01,-3.22479e-01,-4.99595e-01,-8.26398e-01,1.26017e-01,4.40561e-01,6.55593e-02,-9.06688e-03,-3.89910e-02,-1.54008e+00,1.70382e+00,1.02590e+00,-1.05739e+00,-8.18096e-02,-7.25568e-01,6.47826e-01,-1.17538e-01,7.15195e-01,-1.08742e-01,1.31899e-02,-1.06686e+00,-4.66899e-01,-3.33388e+00,4.92570e-01,-3.27588e+00,-1.00574e+00,-3.66990e-02,-4.99789e-01,-4.78010e-02,-1.55690e-01,-7.51858e-02,1.36973e-01,-7.69581e-01,-3.16996e-01,3.53633e-01,-2.25633e+00,-1.00271e-01,-2.49066e-01,-1.16339e+00,-1.09587e-01,2.46349e-02,-1.10994e+00,6.75253e-01,-1.14582e-01,-2.98655e-01,-3.27995e-01,6.86348e-02,6.70570e-02,6.74624e-03,-9.17561e-01,2.18794e-01,4.48468e-02,-5.22413e-02,1.30859e-01,3.13045e-02,-3.82327e-01,3.30093e-02,-5.23264e-01,-4.20323e-01,9.14473e-02,-6.14385e-01,-8.77000e-01,-5.28853e-01,2.85228e-01,1.16016e-01,1.71293e-01,-4.51261e-01,-8.93568e-01,-6.12768e-01,5.82279e-01,-1.72415e-01,-4.73997e-02,1.77925e-02,3.12763e-01,-1.55141e+00,5.83326e-02,-1.82812e-02,-1.81095e-01,-7.74722e-01,-1.08563e+00,3.82709e-01,-1.68092e-01,-1.21397e+00,-1.07165e-01,1.13657e-01,3.61299e-01,-4.23539e+00,-2.38372e-01,5.20104e-01,-8.97269e-01,-1.13155e-01,2.35393e-01,-8.51039e-01,-8.88234e-02,8.33946e-02,1.15483e+00,5.33990e-02,
-4.00272e-02,2.96296e-01,-3.40985e-01,6.43061e-01,-4.84979e-02,-9.22363e-01,3.68539e-01,1.38591e-01,1.60995e-01,6.44362e-02,-1.26424e-01,-5.80594e-01,3.97477e-01,-3.95012e-01,9.01996e-02,5.44297e-01,6.26892e-02,7.35528e-02,-6.41781e-01,-1.27158e-01,-2.23964e-01,9.02055e-02,-5.73303e-02,-8.75574e-01,5.39088e-02,-1.16916e-01,-1.26890e+00,4.32144e-02,-5.03778e-01,1.42478e-01,4.43355e-01,-5.05418e-01,-3.59264e-01,4.60739e-01,-2.27216e-01,-4.76972e-01,4.11402e-01,1.73095e-01,1.15588e-01,2.00052e-01,-2.10792e-01,3.84614e-02,1.50200e-01,-5.75063e-02,-5.17860e-02,-3.91303e-01,6.89463e-01,-5.57543e-01,4.23148e-01,6.51029e-02,-1.52300e-01,-2.10110e-01,-6.90079e-01,2.17823e+00,1.21305e+00,3.84217e-01,7.79474e-01,-2.15423e-01,-7.46654e-01,5.31541e-01,2.57798e-01,2.51191e-01,6.10929e-02,1.32711e-02,4.19350e-03,-1.23508e+00,1.21921e-01,-5.55738e-01,1.52026e-01,-1.23072e-01,-4.09013e-01,2.29226e-02,-1.68785e-01,-9.43779e-01,-3.43008e-01,-7.67980e-02,-9.83012e-01,2.55006e-01,-5.64616e-02,-1.25754e-01,-3.33404e-01,6.18041e-01,-1.66097e-02,4.09343e-01,-1.21544e-01,1.44788e-01,-1.23385e-01,-2.65518e-01,-6.08675e-01,-1.51047e-01,1.28371e-02,-5.10919e-02,-3.45611e-01,-3.12505e-01,2.59932e-01,-2.34693e-01,2.06318e-01,-1.63949e-02,-1.11684e+00,-7.22042e-01,
3.33146e-01,6.46270e-01,-5.78168e-02,-1.64414e-01,-1.30122e-01,-1.78539e+00,1.98400e-01,-7.92431e-01,-1.20699e-01,-3.33195e-01,-1.47960e-01,3.91188e-02,8.36523e-01,9.65610e-02,1.04080e-01,-2.31165e-01,-8.22875e-01,-4.17198e-01,-3.68097e-02,-6.96067e-02,-6.80241e-01,1.02292e-01,-9.81894e-02,2.04671e-01,-2.52580e-02,2.16324e-01,8.38790e-02,-2.98806e-01,1.17881e-01,1.53439e-01,2.19405e-01,-7.41114e-01,-3.71678e-01,2.35721e-01,-6.60511e-02,-8.81361e-01,-1.14983e-01,1.23288e-01,-1.83827e+00,6.68054e-01,-7.07302e-01,-1.16889e-01,3.92696e-01,-5.39064e-02,-4.96199e-02,5.11818e-01,-5.90650e-01,-9.45640e-02,6.05774e-02,-7.96487e-02,2.24243e-01,-5.68165e-01,-2.67044e-01,-1.23814e+00,5.09316e-02,-8.00575e-02,4.44288e-01,-7.14642e-02,-1.03375e-01,-3.18982e-01,-8.10318e-02,1.07233e+00,1.02283e-01,-1.11995e-01,-1.41208e-01,-1.62327e-01,5.72658e-02,8.19549e-02,-2.70939e-02,-1.59616e-02,-3.45912e-01,-4.22135e-01,-7.28562e-01,1.69446e-01,2.19796e-03,-3.98902e-01,1.85323e-01,4.00142e-01,-4.90190e-02,-1.66783e-03,3.01591e-01,-1.34134e+00,2.11662e-02,-1.53373e-01,3.23540e-01,-1.45342e-01,-2.31266e-01,-1.50145e+00,-5.76419e-01,2.33151e-01,-2.58128e-01,1.29638e-01,-1.07781e+00,-3.29186e-01,-2.58229e-01,3.42582e-01,4.21301e-01,-1.15000e-01,-1.23872e-01,2.82297e-01,
7.07386e-02,-4.44888e-02,-1.22419e-01,1.26676e-01,-8.07241e-03,-2.88930e-01,2.41320e-02,-1.05857e-01,-8.07481e-02,2.86842e-03,1.74253e-02,-2.76467e-01,-5.36198e-02,-3.05208e-02,-2.67057e-01,5.66608e-02,-1.90639e-01,3.49522e-02,-2.08775e-01,-6.23537e-02,-1.48343e-01,5.28795e-02,-1.00789e-01,1.57978e-01,1.09655e-01,6.90932e-02,-9.50489e-02,1.29318e-01,3.42872e-02,-5.18875e-02,-3.02507e-01,-6.24200e-02,1.44301e-01,5.50125e-02,1.17896e-01,-1.24954e-01,-2.89725e-02,-1.25305e-01,-1.76844e-01,-2.80511e-01,-6.89804e-03,-6.54619e-02,1.56936e-01,-1.70348e-01,9.75952e-02,1.46800e-03,2.16780e-01,-1.24249e-01,-2.00460e-01,3.23790e-02,-1.69387e-01,-1.47561e-01,-5.98672e-02,-2.42835e-01,-4.66959e-02,-9.37130e-02,-1.11150e-01,1.14055e-01,-3.15699e-02,1.49417e-01,9.38405e-02,8.02490e-02,2.10446e-01,-1.53328e-01,-8.14165e-03,1.38864e-02,-6.69765e-02,-2.32063e-01,-2.61865e-02,-3.57853e-02,2.35172e-01,-1.50621e-01,-1.78269e-01,7.80332e-02,-2.26028e-02,-5.52592e-02,-1.68971e-01,-5.57412e-02,-1.59696e-01,1.54899e-01,-1.29256e-01,-5.29520e-02,1.61176e-01,-8.65383e-02,1.52404e-02,-1.67554e-01,4.64985e-02,-1.36927e-01,-9.17047e-02,1.01877e-01,-4.39978e-02,1.43966e-02,1.35404e-01,-1.14609e-01,-7.00053e-02,-1.41631e-01,-4.15042e-02,-1.02872e-01,1.77680e-02,-5.28725e-02,
7.13920e-02,-9.43697e-02,1.44677e-01,6.13595e-02,-1.17155e-01,8.93194e-02,-1.06194e-01,1.22685e-01,-2.00106e-01,1.33983e-01,1.65990e-01,-6.21227e-02,2.96806e-02,-5.32129e-03,-1.44292e-02,2.70778e-02,-1.78782e-01,-1.71525e-01,5.40166e-02,-1.25232e-01,-5.64589e-02,2.83946e-02,6.81280e-02,-1.27894e-02,1.35731e-01,-8.45879e-02,5.40482e-02,1.62120e-02,1.02903e-02,-1.49097e-01,-1.58140e-01,1.10806e-01,-1.02613e-01,1.47424e-01,-6.00436e-02,-1.30118e-02,-1.64424e-01,-6.81300e-02,-1.05738e-01,1.44569e-02,1.23709e-01,-5.61611e-02,1.33826e-01,-1.59856e-01,8.90466e-02,1.25949e-01,1.53240e-01,-1.17831e-01,-1.93401e-01,-5.09847e-03,5.02855e-02,-1.41147e-01,1.45553e-01,-5.44683e-03,-3.18844e-02,4.52034e-02,8.56736e-02,-1.52338e-01,1.65854e-01,-6.83574e-02,-5.96381e-02,1.02833e-01,-7.97002e-02,1.45240e-01,1.13989e-01,-1.04782e-01,-7.46290e-02,-5.72328e-02,-8.11336e-02,6.94247e-02,-8.69712e-02,-6.51005e-02,-1.48223e-01,8.17406e-02,2.76007e-02,3.19898e-02,-1.95223e-01,9.53070e-02,-1.59989e-01,-1.35032e-01,-7.61891e-02,-1.48299e-01,7.88573e-02,1.60026e-02,2.34984e-02,-2.77745e-02,9.86817e-03,-1.03554e-01,-1.21057e-01,1.50639e-01,-1.64085e-01,-4.42218e-02,-9.28719e-02,5.29087e-02,-1.06690e-01,-3.05084e-02,1.58509e-01,-1.48744e-01,4.85619e-02,1.15743e-01,
2.14815e-02,7.39570e-01,-4.12391e-01,-1.06893e+00,2.39849e-01,1.68786e+00,7.43005e-02,5.87600e-02,-3.56103e-01,7.27160e-01,-8.24446e-02,-2.16004e-01,5.36931e-01,-2.17578e-01,1.77183e-01,-1.17429e-01,-2.62587e+00,-4.12154e-01,-5.64548e-01,3.56922e-01,7.23111e-02,5.04756e-01,9.66962e-02,3.62220e-01,1.26830e-01,-8.29339e-02,1.79034e-01,1.42791e-01,1.04629e+00,2.38198e-01,2.54008e-01,-3.33143e-01,-7.96473e-01,-3.73407e+00,-6.52524e-01,-7.22493e-01,3.14698e-01,-4.06998e-02,-6.03812e-01,4.43701e-01,2.00234e-03,-3.29818e-03,-2.34375e-01,-2.09188e-01,2.03365e-02,4.16064e-01,-1.83810e-01,1.96602e-01,-4.26383e-01,-2.12128e-01,5.75418e-01,2.45942e-01,7.69281e-01,-6.68416e-01,1.73607e-01,-3.58052e-01,5.19576e-02,1.34439e-01,-7.78565e-01,-1.53033e+00,-5.10493e-03,-2.65087e-01,-1.47816e-01,1.22763e+00,-6.17303e-01,2.85615e-03,1.58309e-01,4.06837e-01,3.43504e-01,-6.24022e-01,-1.46336e+00,-2.12429e-01,-1.76920e-01,2.67713e-01,-1.02622e+00,-3.34641e-01,-1.39187e+00,2.41567e-02,-9.48621e-02,-2.48381e-02,3.94650e-01,4.25744e-01,1.61521e-01,1.53989e-03,-6.26330e-01,2.24378e-02,6.94592e-02,1.36420e+00,-2.67184e-01,-2.36872e-01,-2.84378e-01,9.18008e-02,-3.62698e-01,-2.18310e-01,-5.51747e-01,4.08540e-01,1.85894e-01,-3.90625e-01,2.64762e-01,2.75022e-01,
-4.18720e-01,-9.12150e-02,4.90222e-01,-2.12522e-01,-6.86623e-01,1.09378e-01,7.98287e-02,1.44760e-01,2.09999e+00,2.84436e-01,1.07211e-01,8.97555e-03,-5.69779e-01,7.94325e-02,-2.62111e-01,-6.85789e-01,5.44779e+00,6.74304e-01,5.60525e-02,1.48077e-01,2.37836e-01,-6.62801e-01,-1.96534e-01,1.06664e-01,1.12613e+00,5.21775e-02,-4.03270e-01,4.24305e-01,2.27356e-01,5.68225e-01,2.19141e-01,1.36470e-01,3.37105e-02,-6.36315e-01,-1.96228e-02,1.34040e-01,-3.60118e-01,-1.08409e-01,2.69726e-01,-6.05673e-01,-3.46505e-01,5.31122e-01,3.51764e-01,-7.82306e-01,1.64405e-01,-4.58703e-01,-2.29130e-01,4.24020e-03,5.37454e-02,-8.72897e-02,-6.84616e-01,-1.93523e-01,9.32333e-01,3.76165e+00,-3.37906e-02,-5.79523e-01,1.61696e+00,3.07517e-01,-2.62580e+00,1.23314e+00,-3.07340e-01,2.99310e-01,-5.39085e-02,1.94928e-01,5.12125e-02,-1.62929e+00,8.22163e-02,-1.01744e-01,5.59899e-01,4.81385e-04,9.85512e-02,6.33276e-02,2.91830e-02,-6.65744e+00,5.52960e-01,-9.51295e-01,-1.90651e-01,3.86170e-02,-7.62592e-03,-1.17643e-01,-4.50405e-01,-5.83894e-01,-5.29554e-01,-9.84669e-02,-3.45609e-01,-3.64978e-02,-1.04941e-01,-6.22699e-01,6.34381e-01,3.57516e-01,-7.96121e-01,-1.51993e-01,2.80531e-01,-5.05058e-01,-5.04113e-01,7.36869e-03,-3.11574e-01,-5.02726e-01,-2.97264e+00,-2.78408e-01,
3.51067e-01,-1.16919e+00,-6.23716e-01,-8.89818e-01,-1.98019e-01,1.13961e+00,9.78011e-02,5.07012e-01,7.54476e-01,-4.69033e-01,-1.42774e-01,3.23540e-02,-1.35176e-01,-4.40898e-01,-6.14092e-02,-2.80750e-01,-1.56935e+00,2.99136e-01,-2.28779e-01,5.29389e-02,-1.93187e-01,8.22256e-02,8.17097e-02,-1.42559e+00,-3.80708e-01,-4.22179e-02,1.58415e-01,-1.02636e-01,2.47284e-01,-4.26793e-02,6.43016e-01,-4.19167e-01,-5.39827e-01,-2.87718e+00,-1.01955e+00,-1.71589e+00,-1.72696e-01,2.77679e-01,-2.37502e-01,8.77167e-01,-2.77528e-01,-3.43924e-01,-2.82697e-02,-1.88275e-01,-8.85257e-02,-1.58978e-01,-1.48066e-01,-7.54289e-01,-1.98725e-01,3.18596e-01,3.18557e-01,-1.70409e-01,-1.34577e+00,-1.27444e+00,-5.88358e-01,8.27948e-01,-1.23158e+00,-1.78007e-01,-3.60269e-01,-1.18573e+00,1.20821e-01,-1.09966e+00,3.27172e-02,4.63868e-02,-4.90903e-01,3.16906e-01,-6.28426e-01,-4.25797e-02,1.65189e-01,2.28843e-01,-1.00662e+00,-4.31305e-02,6.78875e-02,-7.22615e-01,-5.24868e-02,-1.65749e-01,6.74617e-01,2.36323e-01,-6.59787e-02,3.43479e-03,2.36309e-01,-3.06646e+00,2.48273e-01,1.39294e-01,-6.95517e-01,-2.63934e-01,-1.45743e-01,-4.54414e-01,-2.32999e-03,7.66600e-01,3.68388e-02,-1.42790e-01,1.55429e+00,-5.78289e-02,5.14450e-01,-5.07608e-01,1.42194e-01,-1.75521e-02,6.15267e-01,1.61268e-01,
-1.65179e-01,-3.41480e-01,3.40697e-01,-3.11739e-01,-7.08926e-02,8.51322e-01,4.54608e-01,1.76580e-01,-1.88209e-01,3.14819e-01,-1.15078e-02,2.19237e-01,-6.29900e-02,8.06499e-01,3.28634e-01,2.49797e-01,4.23508e-01,1.64243e-01,-1.50778e+00,-6.48356e-02,7.57624e-03,2.25419e-01,2.95763e-01,2.74590e-01,3.11380e-01,-4.51168e-01,1.82622e-01,2.22190e-02,-9.48789e-02,7.45649e-01,4.66344e-01,-2.01391e-01,-2.57667e-01,-2.24872e-01,1.93555e+00,-7.69064e-01,3.70911e-01,3.40667e-01,4.60298e-01,2.57353e-01,8.51736e-02,-3.28785e-02,6.13989e-01,6.27215e-01,5.74046e-02,-1.96038e-01,3.01224e-01,1.15597e-01,1.75441e-01,-1.06530e+00,-4.03982e-01,1.14203e-01,-5.31637e-01,6.97354e-01,-6.03069e-01,1.52341e-01,6.27292e-01,-4.59091e-01,-2.48126e-01,3.82898e-01,1.48955e+00,6.64128e-01,5.06350e-01,3.28210e-01,-5.12128e-01,-7.35883e-01,1.90666e-01,5.16831e-01,1.42618e-01,-2.41805e+00,-6.75180e-03,2.17015e-01,-1.63088e-01,-2.10606e-01,-1.59578e-01,2.78980e-02,-4.46438e-01,-9.14187e-02,-1.55939e-02,7.12791e-01,-5.41099e-01,3.47876e-01,-2.13587e-01,2.07074e-01,-1.45174e-01,-1.65877e-01,-1.37601e+00,-9.59724e-02,-8.94765e-03,-2.62510e-01,7.11514e-01,1.21553e-01,4.59635e-01,1.24600e-01,4.10113e-01,5.48889e-01,6.04480e-01,-1.24975e+00,1.23280e-01,3.37640e-02,
5.67732e-01,2.18227e+00,-6.25533e-01,-7.84912e-01,5.49259e-02,-8.83493e-01,3.26047e-03,1.96712e-01,-4.14536e-01,-1.45268e-01,-1.64552e-02,-3.79737e-01,2.50592e-01,2.85972e-01,-2.07143e-01,-1.65968e-01,4.10271e+00,2.08886e-02,2.74419e-01,-1.78259e-01,-1.67682e-02,-3.64275e-01,1.33784e-01,5.44566e-01,-2.98500e-02,2.40311e-02,-1.18610e-01,-2.03992e-01,-5.48275e-01,6.47462e-01,9.37283e-02,5.00019e-01,4.02959e-01,-5.75698e-01,6.59000e-01,-1.59946e-01,1.31480e-01,1.54617e-01,3.22275e-01,3.92198e-01,-9.47942e-01,-2.59065e-01,-8.81710e-02,-1.50108e-01,9.51502e-02,4.01981e-02,-1.09795e+00,-3.30233e-01,-2.18606e-01,-1.81614e-02,7.22394e-03,6.30943e-01,9.01353e-01,3.30657e-01,6.29430e-01,-8.03692e-01,-9.28766e-01,-2.19180e-01,2.75224e-01,-1.39485e+00,1.14587e-01,-1.03750e-01,1.26849e-01,2.53498e-01,-7.19786e-02,-2.43139e-01,-8.49467e-02,-3.98887e-01,-7.08100e-01,3.26465e-02,-3.13078e-01,2.15889e-01,2.05712e-01,-7.20721e-02,6.97789e-02,2.89479e-01,-2.69564e-01,4.10523e-01,1.66156e-01,1.83265e-01,-2.33432e-01,-2.44920e-02,5.81491e-02,4.12580e-01,4.75671e-01,3.41070e-01,-4.93808e-02,-5.18947e-02,-3.96138e-02,3.09346e-02,3.29928e-01,2.39539e-01,1.88426e-01,-6.66068e-02,-1.88256e-01,2.90154e-01,-1.84761e-01,9.50338e-02,-9.80853e-01,-5.10943e-01,
8.48149e-02,1.33630e-02,4.64409e-01,-6.22538e-02,3.30099e-01,3.48606e-01,-1.39193e-01,-1.43173e+00,4.06892e-01,1.18705e-01,-7.11972e-02,7.32193e-03,9.89574e-02,-1.30435e-02,1.17947e-01,-3.19376e-01,-4.84300e-01,7.04740e-02,-2.27019e-02,5.62468e-01,2.95381e-02,-2.58493e-01,-1.07571e-01,1.10544e-01,2.03459e-01,-1.01177e+00,2.95537e-01,1.52859e-01,7.17487e-02,-3.99580e+00,-5.17053e-02,1.39566e-01,1.61294e-01,3.46383e-01,-2.70769e+00,1.00616e-02,-8.19214e-02,-3.47611e-02,-1.20967e-01,-1.67710e-01,-2.81369e-02,4.50224e-01,7.84224e-01,-1.39468e-01,5.25997e-02,-2.73000e-02,4.16943e-01,-1.51357e-01,5.79552e-02,1.00168e-01,-9.86477e-02,-1.16057e-01,3.11216e-01,-4.28538e-01,-2.31025e+00,5.44626e-02,-2.09895e+00,1.93846e-02,2.80425e-02,1.02601e-01,-5.26437e-01,-1.86667e-01,2.12744e-01,2.23430e-02,-8.34831e-02,-1.32168e-01,-2.30884e-02,1.07023e-01,-3.21088e-02,-1.46347e-01,-3.89858e-02,5.56004e-02,9.21059e-02,3.69877e-01,1.13519e-01,-2.85341e-01,-6.54297e-02,8.43683e-02,-1.75883e-02,-6.28251e-02,-1.73425e-02,-3.01901e-01,6.06708e-01,2.40226e-02,-4.23957e-01,3.69495e-01,3.36629e-01,3.31251e-01,2.01416e-01,-1.70200e-01,7.88040e-01,-1.94848e+00,2.64083e-01,-4.42096e-01,-2.06679e-01,-1.48282e-01,-3.56474e+00,3.47584e-01,1.75904e-01,-1.33403e-01,
4.44124e-01,-1.93625e+00,4.22663e-01,5.48629e-02,8.29475e-02,1.43944e-01,6.81950e-02,-7.15334e-02,2.16356e-02,5.32274e-01,-1.14237e-01,2.33342e-02,7.19160e-01,-1.72603e-01,-3.94419e-02,-8.25902e-01,-1.53609e-01,-1.66294e-02,2.08923e-01,-4.95250e-02,-1.93761e-01,-1.46000e-01,-2.20693e-01,-2.35773e-01,7.72793e-02,3.45020e-02,-6.21149e-02,-1.44144e-01,-8.97079e-01,-3.20993e-01,-1.68611e-01,-5.98766e-01,3.63403e-02,-8.00213e-01,8.96938e-01,9.00289e-02,-3.88064e-02,-4.58079e-02,-2.92488e-01,1.14175e-01,-6.37977e-01,7.02349e-02,-7.30526e-02,1.33659e-02,5.67221e-02,3.39029e-01,1.88561e-01,5.10513e-02,-1.84026e-01,-2.15571e-01,-2.49355e-01,-3.08350e-01,-1.15638e-01,-1.73468e+00,-1.26308e-01,-6.87403e-01,-6.97493e-02,-1.01628e-01,-6.12323e-01,1.19872e-01,-8.39081e-03,9.36479e-01,-1.48312e-03,1.59297e-01,2.78674e-01,-2.96383e-02,6.69892e-05,2.28905e-01,-2.58348e-01,6.73236e-02,4.96079e-01,1.47921e-01,-1.57754e-01,7.60008e-01,-1.08223e+00,-4.75307e-01,-2.78011e+00,4.58582e-02,-7.93616e-02,7.69890e-02,2.25665e-01,-2.06239e-01,9.91543e-01,-2.82220e-01,-5.09331e-01,-2.86788e-01,-6.17512e-03,8.77417e-01,-3.34009e-01,-1.99671e-01,-1.54954e-01,2.22236e-01,-3.51610e-01,1.33013e-01,1.40077e-01,6.30668e-02,-1.89599e-01,1.23936e-02,1.24479e+00,4.95741e-02,
-1.56051e+00,-1.97938e-01,-1.73241e+00,1.65576e-02,-4.86468e-02,-3.89578e-01,-2.04782e-01,-4.72124e-02,-1.94491e-01,8.08613e-02,1.51316e-01,-5.35598e-01,5.32686e-01,-1.48936e-01,-7.35981e-02,-2.19584e-01,1.16693e-01,-4.52626e-01,-2.25914e-01,-1.73247e-01,-1.02250e-01,5.61762e-01,-7.70160e-02,7.27494e-01,-5.43142e-02,2.21356e-01,-9.51177e-01,-1.25096e-01,-1.95032e-01,2.83969e+00,-5.39581e-02,2.45692e-01,7.65988e-01,6.93086e-02,2.84186e+00,-4.76776e-01,-4.09482e-01,-2.65161e-01,-2.98994e-01,4.89722e-01,-3.41245e+00,1.87419e-01,1.03594e-01,-1.23894e+00,-3.74191e-02,3.17779e-01,4.37622e-01,-9.21496e-01,-3.33550e-01,-2.38479e-02,-9.58023e-01,8.04838e-01,1.00283e+00,-1.92041e-02,2.79946e+00,5.14270e-01,4.94521e-01,4.10430e-02,-8.52220e-02,-3.18099e+00,-1.93088e-01,-5.58429e-02,6.03899e-02,-4.89163e-01,-2.40866e-01,-6.13960e-01,-8.77963e-02,-2.91514e+00,-1.10691e-01,-7.70414e-02,-5.46398e-01,-1.47884e-01,-5.59867e-01,7.09788e-01,-8.48317e-01,2.01577e+00,-9.73646e-02,-5.21243e-02,1.13946e-02,3.06621e-01,-3.78103e-01,1.79623e-01,-3.06819e-01,-3.06457e-01,1.56080e+00,5.24611e-01,7.06417e-02,-1.94795e-01,5.33889e-01,1.45484e-01,-2.16290e-01,-2.06619e-01,7.90636e-01,7.10693e-01,-8.04342e-01,-8.45250e-01,-1.22034e-01,3.99100e-01,-3.87867e+00,-1.43345e+00,
1.34260e-02,1.08821e+00,-2.19000e+00,4.75387e-01,-1.21230e-01,-5.94374e-01,-5.38441e-02,2.62671e-01,9.48847e-01,-4.06486e-01,-3.67957e-02,-2.98901e+00,1.89821e-01,-4.00607e-01,-1.33645e-01,2.27598e-01,4.07601e-01,4.53749e-01,-6.27189e-01,-5.11922e-02,-2.18258e-01,5.57754e-01,3.09276e-01,-2.71883e-02,-5.38369e-01,-7.50105e-02,1.54411e+00,4.63279e-01,1.91622e-01,-7.02075e-02,2.71376e-01,1.10092e-01,-7.09726e-02,1.43498e+00,8.38386e-01,3.32585e-01,3.40307e-01,-3.96600e-02,-1.09119e-01,-4.19096e-01,2.77749e-01,-7.67888e-03,1.86016e-01,-2.96499e+00,-2.02499e-02,3.44954e-02,-2.88780e-01,-1.75829e-01,-1.54104e-01,-1.27852e+00,4.60763e-01,-1.92155e-01,-5.13709e-01,-4.65109e-01,-2.49744e-01,-2.46384e+00,-1.18260e+00,-4.24577e-01,6.80661e-01,-7.88171e-01,5.63638e-01,7.29477e-01,1.82766e-01,-3.51876e-01,-1.02914e-01,2.75404e-01,1.31390e-01,-6.31809e-01,2.33557e-01,-6.30946e-01,2.06370e-01,5.43475e-01,-1.15360e-01,-4.36847e-01,-9.51479e-01,-5.12356e-01,-2.76936e-01,-1.62506e-01,-9.74387e-02,2.72733e-01,-6.02814e-02,1.04434e-01,-7.38400e-01,-3.35361e-01,2.96319e-01,-2.76140e-01,-3.49425e-01,-7.20988e-01,7.33771e-01,-1.12401e-01,1.87143e-01,-9.61349e-02,-1.81065e-01,1.57931e-01,-7.22875e-01,-2.76316e-01,-1.74078e-01,-5.99974e-01,2.56604e-02,-6.67134e-01,
2.95755e-01,-1.76886e-01,2.71670e-01,2.75709e-02,-2.46316e-01,-2.37951e-01,4.43282e-01,9.20353e-01,-1.31173e-01,2.03405e-01,-8.46293e-03,-1.47716e-01,2.93978e-01,-1.28834e-01,1.14630e-01,-5.33593e-01,-3.94959e-01,-2.17657e-01,2.24746e-01,1.98789e-01,-1.50388e+00,3.00688e-01,6.88595e-02,9.76645e-01,1.61455e-01,-4.27941e-02,-3.52913e-01,-4.96655e-01,-1.80745e-02,-3.55967e-01,2.07938e-01,6.15012e-01,-4.82643e-01,-1.78610e+00,5.87447e-01,-2.45152e-01,1.78903e-02,2.42806e-01,-1.26585e+00,-1.12916e-01,2.22686e-01,-1.30941e-01,2.45917e-01,-1.17240e+00,-8.59622e-02,1.32747e-01,-9.04804e-02,2.37500e-01,-8.01383e-02,3.29274e-01,-7.84260e-01,-2.20812e-01,-6.06810e-02,-3.69165e-01,-5.37466e-01,-1.93783e-01,-7.30434e-01,-1.55934e-01,2.26175e-01,-6.33424e-01,-4.96961e-02,-3.17295e-01,-3.05799e-02,-3.34647e-01,3.90005e-01,-1.46966e-01,1.09947e-01,1.62439e-01,5.55529e-02,1.18374e-01,-1.25294e-01,2.14083e-01,-1.07212e+00,-2.80499e-03,1.14795e-01,-2.44159e-01,2.00600e+00,1.50400e-01,-2.06311e-02,6.44355e-02,1.80893e-01,-1.34726e+00,4.49050e-01,-4.40285e-01,7.16310e-01,-1.29706e+00,-2.69538e-01,4.02746e-01,9.19585e-01,2.89246e-01,-1.86018e-01,-3.75967e-01,3.05034e-01,-2.41257e-01,3.65517e-01,-1.51194e-01,1.81053e-01,1.71664e-01,2.83204e-01,-1.00145e-01,
1.07346e-01,1.82279e+00,2.38828e-01,-1.00594e+00,4.51801e-01,-3.49157e-01,-3.88819e-01,-4.91339e+00,2.96752e-01,-4.85151e-01,-1.11160e-01,-2.36026e-02,1.19906e-02,2.26948e-01,-6.12451e-01,5.22056e-02,1.86027e+00,3.43959e-01,5.70903e-01,7.64108e-01,1.11217e-01,5.47673e-01,-9.85771e-02,-4.99266e-01,-1.49053e+00,-1.61260e-01,8.30850e-02,6.15479e-01,-3.01533e-01,-8.85581e-01,-1.15155e+00,7.70466e-02,2.67593e+00,6.47696e-01,2.77630e+00,-8.42260e-02,1.51580e-01,-9.26959e-01,6.46695e-01,9.24701e-02,-2.03900e+00,2.10850e-01,4.09832e-01,-5.68455e-02,2.53239e-01,1.21475e-01,1.47694e+00,-6.51263e-01,-4.76793e-01,-1.47302e-01,2.81860e-01,1.93596e-01,6.16686e-01,-7.95768e-01,2.29282e+00,-8.28177e-02,-1.73907e+00,7.06315e-01,9.94476e-02,2.20545e-03,-2.13805e+00,7.87591e-01,-1.05038e+00,-5.41681e-01,4.01611e-02,-4.79668e-01,-1.74257e-01,-8.80268e-02,2.37687e-01,3.23163e-01,3.96755e-01,4.62307e-01,3.59587e-01,-2.82849e-02,2.45003e-01,-1.74211e-01,2.76834e-01,3.60824e-01,1.80675e-03,3.42887e-01,4.77354e-03,2.33262e-02,7.90741e-01,2.67706e-01,-5.19463e-01,-1.82496e-01,-2.10755e-01,-7.40666e-01,1.06525e+00,3.04155e-01,6.86230e-01,-3.90687e-01,2.80138e-02,3.45349e-01,-1.51467e+00,1.93465e-01,-6.55909e-01,1.46871e-01,-6.29678e-01,1.61975e-02,
-2.63097e-01,-2.99619e-01,2.63752e-01,-6.33358e-01,-5.87602e-01,2.95584e-01,1.31545e-01,8.84082e-01,7.77029e-01,-2.33427e-01,-2.95099e-02,3.14375e-01,3.07570e-01,5.79358e-01,-1.40386e-01,1.01309e-01,-8.03268e-01,-5.14332e-01,-3.75214e-02,3.54308e-01,2.84232e-01,4.48068e-02,1.33535e-01,-2.33906e-01,-3.26236e-01,-5.87085e-01,7.51420e-01,8.65810e-02,2.88248e-01,2.16034e-01,-4.30380e-02,4.78199e-01,-2.45780e-01,-3.41535e-01,1.08531e+00,-7.83943e-01,-6.48912e-01,8.86163e-02,-5.16021e-02,2.36254e-02,-8.75972e-01,-1.53481e-01,4.66330e-01,3.88785e-01,2.04843e-01,-8.66499e-02,5.70660e-01,-4.27924e-01,3.96570e-02,-2.00689e-01,-6.67581e-01,-1.96240e-01,-1.67316e+00,-1.66001e+00,2.90733e-01,-1.54165e-01,2.48306e-01,6.42097e-01,4.60145e-01,-2.49042e+00,-1.22127e-03,8.52883e-01,-3.46618e-01,3.16038e-01,-3.53801e-02,4.29913e-01,-8.25206e-02,7.08743e-02,-1.20159e-01,1.58994e-01,-4.93195e-01,-6.95876e-01,-1.77139e-01,6.00766e-02,5.65464e-01,5.83531e-01,7.32475e-01,-2.90113e-01,3.52970e-02,-8.06307e-02,-1.02644e-01,-2.02999e+00,4.03027e-01,-3.81734e-01,-9.44720e-02,-1.66027e-01,-1.61000e-01,4.41886e-01,-4.05689e-01,3.02068e-01,1.85483e-01,3.39251e-01,3.33793e-01,-6.38382e-01,9.99231e-02,-4.59526e-01,-9.98375e-01,-4.17984e-01,3.83574e-01,-6.50224e-02,
-1.30360e-01,3.43306e-01,-2.44352e+00,4.34811e-01,2.26090e-01,1.61549e-01,-3.20638e-01,-1.77307e-02,9.63614e-01,-4.48091e-02,-3.63690e-02,-7.23604e-01,4.04553e-01,-3.33214e-01,-1.50474e-01,-2.64063e-01,-7.66529e-01,-1.08430e+00,-7.79068e-02,-1.45239e-01,-3.29618e-02,-2.26611e-01,-4.05859e-02,-2.10657e-01,-3.22121e-01,-1.70837e-02,-7.20373e-03,2.28421e-01,-1.87117e-01,5.57675e-01,5.36765e-01,1.19947e-01,8.97173e-01,-4.72346e-01,-1.07194e+00,7.79805e-01,-5.95492e-01,-6.66322e-02,7.13961e-02,-8.01166e-01,1.52535e-01,1.70566e-01,-2.66852e-01,2.19260e-02,-4.27083e-02,-4.10087e-02,2.57027e-01,5.33702e-02,6.62730e-02,-2.52893e-01,-3.52678e-01,-9.64780e-02,5.95342e-01,-1.83606e-01,4.35267e-02,4.88774e-01,-2.18320e+00,1.05667e-01,5.33507e-01,-7.10239e-02,-3.48703e-02,-1.61494e+00,-1.29869e-01,-1.00525e-01,4.06391e-02,7.26837e-01,-1.08881e-01,8.03765e-02,-1.73586e-01,-1.35797e-01,-3.90041e-01,-1.08155e+00,7.41399e-02,1.42920e-03,-3.32054e-01,-1.26338e+00,-4.78447e-01,2.53062e-01,-1.68897e-01,-1.15669e-01,9.89066e-02,-1.00827e+00,1.02682e+00,8.24402e-02,6.50686e-01,-1.52856e-01,2.98038e-01,4.69603e-01,-1.60421e-01,-1.66974e-01,2.66758e-01,1.16306e-03,-8.28597e-01,-2.33417e-01,1.79638e-01,2.47934e-02,5.04366e-01,-2.35501e-01,3.87154e-01,8.79407e-02,
-2.97901e-01,-1.37253e-01,-3.54933e-01,-3.33575e-01,-3.82796e-03,-2.28415e-01,1.73103e-01,-3.47503e-01,-1.53575e+00,-4.21701e-01,-4.94582e-02,-7.24645e-01,-4.61637e-01,1.89756e-01,5.98606e-01,-1.19134e+00,-1.47796e-02,-7.64458e-01,4.47242e-02,-2.78501e-01,3.07136e-01,-1.28372e+00,1.20424e-01,-4.60843e-01,1.52216e-01,1.87945e-01,8.36950e-01,-2.84641e-01,2.31347e-02,6.22224e-01,1.48954e-03,-5.12819e-01,-3.24183e-01,6.24936e-01,-1.44644e-02,-2.19118e-01,9.38425e-02,2.32182e-01,1.36959e-01,-4.93353e-01,6.49120e-01,-2.52087e-02,-9.55546e-02,-9.93408e-01,4.00778e-02,-5.48084e-02,3.74233e-01,-1.41277e-01,9.47016e-02,-4.88651e-03,-1.10625e+00,-4.24170e-01,-1.14158e+00,9.88913e-02,1.44660e-02,2.70454e-01,6.07086e-02,-2.11826e-01,2.94255e-01,4.45929e-01,1.81116e-01,-1.87031e+00,2.64041e-01,-6.23806e-02,2.20607e-01,-1.21922e-01,6.08020e-02,-1.00205e+00,-1.27860e-02,-2.88111e-03,1.18689e-02,-4.94897e-01,-1.40865e-01,-1.14813e+00,-6.89321e-01,4.24500e-01,5.30284e-02,-9.49559e-02,1.47186e-01,2.68730e-01,-8.06773e-01,2.93831e-02,7.01229e-01,-8.72820e-03,-5.63895e-01,-2.82699e-01,-1.01072e-01,-9.88490e-01,-3.48540e-01,2.72402e-01,-7.47732e-02,-7.74897e-02,6.92365e-01,7.53130e-02,1.05841e+00,-1.71280e-01,4.31460e-01,6.72503e-02,6.45173e-01,-2.45474e-01,
1.24850e+00,-3.04478e-02,-9.55727e-01,-8.81261e-01,2.34442e-01,2.77677e-01,-1.16416e+00,-8.26723e-03,4.19985e-01,-4.82312e-01,1.23564e-01,3.23046e-01,2.20957e-01,-1.48891e+00,-5.84603e-01,-1.04898e+00,-4.19559e-01,-4.10855e-01,2.20472e-02,-2.30633e-01,-1.39749e-01,1.14983e-01,1.26497e-02,3.01797e-01,-2.21515e-01,2.41982e-01,2.70561e-01,4.12088e-01,4.20191e-01,-2.45920e-01,1.81348e-01,-6.32830e-02,-5.69531e-01,1.25661e+00,1.75467e-01,-8.66771e-01,-6.70381e-01,-1.41805e-01,-1.44974e+00,3.98170e-01,-1.88578e+00,9.31775e-03,-6.02215e-01,5.43485e-01,9.56134e-02,2.03758e-01,1.20481e+00,-3.60955e-01,-4.20445e-01,-2.54863e-01,-4.77322e-01,-9.27236e-02,-3.46266e-01,-3.43835e+00,-2.16951e-01,3.86873e-01,3.15980e+00,-2.06724e-01,-2.17574e-01,3.01089e+00,-1.36432e-01,-6.01662e-01,1.38592e-01,1.19226e-01,-4.11381e-01,4.73547e-01,-1.08498e+00,4.89888e-01,3.89716e-01,-3.84981e-02,-8.44479e-01,-2.07027e-01,3.71214e-01,2.61016e-01,-2.82347e+00,-1.82570e+00,-3.77254e-01,6.88993e-01,1.34967e-01,1.49735e-01,-1.83189e-03,-7.53311e-01,-2.43315e-01,2.50377e-01,-1.37185e+00,-2.41801e-03,1.94392e-01,-1.04327e-01,-8.84346e-01,-1.03066e-01,1.06786e-01,-3.25046e-01,6.10925e-01,1.46315e-01,1.05762e-01,2.00891e-01,-4.70696e-01,1.62231e-02,3.66232e-01,-1.37623e-01,
