// Neural Network File Format by Kyle Julian, Stanford 2016
6,5,5,50,
5,50,50,50,50,50,5,
0,
-56000.000000,-56000.000000,-3.141593
56000.000000,56000.000000,3.141593
-278.628049,0.000000,0.000000,700.000000,700.000000,-0.242819
112000.000000,112000.000000,6.283185,1000.000000,1000.000000,17.479225
-8.88261e+00,-3.19967e+00,5.14001e-01,1.82811e-02,1.84057e-01,
1.95011e+00,1.03340e+01,9.22508e-01,2.53279e-03,3.93343e-02,
4.46816e+00,-1.50888e-01,-2.61874e-01,6.51035e-03,7.41873e-02,
5.11526e-01,2.03396e+00,-1.67107e+00,-1.41952e-02,-7.87159e-02,
2.26985e+00,4.49052e+00,9.98086e-02,-3.40185e-03,9.45834e-03,
-5.63760e+00,-8.72400e+00,-2.50426e-03,2.26083e-02,2.64120e-01,
-1.29232e-01,-2.82858e+00,-2.47486e-01,-2.27685e-02,-7.14487e-02,
-1.07450e+01,7.91662e+00,8.23580e-02,-9.19279e-03,-2.86060e-02,
2.08990e-02,5.39079e-02,-1.48853e-02,-6.44770e-01,-6.45228e-01,
-1.09635e+01,-2.97697e+00,7.23424e-02,3.06866e-02,1.56875e-01,
-1.82296e-02,1.07366e-01,2.48594e-01,-1.98472e-01,-1.83322e-01,
-9.48061e-03,6.61608e-03,1.19880e-02,3.25564e-01,-2.96010e-01,
2.28879e+00,-4.82350e+00,-2.18769e+00,-1.36784e-03,2.36179e-03,
-5.31636e-04,1.16544e-02,-4.19709e-03,-4.61222e-01,-4.58972e-01,
2.01442e-01,7.92384e-02,-7.45740e-02,1.78048e-01,1.86060e-01,
-1.92907e+00,-6.14502e+00,5.12320e-02,-1.72916e-02,-1.40564e-01,
4.48033e-02,2.32810e-02,-9.97084e-02,4.32703e-01,4.30893e-01,
6.79381e+00,2.44947e+00,4.07704e-03,-1.27959e-02,-9.28721e-02,
7.84738e-01,-8.90456e+00,1.02543e+00,-3.95796e-03,-1.85393e-02,
-3.07351e+00,5.14978e+00,-6.88211e-01,-1.50780e-03,-1.90853e-02,
1.12064e+00,2.81813e+00,1.90777e-01,-1.51797e-02,-2.47637e-01,
-5.35111e+00,5.29998e+00,-9.65403e-01,5.74603e-03,9.45304e-03,
-1.31783e+00,-7.91071e-01,-4.93547e-01,-2.99361e-03,5.43266e-02,
4.55248e-01,3.06515e-01,1.75176e+00,-3.99292e-03,-2.04502e-02,
4.64108e+00,2.77536e-01,-6.00274e-01,2.22594e-03,1.45321e-02,
6.51831e-03,-1.98847e+00,-3.20993e-01,-1.25479e-01,-1.70744e-01,
6.15889e+00,-7.40680e+00,-1.15072e-01,-6.68973e-03,-6.92707e-02,
-1.17419e+00,8.98100e+00,1.06373e-02,1.37581e-02,1.47067e-01,
3.15533e+00,-3.26779e+00,1.72046e-01,-3.22415e-03,2.09211e-02,
1.62926e+00,-3.86009e+00,-1.21680e-01,7.10910e-04,5.77676e-02,
5.60684e+00,1.75403e+00,1.17505e-01,6.45529e-04,4.26343e-02,
2.72693e+00,2.73151e-01,-3.75870e-01,-1.43710e-03,2.58534e-02,
-2.02947e+00,-2.39503e+00,-2.40195e-01,1.14021e-02,-3.77656e-01,
-5.99030e+00,4.82115e-01,7.78108e-02,2.27147e-03,-2.19448e-02,
-8.79117e+00,7.19007e+00,5.78475e-02,1.08587e-03,2.51999e-02,
5.53579e+00,8.27128e+00,3.03013e-02,-1.87546e-03,-2.67761e-02,
4.22530e+00,5.31946e+00,-1.40794e+00,7.52911e-03,4.84224e-02,
7.39941e-03,7.16847e-03,-2.64428e-04,1.11440e+00,1.11260e+00,
1.64777e+00,6.01725e+00,2.16608e+00,-5.25209e-04,1.77297e-03,
5.11770e-01,1.47982e+00,-5.78682e-02,-1.24485e-01,-1.20968e-01,
-6.19553e+00,1.48222e+00,-7.17038e-01,4.20117e-02,4.18516e-01,
3.42406e-01,-1.25457e+01,-2.35494e+00,1.80529e-03,1.71620e-02,
-9.75839e+00,-4.36452e+00,-3.54170e-01,-1.01553e-02,-5.39584e-02,
-2.95031e-02,-1.01531e-01,-2.05100e-02,8.42975e-01,8.39890e-01,
1.35232e-02,6.57796e-02,8.64185e-02,4.19254e-01,4.14438e-01,
-3.55186e-02,5.11362e-03,4.27791e-03,-9.18407e-01,-9.18951e-01,
-8.25981e+00,2.64837e+00,-2.41794e-01,3.07515e-04,7.46160e-03,
-1.29517e-01,-2.52336e+00,-3.24290e-01,-8.99708e-04,6.50909e-02,
-7.34134e+00,-7.42048e+00,-4.91882e-02,-1.44848e-02,-1.27011e-01,
-3.50503e+00,1.40077e+01,1.21884e-01,-2.38340e-03,-6.01793e-03,
-6.32783e-02,
1.11023e-01,
-1.14130e-01,
-2.09379e-01,
-1.19999e-01,
1.92620e-01,
-1.96385e-01,
2.17506e-03,
-2.68987e-01,
2.44823e-01,
-1.61012e-01,
-2.71519e-01,
3.07917e-02,
-1.00112e-01,
-4.21948e-02,
-1.07961e-01,
3.26306e-02,
-1.10884e-02,
-2.95068e-01,
8.48342e-02,
-6.30376e-02,
-5.46104e-03,
5.91898e-02,
-4.29557e-01,
1.43060e-01,
-1.29655e-01,
5.40341e-02,
1.08271e-01,
7.21373e-02,
-2.63459e-02,
-4.38928e-03,
1.39614e-01,
-1.55619e-01,
-1.59986e-01,
1.52926e-01,
1.30472e-01,
-3.98352e-01,
-4.20667e-01,
2.37756e-02,
-1.89263e-02,
-2.56314e-01,
1.23306e-01,
1.87482e-01,
-6.95880e-01,
3.62473e-02,
-6.90987e-01,
2.05088e-01,
6.62276e-02,
1.04058e-01,
2.21963e-01,
2.73603e-02,8.47979e-01,1.68639e-01,6.98408e-01,-7.42179e-01,-4.05368e-01,-3.55336e+00,-5.00319e-01,1.11132e-01,-5.66164e-01,1.54605e-01,2.25804e-01,1.55803e-01,-2.53079e-01,3.53400e-01,-2.79019e-01,-1.66886e-01,6.43747e-01,-1.73346e+00,-6.72484e-01,-2.28861e-02,7.78253e-01,-5.16310e-03,-2.21335e+00,-4.00693e-01,-2.32817e-01,4.27000e-01,9.46559e-02,3.82796e-01,7.17679e-01,-1.02336e-01,-5.75042e-01,-5.62013e-01,2.89513e+00,9.76584e-01,5.63048e-01,-1.66440e+00,-6.70526e-03,6.17200e-01,2.14166e-01,-2.31549e-01,8.64923e-02,-5.15584e-01,-6.52708e-02,7.35847e-02,1.41438e-01,2.54120e-01,-2.24302e-01,-8.29642e-01,5.66815e-01,
1.55595e+00,5.88830e-01,-5.61512e-02,1.33942e+00,-6.82836e-01,9.19347e-01,4.07397e-01,1.74908e+00,-9.14253e-02,-1.38583e+00,-3.06156e+00,2.27239e-01,2.09874e-01,1.05883e-01,1.49665e-02,-5.95649e-01,-1.58023e-01,5.88316e-01,-3.03079e-01,-8.60710e-02,-2.31585e-01,-2.06706e+00,4.58220e-03,2.77906e+00,1.39369e-02,1.10923e-01,-1.88813e-02,5.29302e-01,-1.62743e-01,2.56687e-02,1.97691e-01,1.21506e-01,3.46163e-01,-5.10663e-01,9.11850e-01,-1.70165e-01,1.16627e+00,2.60590e-02,-2.39192e+00,-3.10417e-01,-1.57210e-01,6.33994e-01,-5.58628e-01,2.01953e-01,9.75292e-02,7.18279e-02,1.86280e-01,1.75278e-01,-1.78802e-01,-6.20969e-01,
-1.28986e-01,-1.23971e-02,6.10234e-01,6.93568e-01,-2.28428e-01,1.35286e-01,9.11664e-01,-4.52069e-01,-7.64045e-02,-1.14804e-01,7.08457e-01,-5.68903e-01,-5.76595e-02,1.63830e+00,8.05526e-02,7.47912e-01,1.08318e+00,-5.57451e-02,-9.27491e-01,-5.42267e-01,-4.99974e-02,5.38948e-01,-1.03982e-01,-3.94762e-01,-2.15191e-01,-5.63277e-01,2.21494e-01,2.52133e-01,5.61982e-01,2.90003e-01,6.86252e-02,-5.61480e-01,-6.09028e-01,1.93522e+00,4.80500e-01,-6.74947e-02,-3.07235e-01,-2.09101e+00,3.11477e-01,2.96670e-01,4.46640e-01,4.80483e-02,1.32522e-01,2.06799e+00,1.50170e+00,-2.72034e+00,3.21792e-02,-6.75092e-01,2.20902e-01,3.15484e-01,
-1.62288e-01,-6.48970e-01,-1.00008e+00,-9.97536e-01,-1.87563e+00,2.16985e-01,-1.02109e+00,3.85364e-01,2.01768e-01,5.44275e-01,2.06865e-01,-2.53403e-01,1.17301e-01,-1.81421e-01,4.32294e-02,2.69785e-01,-6.84395e-02,-8.84982e-01,-1.28873e-01,-6.26937e-01,3.91702e-01,-8.55418e-01,-3.93061e-01,-5.35189e-01,-2.71997e-01,-1.93430e-01,9.06544e-02,3.92705e-03,5.15799e-01,-1.87277e-01,-1.09383e+00,2.03379e-01,-2.28312e-01,-7.09836e+00,-2.30219e-01,-4.44666e-01,-4.29065e-01,-3.87215e-02,4.39766e-01,1.28741e-02,3.90664e-01,1.27977e+00,2.90029e-01,3.64397e-01,4.91837e-02,-1.19822e-01,1.42308e-01,-5.90187e-02,7.47274e-02,-4.86482e-01,
2.05972e-01,-5.82837e-01,-7.43388e-01,-7.18593e-01,8.39409e-01,-5.32891e-02,-1.58633e+00,1.62048e+00,-4.85124e-02,-5.88753e-01,-5.54376e-02,-1.85318e-01,-4.28655e-02,-1.22751e-01,6.06602e-02,4.98945e-01,3.94578e-01,3.39590e-01,-3.95365e-01,-7.36373e-01,-7.19902e-02,-2.10063e-01,7.00052e-01,-4.76313e-02,1.05996e+00,6.08877e-01,3.75236e-01,4.55302e-01,-2.16323e-01,8.54263e-02,6.36293e-01,8.48162e-01,-4.93908e-02,2.76653e-01,-7.92301e-01,8.28926e-01,-2.45154e+00,-6.22632e-02,4.03196e-01,2.66789e-01,7.97117e-01,8.00110e-01,3.43120e-01,1.91986e-01,-3.06264e-01,-4.18397e-02,-5.11384e-01,2.41352e-01,-5.21532e-02,3.04509e-01,
1.42030e-01,6.05678e-01,-1.99531e+00,-5.93212e-01,9.77248e-02,3.41072e-01,1.12309e+00,-5.85640e-01,-1.47482e-02,-1.22260e+00,3.33969e-01,3.19687e-02,7.95674e-02,-5.85592e-04,-4.40956e-01,-5.63979e-01,-2.54341e-02,6.23203e-01,-1.66379e+00,7.21441e-01,-4.47551e-02,1.68068e-01,4.77991e-01,2.71403e-01,5.54841e-01,3.57027e-01,3.84739e-01,5.80940e-01,3.59444e-01,5.98320e-01,-1.32568e-01,7.44101e-01,-1.32612e-01,5.86108e-01,-8.36006e-01,5.55421e-01,-1.67254e+00,7.00620e-02,1.55001e-01,-3.30190e-01,-1.12088e+00,3.43995e-01,-6.32048e-01,4.87607e-02,9.57964e-02,4.48258e-02,-1.88978e+00,6.50167e-01,1.03865e-01,-4.71242e-01,
-4.33883e-02,5.54287e-01,-4.82975e-01,-5.50842e-01,-1.26197e-01,3.78472e-02,-8.65271e-01,1.76518e+00,9.52616e-02,8.93960e-02,2.39679e-01,-1.60136e-02,4.12243e-02,-4.10899e-02,-3.42328e-01,-2.51427e-01,4.54081e-01,-3.44164e-01,-2.44182e-01,-7.58472e-01,2.33872e-01,3.59639e-01,7.69923e-01,-1.39497e+00,2.13807e-01,7.91012e-01,-3.43597e-01,3.94848e-01,-5.85443e-01,-2.86792e-01,-2.52587e-01,2.79923e-01,-1.32271e-01,-1.16397e+00,-8.59800e-01,9.87598e-01,-5.83281e-01,5.73695e-02,5.54812e-02,-1.14676e-01,-2.23525e-01,2.01663e-01,-9.59530e-01,-1.07455e-01,-4.52554e-01,-2.46192e-01,-6.17887e-01,-4.82969e-01,2.58960e-01,-1.07844e+00,
6.72859e-01,-5.73883e-01,5.08820e-01,8.46227e-03,3.80802e-01,1.76147e-01,7.43537e-01,2.01846e-01,9.91279e-02,9.56443e-01,-6.38192e-02,-2.08588e-01,7.91940e-01,4.48889e-02,-9.63702e-02,-9.52202e-02,-7.65895e-02,-2.42409e-01,8.77318e-02,7.20953e-01,-1.66217e-02,1.18001e+00,2.94041e-02,-6.92101e-01,-8.59361e-01,3.00278e-02,-3.61021e-01,-2.85130e-01,-1.85839e-01,2.48162e-02,2.80254e-01,-6.78544e-01,1.31531e-01,3.78762e-01,8.46034e-01,-4.41794e-01,4.12811e-01,-1.66714e-02,8.89760e-01,-2.35119e-01,4.90388e-01,-4.04266e-01,1.00444e+00,9.36224e-02,8.19733e-02,-1.29872e-01,6.55238e-01,-3.11226e-01,7.39212e-01,3.37665e-01,
4.10513e-01,-9.58925e-01,-5.03785e-01,-4.51381e-01,2.98140e-01,3.67917e-01,2.03274e-01,-7.90528e-01,6.09468e-01,2.96739e-01,-3.99227e-01,2.33578e-02,6.47527e-01,-2.01203e+00,-1.49490e+00,1.31155e+00,-9.90858e-01,-6.23061e-01,-1.33209e+00,-2.29023e-01,-1.68528e-02,6.80367e-02,-9.54666e-02,2.55905e+00,-2.35546e-01,-2.51859e-01,-7.71833e-01,-3.13857e-01,1.32360e+00,-2.45258e-01,-3.53364e-01,-6.61304e-01,2.14485e-02,1.73506e-01,6.53299e-01,8.99128e-01,1.01822e+00,1.84754e+00,-2.62090e-01,-4.55660e-01,-4.57734e-04,2.58845e-01,1.10357e+00,-1.68827e+00,-9.34571e-01,2.29555e+00,3.49495e-01,-1.06323e-01,5.85002e-01,9.66054e-01,
7.15659e-01,1.10114e+00,4.62247e-01,-1.53086e+00,-2.16858e+00,-3.35545e-01,8.68678e-01,9.26743e-01,2.39817e-01,-5.04158e-01,-7.85383e-02,-4.58158e-03,-9.22681e-01,-1.21835e-01,-2.30139e-01,-2.22817e-01,-7.74600e-02,4.16000e-01,-1.76198e+00,-2.19526e+00,1.37678e-01,-1.07107e+00,-1.52529e+00,-1.27445e+00,1.08192e+00,1.53629e-01,4.06247e-01,6.96261e-02,2.23701e-01,-3.04490e-01,3.36213e-01,9.83205e-01,-2.65341e-01,3.66653e+00,-7.74282e-01,1.44833e+00,-8.86863e-01,2.56378e-02,-1.09218e+00,1.75802e-01,-3.46062e-02,-1.63907e-01,-2.48288e+00,-4.79638e-02,6.70783e-02,-2.36181e-01,-2.03320e+00,3.46515e-01,-1.05956e+00,1.06894e+00,
6.98521e-01,-8.18936e-02,-4.54125e-01,2.75549e-01,-3.68597e-01,-2.17290e-01,2.31624e+00,1.43138e+00,-1.93193e-01,-1.10729e+00,-3.45905e-01,-2.90771e-01,2.08658e-01,8.41725e-02,1.15908e+00,-3.56049e-01,-6.78330e-01,-2.67090e-01,8.00938e-01,7.73469e-01,-5.23555e-01,-1.66460e+00,-1.28779e-01,-5.25311e-01,5.17192e-01,-7.84392e-01,1.75921e-02,-4.99569e-01,2.46559e-01,-2.13485e-02,-7.90009e-02,1.57538e-01,-2.93037e-01,4.48391e+00,-1.33878e-01,5.60214e-01,4.44635e-01,-1.32730e-01,-8.18537e-02,6.39186e-01,5.06783e-01,-9.58633e-01,2.79345e-01,-6.46246e-01,6.93295e-01,1.21128e-01,-2.00698e-01,-2.07654e-01,-8.60416e-01,5.48356e-02,
-1.39282e-02,-4.20840e-02,-6.40369e-02,3.07147e-02,9.91375e-02,-5.06112e-02,-2.32995e-01,5.17492e-02,4.29227e+00,5.32325e-02,7.94859e-01,-5.92255e-01,-9.38993e-02,-1.24433e+00,6.86642e-01,5.26826e-02,-1.71190e+00,-6.81176e-03,-6.17029e-03,-1.17380e-01,7.03942e-04,1.21520e-02,2.31804e-02,1.40926e-01,2.44278e-01,5.45019e-01,-1.11208e-02,2.67099e-02,5.65583e-02,-1.10626e-01,-2.48799e-02,-8.13911e-02,-7.10381e-02,-7.04606e-02,-9.28318e-04,-2.97767e-03,-5.86406e-02,3.38328e+00,-6.97111e-02,-1.22056e-01,-7.38312e-02,-1.50171e-02,-1.29742e-02,-7.96869e+00,-1.84476e+00,-4.32958e+01,-2.09660e-02,2.27003e-01,8.45801e-02,7.47360e-02,
-2.29479e-01,4.18929e-01,1.74476e-01,-1.66124e+00,-2.48005e+00,2.21722e-01,-7.15968e-01,9.85593e-01,1.84857e-01,2.00048e-01,1.48002e-01,-5.91389e-02,-2.48753e+00,-3.74161e-01,-1.03982e-01,6.63633e-01,-2.47448e-01,1.36203e-01,-1.51554e+00,-9.30877e-01,2.13522e-01,-2.28551e+00,-5.61845e-01,-2.55145e+00,-2.15717e-01,-3.35849e-01,5.14875e-01,2.69845e-01,6.31992e-01,1.19789e-01,2.29406e-01,3.13775e-01,-1.95348e-01,6.65491e-01,1.70741e-01,4.06920e-01,-5.13840e-01,1.82572e-01,4.48776e-01,2.32164e-01,2.44481e-02,-2.23868e+00,-1.34778e-01,1.68611e-01,7.53772e-02,1.89010e-01,-5.03102e-02,-3.14280e-01,-3.97199e-01,6.52290e-01,
-2.37858e+00,8.57691e-02,-3.06154e-01,-4.72886e-01,8.33526e-02,5.44343e-01,1.22206e+00,-4.31740e-01,2.71318e-01,1.19339e+00,3.42150e-01,9.71755e-01,4.33659e-01,-2.08986e-01,-9.91133e-01,7.72363e-01,5.08626e-01,4.42021e-01,-2.39923e+00,-2.22589e-01,6.91131e-01,5.39314e-01,-1.02235e-01,1.15123e+00,5.79830e-01,2.78938e-01,5.70958e-02,8.56548e-01,8.74254e-01,1.28622e-01,7.73812e-01,5.53342e-01,-1.35863e-01,-1.51975e-01,4.56823e-01,2.64055e-01,-1.11110e+00,9.14415e-02,-1.23287e-01,-3.59615e-01,-1.53906e-01,4.40602e-01,-1.53494e-01,1.88367e-01,-4.06574e-01,5.95991e-02,3.57660e-01,-3.66319e-02,4.84057e-01,-1.44091e-01,
-4.58577e-03,5.84072e-02,-1.06221e-01,2.16326e-01,5.72839e-02,-4.23497e-02,-4.21961e-01,6.47263e-02,-3.51427e-01,7.32987e-02,7.51933e-01,2.99691e-01,-1.40308e-02,9.30361e-01,1.18848e+00,6.63551e-03,2.33812e+00,2.99239e-02,-1.03686e-02,-2.88279e-02,1.48711e-02,-1.03924e-01,-2.97132e-03,4.94880e-02,1.05996e-01,5.23093e-01,-8.37705e-04,-1.39503e-01,8.40486e-02,6.87132e-02,-2.82611e-02,-6.44210e-02,5.47320e-02,-7.49361e-02,1.90851e-02,4.08822e-02,-2.11983e-01,-6.15896e+01,-1.07082e-01,6.92796e-01,-3.57406e-02,-1.98264e-02,-2.69292e-02,6.12039e-01,2.97407e+00,-1.61265e+00,1.16341e-02,2.73051e-01,7.09593e-02,9.59928e-02,
-1.16406e+00,-3.24824e+00,1.19840e+00,-8.82833e-01,2.26399e+00,1.52616e-01,1.17215e+00,-1.68624e-01,1.43842e-01,1.24987e+00,-5.15356e-01,8.38355e-01,1.26418e-01,-8.04127e-03,5.24674e-01,2.01548e-01,5.93206e-01,-1.47261e+00,2.62885e+00,5.42509e-01,2.07377e-01,7.69262e-01,8.95955e-01,-3.21026e-01,-5.10941e-01,-2.25123e-01,-7.25474e-01,-3.62506e-01,-5.47965e-01,-2.49452e-01,1.04198e+00,-5.56745e-01,-1.76371e-01,-3.14683e+00,4.44651e-01,-6.31825e-01,6.68305e-02,5.23523e-03,1.17399e+00,-1.67442e-01,5.53615e-01,-5.75534e-02,9.53400e-01,-5.21931e-01,-7.84296e-01,6.92178e-02,5.13996e-01,2.78046e-01,8.15108e-01,-6.03322e-02,
-2.49637e-01,3.99191e-01,3.55181e-01,2.44155e-01,-3.30437e-01,9.92662e-02,2.68931e-01,-2.50879e-01,-2.83917e-01,-6.29195e-02,5.75928e-01,2.12918e-01,-5.89092e-01,2.59504e-01,1.98440e-01,-9.42341e-02,-1.43270e-01,6.67469e-01,8.16300e-01,-2.33285e-01,-1.00768e-01,-2.08198e+00,3.04359e-01,4.12559e-01,7.50282e-01,-7.29838e-02,6.07597e-01,1.78953e-01,4.83078e-01,-7.09439e-02,2.29632e-01,9.20530e-01,-2.26665e-02,-7.58955e-02,2.75829e-01,3.55905e-01,-1.65321e+00,-4.30944e-02,-1.34354e-01,-2.38967e-02,2.62004e-01,6.94814e-01,-9.61245e-01,-1.26723e-01,2.71327e-01,3.43888e-02,-3.19852e-01,7.46717e-01,7.27784e-01,-3.04384e-01,
1.15756e-01,-1.26991e-01,-8.28536e-02,1.26193e-01,-1.26492e-01,-1.85900e-02,4.33512e-02,-1.45283e-01,1.26484e-03,2.09977e-02,-1.31054e-01,4.01764e-02,-5.97278e-02,1.88523e-01,-2.08575e-01,-6.97794e-02,-8.51967e-02,-9.44828e-02,-1.25927e-01,-2.14455e-01,1.39263e-01,5.62827e-03,-5.88187e-02,-1.94027e-01,-1.91444e-01,9.08783e-02,-2.08911e-01,1.89723e-01,2.12068e-01,1.65495e-01,-2.18109e-01,2.06179e-02,1.16157e-01,-2.64902e-02,-7.54868e-02,-2.28107e-02,1.19567e-01,-2.54231e-02,1.97346e-01,-6.16205e-03,8.73120e-02,-1.76401e-01,1.60331e-01,5.81299e-02,2.21398e-02,9.46760e-02,-1.24742e-01,7.76642e-02,-8.08522e-02,9.68219e-02,
-5.95151e-01,-1.46072e+00,9.20474e-01,3.29415e-01,-8.34930e-03,-3.74139e-01,-2.06065e+00,7.93209e-01,-1.28078e-01,-2.00392e-01,8.20835e-02,-3.57756e-01,1.27776e-01,6.82982e-01,-1.69770e-01,3.40780e+00,2.62323e-01,4.41872e-01,-1.94388e+00,6.31694e-01,1.20374e-01,2.00490e+00,1.01671e+00,1.04224e+00,-2.60932e-01,2.65218e-01,-7.81523e-01,2.35346e-01,-6.90501e-01,-1.57601e-01,4.68965e-01,-9.15240e-02,7.31395e-02,2.16806e+00,3.29250e-01,9.35946e-01,1.48336e-01,-3.46875e-01,8.88107e-01,-3.93982e-01,1.45839e-01,-3.97710e-01,-5.70265e-01,3.81257e-01,2.52704e-01,-8.97627e-01,1.25619e+00,-5.54643e-01,-6.49954e-01,-1.86964e-01,
-1.11603e-01,2.03032e-01,-4.85511e-01,1.87008e-01,4.25397e-01,-1.42521e-01,-2.92053e-01,-9.34738e-02,-3.34070e-01,2.59876e-01,-2.53741e-01,1.05056e+00,1.04420e-02,2.50257e+00,2.64212e+00,-1.78423e-01,-3.39743e-01,-8.99183e-02,-8.14974e-02,-1.58418e-01,-5.69653e-02,3.15496e-02,-1.83658e-01,-1.14945e-01,-8.87132e-02,6.28622e-01,2.02509e-01,-9.96043e-02,1.41225e-01,1.91934e-01,4.23864e-02,1.74131e-01,9.84185e-03,5.38280e-01,-8.16958e-04,-6.51058e-02,-1.52350e-01,-2.35132e+00,-2.88075e-02,3.66058e-01,1.57180e-01,-7.65876e-02,-7.60446e-02,7.46198e+00,8.43180e-01,-1.21399e+00,8.65488e-02,-9.50092e-02,9.64600e-02,3.07878e-02,
4.70861e-01,3.98349e-01,2.76189e-01,-1.78177e+00,-1.89169e-01,1.89017e-01,3.94257e-01,-4.34678e-01,1.55325e-01,3.77428e-01,-2.40763e-01,6.55247e-01,1.09390e+00,-3.67991e-02,-4.04441e-01,8.75487e-01,-1.94106e-02,-2.33495e-01,-1.34675e+00,-7.71381e-01,1.33832e-01,-1.26018e+00,-6.06774e-01,4.25882e-01,-1.14357e-02,6.87754e-02,6.04067e-02,3.09338e-01,1.02085e-01,6.79926e-03,2.51923e-01,8.48245e-03,1.14762e-01,4.38866e-02,-6.13258e-01,6.56770e-01,-1.05341e+00,-7.70793e-02,-5.21996e-01,2.56656e-02,-3.04158e-01,8.66937e-01,-2.25641e-01,7.64242e-01,1.35672e-01,-7.80025e-02,-3.73660e-01,-5.65010e-01,-1.96633e-01,-7.17137e-01,
-1.13156e+00,-8.03213e-02,-9.25337e-01,8.71074e-02,-2.08781e+00,-2.45307e-03,-2.04657e+00,8.58450e-01,-2.56028e-01,1.34585e-01,3.18288e-01,-3.30592e-01,-6.86963e-02,2.38433e-01,1.04091e-01,-7.96189e-01,6.71014e-02,3.90790e-01,-3.74124e-01,-1.29821e+00,-1.58157e-01,-4.17623e-01,5.32715e-01,8.80337e-02,-4.47497e-01,2.35094e-01,1.06161e+00,4.11612e-02,3.57327e-01,-1.76701e-01,6.20635e-01,-8.41234e-02,4.72815e-01,-1.49654e+00,-2.86306e-02,-9.70999e-01,-1.63516e+00,3.91620e-02,5.46330e-01,-5.43957e-02,-3.56146e-01,9.40095e-01,1.11474e+00,-4.23769e-01,-6.81834e-02,-4.42909e-02,2.57897e-01,5.85931e-01,5.26355e-01,-1.45544e+00,
-7.56364e-01,-3.04084e+00,3.29204e-01,8.10834e-01,7.26822e-03,-2.53036e-01,-1.59638e+00,-6.31839e-01,-1.10394e-01,-8.35020e-02,3.72670e-02,-4.48468e-01,1.71496e-01,7.56158e-02,3.32112e-01,1.44593e+00,6.03697e-01,1.22233e-01,-1.05002e+00,6.22173e-01,8.27489e-02,1.16189e+00,7.13127e-01,5.55948e+00,4.18598e-01,3.20202e-02,-1.21259e+00,2.87458e-01,-1.52119e+00,1.15079e-01,-8.02931e-03,3.28338e-01,1.43203e-02,-3.81994e-01,7.78997e-01,6.15577e-01,1.33746e+00,-1.04201e-01,-1.43643e+00,3.83405e-01,4.33546e-01,-2.34514e-01,-7.76396e-02,1.41951e-01,-5.79737e-01,-8.94772e-02,8.34607e-01,3.58170e-01,-7.26969e-01,7.37581e-01,
8.31115e-02,-1.51375e-01,1.21314e-01,1.15919e-01,3.62548e-01,8.52428e-02,-9.96098e-02,8.70836e-02,6.56414e-01,-3.49648e-02,-1.08535e+00,-1.92473e+00,1.00606e-01,7.36717e-01,1.44219e+00,1.89232e-01,4.05453e-01,3.31938e-01,9.78809e-02,-1.29462e-01,-3.41092e-02,5.19226e-02,-7.47507e-02,-6.04070e-02,-1.54662e-01,1.60970e-01,-1.06765e-01,-7.60668e-02,-3.09088e-01,1.18805e-01,8.37693e-02,-3.50113e-01,1.12303e-01,-2.66523e-01,1.26133e-01,-8.81232e-02,-5.29977e-02,1.72317e+00,1.07400e-01,-8.03869e-01,5.38792e-02,-5.98471e-02,-3.42768e-02,-8.45073e+00,-1.26030e+00,-1.76826e+00,-1.41865e-01,2.35535e-01,-2.03410e-01,5.71815e-02,
-5.39347e-02,7.86653e-01,-4.74608e-01,5.95669e-01,9.50080e-01,-9.34718e-02,4.44284e-01,-1.09508e+00,-3.20418e-01,-7.36800e-01,3.04976e-01,2.37052e-01,4.14360e-01,1.87034e-01,6.40485e-01,-3.40144e-01,-4.47398e-01,2.63690e-01,-9.50749e-01,-1.74858e+00,-5.55689e-02,-1.33256e+00,-1.50657e-01,-1.40645e+00,-3.78917e-01,-1.44801e-01,6.01847e-01,2.79696e-01,6.07875e-01,8.60954e-02,-2.14521e-02,-5.41631e-01,-2.74058e-01,4.71819e-01,-1.48644e+00,-5.41762e-03,-6.51501e-01,-1.43146e-02,2.19675e-01,1.05606e-01,4.54231e-01,4.50051e-01,2.72011e-01,-3.78170e-01,3.03996e-01,1.70012e-01,-4.73318e-01,-1.08744e-01,6.42759e-02,-1.12486e+00,
-7.58798e-01,2.37382e-01,-9.63315e-01,-1.86023e+00,-1.11840e-01,-1.95400e-02,9.98378e-03,-1.22988e+00,2.08981e-01,-3.87733e-01,-1.49970e-01,-4.06223e-01,-1.17984e+00,-1.88042e-01,-1.90523e-01,-6.80572e-01,2.24948e-01,5.32338e-01,2.73524e-01,7.71529e-01,-2.51568e-02,-5.97626e-01,5.86162e-01,-9.66956e-02,7.69489e-01,1.70807e-01,-7.07160e-01,3.02173e-01,-2.54857e-01,-9.99266e-02,-2.03783e-01,4.75193e-01,1.35587e-01,-4.49316e-02,2.93498e-01,4.34347e-01,-2.57596e+00,1.38781e-01,-4.75316e-01,-3.97742e-01,4.78976e-01,-3.19732e+00,-2.29252e-01,4.21295e-01,-3.72104e-01,-4.50209e-03,1.63459e-01,5.06766e-01,7.36256e-02,9.92684e-01,
7.07169e-02,3.64043e-02,-1.66420e-01,-5.55363e-03,1.79460e-01,-9.38718e-02,2.17144e-02,1.00585e-01,1.76175e-01,1.02634e-01,-1.17571e+00,-4.14661e+00,1.66997e-01,-2.30360e+00,1.78962e+00,-8.12865e-02,-7.82563e+00,-2.85841e-01,1.36411e-01,8.52434e-02,2.97435e-02,-2.38396e-02,-1.53826e-01,1.15478e-01,-2.47629e-01,-6.16160e-01,1.73905e-01,-7.42855e-03,7.45738e-03,-3.78485e-01,3.50589e-01,3.45142e-01,8.10441e-02,-4.14121e-01,-2.20815e-01,3.44207e-02,-3.46539e-02,3.95601e+00,-4.57445e-02,-1.69935e-01,6.41855e-03,6.30788e-02,-5.33820e-02,2.52048e+00,-1.16813e+01,1.08213e+00,1.94346e-01,-1.07925e-01,1.26649e-01,3.98366e-02,
1.15529e+00,-2.44053e-01,9.97807e-02,4.07597e-02,-1.33276e+00,-2.78034e-01,-8.80589e-01,7.79436e-01,-2.76488e-02,4.92531e-01,1.74349e-01,5.45600e-01,-7.83337e-01,7.02814e-02,-3.67134e-02,3.58088e-01,-5.43774e-01,1.03417e-01,5.56141e-01,4.44259e-01,-1.87974e-01,3.63356e-01,-1.02505e+00,1.23467e-01,5.50944e-01,-6.01153e-02,-4.97184e-01,5.28898e-01,-2.57953e-01,-2.93466e-01,8.89763e-01,3.90568e-01,-7.98954e-02,1.10004e+00,1.26598e-01,-3.99540e-02,-4.88556e-01,-7.28052e-03,-6.25935e-01,5.39191e-02,3.82803e-01,-2.15740e-02,-7.78496e-02,9.48381e-02,5.46413e-01,-6.68803e-02,-1.58262e-01,-1.00886e+00,-7.17393e-02,5.94196e-01,
-1.18516e+00,-5.11307e-01,-6.80377e-02,-2.23911e+00,1.07775e+00,8.04360e-01,1.18725e-01,7.42614e-01,-1.86273e+00,3.72057e-01,8.75599e-01,-1.44644e+00,1.96543e+00,1.72719e+00,1.41979e-01,2.74185e-01,3.51560e-01,1.97673e+00,1.83729e-01,-2.18163e-01,8.36698e-02,8.22986e-01,-5.23655e-01,-2.30544e-01,-7.52099e-01,6.50584e-01,-1.28375e+00,5.52185e-01,-4.21809e-01,-2.09521e-01,-1.59526e-01,4.55855e-01,-3.35067e-02,-4.28556e-01,1.25682e-01,-8.97744e-01,-1.75610e+00,-3.87759e-01,9.10178e-01,2.93589e-01,3.27806e-02,2.58453e-01,5.45150e-02,-1.42742e+00,6.19544e-01,-1.54871e-01,-1.54492e-01,-9.45962e-01,-3.05535e-01,-1.13616e+00,
-1.73816e+00,3.09259e-01,3.71401e-01,-5.12628e-02,-5.07528e-02,-3.44812e-01,-1.88986e+00,1.22879e+00,-1.33788e+00,7.82243e-01,2.32757e+00,1.57469e+00,6.70307e-01,-1.12976e-01,4.09278e-01,3.46302e-02,1.72743e-01,8.84174e-02,-6.22026e-01,9.05848e-01,2.76541e-01,-1.89995e+00,1.94177e+00,-5.41697e+00,3.18685e-02,1.22177e+00,4.67093e-01,-1.74556e-01,-4.46456e-01,1.54628e-02,5.63647e-01,-2.68361e-01,-4.22962e-02,2.18947e+00,4.39879e-01,-5.52935e-01,-7.66931e-01,6.59927e-01,1.83249e+00,2.01104e-01,1.00755e+00,2.70145e-01,4.43515e-01,-8.04856e-01,-1.02871e+00,2.06585e+00,-2.50979e+00,2.08437e-02,8.74996e-01,1.00821e-01,
1.96650e-01,8.96543e-02,7.17888e-02,5.42385e-01,3.39787e-01,-6.77584e-02,1.25391e+00,1.59610e+00,-1.35814e+00,-2.95876e-01,-8.39686e-01,-8.81558e-01,-3.95596e-01,2.23427e+00,6.63528e-01,-5.47015e-01,1.12873e+00,6.95950e-02,4.81633e-01,-2.20443e-01,-8.95216e-02,-7.64024e-01,5.48269e-01,3.15072e-01,3.05624e-01,-4.32696e-01,-4.02012e-01,-4.11926e-01,7.71010e-02,-2.46499e-01,-1.67367e-01,4.88141e-01,1.98193e-01,-1.34789e+00,-2.84920e-01,1.43275e-01,-2.18508e-01,-1.46566e+00,-1.18182e-01,6.55183e-01,2.36843e-01,1.46160e-01,1.32776e-01,8.32801e-01,6.78468e-01,-1.20950e+00,-7.00163e-02,2.46967e-01,1.77692e-01,-1.02073e-02,
-2.64977e-01,-1.00454e+00,1.73863e-01,-1.67611e+00,8.87096e-01,1.97954e-01,8.63376e-01,-6.85343e-01,-3.26117e-01,-1.23718e-01,-2.79212e-02,-2.73853e-01,3.75488e-02,3.65025e-01,8.94982e-02,4.57229e-01,2.26794e-01,8.55868e-01,-2.45431e+00,5.98103e-01,8.68886e-02,-7.46470e-01,1.78187e-01,1.61034e+00,8.36132e-01,6.44359e-02,-2.69904e-01,-1.96554e-02,-1.62944e-01,2.82216e-01,1.62583e-01,6.10066e-01,-3.87339e-02,3.87451e-01,2.19118e-01,3.58822e-01,-1.27217e+00,-1.98790e-01,-4.09055e+00,1.31591e-01,3.99998e-01,1.13853e+00,2.53099e-01,3.10300e-01,8.62873e-03,-1.86486e-01,1.32324e-01,1.78023e-01,4.04556e-02,-3.67506e-01,
6.40297e-01,3.41352e-01,-3.60480e-01,2.30537e-01,4.89750e-01,8.42954e-01,-2.85132e+00,-3.12651e-01,1.83269e-01,2.83665e-01,1.25307e-01,-4.81907e-01,2.34638e-01,-2.73306e-01,-2.22421e-01,-1.11896e+00,-7.14440e-01,-7.49578e-01,-2.17400e-01,4.17490e-01,2.23259e-01,3.18936e-01,-9.56744e-01,-3.50542e-01,2.01139e-01,-4.07907e-01,-5.39769e-01,5.12272e-01,9.93326e-02,2.97400e-01,-1.37527e-01,5.47484e-01,4.64326e-01,2.96845e+00,-2.31248e-01,1.08778e+00,6.19528e-01,1.18803e-01,9.00333e-02,8.05747e-01,-1.54002e-01,-2.33011e-01,-3.91607e-01,1.01651e+00,7.13839e-01,-5.44786e-02,4.94126e-04,-7.15885e-01,-7.98677e-01,7.44968e-01,
-1.75101e-01,1.57264e-01,-3.84700e-01,2.27279e-01,-1.81756e-01,-9.59303e-02,-5.33995e-01,-1.74147e-01,-8.55529e+00,1.05412e-01,-2.63670e+00,2.24294e-01,-1.50815e-01,-7.56460e+00,8.18989e-01,-8.60367e-02,7.76767e-01,1.87043e-02,-9.98957e-02,-2.63891e-01,-9.22300e-02,6.38468e-02,-9.89179e-02,2.26579e-01,2.11193e-01,7.11980e-01,-2.75124e-02,-5.48541e-02,2.13419e-01,2.62528e-01,-2.71700e-02,8.09683e-02,-7.03178e-02,2.74093e-01,1.38172e-01,2.74531e-02,-1.02003e-01,-4.15787e+00,-1.69523e-01,1.04036e+00,-3.41802e-02,-2.21412e-02,-1.50831e-02,4.10663e+00,1.00831e+00,1.26019e+00,1.09110e-01,2.77262e-01,1.69282e-01,4.33047e-02,
6.59282e-01,8.60496e-02,-1.42584e+00,-3.76868e-01,-5.96316e-02,4.34509e-01,-5.60333e-02,-2.03688e+00,1.05598e-01,8.99092e-02,5.82227e-02,7.82327e-01,1.28625e+00,1.23083e-01,3.23572e-01,-1.11026e+00,-9.32012e-01,-3.67384e-01,-5.37025e-01,4.15228e-01,-1.21198e+00,6.03022e-01,-7.70935e-01,1.01777e-01,-2.45954e-01,-8.88558e-02,-3.60538e-01,-1.25945e-02,3.47653e-02,-7.23749e-01,-7.80133e-01,4.42188e-02,3.10712e-01,2.55215e+00,5.28193e-01,-3.68124e-01,-3.11137e+00,-6.44200e-02,-4.08652e-02,-5.22490e-01,-2.95997e-01,2.53621e-01,-8.41824e-01,-3.92625e-02,9.47134e-01,5.58383e-03,-8.43229e-02,-1.29638e+00,-1.46526e-01,5.79050e-01,
-5.10053e-02,-1.07184e+00,-8.25280e-04,-1.39382e-01,-5.86179e-01,-7.66445e-03,1.06380e+00,-3.18063e-01,-8.02411e-02,-3.64723e-02,-8.31763e-02,1.46830e-01,2.83926e-01,8.98166e-02,-1.72253e-01,-3.50218e-01,5.88752e-02,2.22839e-01,-8.61094e-01,-2.15584e-01,-3.28621e-01,-4.26299e-01,1.35845e-01,-8.60144e-01,-7.71921e-01,-7.88390e-02,-7.93713e-01,-2.90041e-01,-3.25030e-01,1.71056e-01,-3.92188e-01,1.96880e-01,-8.49747e-02,-7.83650e-02,-3.32441e-01,-1.31942e-01,2.97978e-01,-2.78826e-02,1.27813e-01,3.46459e-02,3.77678e-01,-5.34612e-01,-1.16803e-01,1.79363e-01,1.61237e-02,-1.11426e-02,-2.92484e-02,8.78794e-02,2.41046e-01,4.41485e-01,
-1.51072e-01,3.48013e-01,2.93052e-01,2.40605e-01,5.31234e-01,-1.16824e+00,-1.29281e+00,1.19648e-01,-1.24683e-01,-1.01891e-02,-2.45579e-01,1.86175e-01,2.17022e-01,3.79766e-01,5.86488e-02,-2.12260e+00,1.72234e-01,-7.46037e-02,7.20811e-01,-5.73466e-01,-6.88387e-02,-7.38203e-01,3.82774e-01,-7.31865e-01,3.90476e-01,1.56209e-01,-3.00888e-02,-7.26199e-01,-5.91205e-01,2.16232e-01,-2.60128e-01,-3.08142e-02,-2.67646e-01,-3.28486e+00,5.41504e-01,1.93352e-01,3.66205e-01,8.08652e-02,-7.30194e-02,-2.44199e-01,5.32878e-01,-4.78241e-01,1.16409e+00,-2.94222e-01,-2.95306e-01,-3.61561e-02,4.95621e-01,1.31158e-01,2.81363e-01,7.65250e-01,
1.52846e-01,2.77419e-01,1.64354e+00,1.19481e+00,4.08252e+00,6.66934e-01,9.94114e-01,1.29891e-01,4.95297e-01,9.17573e-01,-3.60468e-01,-2.54059e-01,1.26622e+00,-1.96068e-01,-2.30518e-01,-7.77730e-01,-1.37540e-01,-6.21822e-01,1.39337e+00,2.19480e+00,3.72333e-01,-3.60724e+00,-2.35053e+00,-1.84100e-01,-3.86762e+00,6.53829e-01,1.21549e+00,5.55371e-01,6.82299e-01,3.77040e-01,-9.07194e-01,-2.29654e+00,-1.68742e-01,-1.03631e+00,-1.80931e-01,-1.02387e+00,1.70952e+00,-4.38319e-02,4.15665e-01,7.81109e-02,-2.61721e-02,-3.08323e+00,4.33938e-03,3.48228e-01,9.87458e-02,-3.46891e-01,9.58049e-01,-1.49255e+00,4.85464e-01,-1.08002e+00,
2.36446e-01,9.40611e-01,1.14305e-01,7.84038e-02,2.79184e-01,4.24778e-02,4.50471e-01,-2.17012e-01,2.43411e-01,-1.89667e-01,-3.04670e-01,1.08528e-01,1.04541e-01,-1.43779e-01,-3.44349e-01,7.65087e-02,4.43757e-02,5.16915e-01,2.23985e-01,-2.16218e-01,-3.22656e-01,-7.06971e-01,-2.02094e-01,-5.46945e-01,-3.40302e-01,-3.80336e-01,-6.27072e-02,3.00821e-02,1.32322e-02,8.21859e-02,4.28956e-01,2.92862e-02,-1.26368e-01,5.97103e-01,2.67325e-01,4.57628e-01,-1.28932e+00,1.48590e-02,8.09857e-01,-1.78656e-01,1.87912e-01,-2.34287e-01,3.29010e-01,1.19672e-01,-1.47330e-02,-8.41896e-02,-8.82274e-02,-2.92144e-01,1.41539e-02,-1.93521e-01,
3.13037e-02,-6.76289e-01,5.37965e-01,-5.73353e-01,1.14477e+00,-5.98663e-01,-1.00382e+00,5.16323e-01,-6.40579e-02,-5.41366e-01,3.86785e-01,-4.08135e-02,6.36952e-01,2.36086e-03,4.17648e-01,-5.18719e-01,2.70775e-01,-4.51803e-01,-3.60587e-02,-1.29144e-01,1.28618e-02,-7.48382e-01,2.03394e-01,-4.99823e-02,2.77871e-01,2.32995e-01,-2.26193e-01,-2.61137e-01,-7.10974e-03,-1.66434e-01,-1.91046e-01,3.26890e-01,9.31577e-02,2.71397e+00,-1.01674e+00,-3.68334e-02,-1.66665e+00,-4.79659e-02,4.53686e-01,5.53801e-01,-1.45378e-01,4.09753e-01,4.96019e-02,-2.72960e-01,-2.20217e-01,-2.87595e-01,-1.47366e-01,5.68512e-01,3.70350e-01,-7.10537e-01,
3.26938e-01,1.67475e-01,3.11580e-01,-2.21677e-01,5.25338e-01,-1.08264e+00,2.41221e-02,-1.37493e+00,1.81725e-01,-6.33860e-01,-9.15602e-03,-1.52380e-01,-4.04261e-01,-5.98975e-02,-1.34293e-01,-1.81274e+00,-1.33530e-01,-1.81703e-01,3.31292e-01,2.07475e-01,-5.36273e-02,-5.34487e-01,1.48463e-03,3.91030e-01,1.95164e-03,3.50164e-01,2.68886e-01,-7.04689e-01,2.92181e-01,4.16216e-01,-8.11809e-01,-4.15889e-02,4.75643e-01,-1.01404e+00,-8.72994e-02,2.72622e-01,2.28526e-01,4.31871e-02,-6.14488e-01,1.10617e-01,6.60313e-01,-8.75773e-02,2.70926e-01,-9.90888e-02,1.43486e-01,-1.53398e-01,7.10718e-02,4.04924e-02,2.83004e-01,3.15722e-01,
-2.40202e-01,-7.39725e-01,-4.78754e-01,4.95074e-01,2.29789e+00,5.71372e-01,5.72014e-01,-4.76699e-01,3.24982e-01,6.85199e-02,-5.18791e-01,9.07731e-03,-9.98382e-01,-8.65284e-02,-5.41161e-01,-3.96417e-02,-2.19158e-02,1.52826e-01,-1.06086e+00,-5.62634e-01,-1.53906e-01,-3.81690e-01,-2.49979e-01,2.48450e+00,8.49547e-02,-1.13793e-01,7.23314e-01,-1.47625e-01,7.45528e-01,-3.45712e-02,-4.97107e-01,3.67282e-01,1.02196e-01,8.74973e-01,-8.15736e-01,-1.03990e+00,-2.26772e-01,2.34334e-02,-1.52663e+00,-4.72402e-01,3.56012e-01,5.18737e-01,-6.36533e-02,4.06257e-01,6.38747e-02,-9.59246e-02,-2.56550e-01,8.39064e-02,8.02511e-01,-2.07588e+00,
-6.69604e-01,-6.99437e-01,3.39840e-01,4.14591e-02,1.31355e+00,-1.55797e+00,1.32473e+00,-1.12051e+00,-1.04570e-01,-1.12123e+00,3.17044e-01,2.94421e-01,4.42767e-01,7.83510e-03,5.20718e-02,-1.76659e+00,-8.53438e-01,-1.21300e-01,1.84102e-01,5.09047e-01,-4.36015e-01,6.58049e-01,6.99796e-02,9.42333e-01,2.88226e-02,-2.47354e-01,-3.27309e-02,-4.01306e-01,-7.89101e-01,-5.97555e-01,9.81851e-02,-9.45210e-03,1.04158e-01,-7.65156e-01,-4.44838e-01,1.92934e-01,3.93242e-01,9.20601e-02,1.26226e-01,2.61343e-02,-1.96304e-01,4.66609e-01,6.86102e-01,-5.93666e-01,8.21992e-01,2.16328e-01,-9.66959e-02,-1.29907e-01,8.37867e-01,1.18650e-01,
2.09946e-01,-1.14889e-01,-3.29408e-01,-2.84605e-01,-4.14853e-01,9.89795e-02,-9.64598e-01,3.66292e-01,3.70221e-01,-2.25333e-01,-1.79938e+00,1.92146e-02,1.83756e-01,7.70996e-01,7.70625e-01,2.28749e-01,1.85709e+00,4.23004e-01,4.10585e-01,-2.82842e-01,-1.03251e-01,8.24371e-02,7.44860e-02,5.08346e-01,-7.76041e-01,1.38960e-01,-6.31398e-02,8.91607e-02,-1.27078e-02,4.39213e-02,3.70802e-01,-1.98079e-01,9.74298e-02,-5.20173e-01,-1.58918e-01,2.68780e-01,3.15040e-01,-1.85723e+00,-1.96742e-01,-7.04373e-01,-4.12690e-02,-2.72260e-02,6.42038e-01,1.90349e-01,8.79632e-01,-1.13360e+00,4.68996e-02,5.85143e-01,-1.05598e-01,8.61256e-02,
-4.38399e-01,5.31963e-01,4.74748e-02,1.25511e-01,-2.81968e-01,2.95579e-01,1.88861e-02,1.43488e+00,1.25766e+00,1.93623e-01,-2.03563e-01,5.88146e-02,1.91523e-01,-8.19704e-01,1.37322e-01,-6.41754e-01,-2.79537e-01,4.31550e-01,-2.10913e-01,-3.96635e-01,3.28919e-01,3.66586e-01,1.23613e-01,-7.32028e-02,-8.16656e-01,4.70630e-01,4.98930e-02,-1.03428e-01,3.84013e-01,-1.88616e-01,2.45903e-01,-3.82197e-02,2.79844e-01,-1.44320e+00,-8.60589e-01,-3.28151e-01,9.56769e-01,2.49338e-01,-2.37124e-01,-1.32475e-01,5.10781e-01,-3.56563e-02,-3.41273e-01,3.01490e+00,1.97267e-01,-5.42660e-01,-1.28972e-01,-2.12817e-01,2.68533e-01,7.24391e-02,
-5.34659e-01,2.08850e-01,5.14009e-01,1.26081e+00,-1.52363e+00,1.54031e-02,-3.30393e-01,2.44451e-01,1.62307e-01,1.22168e+00,2.96117e-01,-5.21983e-01,-4.98443e-01,-1.50876e-01,2.57226e-02,-7.06655e-01,-5.75769e-01,-3.89003e-02,-9.16800e-01,2.21471e-01,1.03345e-02,-2.28268e-01,-1.83850e+00,-3.96184e-01,-2.06494e+00,7.82379e-01,-1.37227e+00,3.50762e-01,-4.66458e-01,-4.84140e-01,1.78341e+00,-1.26221e+00,3.03148e-01,-7.53797e+00,1.00969e+00,-1.96489e-01,-5.32993e-01,4.36516e-03,-9.18608e-02,9.24992e-02,3.87576e-01,-9.63812e-02,7.16748e-01,5.21405e-02,4.49457e-01,-1.48528e-01,8.58369e-01,-1.06803e+00,6.45887e-01,8.09311e-01,
4.53840e-01,-6.06160e-01,3.80397e-02,-3.37219e-01,3.94611e-01,-5.43366e-01,-9.24742e-01,1.21382e+00,-9.73978e-02,-6.19089e-02,-2.30674e+00,-3.51560e-01,2.29194e-01,1.78693e-01,-1.74477e-01,-3.15156e-02,1.67365e-01,1.03932e+00,4.47063e-02,1.12707e-01,-2.15466e-01,-4.05794e-01,2.37218e-01,1.82894e+00,7.99824e-01,-2.62684e-01,-6.83254e-01,7.84729e-02,-1.58575e+00,-8.01722e-01,8.76621e-01,6.48489e-01,-2.10618e-01,-2.91692e+00,4.22247e-01,8.15144e-01,-1.99175e+00,5.85273e-02,-2.52709e+00,-3.26521e-01,4.86649e-01,2.86894e-01,9.90677e-02,-1.64346e-01,-1.96104e-01,-5.09449e-02,-1.22429e-02,4.75707e-01,9.32486e-01,4.61302e-01,
7.55801e-02,-1.34558e-01,-1.17968e-01,1.51939e-01,-8.04884e-02,8.46310e-02,-1.55471e-01,-1.93550e-01,5.14807e-02,-2.27685e-01,4.23041e-03,1.65313e-01,1.34849e-01,-1.41728e-01,-1.67349e-01,-4.55282e-02,-1.09877e-02,1.17474e-01,7.45061e-02,-1.68415e-01,1.50841e-01,8.70280e-03,-1.81086e-01,-1.00942e-01,-7.82217e-02,-5.32955e-04,-1.05421e-01,-1.55892e-01,-2.20975e-01,-1.67895e-01,3.75459e-02,6.89166e-02,1.78933e-01,-3.83482e-02,2.98201e-02,-1.96190e-01,-1.00200e-01,-2.39249e-01,-1.83676e-01,1.06914e-01,-1.35997e-01,1.23460e-02,-1.98896e-01,-2.14266e-01,2.19050e-01,5.87694e-02,1.71236e-01,-5.62081e-03,2.13734e-01,-1.77523e-01,
-1.93529e-01,2.15209e-01,1.11354e+00,4.81287e-01,2.69558e-02,-3.12430e-01,8.79181e-01,1.00673e+00,-4.84353e-02,6.33844e-01,1.55447e-01,-1.48235e-01,3.94207e-01,-2.72587e-02,1.65169e-01,-1.76786e-01,-3.48842e-02,-6.67139e-01,1.69382e-01,5.55322e-01,4.63147e-01,2.77294e-01,-1.70310e-01,-1.02777e+00,-4.58693e-01,-8.01934e-03,-1.19524e+00,1.97754e-01,-6.45885e-01,5.79966e-02,-1.25282e+00,5.40680e-02,-5.92442e-02,-2.16633e+00,3.37658e-01,-7.85799e-01,-2.77281e-01,1.85113e-02,1.28858e+00,1.09800e-01,-1.74377e-01,-3.82526e-01,4.32815e-01,1.15848e-02,-4.79822e-02,5.35599e-02,2.48910e-01,3.11991e-01,7.24609e-01,8.73226e-01,
-6.21982e-01,1.44305e-01,9.96599e-02,2.10850e-01,-3.88846e-01,1.90764e-01,1.40288e+00,1.73912e+00,-2.32622e-01,-8.11629e-02,1.15125e-01,-5.96716e-01,4.59281e-02,7.96896e-02,5.37026e-01,-1.32861e-01,-1.17349e-01,-5.41625e-03,-9.00226e-01,1.68418e-01,4.74235e-02,7.61328e-01,5.93307e-02,6.26578e-01,-4.97900e-01,5.57474e-02,2.38412e-01,6.79888e-01,-2.55806e-01,-1.99265e-01,3.65520e-01,-2.31974e-01,6.09151e-01,-1.53711e-01,-2.44895e-02,-1.45447e-01,-1.54749e+00,-2.22528e-02,-3.24278e-01,2.82491e-01,-5.62330e-01,-6.77039e-01,9.08063e-01,-3.90262e-01,9.98367e-02,8.25065e-02,4.03515e-01,1.14164e-01,-1.56928e-01,-1.73071e-01,
1.89854e-02,
-1.39559e+00,
-3.54213e-01,
4.78494e-01,
-2.88978e-01,
6.04932e-02,
5.17705e-01,
-4.40515e-01,
-1.29872e+00,
4.21973e-01,
3.68436e-01,
6.71864e-02,
5.92517e-01,
-1.19946e+00,
-1.12040e-02,
-1.64481e-01,
-1.84084e-01,
-2.36787e-01,
-1.32754e+00,
-2.95610e-01,
2.95025e-01,
7.67694e-02,
-1.16592e+00,
8.82257e-02,
5.16062e-01,
5.57785e-01,
3.37533e-01,
2.18730e-01,
-4.40021e-01,
-1.38321e+00,
-1.46127e-01,
2.67233e-01,
-2.63956e-01,
3.08636e-01,
1.78186e-01,
8.50417e-01,
7.75449e-02,
-2.61153e-01,
-1.05467e-01,
5.40082e-01,
7.84579e-01,
6.06651e-01,
-4.17189e-01,
-1.85431e-01,
1.59436e-02,
-2.51367e-01,
-5.27267e-01,
-1.61047e-01,
-2.26220e-01,
3.22782e-01,
-1.24658e-01,-4.99435e+00,-1.82323e-03,9.68117e-02,-2.35965e-01,-3.06346e-01,9.74256e-02,-4.44003e-01,3.69117e-01,-4.79206e-01,-9.48496e-02,7.98468e-02,-1.04315e-01,1.89963e-03,-2.50559e-02,-1.97098e-01,-2.28655e-01,-2.03697e-01,2.11139e-01,5.37951e-02,-1.24263e-01,-3.50125e-01,-2.61821e-01,3.33944e-02,9.06364e-02,3.35079e-02,7.48778e-02,2.70700e-01,3.13281e-02,1.55544e-01,4.48799e-02,1.59695e-01,-3.56363e-02,6.06868e-02,-6.65409e-02,4.85179e-01,4.25584e-02,2.64945e-02,-6.37215e-01,-2.43562e-01,4.43521e-01,-2.31161e-01,-2.36108e-01,-3.40597e-02,1.93131e-02,-2.12563e-01,-1.69976e-01,-2.35123e-01,-7.18696e-01,3.58703e-01,
-4.48744e-01,-1.41044e+00,-6.41726e-01,5.13693e-01,-2.04683e-01,-6.10153e-03,-2.49343e-01,-4.29558e-02,3.71922e-01,-1.11012e-01,1.44818e-02,-1.52845e-01,-1.17130e+00,-2.68828e-02,-1.39469e-01,4.97300e-01,4.21646e-01,-1.29879e-01,4.60802e-01,-9.80340e-02,1.28201e-01,3.89606e-01,-5.05097e-01,-2.53862e-01,2.80642e-01,-1.00827e+00,-5.00229e-01,-1.32884e-01,-4.53002e-01,-4.16191e-01,-3.55010e-02,1.55421e+00,7.92680e-02,-3.01065e-02,4.73522e-03,5.36795e-01,-2.41726e-01,3.66650e-01,3.68776e-01,-4.38619e-02,2.85664e-01,3.35814e-01,-4.83588e-01,-1.87615e-01,-3.13794e-02,-6.05315e-02,6.18232e-02,-2.58437e-02,-3.92262e-01,-1.23116e-01,
-1.29241e-02,-6.98601e-01,-6.97871e-02,1.68439e-01,-8.29107e-01,5.91183e-01,-6.37115e-02,-2.54596e-01,3.31307e-01,-8.00268e-01,-1.30176e-01,2.16951e-01,4.28087e-01,5.51204e-01,-1.20720e-01,7.87991e-03,2.26370e-01,-2.07829e-02,8.14601e-01,1.55901e-01,2.33980e-01,-2.07286e-01,6.29845e-01,-1.56872e-01,6.39846e-02,7.38855e-02,-1.81708e-01,-2.76480e-01,1.59979e-01,1.10868e+00,4.93981e-02,-8.80237e-01,-3.01523e-01,7.56026e-02,-1.13833e+00,2.49347e-01,-3.73798e-01,-6.14234e-01,5.08176e-01,3.82257e-01,1.20904e-01,-3.80282e-01,-1.52452e+00,-6.99694e-02,3.45761e-02,-8.77894e-01,-1.85944e+01,-4.59658e-02,8.40140e-02,-2.70336e-01,
5.29720e-02,3.11142e-01,-1.88740e-01,5.98706e-02,-1.30041e-02,4.29043e-02,-4.21079e-01,6.72027e-01,-4.37437e-01,5.96687e-01,-2.89705e-01,-2.36122e-01,-7.11774e-02,2.71150e-01,1.82739e-02,5.86304e-01,-1.43558e-02,-8.46283e-02,-7.72326e-01,-3.36249e-01,-4.69994e-01,-1.62048e-01,5.62844e-01,-1.91801e-01,1.78177e-01,-4.85771e-01,-2.88270e-01,-1.71460e-01,-9.86518e-02,-2.97774e-01,5.10033e-02,2.81730e-01,-3.59564e-02,-1.89407e-01,3.39994e-01,7.26302e-02,5.48169e-01,2.73041e-01,5.97169e-01,1.57887e-01,-7.10111e-01,-1.74206e-01,-1.05237e+00,1.07836e-02,-1.39092e-01,5.92863e-01,-7.61584e-02,2.35803e-01,-6.33669e-02,5.35916e-01,
1.60464e-01,-5.51519e-01,-1.83987e-01,4.09416e-02,-1.34054e+00,1.06746e-01,-1.09196e-01,2.88320e-01,9.66104e-01,3.61307e-01,-5.50513e-01,1.27001e-01,-6.23394e-01,-1.07203e-01,-6.24341e-02,-7.79246e-01,5.74641e-01,4.60107e-02,-5.03819e-01,1.23089e-01,8.78312e-01,-1.19154e-01,2.85230e-01,4.77100e-02,7.12113e-01,4.50616e-02,1.01299e-01,8.54407e-02,8.06375e-01,5.50817e-01,-1.41600e-01,-7.97831e-02,1.51750e-01,8.70557e-02,-8.89024e-01,1.84993e-01,6.31438e-01,4.43577e-01,-2.21167e-01,-1.09079e-02,1.45532e-01,7.42037e-01,-2.25673e-01,1.61492e-01,1.44040e-01,1.58949e-01,1.43212e-02,-6.53007e-02,1.69350e-01,3.96346e-01,
-1.93899e-02,-4.45955e-01,4.29349e-02,2.46015e-01,-1.55688e-01,-3.41996e-01,-8.27752e-01,6.19822e-01,3.03880e-01,3.62885e-01,8.59601e-02,-4.58758e-01,8.82834e-02,-2.53786e-01,8.26707e-01,3.27456e-01,4.30172e-01,8.13491e-02,-6.89832e-01,1.98052e+00,3.02415e-01,3.09809e-01,-6.20285e-02,4.48791e-01,1.59129e-01,-3.98041e-01,-3.58587e-01,-4.27208e-01,-5.11202e-01,1.42608e-01,-4.60735e-01,3.47208e-01,1.47891e-01,7.83028e-01,-1.47301e-01,-3.62446e-01,1.68296e-01,2.35814e-01,-4.03978e-01,1.34367e-01,-5.41781e-01,-2.24896e-01,-2.04215e-01,-2.45526e-01,7.90386e-01,7.31343e-01,5.44444e-01,5.80686e-02,-2.16972e-01,2.01467e-01,
2.01215e-01,-1.59047e-01,6.57194e-02,-3.19252e-02,1.50179e-01,1.01692e-01,-4.49938e-01,3.24490e-01,-2.17605e-01,5.77292e-01,-1.07825e-01,3.85072e+00,-1.78460e-01,-1.38695e-01,-1.63245e+00,-1.36247e-01,-4.24058e-02,9.73066e-02,8.87685e-02,7.85986e-01,1.34924e-01,3.50355e-02,2.68386e-01,-6.36731e-01,6.35372e-02,-2.42064e-02,1.00198e+00,-3.63253e-01,3.22085e-01,-1.67035e-01,2.68984e-01,-2.36374e-01,-3.42317e-02,1.42607e+00,5.75343e-03,-3.55491e-01,-1.19842e-01,2.54907e-01,3.16526e-02,2.96319e-01,-9.85231e-02,2.09986e-01,2.14450e-02,4.96093e-01,2.88855e-01,3.05442e-01,-1.44265e-01,-4.77959e-02,4.17524e-01,-4.22761e-02,
-5.26686e-01,-1.95605e+00,-2.30014e-01,1.85682e-01,3.62471e-02,1.95772e-02,-1.18486e-01,1.44320e-01,2.16008e-01,6.84148e-01,9.82989e-01,5.26067e-02,-6.32235e-01,-2.51729e-01,-3.18487e-02,2.13260e-01,4.94253e-01,1.94840e-01,6.97314e-01,1.77273e-01,3.47855e-01,4.46395e-01,-4.64906e-01,-9.91262e-02,4.46637e-01,-3.51390e-01,-1.40096e-01,-4.13926e-01,2.69407e-01,1.98997e-02,-4.43041e-01,7.19875e-01,-1.22452e-01,5.79405e-02,5.48365e-03,-1.13760e-01,-5.68696e-01,-5.03288e-01,-2.61883e-01,6.62995e-01,-2.29614e-01,2.46075e-01,-3.02710e-01,9.04803e-02,-3.41126e-02,4.80097e-01,-4.10137e-01,-2.84749e-03,-2.44999e-01,-8.89270e-01,
-1.01526e+00,-3.01476e-01,-2.82529e-01,-2.00122e-01,1.89290e-01,2.64878e-01,-3.38407e-02,-3.20701e-01,-9.84444e-01,1.93876e-01,-8.11469e-01,3.62203e-01,-2.70311e-01,2.77378e-01,-1.76607e-01,6.14458e-01,3.38293e-01,1.73103e-02,-1.23600e+00,9.50141e-01,-8.81176e-01,-1.00906e-03,9.39874e-01,-5.94219e-03,-1.84730e+00,1.06604e+00,-2.12697e-01,7.90948e-01,-1.15287e+00,2.65538e+00,-5.86992e-01,8.61310e-01,-5.26061e-01,5.75840e-01,-7.12214e-01,-1.00580e+00,-7.67369e-01,4.16063e-01,1.12501e+00,-9.73408e-01,-2.05943e-01,9.73787e-01,-4.23983e-02,2.16045e-01,5.45218e-01,-9.73483e-02,2.46610e-01,-1.81879e-01,6.08988e-02,-8.56632e-01,
-2.29160e-01,-6.01852e-01,-4.65488e-01,-8.13803e-01,-1.15634e-02,-1.67050e-01,-4.37316e-02,5.88526e-01,-2.23791e+00,-7.95882e+00,1.05134e-01,3.96063e-02,-1.48470e+00,-2.03091e-02,-5.29023e-02,-1.00800e+00,-4.75759e+00,1.65958e-01,-1.22468e+00,5.52485e-02,-4.89020e-01,6.46804e-01,1.95256e-01,2.27865e-01,-3.28831e+00,-1.98538e-01,2.19079e-02,2.77580e-01,-1.82647e-01,2.10491e+00,1.98192e-01,3.98565e-01,2.00200e-01,9.50124e-02,3.34048e-01,-7.02843e-01,2.07092e-01,-1.72338e+00,2.09040e+00,-9.04807e-01,-1.53264e-01,5.21994e-01,6.42364e-01,2.50241e-01,-8.54952e-02,-3.51317e-01,1.68736e-01,-2.00136e-01,4.21963e-01,-9.61199e-02,
6.26305e-02,-3.29908e-01,-1.48582e+00,2.20847e-01,8.06032e-02,-2.77573e-02,3.06540e-01,1.64653e-01,1.97422e-01,2.67547e-01,4.92281e-01,-4.70184e-01,-2.17357e-01,-3.46431e-01,-4.06717e-01,-1.49888e-01,8.14503e-02,2.32662e-01,-2.40500e-01,2.37931e-01,1.58842e-01,3.07235e-02,4.09974e-01,-8.92884e-01,2.07027e-01,4.28015e-02,-2.07795e+00,-3.28420e-01,-7.99556e-02,1.80329e-01,-1.45403e+00,2.03481e-01,7.69151e-02,4.33195e-01,1.70880e-01,-5.17581e-02,2.65931e-01,1.53282e-01,3.10828e-01,5.60326e-02,-4.63175e-02,5.48111e-01,-1.09129e-01,-1.12854e+00,9.73701e-02,9.81879e-02,-4.03836e-02,-7.73199e-02,5.25773e-01,1.92155e-01,
8.84933e-03,1.93691e-01,1.01690e-01,8.59040e-03,-1.73179e-01,1.94294e-01,-5.07911e-01,2.83701e-01,-5.35876e-01,-1.57083e-01,-4.99465e-01,4.64471e-02,6.95660e-01,-3.59772e-01,-1.06057e-02,3.87871e-01,-2.61915e-01,1.49957e-01,-6.32783e-01,4.30352e-03,-2.15487e-01,1.48721e-02,9.94839e-01,-9.28717e-03,-5.25919e-01,-3.75053e-01,-7.75994e-02,5.45975e-01,1.17584e-01,1.60295e+00,-2.06808e-02,-4.38390e-01,8.31846e-01,1.14046e-01,2.29996e-02,2.09865e-02,7.20516e-01,1.97545e-01,3.80888e-01,-1.41451e-01,-1.79059e-01,-2.08496e-01,-4.17747e-02,-1.16818e-01,-1.42133e-01,-6.16042e-02,2.85525e-01,1.81531e-01,-1.34198e-01,6.11521e-01,
2.97136e-02,4.78485e-01,-1.29685e-01,1.17804e-01,-3.55741e-01,5.76871e-01,-4.26820e-01,3.89863e-01,-4.42521e-01,9.26160e-01,-6.01473e-01,1.81878e-01,-3.96789e-01,-8.00203e-01,1.73652e-02,1.31472e-01,2.35649e-01,1.86749e-01,1.28453e-01,2.76374e-01,-6.95355e-01,7.66163e-01,2.43355e-01,7.63971e-03,1.92418e-01,-1.86171e-01,5.90883e-01,-7.70815e-02,1.73950e-01,1.35515e+00,-2.95305e-01,9.44458e-03,-6.51434e-01,-1.73802e-01,-3.16870e-01,4.77517e-01,-4.30378e-02,9.81565e-02,-1.41009e-01,-3.36735e-02,3.90747e-01,-3.55608e-01,-3.01252e-01,6.66270e-01,-2.28392e-02,3.99395e-01,9.27899e-01,-9.45557e-02,-4.44653e-01,1.39511e-01,
-7.07214e-01,-2.94353e-01,6.27438e-01,3.51678e-02,-7.28293e-01,8.00031e-02,-1.61160e-01,2.49804e-01,-1.54259e+00,2.06791e-01,5.40565e-03,-1.18969e+00,1.90827e-01,-7.91431e-02,7.28299e-01,-7.24651e-02,2.14328e-01,1.78340e-01,4.01516e-02,-2.72450e-01,-2.87135e-02,-1.04823e-01,3.14390e-02,2.97453e-01,2.13721e-01,1.68217e-02,1.21123e-01,-8.10348e-02,1.04584e-01,-5.46139e-01,3.12846e-01,1.82823e-01,-7.11944e-02,-6.86368e-01,5.54039e-01,3.94286e-01,1.95390e-01,-2.91484e-01,3.43618e-01,1.49015e-01,-7.99364e-02,5.91561e-02,1.32777e-01,-5.60627e-03,-1.98724e-01,-7.58872e-01,5.54819e-01,2.00138e-01,1.34739e-01,3.62468e-01,
-2.35906e-01,-1.02949e-01,-3.14845e-03,1.52972e-01,-5.16515e-01,2.84862e-01,-1.45549e-01,-8.14745e-01,6.20734e-01,1.52200e-01,-7.38950e-02,1.42678e-01,-4.12609e-01,-9.84253e-01,-1.07309e-02,-7.81006e-03,-3.50667e-01,2.24321e-01,-1.17774e+00,2.66978e-01,-1.09854e-01,-2.78764e-01,3.32939e-01,5.71575e-02,3.16238e-01,-2.15497e-01,-1.51786e-01,3.43917e-02,1.99852e-01,-3.64952e-01,-1.82252e-02,5.27256e-01,3.06491e-01,2.08861e-01,1.39669e-01,2.95006e-01,-5.17972e-01,2.05893e-01,-5.70113e-01,-3.98057e-01,-1.32771e-01,6.83063e-01,7.45346e-02,-1.42248e-01,1.83067e-01,1.50705e-01,1.81201e-01,1.41307e-01,5.56257e-01,6.59752e-01,
2.11999e-02,1.59338e-01,1.42504e-01,-2.38606e-01,-1.54235e-01,-8.12460e-02,-1.42516e-01,-1.08475e-01,-1.24284e-01,-1.87983e-02,6.86159e-03,-1.87245e-01,9.25244e-02,-1.17945e-01,-9.63117e-02,-6.35004e-02,-1.50560e-01,-1.82713e-01,-6.72573e-02,2.02024e-01,1.22097e-01,-8.82994e-02,-3.23392e-02,-2.11786e-01,7.72921e-02,2.51313e-02,-1.66963e-01,-2.45947e-01,1.65984e-01,-1.08089e-01,-2.15950e-01,-2.24232e-01,-4.83022e-02,6.92948e-02,-1.71022e-01,9.71055e-02,-1.26226e-01,-9.56521e-02,-1.20947e-01,-7.83809e-02,-9.32591e-02,-2.43532e-01,-1.00885e-01,-1.87445e-01,-2.25756e-01,-2.17153e-01,6.98417e-02,4.09288e-02,-1.43103e-01,1.20363e-01,
-1.09077e-01,2.60121e-01,-5.35224e-02,-5.24607e-01,-5.06622e-01,3.68185e-02,-3.68936e-02,-1.16248e-01,-1.29782e-01,1.01307e-01,-2.90165e-01,-9.35886e-02,3.71866e-01,5.28518e-02,7.74811e-02,5.06936e-01,-3.62816e-01,4.42745e-02,-4.32970e-02,1.59644e-01,-5.30485e-01,3.82334e-01,-6.31812e-01,1.06463e-01,1.06517e+00,-4.93877e-01,5.83532e-02,-2.51493e-02,-1.29783e-01,1.09306e-01,2.31671e-02,6.18022e-01,-5.04693e-01,1.24924e-02,-9.34518e-02,3.73940e-01,-5.36195e-01,-3.49476e-01,1.35005e-01,-3.03339e-01,6.01942e-02,3.63836e-01,4.16546e-02,3.96804e-02,1.35093e-01,2.25591e-01,-9.20926e-01,1.74679e-01,9.28556e-01,-1.45709e-02,
3.05883e-01,1.89682e-01,-7.10616e-01,-7.15919e-02,8.57684e-02,2.52160e-01,-1.88411e-01,2.87834e-01,3.82181e-01,1.37815e-01,-6.63553e-01,1.73987e+00,4.35095e-01,-3.88524e-01,-1.32819e+00,-1.48685e-01,1.89906e-01,5.03564e-02,-3.20651e-01,-3.94163e-01,2.83961e-01,3.12372e-01,3.77309e-02,-2.32215e+00,-1.56731e-01,-1.41447e-01,-2.76870e+00,9.73492e-02,7.16632e-01,-8.14203e-02,3.53891e-01,-2.87796e-01,7.53483e-02,5.59354e-01,-8.15704e-03,-8.41451e-01,5.25478e-01,1.99151e-01,-4.50713e-01,-6.15879e-01,1.77388e-01,-2.82463e-01,2.66576e-01,-8.82309e-01,5.47644e-02,-1.31642e-01,-7.35110e-02,-1.00270e-01,1.39555e-01,9.78222e-02,
6.75193e-01,6.32228e-01,-5.65421e-02,-5.01137e-01,-2.22953e-01,4.01470e-01,-2.29417e-01,-1.01376e-01,7.79058e-01,1.39863e-01,-7.39416e-01,2.88334e-01,-4.34261e-01,-4.57425e-01,-1.00648e-01,-3.06437e-01,-5.05836e-01,-2.26429e-02,-2.78823e-01,2.63861e-01,-3.77822e-01,-2.34203e-01,-1.91218e-01,6.05443e-02,-5.43578e-01,-1.24796e-01,2.70288e-01,-2.56569e-01,-1.10580e-01,3.80870e-01,1.79202e-02,2.87436e-01,-1.71828e-02,1.29779e-01,3.06168e-01,8.06744e-01,2.91174e-01,-1.58283e+00,-1.15410e+00,4.86012e-01,-3.41958e-01,-8.03271e-01,5.07818e-01,1.27297e-01,-6.31745e-02,4.00450e-01,-4.16754e-02,1.19335e-01,-7.48544e-01,1.95712e-01,
-8.62543e-02,6.87385e-01,-1.03992e-01,-1.12424e-01,-2.33317e-01,1.27634e-01,1.81607e-01,2.60394e-01,-9.46837e-01,-1.40859e-01,-4.79307e-01,-1.55092e-02,5.29011e-01,3.79191e-02,1.27235e-02,-2.81029e-01,-1.54502e-01,-1.76493e-01,-3.50612e-01,1.50189e-01,1.58115e-02,1.76585e-01,1.96099e-01,4.21091e-02,-2.12780e-01,3.78941e-01,7.48122e-02,2.15488e-01,-1.01826e-01,-1.34677e+00,2.08738e-01,-4.06669e-01,2.72219e-01,8.17714e-02,2.89086e-01,5.48162e-01,2.63950e-01,-6.95025e-01,-6.48554e-01,4.94947e-01,2.28029e-01,-1.63054e-01,9.69202e-02,2.79642e-02,-1.13729e-01,-5.21142e-01,8.69413e-02,-1.64638e-01,1.02921e-01,-3.66047e-02,
-8.31506e-01,-1.12414e+00,-8.27921e-02,1.49366e-01,5.48153e-01,-2.50713e-01,-2.93439e-01,4.78842e-01,-3.88896e-01,5.26504e-01,-3.61343e-01,2.23463e-01,-1.92477e-01,-1.81322e-01,-8.22735e-03,-1.43137e-01,-2.11645e-01,1.61877e-01,-3.69091e-01,2.01331e-01,4.18598e-01,4.87901e-01,2.46544e-01,-4.24391e-02,5.07624e-01,-1.83076e-01,-6.45487e-02,-3.32897e-01,-6.10813e-01,-1.00040e+00,-5.84712e-02,2.25796e-01,3.86041e-02,1.21539e-01,1.32435e-01,2.83532e-01,1.02796e-01,5.22152e-01,4.71264e-02,3.04008e-01,-1.59793e-01,-5.22041e-01,-2.34058e-01,1.07654e-01,5.08327e-02,-4.21664e-01,1.65671e-01,-2.03677e-01,1.02803e+00,1.23147e-01,
-1.38142e-01,5.57380e-01,-3.08376e-01,-2.65189e+00,-4.82518e-02,-1.84982e-01,-4.03773e-02,-9.21682e-01,1.26811e+00,-4.44268e-01,3.91056e-02,7.03591e-01,3.69227e-01,-1.23537e-01,-4.21413e-01,-7.15070e-01,-7.36446e-01,2.11032e-01,1.85533e-01,5.17056e-01,-1.39511e+00,2.66613e-01,8.48599e-01,-3.61765e-02,5.17547e-01,4.02979e-01,1.74629e-01,3.00606e-01,-1.08544e+00,-1.58211e+00,-2.76913e-01,4.84963e-01,5.45283e-03,6.14713e-01,-3.02517e-01,1.13624e-01,1.62012e-01,1.23083e+00,2.44117e-01,-1.00040e+00,2.06369e-01,1.05460e+00,1.25342e-01,-8.71618e-02,1.44803e-01,6.34228e-02,-1.23998e-01,3.65598e-03,-5.03993e-01,5.01451e-01,
2.36520e-01,-7.40607e-01,6.43180e-01,-2.89799e-01,3.84496e-01,-6.90200e-01,8.49986e-01,3.97216e-01,-9.33428e-01,1.12855e-02,6.61733e-02,-1.29953e+00,3.95081e-01,2.69157e-01,9.42443e-01,-9.51841e-02,-2.95721e-02,-2.07155e-01,-5.84632e-03,-4.27688e-01,-1.40043e-01,4.18223e-01,-8.34580e-02,7.02927e-01,4.54935e-01,-2.28511e-01,7.70795e-01,-5.09917e-01,-1.28641e-01,6.47581e-02,2.94038e-01,-1.05195e-01,8.27910e-02,-7.96856e-01,-5.16405e-01,1.07677e+00,3.13217e-01,3.13634e-01,-7.77434e-01,4.67947e-01,-5.14770e-01,-1.55546e-01,-3.33958e-01,6.12738e-01,-3.04595e-01,-1.35456e-01,3.15657e-01,-9.24892e-02,-2.01936e-01,-9.21850e-02,
-2.37393e-01,-2.24143e-01,4.04631e-01,-6.27955e-01,2.20440e-01,7.52979e-01,9.59393e-02,3.62069e-03,-9.69808e-01,2.52782e-01,2.07824e-01,1.22428e-01,6.29506e-01,-1.15379e+00,-4.40200e-02,1.63945e-01,8.10742e-01,-2.29050e-02,-9.66254e-02,-6.72120e-02,5.61057e-01,-8.77221e-01,-5.17923e-02,1.95586e-01,1.42575e-01,6.33465e-01,2.53639e-01,3.38066e-03,1.07130e-01,-3.65499e-01,7.84263e-02,6.01092e-03,2.09083e-01,6.56081e-02,3.23676e-01,-2.81073e-01,4.25854e-01,-1.69353e+00,-6.41076e-01,-2.81770e-01,2.50796e-01,-5.63225e-01,4.41360e-01,-1.46197e-01,-1.73345e-01,6.04994e-02,1.73376e-01,2.18026e-01,8.98183e-01,-1.45069e-01,
-1.81087e-01,-4.58460e-01,1.76654e-02,-2.99897e-01,-2.60517e-01,1.04404e-01,1.88935e-01,-6.13176e-01,3.57160e-01,-8.50101e-02,-9.39096e-02,-4.05312e-02,1.50076e-01,-8.97209e-03,4.15999e-02,-1.28136e-01,-4.06782e-01,7.30052e-02,-7.06899e-01,1.23118e-02,4.59925e-03,-4.08481e-02,3.00416e-01,1.36890e-02,-2.43016e-01,-3.29886e-01,7.36574e-02,1.87274e-01,-1.09889e-01,1.74547e+00,-1.13692e-01,-5.08571e-02,-2.87457e-01,-3.93995e-02,3.71300e-01,5.54899e-01,-2.43467e-01,2.22807e-01,-2.30201e-01,-1.57619e-01,3.11942e-01,-4.46889e-02,-3.78371e-01,8.04734e-02,1.01165e-01,2.47792e-02,6.50378e-01,-1.59702e-02,-4.22642e-01,4.87290e-01,
-5.27371e-01,3.43323e-01,6.80144e-02,-6.95779e-02,5.83325e-01,8.80407e-01,-9.25988e-01,-3.10667e-01,-4.18516e-01,3.08495e-03,2.47334e-01,-1.17147e-01,-2.82311e-01,-5.58459e-01,2.88131e-02,-1.81015e-01,3.00710e-01,5.62570e-02,-4.08476e-01,-8.92921e-02,-1.01354e+00,3.06054e-01,3.73924e-01,2.03983e-01,7.00087e-03,-5.64057e-01,5.01753e-01,-7.18704e-01,1.05866e+00,-1.31898e+00,-1.71861e-01,-7.00462e-02,2.52635e-01,-1.00166e-01,-4.79535e-01,1.10208e+00,-5.54159e-01,4.02929e-01,8.95938e-01,-2.11778e-01,-2.17298e-01,-1.14713e+00,-9.88249e-01,1.22582e-01,8.22628e-02,9.22756e-03,-1.28176e+00,9.86037e-02,8.60984e-01,-6.89665e-01,
-7.72392e-01,-9.55194e-01,3.85004e-01,8.64820e-01,-9.97959e-02,-3.54723e-01,7.57589e-01,-4.33330e-01,2.70897e-01,-4.87841e-01,-2.94813e-01,-3.87057e-01,2.06546e-01,8.64972e-01,2.28975e-01,1.13819e-01,-3.10701e-01,4.89503e-02,7.35104e-01,-4.12925e-01,1.18038e-01,-6.68372e-01,1.68177e-01,9.73016e-02,-4.60201e-01,6.22419e-01,-2.80725e-01,-5.09845e-01,-5.03143e-01,3.89739e-01,-1.14060e-01,3.70832e-01,-1.94200e-01,-2.82446e-01,5.49415e-01,-1.74381e-01,-1.26002e-01,-2.41800e-01,8.03731e-01,1.23498e-02,-1.13840e-01,-8.56091e-01,-1.81118e-01,-8.03259e-02,-1.44431e-01,-1.11589e-01,-3.61236e-01,4.99089e-02,1.41463e-01,-2.19232e-01,
-2.47827e-01,-5.84938e-01,1.63501e-01,2.67526e-01,6.82881e-01,-2.35277e-01,-1.30121e+00,1.32579e+00,-1.36716e+00,1.14840e+00,-8.92814e-01,2.87042e-01,9.63445e-02,-1.64249e+00,-9.08286e-02,-3.73758e-01,-1.96382e-03,-1.63109e-02,3.11845e-01,2.00420e-01,-1.42900e+00,5.73222e-01,3.67805e-01,1.22452e-01,6.60264e-01,-4.31708e-01,2.50623e-01,-1.58515e+00,-8.41686e-01,-6.02928e-01,-1.45940e-01,-5.88516e-01,-5.02980e-01,1.83983e-01,1.75787e-01,-1.44900e-01,-6.16802e-01,-5.01718e-01,3.17378e-02,-4.75150e-01,2.46160e-01,9.44155e-01,-1.00249e+00,1.18258e-01,2.36933e-01,-6.99333e-01,-5.55731e-01,3.44392e-02,-3.56482e-01,-2.74146e-01,
-5.33272e-01,-1.90106e-01,1.41603e-01,3.31371e-01,8.32020e-02,-1.82586e-01,-3.06994e-01,-8.64373e-02,8.99960e-01,-1.78917e-01,-3.72735e-03,-1.53467e-01,9.55532e-02,1.17015e-01,1.02081e-01,-2.14319e-01,-3.42256e-01,-2.14528e-01,6.50108e-01,-3.37418e-02,-6.70965e-01,1.55831e-01,-6.66432e-01,5.67946e-02,2.14643e-01,3.10171e-03,4.62694e-02,-4.39499e-01,6.53980e-02,-2.86859e+00,-1.45378e-02,-4.26120e-01,-5.53069e-02,-1.33507e-01,2.91235e-01,6.13459e-01,1.06627e-01,-5.67610e-01,3.65885e-01,-2.08462e-02,-1.15025e-01,-4.08116e-01,-6.17251e-02,1.33542e-01,-3.86073e-02,-9.00147e-03,3.33532e-01,1.95870e-01,-8.91810e-01,5.33439e-02,
5.29117e-01,4.77722e+00,1.81378e-01,-5.86256e-01,-9.57783e-01,-1.74246e+00,-1.47625e+00,-8.78128e-01,-7.41246e+00,-1.43213e+00,-2.57846e+00,-9.92103e-01,6.52987e-01,5.02884e-02,6.84733e-01,2.42921e-01,-2.60286e+00,-1.90508e-01,-2.51455e+00,-6.19165e-01,1.25439e+00,-5.66389e-01,4.49318e-01,-4.52517e-01,-2.63236e+00,5.39870e-01,-1.20328e+00,3.18102e-01,8.52469e-01,2.14885e+00,-1.13245e-01,-1.77508e-01,-4.84240e-01,-1.01291e+00,1.63626e-01,-9.16074e-01,4.05437e-01,1.63444e+00,1.64770e+00,2.07566e+00,-5.38866e-01,-2.99382e-01,1.37026e+00,1.75314e-01,-2.37689e-01,9.94964e-02,-1.82280e+00,-2.14617e-01,8.40222e-01,1.14693e-01,
-4.94309e-01,1.11746e-01,-6.06863e-01,3.50533e-01,1.12369e-01,1.84818e-02,2.24656e-01,-2.63276e-01,-2.83076e-01,4.62525e-01,-2.42873e-01,-2.46143e+00,-1.01755e+00,-2.76888e-01,8.47759e-01,-1.57107e-01,-7.32373e-02,1.13704e-01,1.43355e+00,-1.17324e+00,-2.08299e-01,1.60456e-01,-8.37124e-02,1.00065e-01,4.70833e-02,-5.37438e-01,-6.69134e-01,7.00314e-02,-8.01254e-01,1.19838e-01,5.58042e-02,6.91006e-01,-3.05857e-01,-1.31492e+00,1.17143e-01,1.30095e-01,-1.23298e-01,2.89450e-01,-4.12565e-01,-3.02307e-01,2.08366e-01,-2.36158e-01,-3.07112e-01,3.60572e-02,-6.21464e-01,6.09184e-01,4.81508e-01,-6.82741e-03,-1.06190e+00,4.87074e-01,
-2.23738e-01,7.99233e-01,-3.84853e-02,-2.61322e-01,1.16128e-01,2.16463e-02,2.90890e-01,-2.61116e-01,-1.66090e-01,4.28169e-01,2.84975e-01,6.56399e-01,7.40947e-02,4.40440e-03,-3.27658e-01,6.53395e-01,-1.46035e-01,-1.11631e-02,-1.49152e+00,3.00649e-01,-7.34745e-01,-5.86705e-01,6.75364e-01,-1.50363e-01,-6.91809e-03,1.33817e+00,-4.71918e-02,3.06660e-01,-2.04737e+00,9.58004e-01,3.07190e-02,-8.19774e-01,-2.55286e-02,4.08887e-01,-3.73906e-01,-2.54160e-01,-3.70129e-01,7.02783e-01,-2.38200e-01,6.80542e-02,9.09324e-02,-7.70587e-01,1.25672e+00,-8.74863e-02,2.74782e-01,2.11808e-01,-4.96054e-01,1.50589e-02,-1.53377e-01,5.44773e-01,
-2.54382e-01,-2.02273e-03,-1.80681e-01,-5.66434e-02,9.51435e-02,1.76709e-01,6.90928e-02,-7.58905e-02,3.92711e-02,-1.00190e-01,-1.27972e-01,6.69010e-02,-1.64631e-01,6.11916e-02,6.84600e-02,-1.49905e-01,-1.79513e-02,-1.59332e-01,-2.26585e-01,-2.68086e-01,-1.56388e-01,-2.90505e-01,1.13270e-01,1.38585e-02,-1.85036e-01,2.04109e-01,-7.45453e-02,-8.74660e-02,-9.18845e-02,1.02113e-01,-2.18494e-01,-7.33193e-03,-1.73170e-01,9.62553e-02,1.44849e-01,-1.74304e-01,1.38496e-01,-5.47033e-02,1.37771e-01,2.58950e-02,-3.03834e-01,1.66846e-01,-2.34112e-01,-1.86919e-01,1.87055e-02,5.17715e-03,-2.25495e-01,-2.42836e-01,-8.69242e-02,-9.35704e-03,
3.93196e-02,-2.93670e-02,-3.92614e-01,1.19469e-01,-3.16955e-01,2.57297e-01,2.06469e-01,-1.53985e-01,-2.03106e-01,-6.46518e-02,-1.88633e-01,1.24981e+00,-2.95437e-01,-6.38339e-01,-6.25607e-01,-3.25271e-02,1.70274e-01,1.39852e-01,-2.33090e-01,5.16886e-01,-3.20150e-01,-1.07630e-01,1.42558e-01,-2.58125e-01,2.80572e-01,-1.50750e+00,5.83976e-02,-3.49549e-02,-5.54488e-01,4.51328e-01,4.28792e-02,8.48591e-01,-9.67800e-02,6.53606e-01,-7.22609e-01,3.14611e-01,-4.63437e-01,-1.69962e-01,7.06703e-01,-4.34191e-01,2.59333e-01,4.15634e-01,2.15431e-01,-6.88263e-02,2.19158e-01,-3.50017e-01,-2.18512e-01,1.95595e-01,4.75923e-01,4.03358e-01,
-1.31441e-01,-2.32370e-01,-1.34415e-01,-6.96797e-01,-8.59813e-01,-3.65024e-01,-4.92707e-01,-6.78722e-01,9.64915e-01,-3.37144e-01,-2.89017e-02,5.93089e-01,4.38502e-01,2.25528e-01,-3.11481e-01,-6.60001e-01,2.07195e-01,-1.81630e-01,-1.69544e+00,4.20129e-01,-3.70326e-01,-4.29694e-01,1.97744e+00,-6.13842e-02,1.03476e+00,6.78934e-01,1.22742e-01,1.95965e-01,-4.26554e-02,3.82392e-01,9.79905e-02,-6.16610e-01,-2.42719e-01,4.61267e-01,-3.91241e-02,5.66987e-01,-2.10683e-01,-1.87543e-01,1.49919e-01,-9.01276e-01,5.24927e-01,-6.49217e-02,2.60252e-01,-2.15626e-01,3.13848e-01,-2.32710e-01,1.55426e-01,-9.90101e-02,-3.05861e-01,1.01363e+00,
-6.28611e-01,-2.19562e-01,-1.01086e-01,-3.41568e-01,2.29795e-01,3.55334e-01,-4.42201e-03,-3.18441e-01,-8.92874e-01,1.96503e-01,2.36910e-01,-2.94628e-01,-8.46379e-01,-3.11685e-01,1.25997e-01,2.01760e-01,-4.35057e-02,1.82204e-01,-2.12322e-01,-2.74865e-02,-1.22560e-01,-3.15391e-01,-5.73106e-01,8.33232e-02,-7.76277e-02,2.72004e-01,-9.79499e-02,1.68437e-01,-1.00835e-02,7.65496e-01,9.71473e-02,-1.80367e-02,3.69251e-01,-8.01200e-02,-1.17315e-01,6.15265e-01,-6.66552e-02,-2.01905e-01,-4.85398e-01,2.06112e-01,-1.25803e-01,-1.79283e-01,-1.67299e-01,2.27808e-02,-8.66034e-02,2.75189e-01,3.68760e-01,2.04957e-01,2.08156e-01,2.38579e-01,
-1.44531e-01,1.62181e-01,3.52300e-01,-7.05780e-01,4.80559e-01,6.57971e-01,5.80991e-01,3.41266e-01,-8.10739e-02,8.64363e-01,-1.62412e-01,-1.62270e+00,-9.00882e-02,-3.75438e-01,9.03225e-01,-4.56155e-01,-5.17300e-02,8.43355e-02,5.85409e-01,-5.08624e-01,-4.94534e-01,-3.22200e-02,6.00757e-01,5.43434e-01,1.80234e-02,3.17112e-01,2.86479e-02,-2.12004e-01,-4.55423e-01,-1.42517e-01,5.17064e-01,-4.04966e-01,9.23817e-02,-7.80603e-01,-5.74816e-01,-1.69315e+00,2.15848e-01,8.43795e-01,1.92239e-02,7.47803e-02,6.66479e-03,4.69425e-01,-9.57514e-02,1.84490e-02,-1.15953e-01,7.96034e-01,-1.28632e+00,6.50204e-02,5.68673e-01,-4.79011e-01,
-3.92175e-01,6.71369e-01,-2.16020e-01,-4.53606e-01,3.30764e-01,7.47042e-01,-4.49227e-01,-4.08781e-03,-1.06952e+00,1.62989e-01,-1.54025e-02,7.91023e-01,8.57188e-01,-7.82637e-01,-3.91307e-01,-5.85096e-02,-6.43549e-02,3.58436e-02,-3.75037e-01,4.24997e-01,-7.28918e-02,-1.78828e-01,-4.42941e-01,2.91190e-02,1.80735e-01,2.43006e-01,9.99909e-02,-1.29875e-01,5.96263e-01,-2.93452e-02,2.09083e-01,-3.03905e-01,-9.51745e-02,5.90442e-01,4.11995e-01,9.27774e-02,-4.32854e-02,-1.41009e+00,1.31417e-02,1.29088e-01,-1.87184e-01,-5.38296e-01,-6.71818e-01,-1.74838e-01,3.74579e-01,-1.46539e-01,1.68550e+00,1.39600e-01,5.78525e-01,1.38304e-01,
-1.83965e-01,-3.34974e-01,-1.77358e-01,2.62629e-01,8.43150e-02,-4.39701e-02,1.22860e-01,1.27770e-01,4.10837e-01,-1.30074e-01,-1.99271e-01,-3.08712e-02,3.08939e-01,4.92427e-01,-6.04935e-02,-4.33032e-01,7.97696e-02,9.58127e-02,-6.39975e-01,8.00525e-02,3.20344e-01,5.34470e-02,3.84555e-01,1.58927e-02,-6.17032e-03,-1.14155e-01,-2.56100e-01,3.88867e-01,3.17607e-01,-6.62575e-01,-4.63638e-02,6.16785e-02,8.86651e-01,1.73615e-01,2.06825e-01,4.57767e-01,2.28526e-01,8.88519e-01,-1.85533e-01,-1.90735e-02,-1.06815e+00,-1.72562e-01,-5.74931e-01,-3.79403e-02,1.87194e-02,-1.78902e-01,-9.33860e-02,4.72296e-02,-5.50393e-02,3.38624e-01,
1.28607e-01,1.48716e-01,2.19343e-01,2.97849e-01,-2.83741e-02,2.77035e-02,1.16020e-01,-5.36214e-01,-1.50241e+00,2.19953e-01,6.19696e-01,-8.34203e-01,-1.30119e-01,2.32369e-01,5.04315e-01,-3.15032e-01,-4.97941e-01,9.42094e-02,-1.33503e-01,-3.37126e-01,2.42079e-01,1.10941e-01,-3.54227e-01,4.73563e-01,-1.78658e-01,6.32843e-02,1.50129e-01,-4.92423e-02,-4.76256e-01,-7.34486e-01,6.47000e-01,-4.43178e-02,-3.12951e-01,-4.64774e-01,-2.11716e-01,-8.87430e-01,-4.53006e-01,7.08232e-01,-4.52159e-01,-1.36754e-01,-8.32223e-02,-2.53796e-01,1.15437e-01,3.01281e-02,-9.79512e-02,1.53219e+00,-1.88797e-01,1.37972e-01,-4.69675e-01,-8.37434e-01,
4.06178e-01,4.43909e-01,3.43772e-01,-1.78101e-01,-3.17967e-01,-5.90123e-01,-1.02598e+00,7.51797e-01,-8.62947e-01,3.78580e-01,-7.01711e-01,-3.68074e-01,-5.04668e-01,-2.98596e-01,3.33083e-01,-2.04344e-01,-4.60261e-01,-1.65230e-01,-5.34606e-01,-1.13898e-01,4.96700e-01,-8.60670e-01,4.36044e-01,3.64204e-01,8.65287e-01,2.85106e-02,3.83499e-01,-6.04600e-01,1.57605e-01,-1.17284e+01,1.79690e-02,-9.35246e-01,2.32151e-01,-2.97692e-01,6.09610e-01,1.48234e+00,5.00150e-01,-4.01385e+00,-1.38632e+00,7.12014e-01,-2.56587e-01,1.42575e+00,1.11482e-01,2.94908e-01,-2.35307e-01,-1.65353e-02,2.97937e-01,1.67764e-01,1.09216e-01,-7.33554e-02,
2.38643e-01,1.01699e+00,2.44383e-01,-1.09155e+00,2.85621e-01,1.76782e-01,-3.95217e-01,-4.69325e-01,-3.24289e-01,-2.09689e-01,-2.46799e-01,3.22034e-01,5.84225e-01,-3.65885e-01,-1.37567e-01,-4.50749e-01,-3.02913e-01,-9.25131e-02,-5.32211e-03,1.40914e-01,-1.28000e-01,-2.53633e-01,9.13524e-01,1.96454e-01,6.87940e-01,8.59410e-01,1.37390e-01,-2.68229e-01,1.23842e+00,3.40816e-01,-1.56678e-01,-9.09092e-01,4.30877e-01,2.47258e-01,1.73056e-01,4.88402e-01,-1.57672e-01,-6.94148e-01,-2.66972e-01,1.22693e-01,1.35250e-01,9.32290e-01,-1.36340e-02,-3.34277e-02,-1.07340e-01,-4.55484e-01,-3.75496e-01,4.28142e-02,-2.09883e-01,1.20795e-02,
3.60754e-01,-8.34805e-02,-9.96137e-01,-1.22742e-01,-4.59641e-01,-4.85731e-01,9.24922e-03,-5.47412e-01,-2.23280e-01,1.48635e-01,2.20627e-01,3.97832e-01,3.45804e-01,4.43683e-02,-2.72089e-01,2.56101e-01,8.38818e-02,7.11451e-03,-6.49281e-02,1.41262e-01,3.45469e-01,-6.86546e-01,2.54793e-01,-2.04886e-01,-1.43108e+00,1.42233e-01,-2.44676e-01,-2.18456e-01,1.58407e-01,-1.50765e+00,2.91056e-01,-9.57118e-02,1.01762e-02,3.30574e-01,5.79593e-02,2.77150e-02,4.15878e-02,7.26497e-02,-1.66338e-01,-1.05391e-01,1.88149e-01,-2.23285e+00,-9.14456e-02,-2.85132e-01,-1.77667e+00,-6.73476e-01,-1.91549e-01,1.69033e-01,-6.79884e-02,-2.73456e-02,
-5.98174e-01,-7.75482e-01,2.36967e-02,-3.93214e-01,1.54995e-01,-4.18127e-01,-3.57265e-01,-2.55318e-01,2.73281e-02,-2.77158e-01,-9.50031e-02,-2.04054e-01,2.59564e-01,2.55949e-01,1.52127e-01,-7.17370e-01,-1.47700e-01,-2.65151e-02,-1.04521e+00,3.89104e-03,2.61983e-01,-1.29084e-01,3.88178e-01,2.16794e-01,-9.11530e-01,5.51243e-01,1.95163e-01,-1.41153e-01,-2.66520e-01,1.69691e-01,1.98666e-01,8.90441e-02,-1.11480e-01,-5.96574e-02,-2.65128e-02,1.41280e-01,4.99898e-01,-3.05739e-02,2.08935e-01,1.27415e-02,5.31516e-01,-4.23085e-01,1.70682e-01,4.79276e-02,-5.12381e-02,-6.37612e-01,5.67006e-02,-2.00768e-01,2.95631e-01,2.76064e-01,
-2.23329e+00,-7.84265e-01,-2.74509e-01,2.84999e-01,1.95232e-03,7.53034e-02,-1.37579e+00,-5.77033e-01,1.75694e+00,-2.08116e+00,2.96995e-01,8.14368e-01,4.07455e-01,2.80992e-02,-4.69846e-01,-4.40806e-01,1.57928e-01,-1.01938e-01,-5.26875e+00,3.99968e-01,-7.60867e-01,2.84043e-01,-2.86171e-01,-1.72923e-01,-1.33692e-02,-1.95603e-01,5.66062e-02,-3.13472e-01,-1.71797e-02,-2.02166e+00,7.37525e-02,2.61670e-01,-3.07632e-01,5.70255e-01,3.43647e-01,5.53423e-01,-1.04642e-01,-1.49269e-01,1.13780e+00,9.43512e-01,-5.15524e-01,-1.00569e+00,1.80701e-01,-2.42015e-01,3.02361e-01,2.93061e-02,-1.48174e+00,-1.29625e-01,-1.75969e-01,-1.80378e-01,
-3.15655e-01,-2.30911e-01,-1.10360e-02,3.12694e-01,-5.18459e-01,-3.17339e-01,-3.59021e-01,-4.03078e-01,-2.04828e-01,6.11138e-02,-2.40437e-01,1.47149e-01,5.18815e-01,2.13055e-01,-4.70846e-02,-2.32753e-01,-1.39917e-01,2.28076e-01,2.62929e-01,-6.19921e-02,-5.26536e-01,1.18649e-01,-4.20553e-02,-7.16168e-02,-4.55628e-02,-1.96817e-01,2.60829e-01,-7.58011e-02,-2.52425e-01,5.63558e-01,-1.00262e-01,-9.51678e-02,-1.87493e-01,-5.52116e-02,1.65800e-01,7.83435e-01,9.03518e-01,-1.79411e-01,-2.28079e-01,3.99386e-01,5.40754e-01,-8.77631e-02,-8.34365e-01,2.33353e-01,-1.28058e-01,-1.32223e-02,1.99173e-01,1.09189e-01,-1.95909e-01,1.67344e-01,
-2.15137e-01,-1.14544e-01,-1.23104e-01,8.77140e-01,-1.11254e+00,-7.66296e-01,-1.03782e-01,-8.92430e-01,-3.39559e-01,-4.88872e-01,-1.54434e-01,3.14227e-02,-1.88505e-01,1.09409e+00,7.08535e-03,-7.14117e-01,3.73192e-01,-1.28935e-01,2.37802e-01,1.26597e-01,1.65815e-02,-7.93651e-01,-1.44834e+00,9.40486e-03,-1.41642e-01,6.71751e-02,1.25148e-01,-3.76423e-01,2.42283e-01,4.15460e-01,-9.60012e-02,-3.07807e-01,-4.02792e-01,-3.82650e-02,8.03073e-02,3.79586e-01,-2.99558e-01,1.56851e-01,5.24670e-01,2.87474e-01,4.23269e-01,-4.08396e-01,-1.83199e+01,1.89851e-01,6.00440e-02,-1.87815e-01,2.08795e-01,-1.14616e-01,-3.49544e-01,5.08302e-01,
-6.35975e-01,-2.62533e+00,-1.66847e-01,-3.37131e-02,-4.55876e-01,-2.21001e-01,2.40742e-01,-4.52301e-01,1.30149e-01,2.02206e-01,-3.70384e-01,-1.59556e-02,3.40630e-01,-1.91185e-02,1.02438e-02,-2.14566e-01,-6.76915e-01,1.67112e-01,-7.74769e-01,-6.62027e-03,-7.01423e-01,-5.44261e-01,7.07670e-01,6.78358e-03,3.06134e-01,-8.12643e-02,1.61531e-01,-9.20457e-02,5.64466e-01,-2.38198e-01,-3.77566e-02,4.98756e-01,-3.90487e-01,-5.75150e-02,1.37608e-01,2.06529e-01,7.85731e-02,-4.72879e-02,5.92972e-01,7.28872e-01,2.19918e-01,6.33461e-01,-1.49539e-01,2.04717e-01,1.79867e-03,2.79136e-01,-4.08737e-01,8.27308e-03,-4.90714e-01,6.29646e-01,
-4.81442e-01,-1.03162e+00,-6.71956e-02,2.14701e-01,3.91985e-01,1.32635e-01,-7.39655e-02,-3.86728e-01,1.60514e-01,-1.68151e-01,1.33490e-02,-3.04606e-01,-3.06220e-01,-1.78906e-01,6.79296e-02,-2.96063e-01,-5.90704e-01,-9.02930e-02,-7.18091e-01,-2.19490e-01,5.94615e-01,2.19646e-01,-5.91569e-02,3.78838e-02,-8.20248e-02,8.86904e-01,-1.82944e-03,1.45907e+00,-2.86125e-01,-4.37733e-01,-2.49799e-01,-2.41737e-01,-1.90714e-01,-1.98544e-01,2.62145e-01,2.55242e-03,4.65793e-02,1.58219e+00,-3.59726e+00,6.84189e-01,2.00894e-01,-1.02784e+00,1.39352e-01,1.17382e-01,-1.25176e-01,-3.41260e-01,-1.94705e-01,4.55077e-02,-4.82074e-01,-1.85469e-01,
7.64919e-01,8.00670e-01,-2.67676e+00,2.19003e-01,6.86751e-01,7.43930e-04,7.28989e-01,1.70979e-01,-1.44414e+01,-2.40056e-01,7.30235e-01,-7.59006e-01,-1.37211e-01,2.44152e-01,-3.74324e+00,6.33143e-02,-2.48878e-01,2.09139e-01,3.56729e-01,-6.27352e+00,-6.35189e-01,1.12150e-01,-9.50278e+00,1.72926e+00,-3.08915e-01,-4.58935e-01,2.88195e-01,-5.78673e-01,-2.77929e-01,-2.58095e+00,-1.22994e+00,4.01150e-01,-2.01917e-01,1.25583e+00,-4.42598e-01,-4.05384e-01,1.18302e-01,5.37397e-03,2.08655e-01,-7.99101e-01,1.96517e-01,7.03524e-01,-2.16218e+00,-1.92310e+00,-3.15436e-01,3.35886e-01,-5.29222e+00,1.58444e-01,4.25657e-01,-3.01500e-01,
5.47146e-01,
1.84894e-01,
8.79874e-01,
1.63080e-01,
1.01913e-01,
-1.83328e+00,
-5.63888e-01,
-3.08954e-02,
-1.27256e+00,
-2.06539e-01,
-4.39048e-01,
-4.72648e-01,
-1.56028e-01,
-2.52769e-01,
2.49419e-01,
3.64026e-02,
-1.76863e-02,
2.48454e-01,
6.72013e-01,
-1.33379e-01,
-4.15720e-01,
-7.92994e-01,
-2.14275e-01,
-8.08870e-01,
6.07975e-01,
-1.46481e+00,
4.75402e-02,
1.75695e-01,
8.87345e-01,
-2.08468e+00,
8.17112e-01,
-2.09541e-01,
-4.37671e-02,
-1.62706e-01,
1.82580e-01,
1.04495e+00,
-4.85136e-01,
1.86510e-03,
1.09630e-01,
1.07892e+00,
-7.77133e-01,
3.56660e-01,
-2.65036e-01,
2.10394e-01,
-1.37376e-01,
7.94580e-01,
5.16455e-02,
4.45552e-01,
5.18429e-01,
-5.42453e-01,
8.77342e-01,8.79905e-03,-4.16534e-01,-2.75657e-01,1.46491e-01,2.49977e-02,-4.47109e-02,-3.57711e-01,-2.99626e-01,2.25342e-02,-1.28188e-01,-2.05821e-01,6.05859e-02,5.24302e-02,-2.51640e-02,-1.60836e-01,-6.28703e-01,4.60392e-02,4.35107e-01,9.47032e-02,-2.16488e-01,-3.75106e-01,-6.82461e-02,-5.49911e-01,2.46955e-01,-2.14311e-01,-2.00231e-01,1.15447e-01,7.22321e-02,3.81588e-01,-6.82947e-02,1.32803e-01,1.95331e-01,-3.52337e-02,-2.36702e-01,2.83746e-02,-1.54342e-01,-3.44128e-02,-3.34780e-01,-1.14431e-01,-1.89968e-03,-9.19600e-02,-1.66617e-01,2.12322e-01,-3.66090e-02,6.59531e-02,3.44989e-01,-1.94947e-02,2.46617e-01,-3.53239e-02,
-4.86016e-01,-1.10324e+00,5.50519e-01,3.43770e-01,-2.28529e-01,-2.49145e-01,-5.70885e-02,2.44091e-01,1.39308e-01,3.78056e-01,-2.18137e-02,1.23476e-01,-2.20211e-01,8.54187e-02,-1.95779e-01,-4.13039e-02,-3.18606e-01,-1.59622e-01,3.67061e-01,-5.16841e-02,-5.33785e-02,-8.85062e-01,-3.23601e-01,-1.60121e-01,6.33328e-01,-6.54804e-01,7.66404e-02,5.96733e-01,-5.77822e-01,-1.34091e-02,-2.75870e-01,9.30143e-02,1.29855e-01,4.14486e-01,4.82404e-01,9.45714e-02,-7.79280e-02,1.09962e-01,1.66436e-01,-2.34492e-01,-8.10742e-02,1.65076e-01,4.84204e-01,1.98111e-01,-3.75008e-01,2.12332e-01,-5.69685e-01,3.70411e-01,-3.14412e-01,4.08398e-01,
3.82923e-01,-2.02862e-01,2.49926e-01,-1.89272e-02,-9.20385e-02,-1.84940e-02,2.44033e-01,2.62873e-04,2.23442e-03,1.05490e-01,9.47795e-02,-2.31410e-01,-3.92129e-02,-2.39302e-01,-2.38723e-02,-3.74151e-02,2.23151e-02,3.68516e-01,3.49481e-01,-1.33086e-01,-3.69227e-02,-5.02933e-01,-7.95774e-03,-1.38079e-01,2.07204e-01,2.87974e-02,-9.33221e-02,4.83697e-02,5.51670e-01,1.44073e-01,-7.54635e-02,1.50880e-02,-1.97137e-01,1.95575e-01,4.66648e-01,2.04163e-01,-2.67594e-01,-4.48994e-02,1.19518e-01,-1.18244e-01,1.61921e-02,8.22342e-02,2.24058e-01,-1.72690e-01,-1.50714e-01,1.80989e-01,-9.08963e-01,-1.37824e-01,2.81199e-01,3.24893e-01,
-1.90818e-01,-2.14624e-01,-2.75774e-01,6.62139e-02,1.06908e-01,-2.01326e-01,-2.32849e-01,4.21360e-02,-2.03435e-01,-1.22496e-01,-3.18593e-01,-1.22068e-01,1.07435e-01,-1.38736e-02,1.04522e-01,4.26041e-02,9.81521e-02,-8.39727e-03,-2.07894e-01,-2.22670e-01,-2.65278e-01,1.44694e-01,-1.89701e-01,-1.55620e-01,-2.80012e-03,4.34406e-02,-1.59115e-01,1.40110e-01,-1.95905e-01,-2.39588e-01,-1.13728e-01,6.22065e-02,7.63460e-03,1.50872e-01,1.41711e-01,-1.15230e-01,-1.04370e-01,1.21216e-01,-1.89793e-01,-2.45509e-02,1.87653e-01,5.30464e-02,2.20631e-01,-1.45917e-01,2.75433e-02,-2.34018e-01,-6.83503e-02,-2.13766e-01,1.38707e-01,6.58243e-02,
2.58497e+00,5.47260e-03,1.01547e-01,6.53616e-01,2.28960e-01,-6.23628e-01,-5.66561e-01,2.55191e-01,1.49021e-01,-7.67589e-01,-4.69031e-01,6.23089e-02,4.38341e-01,-7.16993e-01,-3.64895e-01,9.41195e-02,-2.30764e-01,3.91306e-01,9.46603e-02,-1.45075e+00,6.61591e-01,-7.34520e+00,2.44677e-02,6.20473e-02,5.99604e-01,-3.49842e-01,-1.05684e+00,-2.68234e-01,1.11318e+00,-3.71680e-01,-1.15157e-01,-2.16262e-01,-1.73314e-02,2.25031e-01,-4.55873e-01,-2.58875e-01,-4.84900e-01,2.14376e-01,1.76596e-01,6.96908e-02,1.63673e-01,-3.27887e+00,2.38218e-01,-4.98799e-01,-3.03748e-01,-6.88576e-01,4.85256e-01,1.00918e-01,-2.38001e-01,-1.65837e-01,
1.24340e+00,-1.10661e+00,2.22275e-01,-1.04930e-01,5.19828e-01,-9.00867e-02,-2.74965e-01,-5.20124e-01,-6.95345e-01,4.22171e-01,-7.94945e-02,-3.52187e-01,-1.41196e-01,-1.23689e-02,5.08684e-02,8.79421e-02,-1.17010e+00,-6.60779e-01,-1.19419e-01,-8.18223e-01,-2.40669e-01,4.40697e-02,-5.20468e-02,-1.17371e-01,-7.96043e-01,-6.07837e-01,-4.64914e-01,7.77637e-01,-4.37510e-01,5.97980e-01,-3.30380e-01,3.03096e-01,-2.06605e-01,2.83513e-01,4.07513e-01,1.78872e-01,-5.72625e-02,2.17718e-01,1.60171e-01,4.12330e-02,-1.79145e+00,3.12759e-01,8.64924e-02,-1.34462e-01,-4.97940e-01,-3.63691e-02,-2.73994e+00,3.92312e-01,-2.92681e-02,-5.89466e-01,
-1.42220e+00,3.09446e-01,-7.41764e-02,-1.54542e-01,-3.66087e-01,4.95238e-02,5.48516e-01,-3.10627e-01,-4.19862e-01,-1.24055e+00,2.05549e-01,-4.21541e-01,8.80900e-02,8.68251e-02,1.32028e-01,1.26030e-01,1.92279e-02,1.51087e-01,2.87226e-01,-9.69390e-02,-5.27253e-01,-6.75205e-01,2.17388e-01,-3.30785e-02,2.22609e-01,1.40363e-01,-3.11697e-01,4.03539e-02,1.45349e-01,4.38139e-01,-4.47578e-01,-7.25698e-01,1.31457e-01,2.70172e-01,3.99057e-01,7.37581e-01,-4.95279e-01,-1.00058e-01,2.37337e-01,5.41859e-01,5.97953e-01,3.69160e-01,-5.08743e-02,3.74138e-01,-5.99931e-02,2.77458e-01,-4.16701e-01,-3.48866e-02,4.05569e-01,1.95525e-01,
2.10285e-01,2.05779e-01,-3.53706e-02,-2.49886e-01,-1.71604e-01,-3.29584e-01,-2.74987e-01,-4.03774e-01,-7.65010e-01,6.39905e-02,-2.63218e-01,-4.41688e-01,1.41919e-02,2.61892e-01,-1.71027e-01,7.55686e-02,4.76723e-02,-3.99803e-02,1.77460e-01,-4.42440e-01,5.96424e-02,-1.88209e+00,1.88474e-01,5.60140e-02,-6.43574e-01,6.41554e-01,-1.97035e-01,-3.93121e-01,-2.54711e-01,5.94823e-01,2.55906e-01,-3.02393e-01,2.08882e-01,2.69821e-01,-3.89847e-01,4.87803e-01,-1.03298e-01,5.96086e-02,-9.10447e-02,-5.14110e-02,-3.79997e-01,-7.38248e-01,-1.11464e+00,-6.18022e-01,3.46475e-01,1.01822e-01,5.66917e-01,3.05529e-01,3.53802e-02,1.81337e-01,
3.40822e-01,-7.37498e-02,2.45236e-01,5.75305e-03,4.93502e-02,-1.01542e-02,2.51068e-01,-1.38452e-01,-3.19113e-02,-1.68316e-01,1.64469e-01,7.77875e-02,1.23844e-01,-2.19094e-02,-2.13296e-01,-1.26751e-01,5.77472e-02,3.66424e-02,1.94990e-01,4.70811e-02,1.14727e-01,1.35772e-01,-6.12885e-02,7.25676e-02,-9.80697e-03,-1.10144e-01,3.60075e-01,1.62672e-01,5.82611e-01,-7.30992e-02,1.54733e-01,1.24462e-01,2.12898e-02,-3.17238e-01,-1.65997e-01,-7.96534e-02,-6.03519e-02,-8.32231e-02,2.33987e-01,-1.65494e-01,4.89843e-02,1.74506e-02,4.33070e-01,-2.69989e-01,-2.42282e-01,-4.02897e-01,1.71137e-01,4.54338e-01,1.21005e-01,2.42893e-01,
2.30403e+00,8.49730e-02,1.37150e-01,1.08470e-01,1.80580e-01,1.57672e-03,-5.01020e-01,-1.18185e-01,-4.42379e-02,-3.02500e-01,-1.35223e-01,6.57270e-02,1.02754e-01,1.25968e-01,-8.47392e-01,7.76400e-02,-1.47640e-02,1.15186e-01,-1.97684e+00,3.69788e-01,5.18586e-01,6.60818e-01,-1.28428e-01,-7.69207e-02,-1.58363e+00,3.23833e-01,-7.08195e-02,-1.28189e-01,1.50233e+00,8.74024e-01,3.35604e-01,-9.06234e-02,-4.29429e-02,1.72692e-01,6.01011e-02,-1.04286e+00,-2.99318e-01,3.50638e-01,-5.06235e-01,1.63660e-01,2.51784e-02,2.48458e-01,1.78388e-02,2.14572e-01,-4.91699e-01,-6.08665e-01,1.32221e-01,-3.57658e-01,-6.79059e-01,-2.23308e-01,
-7.44809e-01,-1.64015e-01,-3.50090e-02,2.50958e-01,-1.70078e-01,-1.89809e-01,-2.46404e-01,5.51641e-02,-5.03816e-01,-2.87958e-01,-3.66777e-01,-3.16695e-02,7.37150e-02,-7.74028e-02,-5.42175e-01,-1.76171e-02,2.78561e-02,4.35575e-02,2.10829e-01,3.08976e-01,2.19973e-01,3.78909e-01,-7.75626e-03,2.86116e-01,8.04032e-01,-5.87535e-01,-3.94235e-01,8.09981e-03,-4.07273e-01,2.79935e-01,-4.49512e-02,-8.30082e-02,-1.75834e-01,3.19529e-01,-6.60611e-02,-1.09475e-01,1.70618e-01,-1.59528e-01,-1.66646e-02,-2.31926e-01,-1.13669e-01,-7.98793e-02,1.37319e-01,-6.70223e-02,4.51900e-01,2.60903e-01,1.33833e+00,-5.21390e-01,4.80357e-02,-2.43098e-01,
-1.04668e-01,6.03524e-02,-1.52754e-01,-2.25928e-01,-2.95887e-01,-2.02126e-01,-2.17292e-01,-2.77401e-01,-2.51144e-01,2.30839e-01,-1.09036e-01,-1.09860e-03,8.40936e-02,-2.10065e-02,1.36980e-01,-1.37689e-01,-8.14919e-02,-2.83148e-01,-3.84175e-01,2.12891e-01,6.13148e-01,-2.10735e+00,-3.52674e-02,7.02451e-02,-8.57852e-02,1.41095e-01,-5.50421e-01,2.24048e-01,-2.80775e-01,-4.63552e-02,4.62206e-01,5.59797e-02,7.00268e-02,2.64283e-02,-3.63800e-01,-3.95190e-02,-2.03229e-01,1.21893e-01,-1.85879e-02,7.50956e-02,7.10964e-01,-3.28989e-01,-1.70533e+00,-5.92842e-01,2.94602e-01,4.15997e-01,-2.79873e-01,2.65613e-01,-7.70909e-05,-2.43869e-01,
3.96722e+00,-3.56176e-01,5.86589e-01,4.34871e-01,-1.51890e-02,-3.60244e-01,-1.98558e+00,2.90114e-01,1.26094e-01,3.94392e-01,7.20222e-01,1.41926e-01,4.62485e-02,-2.54443e-01,3.12947e-01,1.24785e-01,4.03319e-02,2.65629e-01,-2.41400e-01,-4.70932e-01,1.16635e+00,1.50666e+00,-8.85564e-02,-1.48519e-01,1.33349e+00,-1.26341e+00,-3.17142e-01,1.55482e-02,6.18196e-01,3.68080e-01,-1.24408e-01,2.12600e-02,2.24031e-01,1.20060e-03,-4.38317e-01,-6.63830e-01,-5.62729e-02,-8.23570e-01,-5.51714e-01,2.87312e-01,1.54942e-01,-1.84659e+00,-6.71109e-01,4.82474e-01,8.86509e-02,-1.19759e+00,-3.36024e-01,-2.01734e-01,-1.14125e+00,8.81431e-02,
1.39867e+00,-1.49812e-01,-5.88490e+00,6.29027e-02,-1.07568e-01,-8.36027e-01,-1.20255e+00,-4.04078e-01,-6.77619e-01,-3.35816e-01,2.22931e-01,-1.27471e+00,2.28881e-01,7.19792e-01,-4.06593e-01,-1.09972e-01,-1.17775e+00,-5.84045e-01,3.57997e-01,-4.76881e-01,2.99279e-01,1.03553e+00,3.17425e-01,-8.76144e-01,-2.87372e-01,-4.76306e-02,-7.97750e-02,2.86132e-01,-1.46693e+00,1.26848e+00,5.97924e-01,-1.00915e+00,-2.51755e-01,8.38028e-01,-2.06255e+00,2.46472e-01,-2.97198e-01,3.46280e-01,-1.67953e-01,-2.06138e-01,6.99346e-01,1.13828e+00,-1.53852e-01,-1.25835e-01,7.86156e-01,-1.13552e-01,-4.17698e+00,3.82619e-01,2.21825e-01,-3.01442e+00,
4.24531e-01,8.23100e-02,-3.45278e-01,-5.59020e-02,2.16662e-02,1.54244e-01,-5.11683e-01,-1.42828e-01,-1.07175e-01,-5.19957e-01,1.68155e-02,-1.67799e-01,-4.18828e-02,2.72577e-01,1.62712e-01,6.88237e-02,1.71395e-01,-1.55848e-01,5.39424e-01,-8.49167e-01,4.41918e-02,4.38875e-01,9.65381e-02,1.89357e-01,1.05178e-01,5.29004e-02,-2.02513e-01,1.06761e-01,-4.12537e-01,-9.17606e-02,2.80287e-02,-2.82742e-01,-2.29232e-04,1.08746e-02,-5.77470e-01,1.20277e-01,2.17177e-01,-1.44996e-01,9.45790e-03,2.63691e-02,6.78163e-01,-3.26608e-01,-7.00279e-01,6.90466e-01,1.37272e-01,-5.10192e-02,-6.69541e-01,-1.07323e-01,-9.94001e-02,1.88609e-01,
-1.94220e+00,3.14045e-01,7.37366e-02,2.89816e-01,9.43745e-02,-1.89084e-01,-9.00009e-01,-3.32982e-01,-1.11177e-01,6.64220e-02,2.54662e-01,-4.89220e-02,-1.65926e-02,2.15711e-01,1.18161e-01,2.37158e-01,-1.28232e-01,-2.74387e-01,-1.83867e-01,-2.85607e-01,2.72820e-01,8.08306e-01,4.30346e-01,1.46514e-01,7.29478e-01,3.68151e-01,-4.36950e-01,2.40252e-01,5.61075e-01,5.56368e-01,-2.06108e-01,-4.37447e-01,1.04669e-01,2.79855e-02,-5.50178e-01,1.27683e-02,-1.64796e-02,-3.04988e-01,-4.57207e-01,2.84326e-01,2.40401e-01,-6.14419e-01,1.66454e-03,-1.16305e-01,5.59276e-01,-6.53309e-01,1.55955e-01,5.59834e-01,-1.75840e-01,-4.15181e-01,
8.39735e-01,-1.02183e+00,-5.74943e+00,1.61199e-01,-9.35756e-01,-1.03736e+00,2.55206e-01,1.02684e+00,-1.47558e+00,-1.74756e-01,2.67471e-01,2.37797e-01,-2.31143e-01,2.16774e-01,-6.60265e-02,-1.39859e-01,-3.24824e+00,3.89714e-01,5.33645e-01,-2.03290e-01,-3.78369e-01,-7.90659e+00,3.49808e-01,-2.44671e-02,4.73980e-01,-3.93367e-01,5.95350e-02,-1.48690e-01,-2.46180e+00,-3.87225e+00,7.75053e-01,8.23712e-01,-7.95928e-02,5.18159e-01,-5.97570e-01,-1.54071e-01,-8.34488e+00,9.07098e-02,4.00856e-01,1.63164e-01,-2.64939e-01,-4.32895e-01,-1.76283e+00,1.64097e-01,-5.69052e+00,5.00819e-01,1.91392e+00,1.41372e-02,-4.32083e-02,-4.85604e-01,
3.57685e-01,-1.14307e-01,2.93216e-01,-2.04986e-01,-3.49927e-01,-4.28766e+00,3.03892e-02,-6.57944e-02,2.48713e-01,4.18057e-01,1.55262e-01,-5.24152e-01,-3.84754e-01,5.34117e-01,4.74446e-01,1.01731e-01,9.11428e-01,1.52021e-01,5.42783e-01,-4.16457e-02,-2.46007e-01,4.45415e-01,-1.78301e-01,3.67628e-01,9.70908e-01,-6.48750e-01,5.53108e-03,1.63789e-01,4.27420e-01,5.61570e-01,-2.25475e-01,-3.04908e-01,2.51489e-02,3.51444e-01,-6.74182e-02,6.06096e-01,-4.97298e-02,-2.10695e-01,1.34391e-01,2.11560e-01,-3.28515e-02,9.29615e-02,5.01449e-01,-4.43550e-01,5.71073e-01,-3.58997e-01,-2.82422e+01,-6.35180e-01,-2.31103e-01,-6.40996e+00,
3.50308e-01,-3.69084e-01,-7.74804e-01,4.53358e-02,-4.42303e-01,-7.09043e+00,-3.73709e-01,6.46474e-01,-6.38390e+00,-2.07501e-01,-3.04752e-01,4.83807e-01,-3.58887e-01,4.47569e-01,-3.15757e-01,1.70193e-01,3.12472e-01,3.34072e-02,3.21060e-01,-3.69440e-01,9.63372e-02,-1.87030e+00,-1.89938e-01,-4.93339e-01,2.55101e-01,5.65493e-01,-7.45265e-01,-3.79100e-01,-6.21745e-01,-7.14096e+00,-3.78319e-01,3.58411e-01,2.56501e-02,-4.53988e-01,2.21691e-01,3.76932e-01,-1.33341e-01,9.95983e-02,-1.36661e+00,-1.36469e-01,-2.32664e-01,3.28539e-01,-3.40960e-01,-3.44876e-01,-3.09283e-01,6.63930e-01,-5.03296e+00,-1.83021e-01,3.03798e-01,-1.23148e-01,
3.18923e-01,2.92565e-01,-7.81719e-01,4.26896e-01,-7.86071e-02,-1.94727e-01,-2.71382e-01,1.36902e-01,3.55797e-01,-1.85268e-01,9.82976e-01,4.03786e-01,2.15375e-01,-2.47418e-01,-1.91989e-01,1.43593e-02,7.01828e-02,1.49520e-01,2.57891e-01,-7.28477e-01,6.53625e-01,4.89454e-01,-2.84664e-01,2.93529e-01,1.82376e+00,-8.30050e-01,-9.42041e-01,-4.91038e-01,2.87966e-01,9.22213e-02,-3.36672e-02,5.32023e-02,1.18214e-01,-1.87097e-01,-3.70614e-01,-1.12440e+00,1.53701e-01,-7.22847e-03,-1.12969e-01,-4.07248e-01,7.07702e-01,2.12310e-01,-2.65762e-01,4.19596e-01,1.24374e-01,-6.75020e-01,1.80840e+00,-1.46580e+00,-7.00785e-01,1.91331e-01,
7.90635e-03,1.99665e-01,-2.10415e-01,8.71841e-02,3.21779e-01,-1.21225e-01,7.28519e-02,1.75982e-01,7.12863e-02,3.75990e-01,-1.37599e-01,-8.77646e-02,2.36897e-02,-7.67189e-02,-1.33732e-02,-1.46163e-01,-1.06633e-01,1.24401e-01,-3.47676e-01,3.88185e-01,-1.67368e-01,7.88805e-02,-3.69493e-02,1.66272e-01,2.78040e-01,1.39176e-01,1.01964e-01,-1.76239e-02,-5.04374e-01,3.23928e-01,-3.83445e-02,6.45688e-02,3.18497e-02,-1.30350e-01,1.82911e-01,2.00871e-01,4.10665e-03,-4.10721e-02,-3.05918e-01,4.22916e-01,-3.62399e-01,1.96051e-01,-2.07453e-02,-5.48421e-01,1.84014e-01,-1.37198e-02,-3.23592e-01,3.48281e-02,9.58049e-02,-2.43929e-02,
1.40007e+00,-9.82088e-02,3.23172e-01,-1.95444e-01,-1.24017e-01,2.13250e-02,5.86222e-03,-1.52884e-01,-1.53302e-02,-9.20289e-03,-1.48519e-02,-8.38553e-02,-1.75570e-01,-3.48646e-02,-9.74045e-03,-2.41884e-01,4.75873e-02,-7.71040e-03,4.80008e-01,2.00747e-01,9.11596e-02,-3.13020e-01,-3.15816e-02,-1.43712e-01,7.02091e-01,2.13742e-03,-8.30214e-02,-4.93051e-02,3.09139e-01,-4.83534e-02,-3.34418e-02,-9.71729e-02,1.20576e-01,-1.44704e-02,1.12356e-02,1.95134e-01,1.17558e-02,-7.92095e-02,-2.64905e-01,-3.87337e-02,-4.02695e-02,-1.42144e-01,-9.59402e-02,1.85257e-01,-4.58890e-02,2.11048e-01,9.55238e-02,2.72746e-01,1.78182e-01,1.60996e-03,
5.69823e-01,-1.60484e-01,4.29923e-01,-9.12572e-02,1.42750e-01,-9.08177e-02,4.00016e-02,-2.03141e-01,1.00855e-01,-5.35140e-02,-1.29494e-02,-4.66199e-01,-3.78915e-01,4.18026e-02,1.72277e-01,1.84539e-01,3.38744e-02,-8.92319e-02,-9.23490e-01,1.29278e-01,-3.20561e-01,-5.43442e-01,-2.81204e-02,-2.58058e-01,6.07871e-01,-6.20467e-02,1.11208e-02,2.33469e-02,-5.39564e-02,9.11669e-02,-3.28051e-01,-1.13922e-01,-1.63975e-01,1.72877e-01,2.37701e-01,2.41825e-01,4.92208e-02,-2.19642e-01,-4.16889e-01,-3.50682e-03,2.12725e-01,-1.85116e-01,-3.63929e-03,1.26875e-01,-1.10194e-01,4.81769e-01,-3.44439e-01,1.16935e-01,6.46612e-02,6.49174e-02,
-1.32467e-01,-1.05708e-01,3.02309e-01,-3.99551e-01,1.67840e-02,-9.75257e-02,9.96489e-03,-3.24230e-01,1.61246e-01,1.39381e-02,-4.60566e-04,-1.08543e-01,-2.96719e-01,2.48007e-02,-2.80562e-02,3.44843e-02,3.62876e-02,-9.57186e-02,4.67367e-01,6.62925e-02,2.32103e-01,-6.26824e-02,7.49178e-02,-2.64877e-01,5.74900e-01,3.55184e-02,-2.93452e-01,-2.22111e-01,-2.05633e-01,1.00059e-01,-3.30354e-03,2.64856e-02,-5.37200e-02,-1.51260e-01,-2.21022e-01,7.35836e-02,3.33267e-02,-8.33568e-02,-3.53740e-01,-1.67969e-01,-2.10117e-01,-3.13693e-01,-6.70257e-04,-4.17968e-02,2.82212e-02,2.27512e-01,1.61403e-01,2.69371e-01,2.25463e-01,-1.34062e-02,
-6.82360e-01,-1.80050e-01,-7.06503e-01,-4.54949e-01,1.31160e-01,1.19921e-01,-9.22548e-02,-2.18073e-01,-6.40461e-02,9.90458e-02,-6.14538e-02,2.16947e-02,1.07173e-01,4.58795e-02,1.30166e-01,1.16913e-02,-1.88548e-01,1.26069e-01,-6.18223e-02,4.42884e-01,2.74209e-02,3.36589e-01,3.43952e-02,-1.56959e-01,1.90701e-01,-4.97171e-01,-1.11834e-01,-1.30668e+00,4.06380e-01,-2.64189e-01,-2.45318e-03,1.06328e-01,3.17622e-02,4.71187e-01,-2.88754e-01,2.26076e-01,-7.32661e-02,1.51194e-01,-2.06634e-01,4.87032e-03,-2.45922e-01,-2.81952e-01,-3.35921e-02,-3.22393e-01,1.98596e-01,1.59052e-01,-2.46220e+00,1.92581e-01,1.92219e-01,6.60688e-02,
-8.14396e-02,1.00732e+00,-9.56370e-01,2.06424e-01,-9.50089e-01,-8.39478e-01,4.45296e-01,-5.65470e-01,-1.20456e+00,-2.22148e+00,-1.64949e+00,-1.66179e+01,6.23064e-01,-1.08126e+00,-1.39159e+01,1.77109e-01,-4.52583e+00,1.07560e+00,7.73168e-01,-1.15083e+00,-5.41260e-01,-6.99796e+00,-6.11417e-01,-6.55223e-01,-1.89600e+00,9.32038e-01,-2.04004e+00,-1.40552e-01,9.06796e-01,-1.66925e+00,-6.35611e-02,-2.62379e+00,-2.44254e-02,1.14589e+00,-2.74066e+00,-1.67318e+00,-5.89461e-02,-4.39767e-01,-1.11495e-01,1.73660e+00,-8.45123e-01,-6.01784e+00,-1.45937e-01,1.10977e-01,5.17595e-01,-1.99443e+00,-6.12861e+00,-2.94531e-01,-3.65947e-02,-2.07665e-01,
7.73820e-01,9.61069e-02,5.27767e-01,-2.05805e-01,-6.65750e-01,-1.06957e+00,1.15480e-01,1.62629e-02,-2.69272e+00,6.90326e-01,-2.62861e-01,-1.25321e+00,-2.30503e-01,8.54522e-02,-4.37716e-01,-2.08623e-01,-1.60605e+00,-2.32306e-01,5.20001e-01,-4.69391e-01,-1.54344e-02,4.08508e-01,-5.18082e-01,-1.03199e+00,8.82454e-01,1.17410e+00,5.94066e-01,1.74154e-02,4.45687e-01,8.16209e-01,2.45332e-01,6.82051e-01,-3.74386e-02,5.14986e-01,1.67746e-01,-3.07644e-01,2.03969e-02,-3.85216e-01,8.84856e-02,-3.52142e-01,-3.19091e+00,1.59292e-02,-4.26595e-01,4.94695e-01,-5.68810e-01,-7.29953e-01,4.77800e-01,2.09007e-01,5.85948e-01,-9.31724e-01,
6.62415e-02,-2.48227e-02,-4.23481e-02,2.49536e-01,1.32093e-01,-1.61077e-01,-9.00222e-01,1.31944e-01,-5.22302e-02,-8.34610e-02,-4.56109e-01,1.19593e-01,1.19143e-01,4.17314e-01,3.94750e-02,1.71918e-01,-1.23118e-01,-5.65220e-01,-6.67726e-02,1.17565e-01,2.46353e-01,3.29138e-03,5.43729e-02,1.65730e-01,1.36401e-01,-3.38886e-01,-2.38414e-01,7.05733e-03,1.38194e-01,2.80897e-01,-8.39919e-02,-5.03425e-02,4.33974e-02,1.92919e-01,4.96674e-02,-1.24261e-01,4.03747e-01,-1.16038e-02,3.48207e-02,-9.63297e-02,4.38941e-02,-4.35337e-02,4.74423e-01,2.16109e-01,7.83051e-02,-1.64040e-01,7.76237e-01,-9.58340e-02,-9.17370e-02,-3.33888e-01,
-1.08463e-01,-1.54183e+00,1.82496e-01,5.60996e-02,3.25875e-01,-9.89433e-01,-3.17008e-02,2.19646e-01,-5.10800e-01,-1.73590e+00,1.96769e-01,-2.58898e-01,-1.64613e-01,1.09161e-01,-2.98489e-01,5.41748e-02,-2.40890e-02,-5.85836e-01,-8.04782e-01,-5.85586e-02,3.00418e-01,-2.51574e-01,7.77543e-02,-3.45935e-01,-3.28304e-01,2.86574e-01,5.67928e-01,4.98673e-01,-1.00542e-01,-1.91126e-01,-2.67516e+00,6.84635e-01,3.58714e-02,7.56472e-01,-3.37430e-01,6.48324e-01,-9.29493e-01,7.19740e-02,-1.72084e-01,1.07847e-01,-1.82974e+00,1.85097e-01,2.52401e-01,-2.91201e-01,-5.57231e-01,2.47385e-01,1.22058e+00,-2.87954e-01,8.41894e-01,-1.04972e-01,
5.84686e-02,-6.25724e-02,1.23531e-01,9.86832e-02,-2.28098e-01,-2.14560e-01,-2.54739e-01,-3.74167e-01,-3.46945e-01,4.44196e-01,-3.80897e-01,3.69200e-02,-4.37983e-01,-1.24969e-01,1.19229e-01,-1.36876e-01,-1.86807e-01,-1.27905e-01,1.92679e-01,2.05373e-01,3.42640e-02,-6.06579e-01,-1.94964e-01,-2.39663e-01,-6.23118e-02,-2.24963e-01,1.10358e-01,6.87927e-01,-3.16147e-01,-6.76474e-02,-1.08765e-01,6.59056e-02,4.93805e-02,2.07972e-01,5.95762e-01,5.88996e-02,7.23936e-02,3.44773e-01,-3.32223e-02,-3.97831e-01,-3.36523e-01,-2.58835e-02,-7.92641e-02,4.17308e-02,-3.05939e-01,3.00204e-01,-7.99627e-01,1.53805e-01,-7.80087e-01,-4.50755e-03,
-5.57431e-01,-1.87486e-01,2.72342e-02,1.04804e-01,-4.71884e-01,-1.16608e-01,-3.65045e-02,5.81289e-02,-8.05643e-02,-3.99798e-01,-2.41469e-01,-1.28801e-01,2.09798e-01,2.76999e-01,1.71207e-01,1.25617e-02,-2.70800e-01,1.38039e-01,1.53724e-01,3.96871e-01,3.37762e-01,-6.75129e-01,-1.50621e-01,1.63571e-01,2.93501e-01,-4.37681e-01,1.61851e-01,8.60429e-02,-3.82389e-01,2.92656e-01,-7.19024e-01,-1.42167e-01,1.28684e-01,2.75087e-01,4.39399e-02,3.22635e-01,-3.21247e-02,-3.05637e-01,2.33967e-03,-1.82885e-01,-1.91337e-01,-2.77548e-02,-2.63104e-01,-1.17140e-02,3.45917e-01,3.43926e-01,-6.33884e-01,3.71255e-01,-1.56298e-01,-2.56425e-01,
-9.71502e-01,-2.29518e-01,8.39351e-02,-3.18362e-03,1.73631e-01,-4.22105e-01,-3.65661e-01,-1.19499e-01,-4.78959e-01,1.12094e-01,-7.79787e-02,-2.76580e-02,-8.97657e-03,-3.06618e-01,4.68670e-01,2.38956e-01,-1.60217e-01,-6.81809e-02,-1.78464e-01,1.03700e-01,1.52190e-02,-2.76183e-01,-1.46293e-01,9.85848e-02,7.85328e-01,-6.58632e-03,-2.86956e-02,3.37684e-01,6.46114e-01,2.25442e-01,-2.83221e-01,1.92868e-01,8.03705e-02,6.83110e-01,-1.47701e-01,1.38351e-01,-1.18511e-02,-1.47037e-01,-1.35997e-01,2.36846e-01,-2.75458e-01,-1.15341e-01,1.48835e-03,6.89223e-02,4.04475e-01,-1.37519e-03,-9.30778e-02,2.17281e-01,-8.45616e-02,-2.09379e-01,
-1.02423e+00,-2.15310e-01,7.85029e-02,-3.40226e-01,-3.99180e-01,1.34303e-01,-6.67713e-01,-3.44657e-01,-5.25652e-01,1.55281e-02,3.93704e-01,4.94593e-01,-2.94587e-01,3.61139e-01,-9.29286e-02,1.70604e-02,5.80669e-01,-3.50046e-01,-1.35541e-01,9.31417e-02,-1.51541e-01,-2.44482e+00,-2.19804e-01,4.71826e-02,9.75200e-01,-3.38968e+00,-3.57051e-01,-2.02171e+00,-7.14713e+00,-2.73896e-02,3.98535e-01,-5.40833e-01,-1.42041e-01,-2.02316e-01,-7.16972e-01,-4.28709e-01,-8.47879e-01,1.70417e-01,2.03401e-01,4.11403e-02,2.88069e-01,-3.96677e-02,-1.42317e-01,4.21612e-01,-3.91522e-01,-9.71765e-01,-6.51965e-01,1.05004e+00,-4.34246e-01,-3.90792e-01,
8.95782e-02,-1.55383e-01,8.88555e-02,-8.19423e-03,3.78676e-02,-1.66743e-01,3.33019e-01,6.17462e-02,-4.51140e-02,-6.76065e-02,-4.08625e-01,-1.56551e-01,3.58638e-01,4.58169e-01,-1.22499e-01,6.76123e-02,-2.39066e-01,9.68210e-02,-8.30585e-01,9.46332e-01,3.51463e-01,8.13261e-01,-2.30405e-01,5.46684e-01,-1.71835e-01,9.06773e-02,-2.43654e-01,-4.33988e-01,1.22986e-01,3.57635e-01,-8.89140e-01,-2.72527e-02,1.70574e-01,2.72415e-01,-5.58266e-01,8.37858e-02,-5.76485e-01,-2.53472e-01,1.23844e-01,-4.20453e-02,-1.42151e+00,1.29818e-01,-1.72723e-01,-3.66202e-01,-3.46036e-02,3.08513e-01,-1.03077e-01,-2.38533e-01,-4.78547e-02,7.51550e-02,
1.74192e+00,2.80004e-01,-2.52039e-01,4.49987e-01,-3.38061e-01,-2.54246e-01,-1.43710e-01,1.64799e-01,3.13884e-01,-5.20013e-01,1.24006e+00,4.26373e-01,7.16052e-02,-7.72156e-01,-1.27512e+00,1.85309e-01,6.18124e-01,2.34435e-01,2.46193e-01,3.62717e-01,4.83479e-01,2.13372e-01,-8.28113e-02,2.75537e-01,5.26830e+00,-9.94842e-01,-4.11495e-01,-5.25786e-01,6.75395e-01,1.50714e-01,-7.77346e-01,9.29195e-02,-1.13359e-01,3.99610e-01,-2.27000e-01,-1.47154e+00,1.26665e-01,-1.03964e-01,-2.34296e-01,-8.00001e-02,6.50076e-01,3.18393e-02,-9.43964e-01,5.50465e-01,4.26316e-01,-6.94515e-01,3.75540e+00,-2.21543e+00,-1.14452e+00,-1.62148e-02,
7.81876e-01,1.10928e+00,-7.77641e-01,-1.03388e+00,-4.54786e-01,-2.95210e-01,6.43557e-01,-1.21011e+00,1.29478e+00,-1.07724e-01,4.53500e-01,-2.21324e-03,-4.25618e-01,4.85616e-01,5.99081e-01,2.43212e-01,1.32897e+00,1.51007e-01,2.83717e-01,8.54405e-01,1.00918e-02,1.87811e+00,2.44593e-01,3.63616e-01,3.67398e-01,1.58755e+00,1.06028e-01,2.34384e-01,-1.75376e-01,4.44584e-02,-2.16799e-01,-5.94032e-01,1.35593e-01,-8.33467e-01,-1.09595e-01,-1.14543e-01,-1.03601e+00,-1.72563e-01,-6.43601e-02,2.42953e-03,2.99879e-01,-5.79189e-01,9.75361e-01,-3.24031e-01,5.79621e-01,-8.81980e-02,8.13413e-01,1.79018e-01,7.64748e-03,1.31634e-01,
-7.16014e-02,-8.97727e-01,-9.15446e-03,1.00147e-01,2.33309e-01,-7.54754e+00,-8.54421e-01,3.44299e-01,-1.59828e-02,6.36908e-02,-5.51637e-01,-3.65116e-02,-8.72272e-02,2.93268e-01,-8.16013e-01,3.20290e-02,3.45869e-01,-8.41201e-01,2.73300e-01,2.73592e-01,1.01322e-01,-2.18697e+00,9.94377e-02,6.14689e-02,4.56813e-02,-1.26531e+00,4.52736e-01,4.12526e-01,4.55954e-01,-7.38648e-01,-3.60771e-01,6.47426e-02,-1.24567e-01,6.69102e-01,2.36656e-01,9.27978e-01,-3.29037e-01,-1.55099e+00,-4.76508e-02,-3.43926e-02,-5.18902e-02,-1.11814e+00,2.03095e-01,7.88226e-02,1.55891e-01,-4.58820e-01,-1.97660e-01,6.98920e-01,-6.48973e-01,-1.17765e+00,
8.07563e-01,5.15800e-02,-2.89383e-01,-3.71394e-01,-1.61832e-01,2.62813e-02,1.15453e-01,-4.24959e-01,-3.46051e-01,4.08274e-01,1.80653e-01,-3.34177e-01,2.89972e-01,2.54792e-01,-6.65285e-01,1.34484e-01,-1.46696e+00,-2.10998e-02,3.82294e-01,-2.24541e-01,1.81044e-01,-4.44706e+00,-1.97392e-01,-2.06914e-01,-7.68478e-01,-7.60686e+00,2.51329e-01,-3.21942e+00,3.53809e-01,3.99184e-01,-3.04057e-01,2.11961e-01,-1.36516e-01,7.92983e-02,1.15339e-01,-9.85679e-03,2.56415e-01,-3.70773e-01,2.12693e-01,1.69809e-01,2.99668e-01,-6.85708e-01,2.25704e-01,5.33913e-01,-2.36803e-01,2.25031e-01,4.02066e-01,1.15548e-01,3.68809e-01,-1.16680e+01,
7.36317e-01,-6.86123e-02,-1.66070e-01,6.93246e-02,-1.69729e-01,1.21097e-02,1.20173e-01,1.19459e-01,2.19296e-01,-2.69224e-01,2.68383e-01,1.42837e-01,1.43964e-01,5.53447e-01,3.08718e-01,2.38028e-01,-4.16966e-02,7.07068e-01,-8.43754e-02,-5.23425e-02,4.60021e-01,2.18169e-01,-3.08174e-01,1.73284e-01,9.22711e-01,-3.96018e-01,-2.22074e-01,-3.00544e-01,-7.58762e-01,2.20426e-01,-1.45216e-02,9.17861e-02,-1.80354e-01,2.14700e-01,-1.65204e-01,-3.70086e-01,6.46364e-02,-1.87682e-01,-1.55527e-02,-1.56472e-01,-2.53844e-01,6.66898e-02,-2.64785e-01,3.43669e-01,8.04728e-01,-2.44723e-01,-4.67827e-02,-6.24020e-01,3.52485e-01,-6.31866e-02,
8.74462e-02,-2.87738e-02,3.74544e-02,3.24407e-01,8.68393e-02,-8.34485e-01,-1.42289e-01,-3.19462e-02,-5.14728e-01,-6.37356e-01,-2.00183e-01,-1.06386e-01,8.51088e-02,-6.53774e-02,6.81849e-02,3.53745e-02,2.44629e-01,1.46036e-01,-4.52137e+00,5.19041e-02,2.28381e-01,-1.18115e+00,3.45233e-01,6.13014e-01,1.68950e+00,-4.13792e-01,2.29965e-01,-5.02199e-01,-7.52389e-01,5.43419e-01,-6.88355e-02,-5.41976e-01,-5.61585e-03,3.60902e-01,7.16517e-01,-6.54641e-02,-4.03599e-01,-1.84087e-01,-6.46724e-02,-1.45579e-01,-4.47049e-01,4.14513e-01,-1.23578e-02,9.00686e-01,-4.14973e-01,-9.33857e-01,-1.19901e+00,-3.53357e-02,-7.84517e-01,2.34505e-01,
-9.70257e-01,-1.38161e-01,-3.90557e+00,2.21785e-02,-3.79005e-02,5.51962e-02,-5.30705e-01,1.18010e-01,-2.72617e-01,-3.15869e-01,-7.31664e-01,5.20744e-02,-1.97521e-01,-1.37009e-01,7.21835e-01,1.51642e-01,-3.81077e-01,3.21893e-01,3.96778e-02,-2.65399e-01,-4.12273e-01,-5.94002e-01,-3.52909e-01,-2.26859e-01,-3.20981e-01,-1.41747e+00,-1.65406e-02,-2.11361e+00,7.90785e-01,-5.49354e-01,3.72457e-01,-1.20699e-01,1.77563e-01,5.81288e-01,-1.84849e-01,4.06397e-01,1.76696e-01,1.00523e-01,-2.69291e-01,-3.04750e-01,-4.69727e-01,1.86171e-01,-2.41933e-01,5.33100e-01,5.90799e-01,2.75008e-01,-2.98075e+00,8.90901e-02,1.35969e-01,7.95780e-02,
6.10539e-02,-6.74477e-02,5.93333e-02,-1.76474e-01,4.86336e-02,-2.09710e-01,-1.59397e-01,-7.78235e-01,1.31174e-01,-1.24142e-01,2.21106e-01,-2.30944e-01,-1.32559e-01,-2.45212e-01,5.84160e-01,2.34882e-01,-2.03937e-02,-8.45933e-02,1.61373e-01,3.42061e-01,9.97966e-02,7.67300e-01,4.10144e-01,1.97142e-01,2.38602e-01,2.97919e-01,2.73843e-02,-8.34522e-02,-1.67295e-01,1.85958e-01,-1.68206e-01,1.15745e-01,1.95527e-01,2.16954e-01,-6.25433e-01,1.45110e-01,-1.15352e-01,-1.84472e-01,8.51606e-02,1.84028e-01,5.81662e-01,-3.57876e-01,-2.91121e-01,-2.06046e-01,-2.23571e-01,3.72711e-01,5.05138e-01,8.15708e-03,-7.20168e-01,-5.49469e-02,
2.42781e-01,7.99472e-01,-7.58162e-01,-1.52107e+00,6.51353e-01,-4.97131e+00,9.07662e-01,-1.92067e+00,-7.63109e-01,-5.40351e-01,4.41103e-01,-7.81118e-01,-3.92632e-01,-1.97003e-02,-1.56405e-01,1.55268e-02,1.20903e+00,-6.48016e-01,2.58146e-01,-8.25488e-01,1.61073e-02,2.25467e+00,9.72512e-02,-2.31775e+00,-1.82998e-01,5.61139e-01,3.37146e-01,1.52746e-02,-2.14801e-01,-5.87341e+00,-2.30938e-01,-1.29303e+00,-1.40843e-01,-4.51987e-01,-7.20143e-01,9.74288e-01,-1.69327e+00,-5.77916e-01,1.09578e-02,2.17872e-01,-1.43525e+00,-9.24413e-01,1.14075e-01,-7.65115e-01,7.35817e-03,3.39778e-01,2.31684e-01,2.54682e-01,4.24706e-01,-2.28057e-01,
8.78512e-01,1.96528e-01,2.46364e-01,-7.31249e-01,-5.78649e-01,-3.43024e-03,-4.59111e-01,-1.70324e-02,-9.76386e-01,7.39597e-01,-2.96664e-01,-2.18155e-01,-2.05221e-01,-1.88604e-02,-6.52183e-01,6.47732e-02,6.73667e-02,-8.87273e-02,-1.24832e-01,1.79161e-02,1.61550e-01,3.01809e+00,-1.40481e-01,-8.59970e-02,6.21373e-01,2.84760e-01,1.95052e-01,-1.58184e-01,-3.33660e-01,-6.38298e-02,2.05449e-01,-1.00197e+00,-1.39953e-01,1.09900e-01,6.72686e-03,2.80694e-01,-3.63486e-01,-6.90376e-02,-2.46485e-01,4.47167e-01,1.23518e+00,-1.14042e+00,2.02317e+00,-6.52887e-01,9.96822e-01,1.68326e-01,8.94307e-01,-7.06904e-01,-1.88858e-01,2.77769e-01,
-8.21489e-01,4.24948e-01,-2.71002e-01,-6.89660e-02,-5.03196e-02,-1.33203e+00,5.04977e-01,-5.57025e-02,-1.13362e+00,1.30962e-01,-5.37158e-01,1.72208e-01,3.49153e-01,8.95728e-01,-1.98343e-01,-1.80986e-01,-8.72964e-01,-2.88477e-01,-7.89304e-01,-1.19405e-01,-1.59097e-01,-8.02894e+00,2.53851e-02,-5.65512e-01,-5.14699e+00,7.48797e-01,-5.80134e-02,-8.64647e-01,-2.86077e-01,-4.67392e-01,1.95388e-02,-4.38784e-02,-4.23131e-02,1.81619e-01,6.93123e-01,-8.43846e-01,-2.89061e-01,2.03946e-01,-6.19589e-01,5.81502e-03,-2.28240e-02,-8.46039e-02,-3.11631e+00,1.17291e-01,-2.99261e-01,-5.27123e-02,-2.67059e+00,7.48853e-01,-2.50970e-01,-2.98031e-02,
-9.30999e-01,4.26149e-01,-3.13149e-02,-2.13832e-01,2.99559e-02,-3.82757e-01,5.40753e-02,-7.59507e-01,-8.69902e-02,-7.20263e-02,1.92327e-02,7.95749e-03,6.31066e-02,4.64371e-01,-3.73422e-01,1.27713e-01,7.87439e-01,-1.83964e-01,-6.08783e-02,1.70463e-01,-3.52357e-01,4.76026e-01,-4.54101e-01,-2.82516e-01,1.34052e-01,-1.30170e-02,3.92594e-01,1.64636e-01,-4.24714e-02,3.32275e-01,-4.13123e-01,-4.01179e-01,8.85695e-03,1.84434e-01,4.78035e-01,4.18470e-01,-4.94306e-01,-1.22469e-01,1.08222e-01,5.89212e-01,9.36392e-01,-8.14730e-01,-6.93822e-01,8.07304e-02,-3.28870e-01,4.05671e-02,-1.34861e-02,7.04719e-02,2.16845e-01,-2.07851e-01,
-2.98757e+00,-8.53513e-03,-3.48167e-02,-1.43964e-01,-1.62672e-01,-3.75117e-01,1.47568e-01,1.47558e-01,-5.30368e-01,-1.19697e-01,-8.91311e-02,1.16056e-01,2.06846e-01,4.32895e-01,-1.58631e-01,-9.71595e-02,8.11847e-03,5.49623e-02,-5.33629e-02,-6.74312e-01,7.79922e-02,-5.58399e-01,-6.68462e-05,-2.29070e-01,-8.07304e-01,3.03162e-02,-1.65539e-01,-4.72056e-02,4.57949e-01,-1.69596e-01,-3.85701e-01,1.66133e-01,3.70068e-02,3.90573e-01,1.65193e-01,1.70153e-01,-2.07389e-01,4.05254e-01,1.49164e-01,1.06762e-01,-4.90076e-01,-9.82159e-02,-2.47080e-02,2.46122e-01,2.42144e-02,2.32597e-01,4.65460e-01,4.97029e-01,-1.91414e-01,-5.47745e-02,
5.02784e-02,2.18181e-02,1.28450e-01,4.08852e-02,2.06225e-02,-3.24208e-01,-9.89058e-02,-1.31344e-01,-3.12573e-01,2.65636e-01,-2.30795e-01,-3.20420e-01,3.13524e-02,2.42300e-01,1.80281e-01,-1.91818e-01,8.33792e-02,-2.32268e-01,-2.47483e-01,2.09849e-01,-5.21522e-01,-2.15475e-01,8.35385e-02,-5.76943e-02,-5.86109e-01,3.11755e-01,-2.44400e-01,2.64469e-01,-6.20638e-01,-1.92984e-01,1.32162e-01,-7.04761e-02,-7.24994e-02,-2.22599e-01,1.39647e-01,2.80172e-01,-1.56873e-01,-1.26352e-01,6.37055e-02,4.06876e-02,-7.89878e-02,9.80113e-02,-2.77615e-01,-1.72284e-01,-2.28164e-01,1.13794e-01,-4.47808e-01,1.30307e-01,2.96219e-01,-1.92911e-01,
7.05945e-02,3.95684e-01,-2.45069e-01,5.36904e-02,6.75225e-02,-1.26620e-01,6.04256e-02,-4.03065e-01,-1.00239e-01,6.40894e-02,8.84554e-02,-1.01236e-01,-6.22451e-02,3.60957e-01,-2.46592e-01,-2.00380e-01,3.92062e-01,-1.06013e-01,-1.16028e-01,-5.99000e-02,7.36381e-02,-2.34250e+00,5.42706e-01,2.59461e-01,4.85841e-01,3.25826e-01,-2.13279e-01,2.94853e-01,-8.61247e-02,-5.94382e-02,-6.36188e-01,-3.45114e-01,1.68364e-01,4.70322e-01,-3.74274e-01,3.28034e-01,-2.97409e-01,-3.36719e-01,-4.55242e-02,3.97681e-01,1.22994e-01,-6.19135e-01,-5.85672e-01,1.75649e-01,6.07222e-01,-2.45525e-01,2.83232e-01,1.85914e-01,1.15420e-01,-3.95307e-01,
4.73446e-01,-8.86943e-02,6.57409e-01,-4.16281e-01,-4.76697e-02,-5.42477e-01,2.80954e-01,8.47715e-02,-1.11667e+00,-5.57209e-02,-3.22997e-01,-1.15837e+00,-4.62654e-01,4.42294e-01,9.51368e-01,5.53560e-02,-2.16979e-01,5.52475e-02,-8.42592e-01,-7.64813e-02,-6.50723e-01,1.13126e+00,-5.51034e-01,1.91758e+00,9.73711e-01,-1.01575e+01,-1.63678e+00,5.74441e-01,1.38973e-01,1.27410e+00,-2.26565e-01,4.61128e-01,8.64162e-02,-3.23449e-01,-1.33527e+00,-3.97421e-01,-1.60944e+00,-4.60383e+00,-1.84174e-01,2.07976e-02,5.31328e-01,1.47333e-01,-2.56952e-01,-8.12045e-01,1.02071e+00,6.96950e-01,-7.00615e-01,-2.48524e-01,1.13163e+00,-7.91668e-01,
7.87153e-01,
6.49841e-03,
1.17127e-01,
-2.17171e-01,
-1.88377e+00,
1.78210e-01,
-1.36073e-01,
9.02078e-01,
-3.55098e-01,
-4.47372e-01,
1.39041e-01,
4.99266e-01,
-5.05416e-01,
9.20999e-03,
4.76473e-01,
1.31940e-01,
-1.82056e+00,
-1.06341e+00,
3.79402e-01,
-2.13385e+00,
-3.29260e-01,
1.14698e+00,
8.12125e-01,
1.00670e+00,
7.96069e-01,
-4.86201e-01,
-1.01553e+00,
-5.10544e-02,
3.32703e-02,
-1.87131e-01,
-2.73568e-01,
-4.78032e-02,
-1.67806e-01,
2.60200e-02,
-3.55498e+00,
-2.20050e+00,
-3.87422e-01,
-4.38058e-01,
